tree
version=v4
num_class=1
num_tree_per_iteration=1
label_index=0
max_feature_idx=43
objective=regression
feature_names=Column_0 Column_1 Column_2 Column_3 Column_4 Column_5 Column_6 Column_7 Column_8 Column_9 Column_10 Column_11 Column_12 Column_13 Column_14 Column_15 Column_16 Column_17 Column_18 Column_19 Column_20 Column_21 Column_22 Column_23 Column_24 Column_25 Column_26 Column_27 Column_28 Column_29 Column_30 Column_31 Column_32 Column_33 Column_34 Column_35 Column_36 Column_37 Column_38 Column_39 Column_40 Column_41 Column_42 Column_43
feature_infos=[2.7104601860046387:53.085189819335938] [3.0000433921813965:53.179416656494141] [2.3680033683776855:52.990966796875] [1.131714940071106:51.227664947509766] [0.30076667666435242:47.982414245605469] [0.04651235044002533:5.3894152641296387] [0.0095564322546124458:1.0674921274185181] [1.03141188621521:3.4232673645019531] [-0.99950522184371948:0.99975532293319702] [-0.99981725215911865:0.99979323148727417] [0.38851994276046753:63.677791595458984] [7.2638754844665527:32.852634429931641] [19.187383651733398:99.993667602539062] [948.951171875:1018.5863647460938] [-0.69778424501419067:2.6352179050445557] [1.0909414291381836:1.2565940618515015] [0:1] [0.42454749345779419:53.085189819335938] [0.38694500923156738:53.085189819335938] [0.25336998701095581:53.085189819335938] [0.17867833375930786:53.085189819335938] [0.17867833375930786:53.085189819335938] [0.17867833375930786:53.085189819335938] [1.1219303806622822:51.051615397135414] [0.02549734145034931:8.4700847092615792] [0.24899999797344208:49.778865814208984] [2.7104601860046387:53.085189819335938] [-4.4357626642499648:3.4002030781337189] [1.1462504847182169:46.018431133694122] [0.10087023538798497:10.654542622082111] [0.17867833375930786:39.900077819824219] [2.7844674587249756:53.085189819335938] [-1.8773856989739477:1.2813510188623356] [1.0232184198167589:41.533854166666664] [0.16405369063560041:14.267250130046298] [0.17867833375930786:35.405460357666016] [2.7844674587249756:53.085189819335938] [-1.3090514823123141:0.78027959937754743] [-21.36829948425293:15.780830383300781] [-30.632476806640625:21.313783645629883] [-1:1] [-1:1] [-0.9999994220246925:0.99998555065071859] [-0.99997919295908233:0.9999907524084426]
tree_sizes=4323 4555 4540 4537 4549 4535 4581 4559 4578 4565 4552 4583 4568 4572 4577 4568 4592 4605 4586 4600 4582 4612 4606 4613 4598 4630 4610 4613 4606 4631 4640 4621 4645 4624 4610 4612 4629 4626 4630 4645 4638 4646 4608 4636 4627 4625 4655 4615 4630 4635 4663 4643 4645 4614 4636 4633 4616 4632 4654 4673 4656 4657 4649 4661 4678 4691 4647 4629 4651 4675 4681 4657 4659 4665 4637 4669 4656 4655 4642 4662 4684 4669 4649 4635 4642 4637 4651 4659 4639 4644 4651 4601 4629 4631 4680 4615 4597 4665 4622 4654 4634 4676 4652 4626 4644 4655 4647 4670 4653 4651 4653 4623 4613 4623 4639 4653 4635 4605 4657 4663 4622 4661 4654 4615 4636 4677 4669 4665 4629 4642 4623 4611 4644 4662 4626 4654 4621 4609 4627 4615 4611 4646 4648 4652 4635 4640 4622 4630 4570 4609 4629 4577 4640 4598 4624 4632 4639 4621 4615 4589 4619 4618 4644 4613 4627 4608 4620 4663 4616 4644 4642 4640 4607 4589 4600 4602 4615 4616 4607 4592 4618 4599 4607 4637 4628 4611 4579 4602 4619 4618 4655 4614 4624 4649 4608 4572 4629 4631 4619 4605 4632 4615 4598 4628 4584 4609 4615 4629 4631 4606 4588 4602 4597

Tree=0
num_leaves=48
num_cat=0
split_feature=2 1 3 0 2 0 2 3 26 1 0 1 2 0 2 19 3 3 4 9 41 7 41 41 7 7 41 9 8 7 8 41 41 7 41 8 5 25 9 15 3 9 2 0 3 2 30
split_gain=14203.1 1052.21 849.828 290.27 125.453 119.347 76.8747 64.9066 17.4697 16.4782 13.2284 13.2009 11.7837 10.4652 9.33478 9.24536 6.44021 5.4656 4.17517 3.50702 3.12674 3.10802 2.94952 2.81177 2.77067 2.62434 2.54239 2.53064 2.31195 2.26856 2.13257 2.11332 2.0207 1.88732 1.84624 1.84522 1.82423 1.7317 1.72773 1.70971 1.63229 1.61023 1.57433 1.5334 1.45597 1.4324 1.34075
threshold=8.4145588874816912 6.3007547855377206 10.064591884613039 25.324028015136722 7.4098966121673593 5.0399622917175302 9.3180718421936053 11.474192142486574 24.996820449829105 6.8531281948089608 5.6484282016754159 4.1398115158081064 7.7947707176208505 9.8596758842468279 8.8799762725830096 25.324028015136722 10.632433891296388 12.551308631896974 22.628683090209964 0.78724345564842235 -0.4421834374878667 1.5336449146270754 -0.46174861323503363 -0.65918890865109969 1.3602568507194521 1.4036214351654055 -0.51864980417341189 0.7393837869167329 -0.26195740699768061 1.1353833079338076 -0.85647657513618458 -0.72219205899833583 -0.46174861323503363 1.3667082786560061 -0.46174861323503363 0.61389759182930004 0.69391202926635753 10.285511493682863 0.59735873341560375 1.1623431444168093 9.0031867027282733 0.79848647117614757 5.9290301799774179 7.1716132164001474 22.843208312988285 8.0491657257080096 4.1869573593139657
decision_type=2 2 2 2 2 2 2 2 2 2 2 2 2 2 2 2 2 2 2 2 2 2 2 2 2 2 2 2 2 2 2 2 2 2 2 2 2 2 2 2 2 2 2 2 2 2 2
left_child=1 5 6 7 9 11 14 16 17 21 33 36 34 23 20 -5 -4 -9 -10 45 41 32 30 40 42 -13 -21 -16 -25 -20 -11 -29 -3 -7 -6 -17 -1 39 -22 -15 -8 -2 -12 -24 -19 -14 -18
right_child=2 4 3 15 12 10 13 8 18 22 24 25 19 37 27 35 46 44 29 26 38 -23 43 28 -26 -27 -28 31 -30 -31 -32 -33 -34 -35 -36 -37 -38 -39 -40 -41 -42 -43 -44 -45 -46 -47 -48
leaf_value=0.49587995787693573 0.52272921035739006 0.50855125122226841 0.53656407664579797 0.51618669875892065 0.51630720539533959 0.50072092586230388 0.52750846011653763 0.54191470624465754 0.53903368386344219 0.50969416184776839 0.50266784794165409 0.49800774570202022 0.51644212119202437 0.53156416876697976 0.52467465344825615 0.49732396368165621 0.5347144639589605 0.54378600334701432 0.53336402980463471 0.52233620827022531 0.51954354416148962 0.51189873583940282 0.50947155173252789 0.52417351943850599 0.50606898315324711 0.50045615207816596 0.51865456519299735 0.53060280431175888 0.52909964477736637 0.52390028150713519 0.51355442949405028 0.52638801481949116 0.50651802599263385 0.50289687018501028 0.51400520168692143 0.50540965000369042 0.49839131053714969 0.53587799401072622 0.52232187951665054 0.53391341646740009 0.53265969432293148 0.52619231973788594 0.50434622575147825 0.51161686192657152 0.54105807258060967 0.51842899092178596 0.53964390028626597
leaf_weight=14095 753 1876 3296 109 1393 6150 195 5114 200 461 2665 10404 1584 1572 1700 266 158 26998 150 812 896 379 2103 267 1468 1321 1107 401 2416 111 1657 1190 3847 1297 2356 107 863 544 1488 1644 840 609 3389 1434 576 2128 4511
leaf_count=14095 753 1876 3296 109 1393 6150 195 5114 200 461 2665 10404 1584 1572 1700 266 158 26998 150 812 896 379 2103 267 1468 1321 1107 401 2416 111 1657 1190 3847 1297 2356 107 863 544 1488 1644 840 609 3389 1434 576 2128 4511
internal_value=0.519968 0.503631 0.538248 0.541883 0.512718 0.499021 0.527831 0.542335 0.54331 0.509277 0.502597 0.497015 0.517031 0.53136 0.524079 0.503334 0.538276 0.543446 0.533594 0.518477 0.522371 0.507474 0.511225 0.529473 0.504084 0.498282 0.520213 0.526021 0.528611 0.52937 0.51271 0.527456 0.507182 0.501098 0.514859 0.499598 0.496023 0.533223 0.521278 0.532769 0.531697 0.524281 0.503605 0.510339 0.54373 0.51758 0.53948
internal_weight=118900 62789 56111 41596 21137 41652 14515 41114 33149 11757 14969 26683 9380 7478 7037 482 7965 32688 461 5631 3746 6102 5655 3718 7522 11725 1919 3291 2683 261 2118 1591 5723 7447 3749 373 14958 3760 2384 3216 1035 1362 6054 3537 27574 3712 4669
internal_count=118900 62789 56111 41596 21137 41652 14515 41114 33149 11757 14969 26683 9380 7478 7037 482 7965 32688 461 5631 3746 6102 5655 3718 7522 11725 1919 3291 2683 261 2118 1591 5723 7447 3749 373 14958 3760 2384 3216 1035 1362 6054 3537 27574 3712 4669
is_linear=0
shrinkage=1


Tree=1
num_leaves=48
num_cat=0
split_feature=16 16 3 2 1 3 16 1 16 16 23 16 1 16 16 4 41 31 17 41 7 10 7 7 41 41 41 40 41 41 40 16 16 7 16 19 16 3 41 41 16 16 16 16 16 12 40
split_gain=13035.5 1024.57 729.695 138.255 109.397 60.8745 57.4737 15.0325 15.0212 14.1893 11.7797 11.2539 10.409 6.09919 6.07427 4.82036 3.41022 3.38318 12.6068 2.88638 2.79064 2.62726 2.56621 2.46925 2.3828 2.25508 2.18759 2.14456 2.11073 2.04973 2.0456 2.0022 1.87739 1.87231 1.77566 1.58511 1.49403 1.48568 1.46366 1.45554 1.40727 1.40275 1.3138 1.28417 1.25037 1.13299 1.12282
threshold=0.56891779108672214 0.21912811487973197 10.064591884613039 7.4098966121673593 5.1167657375335702 11.474192142486574 0.73816743199733792 6.8531281948089608 0.46318542864647311 0.051530443840079578 24.040244579315189 0.64275644144426014 5.8077964782714853 0.79541633615819285 0.92102965810890247 12.306900024414064 -0.40265084705289439 26.997517585754398 8.8734669685363787 -0.77969889170510653 1.5336449146270754 3.0043414831161503 1.448016405105591 1.3422465324401858 -0.55543802234893469 -0.65918890865109969 -0.46174861323503363 -0.51864980417341189 -0.51864980417341189 -0.46174861323503363 -0.3007057995042734 0.13537713689497463 0.028423169437595552 1.3667082786560061 0.502655293353241 8.6952042579650897 0.078449303451188168 9.4457726478576678 -0.32136297141497111 -0.4421834374878667 0.53177515896846861 0.25588704553360203 0.42446700245018171 0.6769468018190925 0.33149822209243057 82.872665405273452 -0.70710678118654735
decision_type=2 2 2 2 2 2 2 2 2 2 2 2 2 2 2 2 2 2 2 2 2 2 2 2 2 2 2 2 2 2 2 2 2 2 2 2 2 2 2 2 2 2 2 2 2 2 2
left_child=1 4 6 7 9 14 11 20 24 32 15 29 23 25 30 -7 34 18 33 -13 28 -12 36 31 -5 -8 45 -15 -3 -2 38 -6 -1 -14 -10 -16 -11 -29 -4 -22 -18 -30 -26 -21 -28 -9 -37
right_child=2 3 5 8 12 10 13 26 16 22 21 19 17 27 35 -17 40 -19 -20 43 39 -23 -24 -25 42 -27 44 37 41 -31 -32 -33 -34 -35 -36 46 -38 -39 -40 -41 -42 -43 -44 -45 -46 -47 -48
leaf_value=-0.023174679914302672 0.0044383459442788346 -0.010759180287531492 0.016039012273963923 -0.002829037612101893 -0.01874595139338317 0.021016678138839659 0.012049124050464903 -0.0052096798968692785 -0.00078249361142838881 -0.021122942774088427 0.017046578680632505 0.009062191461984009 -0.015280661322091771 0.010974641286493489 0.012667920915257248 0.022607315406194178 -0.0022731810174337632 -0.019557916530141096 -0.0016693071284527451 0.0046157322845147069 -0.0027437605851582279 0.008959813951514661 -0.017813126779197754 -0.015697424123080051 -0.0060589421745652862 0.0087525213743773669 -0.010054274049372263 0.011924498148735661 -0.013753711745162959 0.00183125843448214 0.017002638687899353 -0.016968251600174622 -0.022055595713967854 -0.012807283674125669 0.002228375459881604 0.017313606061845368 -0.01982287567193922 0.014633615920673998 0.013067313528249261 -0.009649417205616264 -0.00011928811939104997 -0.011886894913956506 -0.0040433135697209273 0.0066801772567687883 -0.0081252272135180267 -0.0078168731341987287 0.019202267520105929
leaf_weight=8643 1194 1850 838 1618 3440 6094 742 589 816 5610 268 987 4288 1004 121 26626 2289 341 189 1151 106 167 998 1706 1852 1817 1827 785 2083 2050 1658 3301 8007 984 1222 1217 4379 1644 916 281 1134 2129 1454 2247 1632 1507 3234
leaf_count=8643 1194 1850 838 1618 3440 6094 742 589 816 5610 268 987 4288 1004 121 26626 2289 341 189 1151 106 167 998 1706 1852 1817 1827 785 2083 2050 1658 3301 8007 984 1222 1217 4379 1644 916 281 1134 2129 1454 2247 1632 1507 3234
internal_value=1.09151e-05 -0.0152614 0.0179368 -0.00662646 -0.0198766 0.0212579 0.00790534 -0.0102808 -0.00240183 -0.0217123 0.0222027 0.00502589 -0.016315 0.01157 0.0173325 0.0223117 -0.00059593 -0.0146752 -0.0143667 0.00667757 -0.0119243 0.0139697 -0.0203076 -0.0174396 -0.00440415 0.00971273 -0.008371 0.0129512 -0.0121882 0.00279191 0.0157184 -0.0178781 -0.0226379 -0.0148215 0.00102305 0.0185333 -0.0205551 0.0137634 0.0144954 -0.00776989 -0.00155986 -0.0128132 -0.00517395 0.00598245 -0.00914674 -0.00708706 0.0186899
internal_weight=119035 64275 54760 22389 41886 41139 13621 12004 10385 27637 33155 7629 14249 5992 7984 32720 5461 5802 5461 4385 6449 435 10987 8447 4924 2559 5555 3433 6062 3244 3412 6741 16650 5272 2038 4572 9989 2429 1754 387 3423 4212 3306 3398 3459 2096 4451
internal_count=119035 64275 54760 22389 41886 41139 13621 12004 10385 27637 33155 7629 14249 5992 7984 32720 5461 5802 5461 4385 6449 435 10987 8447 4924 2559 5555 3433 6062 3244 3412 6741 16650 5272 2038 4572 9989 2429 1754 387 3423 4212 3306 3398 3459 2096 4451
is_linear=0
shrinkage=0.05


Tree=2
num_leaves=48
num_cat=0
split_feature=16 16 16 16 0 16 3 16 0 16 23 16 3 16 3 4 41 41 6 36 18 23 41 41 40 40 5 41 4 6 41 8 5 8 40 5 3 16 16 5 16 40 4 19 2 37 8
split_gain=11799.7 930.696 658.698 122.782 99.2687 52.1696 51.2506 15.341 12.8529 12.2881 11.0577 9.46313 8.29538 7.58582 4.96016 3.54 3.46146 2.88384 2.63946 2.55852 6.31486 4.18675 2.45404 2.38358 2.34447 2.29929 2.17743 2.03584 1.90504 2.05988 1.82637 1.74328 1.64114 1.63639 1.62849 1.62364 1.54451 1.50604 1.49182 1.47131 1.44539 1.38203 1.35273 1.31326 1.19411 1.10034 1.0529
threshold=0.56891779108672214 0.21912811487973197 0.86775488897568287 0.37455308054371639 4.9677791595458993 0.72264421694414549 11.568833351135256 0.46951871300227038 5.5730142593383798 0.30871435606052239 24.040244579315189 0.045195388236828039 9.6711506843566912 0.64275644144426014 10.799758434295656 12.306900024414064 -0.46174861323503363 -0.40265084705289439 0.20993262529373172 27.873975753784183 9.654912471771242 25.147317250569667 -0.46174861323503363 -0.55543802234893469 -0.5 -0.60876142900872077 1.2270728945732119 -0.59116893267988335 22.628683090209964 0.058065835386514671 -0.55543802234893469 -0.88317307829856861 0.61253753304481517 -0.88317307829856861 -0.70710678118654735 0.94042208790779125 9.221870422363283 0.18361939293907412 0.42446700245018171 0.89036399126052868 0.25588704553360203 -0.75166088996455094 8.3935041427612322 8.1498370170593279 6.6716735363006601 0.021387094734871877 -0.29809938371181482
decision_type=2 2 2 2 2 2 2 2 2 2 2 2 2 2 2 2 2 2 2 2 2 2 2 2 2 2 2 2 2 2 2 2 2 2 2 2 2 2 2 2 2 2 2 2 2 2 2
left_child=1 4 5 9 11 13 14 23 35 16 15 32 24 22 34 -8 18 31 44 20 26 -22 -2 33 -7 -14 37 42 -12 -30 -11 -9 -1 -5 -4 -6 -26 -10 -25 -13 -18 -19 -15 -36 -3 -21 -29
right_child=2 3 6 7 8 12 10 17 19 30 28 39 25 27 -16 -17 40 41 -20 45 21 -23 -24 38 36 -27 -28 46 29 -31 -32 -33 -34 -35 43 -37 -38 -39 -40 -41 -42 -43 -44 -45 -46 -47 -48
leaf_value=-0.021795340168721224 0.0046049134049043023 -0.010758790491349002 0.013582707820835425 -0.0062374304747839365 -0.017620449454751486 0.007459146466792352 0.020053299508597907 -0.0039013106800853286 -0.015496367743924237 -0.0061521255859731151 0.016610913032285519 -0.01984383326276359 0.010861784975342901 0.005406086466926887 0.017904357919007862 0.021471162282676131 -0.012736899421955876 -0.0029084261365474105 -0.0030276681436972514 -0.015240414875453308 0.00059376592383436535 -0.012287201313301922 0.0017425101683181178 -0.0059139074503919316 0.0088531615091027461 0.013820437154611532 -0.011894834843430242 0.0020758034223642124 0.014778862375588646 0.00506465329267716 -0.0083535145236691508 0.0016178843190831596 -0.019818992165477764 -0.0020515033562106661 0.010182180724079067 -0.015334696915252992 0.011299617897651498 -0.014010425714924732 -0.0038834878291003176 -0.017513703231956137 -0.010994419334838657 -0.00063118266504221161 0.0090593564310003961 0.016203398108202493 -0.0084306141429345647 -0.022080417203583891 0.0056168893988771595
leaf_weight=13991 1170 1478 967 276 6559 1317 5590 155 4027 1415 190 9744 1072 388 4256 26814 2151 942 151 113 114 140 2083 1895 1347 1820 719 233 104 117 2925 1732 1276 1502 100 955 1300 3269 1751 810 2900 2273 765 2918 923 160 2271
leaf_count=13991 1170 1478 967 276 6559 1317 5590 155 4027 1415 190 9744 1072 388 4256 26814 2151 942 151 113 114 140 2083 1895 1347 1820 719 233 104 117 2925 1732 1276 1502 100 955 1300 3269 1751 810 2900 2273 765 2918 923 160 2271
internal_value=1.84341e-05 -0.014504 0.0170637 -0.00629423 -0.0189086 0.00759797 0.0202373 -0.00235685 -0.0158189 -0.00976396 0.0211235 -0.0208292 0.010688 0.00453096 0.0167063 0.0212272 -0.0109767 -0.000388549 -0.00946429 -0.014486 -0.0143243 -0.00652632 0.00277312 -0.00420789 0.00919698 0.0127279 -0.0145706 0.00609342 0.0129177 0.00968203 -0.00763736 0.00116271 -0.0216315 -0.00270443 0.0154225 -0.017332 0.0100585 -0.0148326 -0.00494013 -0.0196667 -0.0117388 -0.00129912 0.00783573 0.0160073 -0.00986767 -0.0193152 0.00528835
internal_weight=119168 64346 54822 22469 41877 13766 41056 10526 16056 11943 32815 25821 6856 6910 8241 32404 7603 5102 2552 8542 8269 254 3253 5424 3964 2892 8015 3657 411 221 4340 1887 15267 1778 3985 7514 2647 7296 3646 10554 5051 3215 1153 3018 2401 273 2504
internal_count=119168 64346 54822 22469 41877 13766 41056 10526 16056 11943 32815 25821 6856 6910 8241 32404 7603 5102 2552 8542 8269 254 3253 5424 3964 2892 8015 3657 411 221 4340 1887 15267 1778 3985 7514 2647 7296 3646 10554 5051 3215 1153 3018 2401 273 2504
is_linear=0
shrinkage=0.05


Tree=3
num_leaves=48
num_cat=0
split_feature=16 16 3 16 1 16 3 16 1 25 2 16 16 16 16 4 7 16 40 4 7 5 4 26 21 40 14 7 5 40 16 7 40 4 7 8 40 3 33 7 40 16 3 7 16 16 40
split_gain=10652.6 810.783 617.186 107.168 89.4314 54.5522 42.0618 13.4271 11.1722 9.50427 9.46736 9.33002 8.95349 7.53622 4.20119 3.31328 2.76756 2.46676 2.25908 2.23574 2.23494 2.67284 3.3963 4.80307 4.57144 2.1508 2.14191 2.12233 2.0354 1.89875 1.74167 1.65278 1.5573 2.1538 1.47803 1.4471 1.40576 1.70287 1.3994 1.35848 1.33166 1.27782 1.24649 1.2299 1.22639 1.20466 1.19361
threshold=0.56091640741534732 0.21912811487973197 10.148758888244631 0.36278088988435536 5.0780522823333749 0.71497136610460343 11.568833351135256 0.46951871300227038 4.2811350822448739 23.17011642456055 5.6127090454101571 0.29051481469853424 0.80453983687562514 0.64275644144426014 0.92102965810890247 12.306900024414064 1.4914354681968691 0.41843637252662663 -0.53729960834682411 8.6725454330444354 1.4381232261657717 1.8692965507507326 6.2691233158111581 26.218833923339847 22.027012825012211 -0.64278760968653914 0.18329771608114245 1.3602568507194521 1.5562625527381899 -0.36235178784537903 0.030712222010170952 1.4381232261657717 -0.53729960834682411 7.5393981933593759 1.2651984691619875 0.59880775213241588 -0.17364817766693016 8.6668968200683612 8.0661878585815447 1.4119341373443606 -0.65918890865109958 0.25588704553360203 5.497666835784913 1.4036214351654055 0.31313546911483209 0.18057233756787719 -0.64278760968653914
decision_type=2 2 2 2 2 2 2 2 2 2 2 2 2 2 2 2 2 2 2 2 2 2 2 2 2 2 2 2 2 2 2 2 2 2 2 2 2 2 2 2 2 2 2 2 2 2 2
left_child=1 4 5 11 8 13 14 17 30 15 34 16 18 32 46 -8 41 43 -7 -20 21 22 45 24 -24 -9 -27 -10 -11 -14 -1 44 -2 -34 -6 -25 -15 -38 -28 -40 -19 -3 -18 -5 -13 -12 -4
right_child=2 3 6 7 10 12 9 25 27 28 20 31 29 36 -16 -17 42 40 19 -21 -22 -23 23 35 -26 26 38 -29 -30 -31 -32 -33 33 -35 -36 -37 37 -39 39 -41 -42 -43 -44 -45 -46 -47 -48
leaf_value=-0.02089647503824715 0.00094743822263242637 -0.011882883250732591 0.013058218358821649 -0.005439502752758717 -0.016691490390381879 0.0069022885439914174 0.019031269283692143 -0.0022728749258872794 -0.0186560091494774 0.01537408728222802 -0.014872244748466623 -0.0093829543891401617 0.010382169004125211 0.0046375596340372536 0.016890141717410222 0.020397285357015581 -0.0085972700538637977 -0.0048745557581677708 0.0077606036765263779 0.010775954458988928 -0.011407466157037527 -0.020660720226044458 -0.011242252706041084 -0.018022572054547378 0.002419464114922075 0.0012254101667436971 -0.0028279144789174707 -0.016604907750119694 0.0082299417805015342 0.012862136323783328 -0.019818280934744567 -0.0054048514344741706 0.0014888270726056019 0.004511013203720121 -0.0150007291526893 -0.010009282610144069 0.0051481795660585613 0.0083684944767520725 -0.0007018141412988314 0.0051049833008437427 -0.0024225143211775721 -0.010349396958919231 -0.0025891058258028753 -0.0025371420592561647 -0.0076255422776087397 -0.013453352470181751 0.015239996136787282
leaf_weight=9780 1232 2977 1032 2788 4748 1417 5638 1307 8778 264 3016 1573 1223 1567 4989 26735 452 744 1141 1377 1009 149 128 141 116 1903 749 1582 167 2269 7073 585 1082 1298 1953 102 843 815 626 119 2179 2682 108 423 2855 3383 1913
leaf_count=9780 1232 2977 1032 2788 4748 1417 5638 1307 8778 264 3016 1573 1223 1567 4989 26735 452 744 1141 1377 1009 149 128 141 116 1903 749 1582 167 2269 7073 585 1082 1298 1953 102 843 815 626 119 2179 2682 108 423 2855 3383 1913
internal_value=-2.09756e-06 -0.0138655 0.0161363 -0.00610726 -0.0179462 0.00718472 0.0192704 -0.00255995 -0.0196461 0.0200615 -0.0148076 -0.0095296 0.0101513 0.00396108 0.0159975 0.02016 -0.010825 -0.00410092 0.00851101 0.00941321 -0.013645 -0.0139642 -0.0138163 -0.00974864 -0.00476397 -0.000550078 0.000113245 -0.0183444 0.0126314 0.0119968 -0.0204452 -0.00792073 0.00239147 0.00313826 -0.016201 -0.0147138 0.00571775 0.00673524 -0.00130326 0.000231314 -0.00304809 -0.0111581 -0.00744523 -0.00505807 -0.00825182 -0.0141243 0.0144801
internal_weight=119030 64028 55002 22070 41958 14264 40738 10838 27213 32804 14745 11232 7427 6837 7934 32373 6219 6134 3935 2518 8044 7035 6886 487 244 4704 3397 10360 431 3492 16853 5013 3612 2380 6701 243 3225 1658 1494 745 2923 5659 560 3211 4428 6399 2945
internal_count=119030 64028 55002 22070 41958 14264 40738 10838 27213 32804 14745 11232 7427 6837 7934 32373 6219 6134 3935 2518 8044 7035 6886 487 244 4704 3397 10360 431 3492 16853 5013 3612 2380 6701 243 3225 1658 1494 745 2923 5659 560 3211 4428 6399 2945
is_linear=0
shrinkage=0.05


Tree=4
num_leaves=48
num_cat=0
split_feature=16 16 3 16 1 3 16 1 16 16 1 23 16 16 16 4 41 9 41 40 41 7 40 41 36 17 26 41 7 7 30 5 9 4 16 40 4 7 14 28 11 7 9 7 41 37 3
split_gain=9550.57 728.102 559.336 92.8623 81.0933 50.5915 40.7936 13.4316 9.6979 8.93408 8.53365 8.33931 7.13622 4.72973 4.50016 4.48955 2.95133 2.33734 2.30045 2.28001 2.27627 2.30132 2.2489 2.23928 2.11549 6.5999 4.94994 2.10111 1.92454 1.85071 1.84733 1.80304 1.69886 1.6748 1.64439 1.62185 1.58653 1.71196 1.52983 1.52638 1.44789 1.44711 1.39289 1.35634 1.26466 1.25926 1.12941
threshold=0.56091640741534732 0.21912811487973197 9.987741947174074 0.38692616054751139 5.0780522823333749 11.388199806213381 0.69973636951183249 6.8531281948089608 0.053108837842867171 0.48228530248702317 5.6526589393615732 24.040244579315189 0.77091835726568492 0.92102965810890247 0.64275644144426014 11.890108585357668 -0.55543802234893469 0.76836284995079052 -0.55543802234893469 -0.64278760968653914 -0.46174861323503363 1.4914354681968691 -0.57357643635104605 -0.46174861323503363 27.873975753784183 8.4113245010375994 26.218833923339847 -0.36235178784537897 1.448016405105591 1.5040235519409182 4.5726349353790292 0.41047215461730963 0.81949821114540111 6.5489790439605722 0.33149822209243057 -0.72219205899833561 22.628683090209964 1.1342474818229678 0.079980093985795989 7.7929811742570676 25.947624206542972 1.4119341373443606 0.62568733096122753 1.3422465324401858 -0.59116893267988335 0.021387094734871877 9.3694777488708514
decision_type=2 2 2 2 2 2 2 2 2 2 2 2 2 2 2 2 2 2 2 2 2 2 2 2 2 2 2 2 2 2 2 2 2 2 2 2 2 2 2 2 2 2 2 2 2 2 2
left_child=1 4 6 7 8 13 14 20 31 19 43 15 23 27 18 -7 41 -11 -2 -5 21 -3 -14 38 25 28 -27 -4 44 -10 -15 -1 -16 39 -18 -19 -13 -38 -8 -21 -29 -9 -20 -6 -12 -26 -24
right_child=2 3 5 9 10 11 12 16 29 17 24 36 22 30 32 -17 34 35 42 33 -22 -23 46 -25 45 26 -28 40 -30 -31 -32 -33 -34 -35 -36 -37 37 -39 -40 -41 -42 -43 -44 -45 -46 -47 -48
leaf_value=-0.019708120326887034 0.0040783063460192301 -0.0092494932147060473 0.014415631829850742 -0.0051198235540629786 -0.015658614414590002 0.017627420146042315 0.010391465928336667 -0.0058040630783580127 -0.017601109100693471 -0.001213907781221703 -0.012186910733798984 0.015453389185573419 0.008473371946506679 0.0094106486909707101 0.0040542344087051039 0.019326365989926306 -0.0087700882312878852 -0.0015465463193563606 -8.8148025059126673e-05 -0.0050712625381899405 -0.010853122210277392 -0.0022819893720225082 0.0097129765131214151 0.0062304288014135428 -0.012635926990154782 0.0026829740852917896 -0.011437913010952396 0.012690795446614264 -0.010736626729602265 -0.014635837243419866 0.015925959834667516 -0.018462397461568827 0.0067643668721085962 -0.0017578008008455048 -0.0067694928276690325 0.0021962495672521809 0.012906277883988227 0.0043138281639235531 0.0066407089310101617 -0.0022947941063202258 0.0089239849538509074 -0.0011055523317560646 0.0023625659842685083 -0.013868431664531056 -0.013779774172817944 -0.019849971404553138 0.011848678106795711
leaf_weight=12728 1207 1949 2009 1381 5637 4671 726 1891 9476 2433 1886 190 1147 117 1590 28537 1965 384 949 1078 4372 127 984 2107 105 119 128 1506 862 595 4018 4180 916 2045 2216 1167 136 103 448 920 321 180 1489 1414 4346 175 1877
leaf_count=12728 1207 1949 2009 1381 5637 4671 726 1891 9476 2433 1886 190 1147 117 1590 28537 1965 384 949 1078 4372 127 984 2107 105 119 128 1506 862 595 4018 4180 916 2045 2216 1167 136 103 448 920 321 180 1489 1414 4346 175 1877
internal_value=2.75985e-05 -0.0131447 0.0152843 -0.00581044 -0.0170374 0.0181487 0.00641566 -0.00859937 -0.0186651 -0.0020451 -0.0140433 0.0189981 0.00894603 0.0145623 0.00341617 0.0190879 -0.00694568 -0.00024714 0.00229377 -0.00336543 -0.0102015 -0.00882456 0.0103633 0.00721207 -0.0128771 -0.01271 -0.00465135 0.0132849 -0.0129899 -0.0174274 0.0157439 -0.0194013 0.00504715 -0.00276505 -0.00771161 0.0012692 0.0120195 0.00923666 0.00896704 -0.0037946 0.0120342 -0.00539642 0.00140897 -0.0153016 -0.0132998 -0.0171993 0.0111178
internal_weight=118807 63759 55048 22108 41651 41608 13440 12700 26979 9408 14672 33637 7289 7971 6151 33208 6252 3984 3645 5424 6448 2076 4008 3281 7621 7341 247 3836 7094 10071 4135 16908 2506 4043 4181 1551 429 239 1174 1998 1827 2071 2438 7051 6232 280 2861
internal_count=118807 63759 55048 22108 41651 41608 13440 12700 26979 9408 14672 33637 7289 7971 6151 33208 6252 3984 3645 5424 6448 2076 4008 3281 7621 7341 247 3836 7094 10071 4135 16908 2506 4043 4181 1551 429 239 1174 1998 1827 2071 2438 7051 6232 280 2861
is_linear=0
shrinkage=0.05


Tree=5
num_leaves=48
num_cat=0
split_feature=16 16 16 1 16 16 3 16 16 2 26 3 16 16 3 36 17 23 3 5 4 10 40 9 40 5 16 5 9 5 40 9 4 16 16 5 40 28 35 25 24 9 23 40 4 2 28
split_gain=8646 662.47 512.196 89.9157 70.789 43.8171 35.3004 12.14 10.3998 8.10899 7.8763 6.79023 6.24543 5.03038 3.59341 3.21245 4.67811 3.82473 2.68406 2.24043 2.21587 2.33496 2.19593 1.94869 1.94026 1.87959 1.70421 1.67401 1.66915 1.58933 1.5878 1.57307 1.49426 1.45405 1.35861 1.34873 1.32521 1.26635 1.25111 1.18697 1.17961 1.17731 1.16566 1.16462 1.48623 1.14353 1.12239
threshold=0.56091640741534732 0.23952143856633043 0.86775488897568287 5.225929021835328 0.39931871050538298 0.71497136610460343 11.568833351135256 0.059364107389699994 0.31313546911483209 5.9290301799774179 24.996820449829105 9.7434773445129412 0.49598348135847264 0.64275644144426014 10.716762065887453 27.873975753784183 8.3080959320068377 25.147317250569667 12.551308631896974 0.5873955786228181 22.628683090209964 2.8550643920898442 -0.17364817766693016 0.77062296867370617 -0.17364817766693016 0.70830675959587108 0.033807079961633728 1.3319969773292544 0.77267342805862438 1.2540585994720461 -0.70710678118654735 0.85597166419029247 6.5489790439605722 0.14448296822648179 0.27304931096037677 1.6659019589424136 -0.3007057995042734 7.7929811742570676 8.4864401817321795 8.0865979194641131 1.3743221893664315 -0.86088326573371876 8.0853183666865061 -0.17364817766693016 6.0928983688354501 23.527234077453617 9.303502268261381
decision_type=2 2 2 2 2 2 2 2 2 2 2 2 2 2 2 2 2 2 2 2 2 2 2 2 2 2 2 2 2 2 2 2 2 2 2 2 2 2 2 2 2 2 2 2 2 2 2
left_child=1 3 5 7 8 13 14 19 29 33 18 22 24 31 36 16 27 -18 -8 26 -12 -22 -7 -15 -6 -9 -1 -11 -14 34 -13 -2 37 -5 -3 43 -4 -26 -25 -33 -38 46 -30 -10 -45 -20 -24
right_child=2 4 6 9 12 11 10 25 35 15 20 30 28 23 -16 -17 17 -19 45 -21 21 -23 41 38 32 -27 -28 -29 42 -31 -32 39 -34 -35 -36 -37 40 -39 -40 -41 -42 -43 -44 44 -46 -47 -48
leaf_value=-0.01895370314450491 0.0015509189368304302 -0.010160177839184013 0.011961998042549708 -0.014492358903486388 -0.0037491043102753268 0.0067154169621054293 0.017057260702801936 -0.016516616702485349 -0.0070218668026523108 -0.01168178786287812 0.014876346862273356 0.009300943966518746 -0.0007973852281812655 0.003797088216684594 0.015336937497130738 -0.016631001491654428 0.0022666668129988528 -0.0099648841396234675 0.018434485863040504 -0.016735773001258576 0.012877081323740554 0.002279948568511232 0.0047813583045318332 0.0069989615559837882 -0.0042880493459029256 -0.014663762566118522 -0.017859455779342188 -0.0084430803014569709 0.0033549949412038007 -0.0068584507216376467 0.012025801091463055 0.0057491898675969266 -0.00070127835525511965 -0.013145596976294957 -0.0085503304639131441 -0.0019653038250637992 0.014361764312880963 -0.0014530612598727295 0.0033144130088894851 0.0022660006124941433 0.0098614628496820934 0.0094813237144184114 0.00025917530757411483 -0.0065979387475152522 -0.004367203275496139 0.016043537172722108 0.0091834401549745117
leaf_weight=10352 2642 2522 1398 3933 2360 2112 4660 8834 2228 5169 208 815 2027 1810 4636 281 115 142 27105 2029 102 106 306 1159 811 1727 6117 446 512 774 1699 459 1485 4544 2875 201 1913 768 291 527 168 2003 747 1532 1478 570 282
leaf_count=10352 2642 2522 1398 3933 2360 2112 4660 8834 2228 5169 208 815 2027 1810 4636 281 115 142 27105 2029 102 106 306 1159 811 1727 6117 446 512 774 1699 459 1485 4544 2875 201 1913 768 291 527 168 2003 747 1532 1478 570 282
internal_value=-5.35182e-06 -0.012496 0.0145389 -0.015965 -0.00503705 0.00632311 0.0173743 -0.017575 -0.00759303 -0.0127661 0.0181067 0.00904551 -0.00162957 0.00346978 0.0144169 -0.0113781 -0.0111239 -0.00450405 0.0181949 -0.0183505 0.0112217 0.00751337 0.00792029 0.00489516 -0.00267153 -0.016215 -0.0185484 -0.0114261 9.06231e-05 -0.00899873 0.0111465 0.00218797 -0.00184059 -0.0137721 -0.00930435 -0.00599678 0.0131867 -0.00291095 0.0062623 0.00389167 0.0140034 0.00889945 0.00151982 -0.00615107 -0.0055044 0.0183858 0.00690457
internal_weight=118980 64009 54971 43689 20320 14105 40866 29059 11610 14630 32751 7217 8710 6888 8115 6153 5872 257 32335 18498 416 208 4703 3260 5424 10561 16469 5615 3286 6171 2514 3628 3064 8477 5397 5439 3479 1579 1450 986 2081 2591 1259 5238 3010 27675 588
internal_count=118980 64009 54971 43689 20320 14105 40866 29059 11610 14630 32751 7217 8710 6888 8115 6153 5872 257 32335 18498 416 208 4703 3260 5424 10561 16469 5615 3286 6171 2514 3628 3064 8477 5397 5439 3479 1579 1450 986 2081 2591 1259 5238 3010 27675 588
is_linear=0
shrinkage=0.05


Tree=6
num_leaves=48
num_cat=0
split_feature=16 16 3 0 16 16 3 0 16 16 16 1 16 16 16 10 18 18 41 41 40 16 41 41 16 6 41 8 41 3 6 36 26 40 16 40 41 3 6 8 43 19 0 8 35 40 33
split_gain=7810.59 634.437 417.409 81.8632 68.1653 33.8774 30.6973 9.17566 8.90465 8.31417 7.74953 7.49388 5.67051 4.17305 3.9075 3.83023 3.57258 8.00316 2.61874 2.21866 2.11702 2.03169 1.9353 1.90918 1.8399 1.68475 1.60921 1.66496 1.60203 1.56447 1.5318 1.47046 1.44506 1.44285 1.44211 1.29298 1.29179 1.17385 1.16475 1.15483 1.14596 1.12303 1.12059 1.03633 0.995887 0.974678 0.970743
threshold=0.57685415874342938 0.23952143856633043 10.148758888244631 5.1154711246490487 0.38692616054751139 0.73816743199733792 11.751858711242678 5.9285316467285165 0.49598348135847264 0.045195388236828039 0.30871435606052239 24.075124740600589 0.64275644144426014 0.79541633615819285 0.94377317223215662 3.0043414831161503 25.324028015136722 22.494174957275394 -0.32136297141497111 -0.48087430661751673 -0.64278760968653914 0.13843028452921938 -0.55543802234893469 -0.36235178784537897 0.081909863045618106 0.092483401298522963 -0.65918890865109969 -0.28606672585010523 -0.23762932952031168 13.089016437530519 0.20993262529373172 27.873975753784183 6.9033796787261972 -0.60876142900872077 0.42446700245018171 -0.64278760968653914 -0.55543802234893469 9.5190052986145037 0.081232756376266493 -0.72664660215377797 -0.26867065956352881 8.8131122589111346 23.455629348754886 -0.26195740699768061 5.4800446033477792 -0.46174861323503386 6.1088640557395095
decision_type=2 2 2 2 2 2 2 2 2 2 2 2 2 2 2 2 2 2 2 2 2 2 2 2 2 2 2 2 2 2 2 2 2 2 2 2 2 2 2 2 2 2 2 2 2 2 2
left_child=1 3 5 9 10 12 14 21 20 32 18 29 28 26 35 -13 17 30 25 -10 -6 -5 39 40 -11 -3 -7 -28 -2 -8 36 -18 -1 -15 -22 -4 -9 -35 -24 -12 -14 -16 -31 -25 -40 -30 -20
right_child=2 4 6 7 8 13 11 16 19 24 22 15 23 33 41 -17 31 -19 46 -21 34 -23 38 43 -26 -27 27 -29 45 42 -32 -33 -34 37 -36 -37 -38 -39 44 -41 -42 -43 -44 -45 -46 -47 -48
leaf_value=-0.017659857629377062 0.0036734301515877728 -0.0080269321021872089 0.011578753440248281 -0.014035040734236252 -0.0043824488347706378 0.0094759779852732918 0.01658407511157264 -0.0098355345794060439 0.0018237915204761227 -0.016283693449844251 -0.0065875703217170671 0.013496561664124503 0.0053640118252641193 0.0084657366192907122 0.0095877015026277299 0.0026855510964604291 -0.010510695779199539 0.0014447599224260321 -0.010824735128592149 -0.00065832981865179287 -0.0034659448348438324 -0.012575149854033189 -0.0074460137031077574 0.0012183251968512316 -0.014958728211581399 -0.0047520277483797009 0.0022246591787858819 0.0071948616937006857 -0.00024418570316174591 0.0175599556588369 -0.0081823141018455663 -0.017514173331095235 -0.013453436282980775 0.0091630493691221993 -0.0016128516608651896 0.013456669122025628 -0.011585243637876476 0.011387649261134843 -0.0068867957050907178 -0.0036666727196821508 0.0079756362707822069 0.015047122183477868 0.015003823718036879 0.0046658001132440317 -0.0043213264160685428 0.0022761285041637434 -0.0089352429520790141
leaf_weight=15006 1271 1618 1471 4673 1627 731 6069 1587 1372 8340 479 289 988 1027 103 115 112 137 965 2614 1642 5218 1880 241 4131 526 189 1642 626 24806 531 271 224 903 2919 2785 3523 1933 746 1174 748 4542 484 2369 785 989 2605
leaf_count=15006 1271 1618 1471 4673 1627 731 6069 1587 1372 8340 479 289 988 1027 103 115 112 137 965 2614 1642 5218 1880 241 4131 526 189 1642 626 24806 531 271 224 903 2919 2785 3523 1933 746 1174 748 4542 484 2369 785 989 2605
internal_value=-1.7896e-06 -0.0117373 0.0139771 -0.0151634 -0.00458242 0.00641342 0.0165171 -0.0123204 -0.0016468 -0.0168103 -0.00735311 0.0172452 0.00406531 0.00905542 0.0139171 0.0104334 -0.0108001 -0.010486 -0.00861625 0.000196271 -0.00283385 -0.0132662 -0.00592642 0.00520624 -0.015846 -0.00722607 0.00748352 0.00668332 0.00234599 0.0173327 -0.010776 -0.0154989 -0.0175989 0.0100957 -0.00228059 0.0128105 -0.0110439 0.0106828 -0.00660813 -0.00451655 0.00649324 0.0149282 0.0175116 0.00434806 -0.00557506 0.00129967 -0.00944888
internal_weight=119026 64705 54321 43753 20952 13657 40664 16052 10174 27701 10778 31763 7232 6425 8901 404 6161 5778 5714 3986 6188 9891 5064 4346 12471 2144 2562 1831 2886 31359 5641 383 15230 3863 4561 4256 5110 2836 3411 1653 1736 4645 25290 2610 1531 1615 3570
internal_count=119026 64705 54321 43753 20952 13657 40664 16052 10174 27701 10778 31763 7232 6425 8901 404 6161 5778 5714 3986 6188 9891 5064 4346 12471 2144 2562 1831 2886 31359 5641 383 15230 3863 4561 4256 5110 2836 3411 1653 1736 4645 25290 2610 1531 1615 3570
is_linear=0
shrinkage=0.05


Tree=7
num_leaves=48
num_cat=0
split_feature=16 16 16 16 0 16 3 16 16 0 25 3 16 16 16 40 4 41 9 41 7 41 5 36 7 3 8 7 41 8 41 9 41 9 40 7 41 5 25 11 30 16 7 9 9 8 41
split_gain=7049.14 554.583 393.284 72.4321 59.6076 31.1146 30.098 8.19259 8.00077 7.88837 6.8951 6.47304 6.06015 3.38838 2.8565 2.25273 2.22317 2.13884 2.03224 1.9718 1.94277 1.93801 1.83563 3.22985 4.70252 1.61203 1.58262 1.58222 1.52587 1.46679 1.43995 1.38683 1.34181 1.30963 1.378 1.30313 1.26823 1.25521 1.24897 1.21677 1.13189 1.11085 1.07265 1.04672 0.982757 0.978475 0.931174
threshold=0.56891779108672214 0.21912811487973197 0.86775488897568287 0.37455308054371639 4.9677791595458993 0.69973636951183249 11.568833351135256 0.47606683923101939 0.29051481469853424 5.5730142593383798 23.17011642456055 9.7434773445129412 0.038539298794328831 0.92102965810890247 0.63437699886329668 -0.57357643635104605 12.306900024414064 -0.4421834374878667 0.78917619585990917 -0.51864980417341189 1.3156934976577761 -0.27976242230339671 0.84523403644561779 27.873975753784183 1.1293108463287356 9.146029472351076 -0.88317307829856861 1.5040235519409182 -0.5 -0.74258911609649647 -0.42261826174069955 0.81275469064712536 -0.62577451934762984 0.71019592881202709 -0.42261826174069955 1.420348644256592 -0.19504389580251696 1.5562625527381899 7.6549861431121835 28.723442077636722 5.6953618526458749 0.41843637252662663 1.1934831142425539 -0.78736755251884449 0.65423172712326061 0.8026183843612672 -0.36235178784537897
decision_type=2 2 2 2 2 2 2 2 2 2 2 2 2 2 2 2 2 2 2 2 2 2 2 2 2 2 2 2 2 2 2 2 2 2 2 2 2 2 2 2 2 2 2 2 2 2 2
left_child=1 4 5 8 12 14 13 19 17 35 16 15 -1 43 30 -7 -8 20 45 29 -3 26 33 24 -24 38 -10 -14 -20 -5 -2 -16 -13 -11 -35 -6 -33 -12 -17 -31 44 -21 -19 -4 -15 -9 -45
right_child=2 3 6 7 9 11 10 18 21 22 37 32 27 40 31 25 -18 42 28 41 -22 -23 23 -25 -26 -27 -28 -29 -30 39 -32 36 -34 34 -36 -37 -38 -39 -40 -41 -42 -43 -44 46 -46 -47 -48
leaf_value=-0.016863107906287388 0.0033516111920300256 -0.0081716577855967566 0.0088490130445102178 -0.0041132457166776232 -0.013685969833042834 0.0054293466253299387 0.015503904211984269 -0.00087930390327803538 -0.0081544172299812655 -0.012332192211015862 0.012194558705262093 0.011341211925192204 -0.015456053799214992 0.0065025735724864924 0.0033071569151798029 0.0031316542691587563 0.016619652849534195 -0.010269836215605999 0.0028824085802844537 -0.0047626221648119004 -0.0040085838222191396 -0.0069913663046597728 -0.00030278587356155769 -0.015032936365966747 -0.0099079341125885567 0.0085945400257091773 -0.0045741629613523949 -0.012911457803786944 -0.00022053422549914801 -0.0014642749130261354 0.0010596569767222428 0.0071995496925513214 0.0089706493072917778 -0.012261353305929649 -0.010010362153591298 -0.011646981901429146 0.0038105222079907195 0.0066184042810517197 0.0070344044825390349 0.0036257122847244377 0.013901685409950341 -0.0030402933000928094 -0.0086251915268574404 0.012958672882890168 0.012651453940914228 -0.0052956302269923554 0.011018260989579851
leaf_weight=13425 1122 1704 327 517 6573 1738 5686 2976 366 3373 268 1083 11704 100 1779 242 26468 2119 697 1653 339 3390 137 277 1835 1981 2025 684 916 1311 1762 574 1419 1130 1858 945 540 169 1431 128 4981 2182 1982 1219 207 130 1418
leaf_count=13425 1122 1704 327 517 6573 1738 5686 2976 366 3373 268 1083 11704 100 1779 242 26468 2119 697 1653 339 3390 137 277 1835 1981 2025 684 916 1311 1762 574 1419 1130 1858 945 540 169 1431 128 4981 2182 1982 1219 207 130 1418
internal_value=-3.32259e-05 -0.0112367 0.0131971 -0.00489121 -0.0146309 0.00585594 0.0156541 -0.00186473 -0.0075582 -0.0122442 0.0163378 0.00789645 -0.0161215 0.0129521 0.00306681 0.00691828 0.0164228 -0.00881553 -0.000318162 -0.00312473 -0.00748317 -0.00622062 -0.0112063 -0.00996085 -0.00924113 0.0076248 -0.00512539 -0.0153166 0.00112125 -0.00183141 0.00195218 0.00417691 0.0100009 -0.011645 -0.0108655 -0.0134313 0.00556164 0.0100581 0.00647208 -0.00100931 0.0137165 -0.00378372 -0.00947728 0.0115841 0.0106762 -0.00106579 0.0119198
internal_weight=118890 64376 54514 22435 41941 13671 40843 10510 11925 16128 32591 7894 25813 8252 5777 5392 32154 6144 4719 5791 2043 5781 8610 2249 1972 3654 2391 12388 1613 1956 2884 2893 2502 6361 2988 7518 1114 437 1673 1439 5288 3835 4101 2964 307 3106 2637
internal_count=118890 64376 54514 22435 41941 13671 40843 10510 11925 16128 32591 7894 25813 8252 5777 5392 32154 6144 4719 5791 2043 5781 8610 2249 1972 3654 2391 12388 1613 1956 2884 2893 2502 6361 2988 7518 1114 437 1673 1439 5288 3835 4101 2964 307 3106 2637
is_linear=0
shrinkage=0.05


Tree=8
num_leaves=48
num_cat=0
split_feature=16 1 16 16 16 3 16 16 16 16 16 1 1 10 18 0 3 41 9 4 41 41 14 41 16 41 5 5 5 9 9 18 38 9 40 40 40 12 5 35 14 41 11 5 5 40 40
split_gain=6337.3 456.314 403.19 64.21 47.907 31.689 30.8589 7.20368 6.51364 6.18928 5.68163 5.54266 4.47765 3.57845 3.37753 8.75517 3.0444 2.61195 2.54451 2.46958 2.3807 2.0554 1.81703 1.71739 1.67079 1.55388 1.85181 1.52611 1.4968 1.48305 1.44107 1.55009 1.37817 1.33857 1.32386 1.29737 1.27168 1.27007 1.20236 1.16766 1.1927 1.1113 1.09966 1.07318 0.963809 0.960047 0.952427
threshold=0.5461882970977624 6.2170991897583017 0.85479510621587373 0.35621413949410635 0.087261950485688675 11.474192142486574 0.68460246210386444 0.43055391526056558 0.14448296822648179 0.27304931096037677 0.77091835726568492 24.075124740600589 3.8916723728179936 3.0043414831161503 25.324028015136722 6.7606401443481454 10.551424503326418 -0.51864980417341189 0.85597166419029247 11.890108585357668 -0.27976242230339671 -0.19504389580251696 0.086782056838274016 -0.64278760968653914 0.63437699886329668 -0.46174861323503363 1.3319969773292544 0.94845095276832592 0.44603106379508978 0.8003351390361787 0.74713173508644115 7.2673525810241708 0.54487085342407238 0.52923667430877697 -0.93178607664859758 -0.17364817766693016 -0.64278760968653914 82.872665405273452 1.4042076468467715 5.7127864360809335 0.20489978790283206 -0.55543802234893469 29.186175346374515 0.61253753304481517 0.48033782839775091 -0.62577451934762984 0.065387565056497093
decision_type=2 2 2 2 2 2 2 2 2 2 2 2 2 2 2 2 2 2 2 2 2 2 2 2 2 2 2 2 2 2 2 2 2 2 2 2 2 2 2 2 2 2 2 2 2 2 2
left_child=1 4 6 9 12 16 18 35 27 14 21 19 43 -13 15 25 34 37 24 -7 30 22 -8 -12 -2 26 -3 -6 -14 -16 42 -32 -20 -25 -4 -5 -18 -11 41 40 -37 -10 -9 -1 -19 -22 -23
right_child=2 3 5 7 8 11 10 20 38 17 23 13 28 -15 29 -17 36 44 32 -21 45 46 -24 33 -26 -27 -28 -29 -30 -31 31 -33 -34 -35 -36 39 -38 -39 -40 -41 -42 -43 -44 -45 -46 -47 -48
leaf_value=-0.016237931977996098 0.00098624267401135348 -0.0080088445082919027 0.0077991454685305637 -0.0048336372933625747 -0.013107898610499874 0.014430002308994695 0.0082064008519444152 -0.0014721426548674912 -0.0099761004803018069 -0.0030012221486267272 0.0099424190042155091 0.012462163437236001 -0.015080803761915486 0.0017838811760561334 -0.0093662684345432855 0.0039736976693519324 0.011672602985954178 -0.008100431867828807 0.0027575620112711067 0.015752058917663112 -0.0031910226371553532 0.0037851052998693576 0.004918749403539046 0.0055264941893401155 0.0030219004209293037 -0.0094249219221572006 -0.0013797553546171179 -0.010997316557542153 -0.013851598292235163 -0.015872938876462163 0.0051471236886491429 0.00042591993871955226 0.0056572635214425411 0.0082626841386749649 0.011204757898084691 -0.002749119627702351 0.013403054866758055 -0.0058158495253373306 -0.0074632177319925294 -0.0017925712196103724 -0.0057007567949440823 -0.011341573830818297 0.0036255492994804748 -0.014313335589469001 -0.0065469660673170803 -0.001445484336015479 0.0059428113403096538
leaf_weight=10853 2870 1655 327 1863 7257 4215 1117 1327 2196 555 1250 297 9261 107 150 137 1660 1850 973 28412 1156 1272 684 576 1554 3471 113 1018 3653 233 213 928 712 2148 2986 804 3407 1477 266 1027 600 5312 114 856 2272 2480 867
leaf_count=10853 2870 1655 327 1863 7257 4215 1117 1327 2196 555 1250 297 9261 107 150 137 1660 1850 973 28412 1156 1272 684 576 1554 3471 113 1018 3653 233 213 928 712 2148 2986 804 3407 1477 266 1027 600 5312 114 856 2272 2480 867
internal_value=-3.69026e-06 -0.0108401 0.0123307 -0.00511345 -0.0139974 0.0148121 0.00500244 -0.00226491 -0.0118699 -0.00762658 0.00706307 0.0155094 -0.0153836 0.00964539 -0.00880616 -0.00847962 0.0120621 -0.00652147 0.00233225 0.0155817 -0.0011769 0.00571451 0.00696121 0.0083983 0.00170182 -0.00880597 -0.00758617 -0.0128496 -0.0147342 -0.0133557 -1.58355e-05 0.001311 0.00398547 0.00768635 0.0108711 -0.00383978 0.0128386 -0.00504894 -0.0108255 -0.00307646 -0.00401366 -0.0109436 -0.00106662 -0.0160985 -0.00724597 -0.00200117 0.00466206
internal_weight=118531 63097 55434 22425 40672 41411 14023 10512 16049 11913 7914 33031 24623 404 5759 5376 8380 6154 6109 32627 6218 3940 1801 3974 4424 5239 1768 8275 12914 383 2582 1141 1685 2724 3313 4294 5067 2032 7774 2431 1404 7508 1441 11709 4122 3636 2139
internal_count=118531 63097 55434 22425 40672 41411 14023 10512 16049 11913 7914 33031 24623 404 5759 5376 8380 6154 6109 32627 6218 3940 1801 3974 4424 5239 1768 8275 12914 383 2582 1141 1685 2724 3313 4294 5067 2032 7774 2431 1404 7508 1441 11709 4122 3636 2139
is_linear=0
shrinkage=0.05


Tree=9
num_leaves=48
num_cat=0
split_feature=16 0 16 16 16 16 16 16 16 0 0 16 16 26 31 3 10 41 41 16 41 5 8 5 9 41 41 20 43 41 9 5 8 31 41 11 13 9 41 9 4 41 16 8 33 5 30
split_gain=5743.43 463.797 305.043 66.0279 45.904 24.5026 24.2031 8.76734 6.8109 6.17286 5.31497 4.39688 4.29363 3.64777 7.05665 3.54449 3.53082 3.02292 2.47487 2.29954 1.84526 1.82594 1.7419 1.74134 1.58733 1.52827 1.45595 1.43393 1.34408 1.33553 1.32925 1.31418 1.30376 1.2738 1.27198 1.25324 1.24854 1.18712 1.16753 1.1592 1.09627 1.07799 1.07489 1.047 1.01876 1.09022 1.00086
threshold=0.57685415874342938 6.2536027431488046 0.86775488897568287 0.36883942346809462 0.10089349903632391 0.96302162601509045 0.73816743199733792 0.46318542864647311 0.29051481469853424 4.4941585063934335 24.142208099365238 0.14737253320039581 0.6769468018190925 26.218833923339847 16.359558105468754 12.445107936859133 3.0043414831161503 -0.65918890865109969 -0.36235178784537897 0.78676095626117448 -0.62577451934762984 0.41691234707832342 -0.9058304727077483 1.2836620807647707 -0.77105930447578419 -0.36235178784537897 -0.59116893267988335 9.5163950920104998 0.91852788691372023 -0.55543802234893469 0.85904383659362804 1.4042076468467715 -0.85647657513618458 7.6031029224395761 -0.46174861323503363 25.432908058166507 996.87707519531261 0.52923667430877697 -0.40265084705289439 0.62568733096122753 9.0572676658630389 -0.59116893267988335 0.030712222010170952 -0.21097731590270993 7.7755481666988802 0.4595972895622254 8.5394554138183612
decision_type=2 2 2 2 2 2 2 2 2 2 2 2 2 2 2 2 2 2 2 2 2 2 2 2 2 2 2 2 2 2 2 2 2 2 2 2 2 2 2 2 2 2 2 2 2 2 2
left_child=1 4 6 8 9 24 12 29 13 21 15 -6 20 14 23 36 -12 40 22 43 -2 42 -9 34 27 -26 -10 -4 -15 32 -14 41 -5 -23 -3 -27 -7 -21 -25 -22 -8 -13 -1 -19 -31 -46 -32
right_child=2 3 5 7 11 10 17 18 26 -11 16 31 30 28 -16 -17 -18 19 -20 37 39 33 -24 38 25 35 -28 -29 -30 44 46 -33 -34 -35 -36 -37 -38 -39 -40 -41 -42 -43 -44 -45 45 -47 -48
leaf_value=-0.015613350176664901 0.0040512598452983736 -0.0072417064463572269 0.0056466152071234406 -0.0047895735199650086 -0.011943436574563078 0.011937807016564704 0.0073806983815360126 -0.0048782121900766461 -0.0044284092337609892 -0.013256029632720132 0.011780484786455627 -0.0092748577324691921 0.0042887739635020629 -0.0092502853124063807 0.0035421389494625631 0.014969675825990379 0.001352603389282844 0.0019298992645154823 -0.0011291822883635432 0.0057734480426927665 0.00048798545603700419 -0.014356437621585536 0.0013421635343039689 -0.0021131257804385809 0.012493164343732599 0.011221298727862872 -0.0062111562358880155 0.010590964058064856 -0.015186328751345478 -0.0045638449427925143 0.0077360950641729284 -0.0067049850609789035 -0.0013225711551182505 -0.011785277571034135 -0.0088485721445803016 0.0082038018247624963 0.013939059529292495 0.0084130334925677855 -0.0067987678041096502 0.0025236270540966968 0.010150650678148878 -0.010622753938095589 -0.014726807635577941 0.0059387779111140558 -0.0043705002656842734 -0.0019579730821400825 0.0036637064726191045
leaf_weight=7879 1290 1923 221 334 5769 992 503 118 1671 7945 304 2152 2088 175 135 28065 111 186 3531 544 1091 4172 2083 175 2636 2807 3738 461 230 1681 594 280 1431 582 3635 408 4895 2151 568 1950 1373 5421 7020 1382 762 1221 206
leaf_count=7879 1290 1923 221 334 5769 992 503 118 1671 7945 304 2152 2088 175 135 28065 111 186 3531 544 1091 4172 2083 175 2636 2807 3738 461 230 1681 594 280 1431 582 3635 408 4895 2151 568 1950 1373 5421 7020 1382 762 1221 206
internal_value=-6.47528e-06 -0.0100756 0.0119877 -0.0044551 -0.0132677 0.0141302 0.00542703 -0.00167299 -0.00698955 -0.0144405 0.0146643 -0.0108906 0.00346361 -0.00803876 -0.00774664 0.0147333 0.0090013 0.00773493 -0.000309037 0.00699475 0.00246691 -0.0149186 0.00100661 -0.00798903 0.0113186 0.0115874 -0.00566133 0.00899938 -0.0126505 -0.00311273 0.00495694 -0.0101158 -0.00198099 -0.0140442 -0.00829402 0.010841 0.0136039 0.00788256 -0.00569947 0.00179371 0.00941229 -0.010241 -0.0151967 0.00546477 -0.00365722 -0.00288676 0.00669334
internal_weight=118889 64631 54258 23411 41220 40900 13358 11161 12250 27598 34367 13622 7219 6841 6436 33952 415 6139 5732 4263 4331 19653 2201 6301 6533 5851 5409 682 405 5429 2888 7853 1765 4754 5558 3215 5887 2695 743 3041 1876 7573 14899 1568 3664 1983 800
internal_count=118889 64631 54258 23411 41220 40900 13358 11161 12250 27598 34367 13622 7219 6841 6436 33952 415 6139 5732 4263 4331 19653 2201 6301 6533 5851 5409 682 405 5429 2888 7853 1765 4754 5558 3215 5887 2695 743 3041 1876 7573 14899 1568 3664 1983 800
is_linear=0
shrinkage=0.05


Tree=10
num_leaves=48
num_cat=0
split_feature=2 1 3 23 2 1 3 2 1 2 2 2 3 1 2 3 9 9 40 9 41 40 7 7 19 9 40 40 7 41 40 9 41 25 40 11 7 41 7 9 9 40 7 43 7 12 40
split_gain=5097.17 347.146 343.618 106.247 43.6694 38.354 34.0424 23.6086 6.05936 5.59688 4.56463 4.26029 3.53349 3.37518 3.37358 3.26563 2.5703 2.25796 1.99024 1.95389 1.72713 1.68811 1.64256 1.57724 1.56772 1.55547 1.49129 1.44914 1.34482 1.27329 1.26725 1.26312 1.22246 1.51798 1.19642 1.18779 1.1839 1.14399 1.13547 1.09196 1.06735 1.06725 1.05242 1.0071 0.998727 0.997723 0.970684
threshold=8.3131504058837908 6.2170991897583017 9.8263335227966326 25.147317250569667 7.3112542629241952 4.852569818496705 11.208916664123537 9.1273813247680682 24.075124740600589 5.5339581966400155 6.6716735363006601 7.7480320930480966 12.240658283233644 3.9273248910903935 9.666025638580324 10.308000087738039 0.74199241399765026 0.79672104120254528 -0.5 0.79848647117614757 -0.55543802234893469 -0.08715574274765768 1.5336449146270754 1.3363469839096072 7.412501573562623 0.86060801148414623 -0.065387565056496802 -0.60876142900872077 1.3816016316413882 -0.75166088996455105 -0.17364817766693016 0.69928812980651867 -0.55543802234893469 8.20410203933716 1.0000000180025095e-35 15.781157970428469 1.5336449146270754 -0.59116893267988335 1.2979216575622561 0.77062296867370617 0.79113447666168224 -0.36235178784537903 1.1155168414115908 -0.97874870457683594 1.5503451824188235 86.500251770019545 -0.043619387365335778
decision_type=2 2 2 2 2 2 2 2 2 2 2 2 2 2 2 2 2 2 2 2 2 2 2 2 2 2 2 2 2 2 2 2 2 2 2 2 2 2 2 2 2 2 2 2 2 2 2
left_child=1 5 7 6 10 13 15 16 12 23 22 30 -8 44 25 27 32 -5 -18 -13 45 43 46 -7 -21 34 -17 -4 31 -27 -6 -11 -2 -34 -9 42 -22 -25 -15 -40 -32 -33 -10 -16 -1 -12 -3
right_child=2 4 3 17 11 9 8 14 35 28 20 19 -14 38 21 26 18 -19 -20 24 36 -23 -24 37 -26 29 -28 -29 -30 -31 40 41 33 -35 -36 -37 -38 -39 39 -41 -42 -43 -44 -45 -46 -47 -48
leaf_value=-0.014586245873801069 0.0022511535618835936 -0.0088588248599144361 0.0072922380590155506 -0.0061470948037152234 -0.0043805120629893338 -0.011999435414290018 0.012781446962706828 0.0031465087883700291 0.0090267685675859896 -0.01079870317513839 -0.0034134097903137576 -0.0018931290018005952 0.014215905879661837 -0.013566745511133613 0.0021795312761714535 0.010265495851555327 0.0012055612175376409 -0.013226917905708905 0.003862281042491188 0.0027787891331109422 -0.0066568082814645393 0.0079164983937716829 -0.0045146850272175746 -0.0071619527636648311 -0.00073516752577299025 0.0088104330529159194 0.012000076659291856 0.0097228164381526049 -0.0083717256709331753 0.005144691020777044 -0.0033113218062101033 -0.010542110216191494 -0.00089378146147079448 0.0016090687765515381 0.0052526245706788072 0.010579535915066328 -0.0033732415453719636 -0.010826789848232357 -0.012643800481781049 -0.0086437652429613553 -0.0010148186214500234 -0.0086263715902161909 0.0020540666250986055 0.0061866522364371779 -0.011901729625467327 -0.0056624605469186087 -0.0074214436463293319
leaf_weight=11792 1080 2365 933 189 1804 6945 5170 1382 107 3367 887 3541 28991 9530 176 2832 1144 289 1841 432 4223 2036 341 262 1188 372 2333 1904 1375 672 1699 1237 1346 1100 1330 259 297 1373 2362 194 722 1908 110 1551 387 1130 2461
leaf_count=11792 1080 2365 933 189 1804 6945 5170 1382 107 3367 887 3541 28991 9530 176 2832 1144 289 1841 432 4223 2036 341 262 1188 372 2333 1904 1375 672 1699 1237 1346 1100 1330 259 297 1373 2362 194 722 1908 110 1551 387 1130 2461
internal_value=2.66034e-06 -0.00994772 0.010767 0.0129787 -0.00474044 -0.0126437 0.0132415 0.00396983 0.013921 -0.0107795 -0.00677783 -0.00219944 0.0139992 -0.0139084 0.00587831 0.010299 0.00176533 -0.0104463 0.00284484 -0.00123525 -0.00589767 0.00693766 -0.00789001 -0.0116662 0.000203024 0.00481542 0.0110512 0.00892633 -0.00981344 0.00645806 -0.00337666 -0.0101165 0.00085091 0.000231982 0.00418093 0.00828841 -0.00644185 -0.0102443 -0.0133091 -0.0123437 -0.00262715 -0.00938299 0.00551786 0.00577978 -0.0145019 -0.0046756 -0.00812753
internal_weight=118969 61822 57147 43117 21090 40732 42639 14030 34637 16467 11704 9386 34161 24265 7519 8002 6511 478 2985 5161 6537 3763 5167 8580 1620 3756 5165 2837 7887 1044 4225 6512 3526 2446 2712 476 4520 1635 12086 2556 2421 3145 217 1727 12179 2017 4826
internal_count=118969 61822 57147 43117 21090 40732 42639 14030 34637 16467 11704 9386 34161 24265 7519 8002 6511 478 2985 5161 6537 3763 5167 8580 1620 3756 5165 2837 7887 1044 4225 6512 3526 2446 2712 476 4520 1635 12086 2556 2421 3145 217 1727 12179 2017 4826
is_linear=0
shrinkage=0.05


Tree=11
num_leaves=48
num_cat=0
split_feature=16 16 16 16 1 16 16 1 16 16 2 16 16 10 16 16 7 16 41 15 21 17 41 41 41 9 9 7 25 37 8 24 40 41 41 14 7 9 33 9 7 5 9 8 7 9 15
split_gain=4688.65 321.122 313.036 44.3475 33.3916 26.2791 23.6921 5.29285 5.09002 5.06698 4.46113 4.12224 3.1794 2.78083 2.57871 2.57522 2.11075 1.9445 1.724 1.68984 1.91622 2.26292 1.67487 1.62241 1.59439 1.41228 1.30433 1.29911 1.29705 1.23791 1.19483 1.18806 1.17344 1.13948 1.139 1.13517 1.13351 1.21696 1.24971 1.08261 1.06828 1.03499 1.03161 1.00364 0.981345 0.973639 0.970377
threshold=0.53177515896846861 0.85479510621587373 0.20290543368394412 0.34969783217641032 4.852569818496705 0.69195356882287251 0.97342406536580495 24.075124740600589 0.43055391526056558 0.27304931096037677 5.4140892028808603 0.78676095626117448 0.035407158023631889 2.9926335811614995 0.92102965810890247 0.61777634616745469 1.5336449146270754 0.99760812749293948 -0.70710678118654757 1.2230446338653567 25.321649551391605 8.4113245010375994 -0.36235178784537897 -0.55543802234893469 -0.48087430661751673 0.61304005980491649 0.81451013684272777 1.4119341373443606 8.5013465881347674 0.030337206277147689 -0.88317307829856861 1.0703341731085767 -0.17364817766693016 -0.6913484944011038 -0.72219205899833583 0.25988940894603735 1.2114182114601137 0.77477273344993602 6.0644623272948808 0.57894554734230053 1.1923510432243349 1.3853029608726504 0.85750427842140209 -0.85647657513618458 1.4036214351654055 0.69928812980651867 1.1601594686508181
decision_type=2 2 2 2 2 2 2 2 2 2 2 2 2 2 2 2 2 2 2 2 2 2 2 2 2 2 2 2 2 2 2 2 2 2 2 2 2 2 2 2 2 2 2 2 2 2 2
left_child=2 5 4 9 12 15 14 17 32 16 27 18 -1 -9 39 24 33 46 42 20 21 36 30 41 43 -20 -17 -6 -28 -22 -10 -14 -5 -4 -13 44 45 38 -38 -3 -25 -11 -7 -2 -34 -12 -8
right_child=1 6 3 8 10 11 7 13 22 23 19 34 31 -15 -16 26 -18 -19 25 -21 29 -23 -24 40 -26 -27 28 -29 -30 -31 -32 -33 35 -35 -36 -37 37 -39 -40 -41 -42 -43 -44 -45 -46 -47 -48
leaf_value=-0.013798367219682689 -0.0016437916271165474 0.0077433756366741269 -0.0067318174650827017 -0.0042994213447763935 -0.011466565899831166 0.0055624408513438584 0.011228081462288925 0.010161535709795154 -0.0036246285479866976 -0.0047104803876503176 -0.010934622316809655 0.0089965550564354048 -0.012758081397482239 0.00094441237980904787 0.011081070286245456 0.0022240882463590325 -0.0042315546087725699 0.013530901430319715 0.002913061290236536 -0.0030204038333959213 -0.0091498434488825938 -0.0038671403186809686 -0.0018683761543522766 -0.0070307304345262125 0.00034314760895581451 0.0052306034403547912 0.0058562072207552444 -0.0094066601882055647 0.0025593910162723674 -0.016271853188084343 0.00034451576802359128 -0.010456216044015015 -0.002296269862502347 -0.0083675955719423132 0.0069111953218123469 -0.0041257629353316132 -0.010126148605273737 -0.0056694199061346675 -0.0081304812632425876 0.0097876992518276459 -0.0053811760184900512 0.00022919920738786461 0.0086286115443275045 0.0028620667560714484 0.0022863315447928414 -0.0094666012207429064 0.012856159835422222
leaf_weight=11992 136 882 1454 2093 6242 685 1273 291 210 1699 2017 936 11747 114 4708 2030 411 27533 932 100 101 179 3313 2006 2533 2269 635 910 567 176 1869 621 1639 4317 2323 937 1651 278 1571 2747 1975 113 470 1292 125 2821 4134
leaf_count=11992 136 882 1454 2093 6242 685 1273 291 210 1699 2017 936 11747 114 4708 2030 411 27533 932 100 101 179 3313 2006 2533 2269 635 910 567 176 1869 621 1639 4317 2323 937 1651 278 1571 2747 1975 113 470 1292 125 2821 4134
internal_value=2.08858e-06 0.0104445 -0.00942606 -0.00465022 -0.0120452 0.00411932 0.0126914 0.013288 -0.00222471 -0.00671301 -0.0102724 0.00616632 -0.0132125 0.0075758 0.010304 0.00195168 -0.00770976 0.013358 0.00515751 -0.0095207 -0.00959427 -0.00945858 -0.00117047 -0.00564818 0.00109667 0.00455695 0.00299889 -0.0112058 0.00430447 -0.0137173 -5.79578e-05 -0.0126434 -0.00340996 -0.0079567 0.0075127 -0.00271938 -0.00957814 -0.00888069 -0.00915591 0.00929311 -0.00621393 -0.00440248 0.00681653 0.00243209 -0.00197043 -0.0100808 0.012475
internal_weight=119057 56490 62567 22161 40406 14808 41682 33345 10186 11975 16046 7615 24360 405 8337 7193 6182 32940 4356 8894 8794 8517 5392 5793 3961 3201 3232 7152 1202 277 2079 12368 4794 5771 3259 2701 8338 3500 3222 3629 3981 1812 1155 1428 1764 4838 5407
internal_count=119057 56490 62567 22161 40406 14808 41682 33345 10186 11975 16046 7615 24360 405 8337 7193 6182 32940 4356 8894 8794 8517 5392 5793 3961 3201 3232 7152 1202 277 2079 12368 4794 5771 3259 2701 8338 3500 3222 3629 3981 1812 1155 1428 1764 4838 5407
is_linear=0
shrinkage=0.05


Tree=12
num_leaves=48
num_cat=0
split_feature=16 16 16 1 16 3 3 16 2 2 26 16 16 41 16 19 15 16 41 40 18 18 8 7 26 9 9 7 18 40 7 40 9 7 4 10 7 18 16 14 25 2 35 41 11 14 40
split_gain=4222.01 343.125 226.874 43.5144 37.1128 19.9217 16.9815 6.30557 5.72168 4.74046 4.46268 4.04163 3.33724 2.45577 2.0408 1.89698 1.88124 1.87368 1.6638 1.64376 1.4341 5.61867 1.5477 1.39261 1.39215 1.3825 1.37792 1.33852 1.26887 1.26355 1.2521 1.23876 1.21766 1.21217 1.20995 1.274 1.20069 1.10028 1.09094 1.0332 0.991102 0.985154 0.978188 0.93385 1.00826 0.997138 0.901001
threshold=0.57685415874342938 0.23952143856633043 0.86104217818864615 5.225929021835328 0.39931871050538298 11.388199806213381 9.146029472351076 0.059364107389699994 7.0757427215576181 5.9290301799774179 24.996820449829105 0.49598348135847264 0.66019633808466571 -0.32136297141497111 0.99368646223358825 7.7510552406311044 1.1623431444168093 0.92102965810890247 -0.32136297141497111 -0.62577451934762984 25.324028015136722 10.012116432189943 0.60373374819755565 1.448016405105591 6.9978022575378427 0.80728608369827282 0.66137671470642101 1.420348644256592 7.1736347675323495 -0.043619387365335778 1.3816016316413882 -0.53729960834682411 0.77904310822486889 1.3422465324401858 22.628683090209964 2.8550643920898442 1.3960589766502383 7.9450557231903085 0.025328773262573757 0.15617212653160098 7.907027244567872 10.02175807952881 4.0243217945098886 -0.36235178784537897 26.205308914184574 0.1651178523898125 -0.69134849440110357
decision_type=2 2 2 2 2 2 2 2 2 2 2 2 2 2 2 2 2 2 2 2 2 2 2 2 2 2 2 2 2 2 2 2 2 2 2 2 2 2 2 2 2 2 2 2 2 2 2
left_child=1 3 6 7 8 15 12 24 18 33 14 19 31 32 -7 -4 -15 43 23 -6 21 30 -22 -3 38 -21 42 -9 -27 -14 -11 -2 -8 -5 -12 -36 -10 -28 -1 -33 -31 -18 -13 45 -45 -17 -19
right_child=2 4 5 9 11 10 13 27 36 20 34 26 29 16 -16 17 41 46 -20 25 22 -23 -24 -25 -26 28 37 -29 -30 40 -32 39 -34 -35 35 -37 -38 -39 -40 -41 -42 -43 -44 44 -46 -47 -48
leaf_value=-0.013395134921797973 0.0005553673291071123 -0.0055494861105557444 0.003609393362887204 -0.010010755995154033 -0.0033945235754084661 0.011606708726930596 0.0063342616467360309 -0.011511026079302517 -0.0042636633533127263 -0.008284281551794578 0.010237005137439286 -0.0036518739308534845 0.0029662196496892477 0.0034938305093154993 0.01282278415844363 0.010415682727315774 0.0053651687156877565 0.0093410934683821958 -0.0068115370821412047 -0.0020174210467201049 -0.013358129485497573 0.0020277734616235515 -0.0067061253193894336 -0.001325810162954916 -0.0093396371045394652 0.0030447217890495941 0.0028142300088318719 -0.0097065679777169189 -0.00088663032002352256 0.0027267959363414191 -0.0063276019236910347 0.0033917817786549009 0.0084784895982865458 -0.0085032637196420392 0.0085662067010784278 0.0009597621573549178 -0.0020097275094413218 0.00028452937471958446 -0.012579551570024598 0.0012654849531461183 0.0053825569977034894 0.0076044049454928805 -0.00038008599561116545 0.0086720135872145575 0.0052948460021206532 0.0065529022966998064 0.01101027660025765
leaf_weight=7171 1230 2429 124 6806 1459 4053 1120 9313 3825 4573 209 263 1722 811 29122 1274 1136 1157 4292 2870 237 145 144 213 291 268 608 1204 865 453 1019 1383 1694 1722 113 107 702 1462 11057 976 1618 889 1699 1476 267 200 3174
leaf_count=7171 1230 2429 124 6806 1459 4053 1120 9313 3825 4573 209 263 1722 811 29122 1274 1136 1157 4292 2870 237 145 144 213 291 268 608 1204 865 453 1019 1383 1694 1722 113 107 702 1462 11057 976 1618 889 1699 1476 267 200 3174
internal_value=-9.20944e-06 -0.00864386 0.0102677 -0.011167 -0.00338392 0.0120835 0.00451579 -0.0122882 -0.00529895 -0.00894356 0.0126089 -0.00107182 0.00293612 0.00657881 0.0126746 0.00978112 0.00553582 0.00988201 -0.006202 -0.00195805 -0.00787744 -0.00767696 -0.0108681 -0.0052096 -0.0128457 -0.00143377 0.000128909 -0.0113054 4.51572e-05 0.00397025 -0.00792892 0.00184241 0.00762762 -0.00970739 0.00751157 0.00488779 -0.00391467 0.00102855 -0.0129011 0.00251297 0.00480325 0.00635149 -0.000820296 0.00895734 0.00815802 0.00989636 0.0105666
internal_weight=118945 64637 54308 43682 20955 41276 13032 29036 11461 14646 33604 9494 7382 5650 33175 7672 2836 7548 6934 5462 6118 5737 381 2642 18519 4003 4032 10517 1133 3793 5592 3589 2814 8528 429 220 4527 2070 18228 2359 2071 2025 1962 3217 1743 1474 4331
internal_count=118945 64637 54308 43682 20955 41276 13032 29036 11461 14646 33604 9494 7382 5650 33175 7672 2836 7548 6934 5462 6118 5737 381 2642 18519 4003 4032 10517 1133 3793 5592 3589 2814 8528 429 220 4527 2070 18228 2359 2071 2025 1962 3217 1743 1474 4331
is_linear=0
shrinkage=0.05


Tree=13
num_leaves=48
num_cat=0
split_feature=2 0 2 25 0 0 3 0 26 2 0 4 0 40 9 0 4 3 12 31 42 25 30 35 40 4 7 40 40 40 7 35 3 7 40 14 35 40 7 9 24 9 5 35 7 42 24
split_gain=3747.01 255.766 252.564 81.0087 32.5482 29.3189 24.1784 18.1832 4.8395 4.67438 4.00405 3.45078 2.49891 2.43098 2.35984 2.32749 2.17613 2.14905 1.93271 1.9079 1.63609 1.54564 1.44041 1.39076 1.30841 2.03848 1.26628 1.17998 1.16485 1.12554 1.11659 1.10783 1.06671 1.05227 1.04985 1.1668 1.03259 1.01263 0.980155 0.919113 1.52865 0.901361 0.988225 0.924985 0.892417 0.886564 0.869195
threshold=8.3131504058837908 6.2141892910003671 10.237743377685549 24.378412246704105 7.1716132164001474 4.8551607131958017 11.301966667175295 9.1204614639282244 24.996820449829105 7.7480320930480966 5.4519922733306894 8.6725454330444354 3.8665919303894047 -0.53729960834682411 0.62568733096122753 6.6746809482574472 11.890108585357668 10.308000087738039 82.629417419433608 26.997517585754398 -0.26866367175705824 7.7597205638885507 8.0023350715637225 3.8588533401489262 -0.27976242230339726 6.7492308616638192 1.5336449146270754 -0.043619387365335778 -0.64278760968653914 -0.1950438958025166 1.5175575017929079 6.201488971710206 8.5397138595581072 1.5336449146270754 -0.17364817766693016 0.20489978790283206 6.0039410591125497 -0.72219205899833561 1.4914354681968691 0.72900447249412548 0.80195202106637564 0.77267342805862438 0.52882635593414318 5.4800446033477792 1.1359916329383852 -0.26866367175705824 1.6028565589067469
decision_type=2 2 2 2 2 2 2 2 2 2 2 2 2 2 2 2 2 2 2 2 2 2 2 2 2 2 2 2 2 2 2 2 2 2 2 2 2 2 2 2 2 2 2 2 2 2 2
left_child=1 5 7 6 15 12 17 14 16 34 38 21 -1 -13 23 26 -8 37 -10 -5 -20 -9 32 -2 -11 31 -3 -23 -19 -17 39 -26 -16 -14 -6 -36 -37 -4 -7 -12 -41 43 -43 -31 -24 -21 -39
right_child=2 4 3 19 9 10 8 11 18 24 30 13 33 -15 22 29 -18 28 20 45 -22 27 44 -25 25 -27 -28 -29 -30 41 -32 -33 -34 -35 35 36 -38 46 -40 40 -42 42 -44 -45 -46 -47 -48
leaf_value=-0.012497648276468184 -0.0029916658138141169 -0.0070442928654155246 0.0060544587272194916 -0.0042980594456625675 -0.0039373676373394501 -0.010235120980378314 0.011057118397743225 0.0014247021680834661 0.010614537827942016 -0.0020113289621898791 -0.0090742322373702691 0.0045892819904734174 -0.011568089367623793 0.0069902608911576129 0.0021586698860323618 -0.0062218323875898908 0.012193847780929263 0.0084764684813436065 0.0075180440761246975 -0.0086886103874371373 -0.00032610170192969571 0.0031432053958158723 -0.00015323742601397884 0.00073164157634356781 -0.0030129506556888022 0.000895109637905776 -0.0037996264227788804 0.0053128412341792398 0.010035902666389734 -0.006030784372127675 -0.0064005145919307123 -0.00031593541184314145 0.0043367062107614813 -0.0093193087185734665 -0.0016712923900450887 -0.0045471176260061556 -0.0018124165432851038 0.0085775872286729306 -0.0080455710062679649 -0.0083868659028619175 -0.0050866996960689291 -0.0039571405106848664 0.001228571874976513 -0.0038711322908029167 0.0022476232994782666 -0.013936200557703463 0.0040414772790087301
leaf_weight=11257 279 4767 637 129 2377 6863 5092 557 198 2113 5010 1809 12587 2560 1365 2082 28554 1826 151 161 118 1148 747 2405 774 1531 325 1397 3809 1383 611 749 960 570 1746 969 539 2084 576 2888 406 761 104 786 802 179 114
leaf_count=11257 279 4767 637 129 2377 6863 5092 557 198 2113 5010 1809 12587 2560 1365 2082 28554 1826 151 161 118 1148 747 2405 774 1531 325 1397 3809 1383 611 749 960 570 1746 969 539 2084 576 2888 406 761 104 786 802 179 114
internal_value=-3.83673e-06 -0.00853765 0.00923159 0.0111301 -0.00405533 -0.010847 0.0113578 0.00340497 0.0119519 -0.00214139 -0.00920723 0.00509135 -0.0119451 0.0059974 0.00148334 -0.00607949 0.0120221 0.00896412 0.00687229 -0.00952089 0.00408865 0.00381369 0.00227265 0.000343636 -0.00105508 -0.000393021 -0.00683799 0.00433578 0.00953217 -0.00532335 -0.00848901 -0.00168766 0.00305947 -0.0114714 -0.00313782 -0.00255274 -0.00357151 0.00783208 -0.0100667 -0.00864189 -0.00798177 -0.00470495 -0.00333296 -0.00525032 0.00109046 -0.0114841 0.00834427
internal_weight=118855 61774 57081 43052 21006 40768 42583 14029 34113 10798 16354 7471 24414 4369 6558 10208 33646 8470 467 469 269 3102 3874 2684 5167 3054 5092 2545 5635 5116 8915 1523 2325 13157 5631 3254 1508 2835 7439 8304 3294 3034 865 2169 1549 340 2198
internal_count=118855 61774 57081 43052 21006 40768 42583 14029 34113 10798 16354 7471 24414 4369 6558 10208 33646 8470 467 469 269 3102 3874 2684 5167 3054 5092 2545 5635 5116 8915 1523 2325 13157 5631 3254 1508 2835 7439 8304 3294 3034 865 2169 1549 340 2198
is_linear=0
shrinkage=0.05


Tree=14
num_leaves=48
num_cat=0
split_feature=16 16 16 2 1 16 16 25 1 16 16 16 4 16 9 7 9 40 9 24 40 4 9 7 18 13 7 9 40 3 33 7 14 12 18 40 23 10 24 7 40 18 7 40 3 9 40
split_gain=3447.55 240.068 227.148 33.0905 25.433 19.0638 16.089 4.06995 3.79454 3.75623 3.52885 3.24674 2.12903 2.1186 1.81775 1.73337 1.65497 1.50124 1.42008 1.41504 1.41238 1.3973 1.33151 1.26039 1.24994 1.24767 1.25085 1.15363 1.05242 1.26487 1.69146 1.02989 1.02312 1.04781 1.02266 1.01173 1.00641 1.00369 0.973096 0.936272 0.923197 0.923035 0.914185 0.910913 0.909986 0.909747 1.02824
threshold=0.53870894588490581 0.20290543368394412 0.84829708540995463 7.3112542629241952 4.8152439594268808 0.96302162601509045 0.6769468018190925 23.17011642456055 5.5353479385375985 0.27304931096037677 0.77091835726568492 0.43055391526056558 11.890108585357668 0.035407158023631889 0.85597166419029247 1.3022500872612002 0.57894554734230053 -0.32136297141497117 0.66137671470642101 1.9280544066073402 -0.17364817766693016 6.4972939491271982 0.6455935835838319 1.3816016316413882 10.012116432189943 1011.1025390625001 1.3254444003105166 0.87470248341560375 -0.36235178784537903 8.2159271240234393 8.0195598204930629 1.4036214351654055 0.15353930741548541 94.418746948242202 8.4121928215026873 -0.5 7.131998737653098 3.0043414831161503 0.76815457990531411 1.1718454957008364 0.13052619222005182 5.6488666534423837 1.348207473754883 -0.065387565056496802 5.7793567180633554 0.80219772458076488 -0.75166088996455094
decision_type=2 2 2 2 2 2 2 2 2 2 2 2 2 2 2 2 2 2 2 2 2 2 2 2 2 2 2 2 2 2 2 2 2 2 2 2 2 2 2 2 2 2 2 2 2 2 2
left_child=1 4 6 9 13 16 14 12 23 15 18 31 19 -1 28 22 24 -13 -8 -7 -11 -19 -3 -6 -4 26 -10 40 -2 30 -30 45 33 39 -16 -20 -34 -9 -15 -22 -12 -24 -32 -18 -17 -5 -47
right_child=2 3 5 11 8 7 10 37 25 20 27 17 -14 38 34 44 43 21 35 -21 32 -23 41 -25 -26 -27 -28 -29 29 -31 42 -33 36 -35 -36 -37 -38 -39 -40 -41 -42 -43 -44 -45 -46 46 -48
leaf_value=-0.011851938988880076 5.5154304651337138e-05 -0.0078868421539180361 0.0045825325002157562 -0.0037235439578483897 -0.0097845566693291371 0.010609697312084318 0.0028495600990172672 0.0081576050106090935 -0.0084314793654625599 -0.0056355673133270251 0.0047415812271937186 -0.0019671624178530219 0.011584704656230743 -0.01108294506330158 0.0045442882683719094 -0.0055954321274056468 0.0083823903843747057 -0.0015093077116706359 0.0035114916049892968 0.0049881122901767371 -0.0033954679262774966 0.00051048230858497835 -0.0037698991305327844 -0.0081043165822549858 0.0079104974669822054 -0.0028279310563899098 -0.0068630521451940214 0.0076399196487737207 -0.0013188511881609074 0.0029421586381525471 0.0011792427482468781 -0.00083326087439187569 -0.0056941980929120896 -0.0049300388530378273 0.0019898339881376315 0.0054936050591691587 -0.003521896841517571 0.0029394910165524866 -0.0097358919425697063 -0.00031886742591840696 0.0066269940619079516 -0.0065538401836471444 0.004615330694196746 0.009638569366245759 -0.0024911719583083098 -0.0045722136507597381 -0.0011719064327920534
leaf_weight=12015 1640 2098 369 2276 7556 5282 1610 278 5846 2646 1439 2284 28519 10359 653 1214 3186 1456 1061 117 653 2076 349 1353 1274 116 1667 961 612 1132 863 565 1335 549 985 1671 900 140 1626 398 1211 2237 249 2812 296 295 898
leaf_count=12015 1640 2098 369 2276 7556 5282 1610 278 5846 2646 1439 2284 28519 10359 653 1214 3186 1456 1061 117 653 2076 349 1353 1274 116 1667 961 612 1132 863 565 1335 549 985 1671 900 140 1626 398 1211 2237 249 2812 296 295 898
internal_value=-1.78043e-05 -0.00803775 0.00900333 -0.00389896 -0.0103373 0.010847 0.00350914 0.01135 -0.00882716 -0.00558829 0.00499303 -0.00172478 0.0114106 -0.0113775 0.0015847 -0.0064697 0.00858537 -0.000968498 0.00403066 0.0104888 -0.00474505 -0.000322329 -0.00694588 -0.00953032 0.00716631 -0.00800489 -0.00808443 0.00614878 0.00106476 0.00164428 0.000790865 -0.00281464 -0.00412932 -0.00316014 0.00301034 0.0047254 -0.00482141 0.0064211 -0.010901 -0.00223181 0.00560535 -0.00617973 0.00195211 0.00897282 -0.00498897 -0.00313701 -0.00201585
internal_weight=119127 63063 56064 22525 40538 41977 14087 34336 16538 12675 7953 9850 33918 24000 6134 6194 7641 5816 4342 5399 6481 3532 4684 8909 1643 7629 7513 3611 4496 2856 1724 4034 3835 1600 1638 2732 2235 418 11985 1051 2650 2586 1112 5998 1510 3469 1193
internal_count=119127 63063 56064 22525 40538 41977 14087 34336 16538 12675 7953 9850 33918 24000 6134 6194 7641 5816 4342 5399 6481 3532 4684 8909 1643 7629 7513 3611 4496 2856 1724 4034 3835 1600 1638 2732 2235 418 11985 1051 2650 2586 1112 5998 1510 3469 1193
is_linear=0
shrinkage=0.05


Tree=15
num_leaves=48
num_cat=0
split_feature=16 16 16 0 16 16 3 16 16 28 0 16 3 9 40 24 5 7 36 30 23 40 20 9 17 40 40 31 1 7 7 35 30 9 17 23 24 40 38 9 17 32 7 9 40 9 15
split_gain=3113.84 262.078 161.432 34.2906 26.1281 15.718 10.4872 5.14388 4.12591 3.76279 3.00813 2.59277 2.41611 2.18718 2.13136 1.63363 1.55359 1.54745 1.49221 1.68366 1.92624 1.47639 1.41704 1.28834 1.30529 1.22137 1.21745 1.15883 1.1252 1.0955 1.0824 1.33051 1.05481 1.01701 1.02207 0.992721 0.987804 0.937115 0.926913 0.921665 1.3716 0.90283 0.895838 0.902137 0.894762 0.883846 0.867908
threshold=0.58463629360317171 0.24784046536669566 0.88130661715856773 5.2640027999877939 0.41843637252662663 0.75530565448050557 11.751858711242678 0.065756788790538631 0.31313546911483209 23.897302362653949 5.9285316467285165 0.50981291194768197 8.6668968200683612 0.52923667430877697 -0.5 1.2676650012334274 0.41047215461730963 1.457726836204529 27.873975753784183 6.5085885524749765 25.147317250569667 0.1088409674838549 25.324028015136722 0.77267342805862438 6.7188701629638681 -0.62577451934762984 -0.17364817766693016 8.2750902175903338 10.138158321380617 1.5175575017929079 1.2217615246772768 6.201488971710206 4.810650348663331 0.83725237846374523 7.172804832458497 9.9782672723134365 0.78176151191764676 -0.15208718494349086 -0.32177853584289545 0.7543638050556184 8.2017817497253436 -0.0013014844573564636 1.3602568507194521 0.69928812980651867 0.55543802234893513 0.65423172712326061 1.1399245858192446
decision_type=2 2 2 2 2 2 2 2 2 2 2 2 2 2 2 2 2 2 2 2 2 2 2 2 2 2 2 2 2 2 2 2 2 2 2 2 2 2 2 2 2 2 2 2 2 2 2
left_child=1 3 5 7 8 12 15 16 21 -8 42 25 37 32 -14 26 -1 23 19 29 -21 -3 41 30 -25 -6 -4 -18 35 -12 -10 -32 -7 -27 -35 -15 -9 -2 -20 -13 -41 -11 43 -5 -26 46 -17
right_child=2 4 6 10 11 13 9 36 17 22 18 39 14 28 -16 45 27 -19 38 20 -22 -23 -24 24 44 33 -28 -29 -30 -31 31 -33 -34 34 -36 -37 -38 -39 -40 40 -42 -43 -44 -45 -46 -47 -48
leaf_value=-0.011229208521875707 0.00074105505129402102 -0.0060616308691304847 0.008456293526910642 -0.0090494972772248231 -0.0026192936350152192 -0.0004797714205670844 0.01094738041610578 -0.0097689257099158062 -0.0049576017778400587 0.010106289481668416 -0.0069948377688470844 -0.00028541505815949097 0.0022304789241776113 0.0068737871042650559 0.0045447784359586314 0.0076945056722424647 -0.010436688709875401 -0.0010264253560512916 -0.0066252158111806403 0.0023713691752742638 -0.0065188614548741409 -0.0043968804077402068 0.0013348962502614423 0.00061981703665115048 -0.0037459749049915838 -0.0013540288523012809 0.00973695317900025 -0.0076834517226988851 0.0075696813629367553 -0.0044875676337751561 -0.0041708534860436753 -0.00099948718384429815 0.0048174080802019133 0.005260844951603361 -2.9642034608636393e-05 0.0049115232497178099 -0.0083067926711038482 0.002389330777738622 -0.012650829649663398 0.0032764205788417956 0.0001566235697140581 0.0050025203519447744 -0.0071171271456097057 -0.0078499189621181516 -0.0012951846955126117 0.0081679991490197414 0.0024591787265914418
leaf_weight=14985 1430 2808 3773 3471 1398 100 31237 8226 2130 203 5899 2083 1793 1401 2244 136 4741 623 107 109 136 2568 107 261 1502 2820 3851 431 1904 478 1110 472 1516 102 803 1224 1401 2176 174 567 928 157 1502 3027 497 410 191
leaf_count=14985 1430 2808 3773 3471 1398 100 31237 8226 2130 203 5899 2083 1793 1401 2244 136 4741 623 107 109 136 2568 107 261 1502 2820 3851 431 1904 478 1110 472 1516 102 803 1224 1401 2176 174 567 928 157 1502 3027 497 410 191
internal_value=-4.36207e-05 -0.00737875 0.00885867 -0.00953216 -0.00272344 0.00419175 0.0104646 -0.0105122 -0.00423883 0.0108806 -0.00757295 -0.000638286 0.00267746 0.00607443 0.00351771 0.00888593 -0.0109679 -0.00339972 -0.00680486 -0.00665126 -0.00257005 -0.00526738 0.00640224 -0.00364708 -0.00270359 -0.0013595 0.00910437 -0.0102088 0.00663883 -0.00680763 -0.00422064 -0.00322588 0.00448952 -0.000886119 0.000571782 0.00596103 -0.00955703 0.00173608 -0.010388 0.000394441 0.00134125 0.0079005 -0.00823478 -0.00849198 -0.0031376 0.00661702 0.00465338
internal_weight=119212 65359 53853 44687 20672 13788 40065 29784 11971 31704 14903 8701 7643 6145 4037 8361 20157 6595 6903 6622 245 5376 467 5972 2260 5123 7624 5172 4529 6377 3712 1582 1616 3725 905 2625 9627 3606 281 3578 1495 360 8000 6498 1999 737 327
internal_count=119212 65359 53853 44687 20672 13788 40065 29784 11971 31704 14903 8701 7643 6145 4037 8361 20157 6595 6903 6622 245 5376 467 5972 2260 5123 7624 5172 4529 6377 3712 1582 1616 3725 905 2625 9627 3606 281 3578 1495 360 8000 6498 1999 737 327
is_linear=0
shrinkage=0.05


Tree=16
num_leaves=48
num_cat=0
split_feature=0 0 3 4 0 2 3 3 0 2 4 2 40 33 40 41 7 3 3 5 40 41 9 5 41 8 8 40 28 7 9 7 41 33 9 6 8 11 29 11 41 13 23 1 40 33 1
split_gain=2773.48 239.236 131.06 59.994 31.5498 24.6077 11.1016 10.5817 4.71734 4.19266 3.21727 2.89994 2.84269 2.83544 2.29622 2.04655 2.01135 1.90115 1.61237 1.46923 1.43018 1.42929 1.41114 1.38127 1.22688 1.12906 1.11504 1.11229 1.09426 1.3689 1.32558 1.05756 1.03191 0.994928 0.95981 0.954087 0.952109 0.960639 0.91453 0.908096 0.869925 0.906062 0.86538 0.853476 0.841228 1.33347 0.803659
threshold=8.6370735168457049 6.504479408264161 10.148758888244631 23.7657585144043 5.2640027999877939 7.4098966121673593 11.751858711242678 9.146029472351076 4.5300655364990243 8.0491657257080096 22.628683090209964 5.9290301799774179 -0.51864980417341189 24.802468485302398 -0.1088409674838548 -0.32136297141497111 1.1287220120429995 8.1516718864440936 10.961166858673097 0.67501193284988414 -0.75166088996455094 -0.51864980417341189 0.7543638050556184 0.69861027598381054 -0.55543802234893469 -0.88317307829856861 0.10823903232812883 -0.64278760968653914 6.4937762286927976 1.1537541747093203 0.69503536820411693 1.457726836204529 0.19504389580251666 8.0195598204930629 -0.97632834315299977 0.073806565254926695 -0.74258911609649647 28.760942459106449 1.7961084406185714 28.988749504089359 -0.32136297141497111 1003.0877990722657 8.6159472465515154 3.5539565086364751 0.40265084705289472 8.4307467010286139 8.9874825477600115
decision_type=2 2 2 2 2 2 2 2 2 2 2 2 2 2 2 2 2 2 2 2 2 2 2 2 2 2 2 2 2 2 2 2 2 2 2 2 2 2 2 2 2 2 2 2 2 2 2
left_child=1 4 7 6 8 15 18 14 23 21 -8 -6 40 -5 46 19 -12 33 27 26 -11 36 39 43 25 -13 -3 -4 30 -30 -17 -10 -18 -16 -21 -27 -7 -38 -25 42 -9 -42 -22 -1 -23 -46 -2
right_child=2 5 3 13 11 9 10 12 31 20 16 24 -14 -15 17 28 32 -19 -20 34 22 44 -24 38 -26 35 -28 -29 29 -31 -32 -33 -34 -35 -36 -37 37 -39 -40 -41 41 -43 -44 -45 45 -47 -48
leaf_value=-0.011011433125512914 0.00076422859008752034 -0.0050050114187400766 0.0065492024696620537 -0.0023984978652813217 -0.0078009995713175257 -0.002566690954180923 0.010400040680530713 0.0054609714696415125 -0.0092481822803278119 -0.0014727915968907475 0.0090720439479970508 -0.007672253552559731 0.0063219337294288984 -0.010692978135120939 -0.00054856106572694996 -0.0069953241204775852 -0.00099760120956315901 0.0042040678527318675 0.0090504355894507789 -0.0054509217372031571 -0.0011438493298240053 -0.0030041261370025432 0.0016475712955551327 -0.0092991699655058033 -0.006820937974041999 -0.0056046203844291095 -0.0030119746540318484 0.0082219563558367462 -0.0058471033368604607 -0.0038708998205922458 -0.0041206128607270088 -0.0073840841782317895 0.0060376950995235422 0.0027275231207903217 -0.00085820168115444378 -0.0029811078180784251 -0.00052196220047224324 0.0040066117995593235 -0.0045924164551502935 0.0038365728751159622 0.0021646113165682849 0.0046147187479510894 0.00098583931604345298 -0.010291947349486876 -0.0023542974235810773 0.00094988630618399498 0.0023496665805579761
leaf_weight=6791 1380 1475 1486 153 7961 550 31366 771 8634 1161 271 403 3846 319 333 1224 104 2696 4234 136 1560 2407 1638 1346 4613 995 1352 3196 1349 2540 605 862 103 759 674 538 1375 127 115 127 758 757 686 11997 1225 406 1903
leaf_count=6791 1380 1475 1486 153 7961 550 31366 771 8634 1161 271 403 3846 319 333 1224 104 2696 4234 136 1560 2407 1638 1346 4613 995 1352 3196 1349 2540 605 862 103 759 674 538 1375 127 115 127 758 757 686 11997 1225 406 1903
internal_value=-1.50424e-05 -0.00699828 0.0083071 0.0096954 -0.00907072 -0.00254952 0.00990068 0.00397111 -0.0100034 -0.000975009 0.0103379 -0.00715815 0.00549115 -0.00801506 0.00265232 -0.0044447 0.00624377 0.00349118 0.00833833 -0.0035153 7.18712e-05 -0.00186395 0.000519236 -0.0104361 -0.00637564 -0.00531162 -0.00405325 0.00769256 -0.00503513 -0.00455772 -0.00604719 -0.00907976 0.00251525 0.00172891 -0.0016351 -0.00468645 -0.000788904 -0.000136643 -0.00893208 -0.000259981 0.00409128 0.00339109 -0.000493225 -0.0105526 -0.00240993 -0.00153172 0.00168367
internal_weight=119307 64872 54435 41232 44255 20617 40760 13203 29745 11262 31844 14510 6132 472 7071 9355 478 3788 8916 3637 5172 6090 4011 20249 6549 1936 2827 4682 5718 3889 1829 9496 207 1092 810 1533 2052 1502 1461 2373 2286 1515 2246 18788 4038 1631 3283
internal_count=119307 64872 54435 41232 44255 20617 40760 13203 29745 11262 31844 14510 6132 472 7071 9355 478 3788 8916 3637 5172 6090 4011 20249 6549 1936 2827 4682 5718 3889 1829 9496 207 1092 810 1533 2052 1502 1461 2373 2286 1515 2246 18788 4038 1631 3283
is_linear=0
shrinkage=0.05


Tree=17
num_leaves=48
num_cat=0
split_feature=16 3 16 16 1 16 16 2 16 17 16 4 3 40 16 40 40 7 7 40 15 5 8 7 5 14 43 10 10 3 40 14 40 4 19 43 40 4 30 3 35 7 33 7 5 43 7
split_gain=2530.25 178.824 171.155 23.504 18.31 16.1235 11.8734 2.81086 2.72363 2.55719 2.47968 2.21067 2.0534 1.62635 1.589 1.51652 1.46295 1.3796 1.37548 1.29729 1.20908 1.22773 1.16416 1.07784 1.07448 1.80312 1.42267 1.16035 1.07237 1.06735 1.03944 1.11648 1.03561 1.1533 0.995405 0.99352 0.930685 0.969822 0.915604 0.904233 0.888536 0.872787 0.87078 0.86731 0.85384 0.820914 0.818635
threshold=0.53177515896846861 9.8263335227966326 0.20290543368394412 0.35621413949410635 4.8152439594268808 0.95633746643311246 0.69973636951183249 5.4140892028808603 0.26885764925600947 24.142208099365238 0.42446700245018171 8.2562274932861346 13.089016437530519 -0.57357643635104605 0.039282153568139959 -0.53729960834682411 -0.85470842479866216 1.6592950820922854 1.6220570206642153 -0.15208718494349086 1.2230446338653567 1.8692965507507326 -0.06258335709571837 1.4036214351654055 0.94845095276832592 0.058248199522495277 0.95178258287705175 3.2027485370635991 3.0043414831161503 9.221870422363283 -0.17364817766693016 0.14544457942247394 -0.27976242230339726 6.6005892753601083 9.1836395263671893 0.81800285027139286 -0.32136297141497117 5.4001159667968759 7.0043301582336435 7.7419209480285653 6.1495656967163095 1.2788403034210207 8.0661878585815447 1.7211195230484011 0.50205346941947948 -0.29342786347392819 1.2900723218917849
decision_type=2 2 2 2 2 2 2 2 2 2 2 2 2 2 2 2 2 2 2 2 2 2 2 2 2 2 2 2 2 2 2 2 2 2 2 2 2 2 2 2 2 2 2 2 2 2 2
left_child=2 6 4 8 14 16 11 46 17 12 23 19 34 -8 43 -13 22 36 30 -2 21 24 -3 -5 35 -26 27 -27 -11 38 -10 44 -12 40 -7 -9 -4 -38 -15 42 -34 -35 45 -1 -32 -21 -6
right_child=1 5 3 10 7 9 13 20 18 28 32 15 -14 29 -16 -17 -18 -19 -20 39 -22 -23 -24 -25 25 26 -28 -29 -30 -31 31 -33 33 41 -36 -37 37 -39 -40 -41 -42 -43 -44 -45 -46 -47 -48
leaf_value=-0.010144352374535313 -0.00019057908191181009 0.0029752897266708501 -0.0065749706112751124 -0.0028635812466831887 -0.008590683377451256 0.0053546557973611231 0.0031663421702087927 -0.0074498530708351791 -0.0050329217045716589 0.0076517472040996881 -0.0017320994555777203 0.0012476097069402665 0.010006403571359464 0.0021935774291125545 -0.0092754294426281251 0.0036095862510226329 0.0075231304660309459 0.00014120344507425803 0.00041776756605607754 -0.0027846101611104157 -0.0015790438866063667 -0.011433503668134412 0.0064588709251873662 -0.00040825326229150077 0.00031529412852283455 -0.00064015030911119262 -0.011247517515492059 -0.0061942236841090008 0.0023665639530664603 0.0056225085597499322 -0.0034529999814094572 -0.0044395107225402731 -0.0025441958868324403 0.0001084391328858149 0.009203096023772948 -0.0054284079730606881 -0.005970593546552141 -0.0042836023817178328 0.0046613293497011427 0.0021313192852681585 -0.00019320694931908002 0.0037422186480815995 0.0015075590946516293 -0.0054087701674742517 -0.00084601963248222094 0.002069492021975526 -0.0073559816999860285
leaf_weight=13666 2007 300 2157 3445 5799 176 1997 6179 2653 286 2368 1228 25247 504 10141 1525 5952 101 160 311 103 158 1249 514 111 101 132 1413 146 2337 1056 2260 798 1704 9182 689 2002 1511 1511 1838 809 182 604 101 448 120 1823
leaf_count=13666 2007 300 2157 3445 5799 176 1997 6179 2653 286 2368 1228 25247 504 10141 1525 5952 101 160 311 103 158 1249 514 111 101 132 1413 146 2337 1056 2260 798 1704 9182 689 2002 1511 1511 1838 809 182 604 101 448 120 1823
internal_value=-9.498e-06 0.00765909 -0.00693506 -0.00340425 -0.00887155 0.00927149 0.00275331 -0.00758954 -0.00485609 0.00972217 -0.00157836 0.00142416 0.00977002 0.00435078 -0.00975641 0.00255684 0.00716534 -0.00564974 -0.00415894 0.000784777 -0.00698238 -0.00704555 0.00578655 -0.00254499 -0.00696386 -0.00585013 -0.00626585 -0.00582437 0.00587514 0.00489343 -0.00427311 -0.00373637 -0.0009251 -0.000377675 0.0091313 -0.00724788 -0.0057529 -0.00524642 0.00404548 0.00146596 -0.00136151 0.000460898 0.000283478 -0.01011 -0.00267753 -0.00143146 -0.00829638
internal_weight=119104 56520 62584 22168 40416 42538 13982 16508 12348 35037 9820 7633 34605 6349 23908 2753 7501 5771 6577 4880 8886 8783 1549 3959 8625 1757 1646 1514 432 4352 6417 3764 5861 3493 9358 6868 5670 3513 2015 2873 1607 1886 1035 13767 1504 431 7622
internal_count=119104 56520 62584 22168 40416 42538 13982 16508 12348 35037 9820 7633 34605 6349 23908 2753 7501 5771 6577 4880 8886 8783 1549 3959 8625 1757 1646 1514 432 4352 6417 3764 5861 3493 9358 6868 5670 3513 2015 2873 1607 1886 1035 13767 1504 431 7622
is_linear=0
shrinkage=0.05


Tree=18
num_leaves=48
num_cat=0
split_feature=16 16 16 1 16 16 3 0 16 26 1 2 4 40 33 17 37 24 26 7 7 9 18 7 9 18 9 40 9 40 9 40 8 4 14 40 28 9 26 13 23 25 40 14 28 11 35
split_gain=2283.17 191.233 118.973 25.9553 19.4831 11.7807 7.13854 3.55637 3.21841 2.96824 2.3436 2.28874 2.20527 1.61352 1.56301 2.62999 1.76418 1.34483 1.31177 1.15156 1.11932 1.13651 1.20845 1.0872 1.24305 1.54522 1.08587 1.32523 1.07544 1.07509 1.06001 1.03773 1.01249 1.04517 0.966195 0.94544 0.910989 0.889564 0.889419 0.88066 0.865808 0.850884 0.84396 0.923886 0.953816 0.810303 0.788125
threshold=0.58463629360317171 0.24784046536669566 0.88751446698145042 5.225929021835328 0.38692616054751139 0.77091835726568492 11.850675106048586 4.5300655364990243 0.49598348135847264 24.996820449829105 5.8077964782714853 7.0757427215576181 8.4617848396301287 -0.5 24.802468485302398 8.4113245010375994 0.021387094734871877 2.1326334147815955 6.7783553600311288 1.1958969235420229 1.1923510432243349 0.74451133608818065 6.5065257549285898 1.4036214351654055 0.86060801148414623 7.4121451377868661 0.85124725103378307 -0.36235178784537903 0.69928812980651867 -0.1088409674838548 0.86060801148414623 -0.70710678118654735 0.56702786684036266 22.628683090209964 0.25022520124912268 1.0000000180025095e-35 8.1753440433078364 0.63589495420455944 6.7783553600311288 1005.3426208496095 6.0891834497451791 7.7597205638885507 -0.98055188006607052 0.25988940894603735 8.03078701761034 28.988749504089359 5.6315681934356698
decision_type=2 2 2 2 2 2 2 2 2 2 2 2 2 2 2 2 2 2 2 2 2 2 2 2 2 2 2 2 2 2 2 2 2 2 2 2 2 2 2 2 2 2 2 2 2 2 2
left_child=1 3 5 7 11 12 17 18 23 -8 -5 20 29 -14 15 19 -16 31 -1 37 28 46 -23 24 35 -26 27 -7 -3 -2 -21 -4 -11 -34 -25 -6 -29 -12 -9 -17 -30 -31 -10 -44 -45 -13 -22
right_child=2 4 6 10 8 26 9 38 42 32 14 45 13 -15 16 39 -18 -19 -20 30 21 22 -24 34 25 -27 -28 36 40 41 -32 -33 33 -35 -36 -37 -38 -39 -40 -41 -42 -43 43 44 -46 -47 -48
leaf_value=-0.0094566400389754987 0.00083717396556156178 -0.0061291933463935439 0.006902184209650864 -0.0071504270346293176 -0.0030626552245777939 0.0037271933253045344 0.0094110784063209055 -0.0083386970046038494 -0.0024757416941748756 0.0078929102488069069 -0.0074391087089799345 -0.0031033282226475547 0.0022123444841387905 0.0043012473735458958 -0.0041854422400189962 0.0031033075079047942 -0.012025668688330323 0.0024645297032815298 -0.0067076934636325428 -0.0054542371840374032 -0.0046484666744932108 0.0033653277917953862 -0.0032081629217370713 0.003014096697531912 0.0017295098950092305 -0.0017352722308517634 0.0063815481127718846 0.0027565864107889377 -0.0022031551329732444 0.00093067957452109054 -0.0018090932853357476 0.0081481010186680095 0.0066470991732497323 -0.00016664917320667884 -0.00095602707855152631 -0.0015228212310958095 0.0059516605314102189 -0.0059241741636313627 -0.0064585155014097381 -0.0033465696947479794 -0.0048083895136045406 0.0029502025319515452 0.00081635614784392088 -0.0027890132390679997 0.00042776914824125406 2.6487778999250047e-05 -0.0026698459928198499
leaf_weight=19641 1973 1404 2379 7077 1871 1481 30899 8278 270 179 1528 3706 1694 2045 111 101 210 121 455 3208 1685 110 188 222 496 912 1881 251 389 725 214 6079 100 127 489 2141 2208 2785 702 109 1836 1869 3143 407 529 219 725
leaf_count=19641 1973 1404 2379 7077 1871 1481 30899 8278 270 179 1528 3706 1694 2045 111 101 210 121 455 3208 1685 110 188 222 496 912 1881 251 389 725 214 6079 100 127 489 2141 2208 2785 702 109 1836 1869 3143 407 529 219 725
internal_value=6.28221e-06 -0.00629452 0.0076078 -0.00814547 -0.00233053 0.00366443 0.00900442 -0.00902371 -0.000814018 0.00935517 -0.00648066 -0.00387902 0.00245521 0.00335569 -0.00590644 -0.00576672 -0.00933598 0.00772358 -0.00939474 -0.00591659 -0.00446705 -0.00369451 -0.000778567 -0.0015519 -0.00179301 -0.000514363 0.00538915 0.00491387 -0.00504236 0.00171741 -0.00522688 0.00779852 0.00508784 0.00285099 0.000286082 -0.00224151 0.00562678 -0.00646248 -0.00819245 -0.00024448 -0.00435411 0.00238634 0.000226321 0.000405741 -0.000972465 -0.00292873 -0.00405459
internal_weight=119172 65161 54011 44419 20742 14127 39884 29076 10480 31305 15343 10262 8306 3739 8266 7945 321 8579 20096 7735 6337 2708 298 6131 5420 1408 5821 3940 3629 4567 3422 8458 406 227 711 4012 2459 4313 8980 210 2225 2594 4349 4079 936 3925 2410
internal_count=119172 65161 54011 44419 20742 14127 39884 29076 10480 31305 15343 10262 8306 3739 8266 7945 321 8579 20096 7735 6337 2708 298 6131 5420 1408 5821 3940 3629 4567 3422 8458 406 227 711 4012 2459 4313 8980 210 2225 2594 4349 4079 936 3925 2410
is_linear=0
shrinkage=0.05


Tree=19
num_leaves=48
num_cat=0
split_feature=2 3 1 4 0 0 0 3 0 43 5 41 41 0 8 4 0 5 4 41 8 2 6 6 41 40 31 30 5 41 3 21 40 4 15 35 8 8 5 43 40 4 15 41 31 29 30
split_gain=2033.06 141.016 139.691 43.0704 20.5816 12.2218 11.3412 10.5056 2.79019 2.70384 2.397 2.14284 1.97335 1.7569 1.69975 1.69191 1.68499 1.63319 1.38405 1.38045 1.83849 1.31913 1.28477 1.28361 1.3714 1.27282 1.22608 1.20948 1.08832 1.0445 0.972336 0.935138 0.915007 1.13617 0.900063 0.880935 0.860988 0.901409 0.83328 0.815072 0.8142 0.850545 0.792958 0.766155 0.802106 0.74317 0.700988
threshold=8.3131504058837908 9.987741947174074 6.0500724315643319 23.7657585144043 7.1716132164001474 4.741438865661622 9.2473897933959979 11.301966667175295 7.6992721557617196 0.91852788691372023 1.6250390410423281 -0.62577451934762984 -0.55543802234893469 10.009250640869142 -0.86968746781349171 22.0157585144043 5.4133634567260751 0.69861027598381054 12.842591285705568 -0.59116893267988335 -0.26195740699768061 8.8172526359558123 0.073017064481973662 0.06102553382515908 0.60876142900872032 -0.3007057995042734 7.099205970764161 4.444848060607911 0.47687748074531561 -0.27976242230339671 3.8888291120529179 7.2996444702148446 -0.32136297141497117 6.6005892753601083 1.1648852229118349 6.201488971710206 -0.85647657513618458 0.58921071887016307 1.6659019589424136 -0.31800055644052067 -0.60876142900872077 5.8001749515533456 1.1601594686508181 -0.6913484944011038 8.4275050163269061 0.79644207867884831 5.6062123775482187
decision_type=2 2 2 2 2 2 2 2 2 2 2 2 2 2 2 2 2 2 2 2 2 2 2 2 2 2 2 2 2 2 2 2 2 2 2 2 2 2 2 2 2 2 2 2 2 2 2
left_child=2 6 5 7 12 17 11 25 38 10 -5 36 14 19 -4 18 43 30 42 -8 -21 -13 -16 -17 45 29 -14 -27 39 -3 -1 -19 -10 35 -31 -34 -2 -38 40 -28 -6 -42 -9 44 -7 -25 -30
right_child=1 3 4 9 8 16 13 15 32 -11 -12 21 26 -15 22 23 -18 31 -20 20 -22 -23 -24 24 -26 27 28 -29 46 34 -32 -33 33 -35 -36 -37 37 -39 -40 -41 41 -43 -44 -45 -46 -47 -48
leaf_value=-0.0092230131608526823 -0.00066961650746120342 0.0070282740902420718 -0.0057056383515868281 0.0030514700498030177 -0.0036188277404950227 -0.0069414046808584486 0.0047189431329431961 0.0075325391103087643 -0.0016124160202356447 -0.010088967829942704 -0.0076662075749346029 4.2445534208356944e-05 -0.0060367223578083719 0.0051374839696888474 -0.003846936469780949 0.0081205421266955426 -0.0064888968791808211 -0.0077977449410564122 0.0090855272358672419 -0.00055904508138056243 0.0033157870875894987 0.0016170810057844409 -0.001667858035969002 0.0048686941219657142 0.0088275559067110942 0.0034966331229210183 -0.0065333458284728731 0.0075593320855477375 -0.0048400791240038156 0.0037187680169856658 -0.0085004700469671554 -0.0040996944732390921 -0.002478196157798786 0.00050916711929161862 0.0060244697299396376 -7.9360498570462665e-05 0.0032622934862008069 -0.00033292295003175431 0.00083633963052094228 -0.0047440990997436976 -0.0032828297878401422 -0.0016358144563409002 0.0086243198663219032 -0.0078127354985051585 -0.00270758576089892 -0.00080989340557040181 -0.0034177102094379765
leaf_weight=13601 183 1537 782 101 1328 2090 1599 2271 2224 264 106 2982 2174 2403 1933 572 7526 1703 23919 338 3218 2400 1044 113 108 195 1011 3837 1606 636 7441 194 793 1893 1308 739 1786 193 187 1782 1159 2433 7108 6203 120 116 1917
leaf_count=13601 183 1537 782 101 1328 2090 1599 2271 2224 264 106 2982 2174 2403 1933 572 7526 1703 23919 338 3218 2400 1044 113 108 195 1011 3837 1606 636 7441 194 793 1893 1308 739 1786 193 187 1782 1159 2433 7108 6203 120 116 1917
internal_value=1.01779e-05 0.00679725 -0.00627349 0.00828132 -0.00318506 -0.00810085 0.00265086 0.00845109 -0.00158887 -0.00674282 -0.00244728 0.00127914 -0.00458644 0.00401969 -0.00363043 0.00882325 -0.00703602 -0.0088404 0.00888165 0.00349773 0.00294743 0.000744794 -0.00308358 0.00667643 0.00420851 0.00675571 -0.00500925 0.00736376 -0.00465469 0.0060495 -0.00896792 -0.00742192 -0.000822952 -0.000309998 0.00527244 -0.00132186 0.00260838 0.00291168 -0.00243576 -0.00539387 -0.00256027 -0.00216801 0.00836079 -0.00752464 -0.00671284 0.00200119 -0.0040673
internal_weight=119176 57293 61883 42191 23005 38878 15102 41720 10756 471 207 7544 12249 7558 3759 34207 15939 22939 33298 5155 3556 5382 2977 909 337 7513 8490 4032 6316 3481 21042 1897 5649 3425 1944 1532 2162 1979 5107 2793 4920 3592 9379 8413 2210 229 3523
internal_count=119176 57293 61883 42191 23005 38878 15102 41720 10756 471 207 7544 12249 7558 3759 34207 15939 22939 33298 5155 3556 5382 2977 909 337 7513 8490 4032 6316 3481 21042 1897 5649 3425 1944 1532 2162 1979 5107 2793 4920 3592 9379 8413 2210 229 3523
is_linear=0
shrinkage=0.05


Tree=20
num_leaves=48
num_cat=0
split_feature=0 0 3 23 0 0 3 4 1 3 1 1 40 4 7 40 37 40 8 27 15 41 3 40 9 7 14 40 41 7 41 5 5 30 5 7 15 35 7 7 29 9 31 3 5 23 7
split_gain=1832.7 163.968 81.711 42.7185 20.9543 16.7954 7.39459 5.68359 2.72688 2.4334 2.20152 2.18895 1.92026 1.77505 1.63152 1.50163 1.40492 1.39896 1.30868 1.28077 1.26096 1.1933 1.16965 1.12831 1.15962 1.1239 1.06783 1.05283 1.05106 1.05104 1.00345 0.975726 0.929753 0.91296 0.901569 0.895309 0.868127 0.857282 0.921286 0.845141 0.798592 0.78912 0.762476 0.746439 0.740329 0.738937 0.72151
threshold=8.6933422088623065 6.504479408264161 10.308000087738039 25.147317250569667 5.223886489868165 7.5546374320983896 9.221870422363283 11.300841808319094 4.2811350822448739 7.9150738716125497 7.12854027748108 5.8900496959686288 -0.53729960834682411 22.0157585144043 1.420348644256592 -0.043619387365335778 0.18338954218566186 -0.40265084705289439 0.81834751367568981 0.049449607304164041 1.1617879867553713 -0.55543802234893469 8.6668968200683612 -0.043619387365335778 0.71997302770614635 1.2381614446640017 0.25659458339214331 -0.17364817766693016 -0.51864980417341189 1.5175575017929079 -0.32136297141497111 1.6250390410423281 1.2540585994720461 5.4355058670043954 0.57128292322158825 1.7211195230484011 1.1576567292213442 6.1038217544555673 1.1744499802589419 1.1763113737106325 0.74261772905665635 0.68036237359046947 25.612100601196293 13.663491249084474 1.0826076269149782 9.0293380419413278 1.2504652738571169
decision_type=2 2 2 2 2 2 2 2 2 2 2 2 2 2 2 2 2 2 2 2 2 2 2 2 2 2 2 2 2 2 2 2 2 2 2 2 2 2 2 2 2 2 2 2 2 2 2
left_child=1 4 6 7 8 10 15 27 35 14 23 44 30 43 18 -2 42 40 20 31 37 25 45 -3 32 -13 -16 28 -4 -10 -8 -5 -25 -29 -26 -1 -30 -7 -39 -22 -11 -41 -15 -9 -6 -17 -19
right_child=2 5 3 19 11 9 12 13 29 17 -12 21 -14 16 26 22 -18 46 -20 -21 39 -23 -24 24 34 -27 -28 33 36 -31 -32 -33 -34 -35 -36 -37 -38 38 -40 41 -42 -43 -44 -45 -46 -47 -48
leaf_value=-0.0086094447929088193 0.0016136920769161704 -0.0046786767110427513 0.0074442329457919442 -0.0012449881953407863 -0.0065998610372643351 -0.0025709167609135378 0.0050248135668165246 0.0080967271690160127 -0.0077043122165293592 -0.001594549986297814 -0.002508832323922067 -0.0048111617422200393 0.0053390022890450767 0.0077916292318577973 0.0033080793038382135 0.0013125984085208091 0.00074136519665794027 0.0012448281640301154 -0.0061361283263544897 -0.01025095798415006 -0.00098577447762949609 -0.0056416895676890694 0.0040365282245168185 -0.0045515325310876448 -0.0025615921210031005 -0.0019783748268468568 -0.00033316745534478845 0.0047379901246001411 0.0043305171240630236 -0.0056404032442389576 0.0028465520843477653 -0.00721826844050416 -0.0020963314828472304 0.0077362587870292814 0.0019904487989535016 -0.0041487730143026603 0.0063555974461785222 -0.0029742969775022133 -0.00022346550131620085 -0.0016930169434220131 0.00062697342566217051 0.0021768823411122303 0.0041053616843481407 0.0086585998378372817 -0.0050170077577860253 0.0032727943791478024 0.0053636365406738041
leaf_weight=16747 3444 3061 1455 113 7038 2021 790 8455 11479 842 4200 1663 4184 622 298 1028 103 1609 142 184 1772 4906 1685 1800 1097 446 616 279 768 666 1618 174 494 3677 120 116 1782 422 1086 181 777 477 186 22418 845 906 113
leaf_count=16747 3444 3061 1455 113 7038 2021 790 8455 11479 842 4200 1663 4184 622 298 1028 103 1609 142 184 1772 4906 1685 1800 1097 446 616 279 768 666 1618 174 494 3677 120 116 1782 422 1086 181 777 477 186 22418 845 906 113
internal_value=8.34408e-06 -0.00564128 0.00682865 0.00796335 -0.00738285 -0.00202196 0.00348644 0.00814079 -0.00816588 -0.000584097 -0.00340411 -0.00585775 0.00469087 0.00844052 -0.00111298 0.00236181 0.00624889 0.000526394 -0.0014081 -0.00699482 -0.00129443 -0.00521292 0.00307311 -0.00397579 -0.00336184 -0.00421332 0.00085634 0.00694318 0.0063657 -0.00759161 0.00356297 -0.00487891 -0.00402396 0.00752605 -0.00211148 -0.00857901 0.00574763 -0.00189786 -0.000994721 -0.000417671 -0.000528655 0.00111141 0.00694918 0.00850499 -0.00643085 0.00223209 0.00151807
internal_weight=118905 65034 53871 40216 43906 21128 13655 39745 29008 10356 10772 14898 6592 31784 7015 7063 911 3341 6101 471 5959 7015 3619 6572 3511 2109 914 7961 4005 12145 2408 287 2294 3956 1217 16863 2550 3529 1508 2430 1619 658 808 30873 7883 1934 1722
internal_count=118905 65034 53871 40216 43906 21128 13655 39745 29008 10356 10772 14898 6592 31784 7015 7063 911 3341 6101 471 5959 7015 3619 6572 3511 2109 914 7961 4005 12145 2408 287 2294 3956 1217 16863 2550 3529 1508 2430 1619 658 808 30873 7883 1934 1722
is_linear=0
shrinkage=0.05


Tree=21
num_leaves=48
num_cat=0
split_feature=16 16 3 0 16 16 16 1 16 4 2 10 7 16 40 4 40 7 25 40 4 16 7 4 11 3 40 7 7 40 4 8 23 36 5 7 33 3 20 3 25 24 40 14 33 7 8
split_gain=1682.75 140.828 88.3225 21.0153 13.8762 7.17142 6.26309 2.74385 2.18186 2.1331 2.0713 1.65451 1.45805 1.45193 1.43226 1.23026 1.21255 1.14949 1.02978 1.01589 1.0197 0.984657 0.984537 0.942552 0.89417 1.08803 0.87924 0.858553 0.834042 0.944488 0.785915 0.777469 0.752939 0.728901 1.27556 0.716229 0.707663 0.701403 0.773956 0.695358 0.822374 0.688931 0.67975 0.784879 0.936768 0.75128 0.697765
