tree
version=v4
num_class=1
num_tree_per_iteration=1
label_index=0
max_feature_idx=43
objective=regression
feature_names=Column_0 Column_1 Column_2 Column_3 Column_4 Column_5 Column_6 Column_7 Column_8 Column_9 Column_10 Column_11 Column_12 Column_13 Column_14 Column_15 Column_16 Column_17 Column_18 Column_19 Column_20 Column_21 Column_22 Column_23 Column_24 Column_25 Column_26 Column_27 Column_28 Column_29 Column_30 Column_31 Column_32 Column_33 Column_34 Column_35 Column_36 Column_37 Column_38 Column_39 Column_40 Column_41 Column_42 Column_43
feature_infos=[2.7104601860046387:43.217231750488281] [3.0000433921813965:43.323699951171875] [2.3680033683776855:43.110767364501953] [1.131714940071106:41.512752532958984] [0.30076667666435242:38.507698059082031] [0.04651235044002533:5.3894152641296387] [0.0095564322546124458:1.0674921274185181] [1.03141188621521:3.4232673645019531] [-0.99950522184371948:0.99975532293319702] [-0.99981725215911865:0.99979323148727417] [0.38851994276046753:63.677791595458984] [7.2638754844665527:32.852634429931641] [19.187383651733398:99.993667602539062] [962.647216796875:1018.5863647460938] [-0.69778424501419067:2.6352179050445557] [1.107125997543335:1.2565940618515015] [0:1] [0.42454749345779419:40.868247985839844] [0.38694500923156738:39.900077819824219] [0.25336998701095581:39.043350219726562] [0.17867833375930786:37.480850219726562] [0.17867833375930786:36.808876037597656] [0.17867833375930786:34.546630859375] [1.1219303806622822:39.754669189453125] [0.02549734145034931:6.9903004841680385] [0.24899999797344208:37.155525207519531] [2.7104601860046387:43.217231750488281] [-2.6270545005798338:3.4002030781337189] [1.1462504847182169:37.397875467936196] [0.10087023538798497:10.218771558650204] [0.17867833375930786:34.751949310302734] [2.7844674587249756:43.217231750488281] [-1.744450898362387:1.2813510188623356] [1.0232184198167589:34.574833128187393] [0.16405369063560041:13.969288616570999] [0.17867833375930786:28.425033569335938] [2.7844674587249756:45.364334106445312] [-1.2778856219165264:0.78027959937754743] [-10.89921760559082:15.780830383300781] [-21.607711791992188:21.313783645629883] [-1:1] [-1:1] [-0.9999994220246925:0.99998555065071859] [-0.99997919295908233:0.9999907524084426]
tree_sizes=4332 4556 4567 4551 4575 4555 4570 4559 4589 4570 4553 4587 4595 4567 4568 4573 4588 4583 4596 4603 4596 4604 4603 4607 4602 4617 4611 4594 4598 4590 4591 4594 4618 4582 4603 4561 4583 4631 4575 4615 4583 4595 4593 4621 4594 4616 4625 4593 4631 4603 4605 4606 4624 4621 4623 4587 4599 4607 4605 4642 4632 4634 4610 4615 4637 4626 4634 4628 4615 4591 4611 4646 4640 4602 4601 4622 4595 4612 4647 4680 4644 4614 4589 4617 4641 4614 4593 4654 4636 4587 4624 4654 4601 4681 4622 4640 4624 4603 4638 4644 4648 4659 4611 4652 4624 4639 4597 4624 4621 4590 4608 4658 4650 4620 4646 4640 4659 4672 4632 4656 4596 4632 4614 4617 4622 4639 4633 4601 4640 4616 4645 4610 4624 4626 4620 4618 4611 4615 4584 4616 4582 4563 4614 4590 4595 4598 4597 4588 4618 4583 4571 4606 4575 4557 4629 4552 4625 4611 4627 4642 4625 4616 4593 4608 4584 4601 4570 4587 4602 4654

Tree=0
num_leaves=48
num_cat=0
split_feature=2 0 3 23 2 0 0 3 41 23 3 1 2 1 41 1 41 8 41 9 4 8 8 8 41 15 7 1 41 1 9 11 7 2 4 26 41 2 35 7 7 15 41 8 21 38 0
split_gain=13394.5 1086.04 828.065 237.909 129.021 124.637 72.2026 69.3886 16.4621 14.7095 14.6142 14.1739 14.0973 13.2374 13.0911 8.18707 8.05065 7.8674 6.7274 6.01379 5.65411 5.30107 5.22326 5.12229 4.79774 5.68353 4.38366 4.32169 4.14632 4.03161 3.73344 3.57052 3.56413 3.49975 3.46163 3.23531 3.21939 3.21205 3.14952 2.97978 2.65489 2.61452 2.4286 2.41426 2.41066 2.55532 2.41046
threshold=8.5253200531005877 6.3355894088745126 10.308948040008547 25.056162039438885 7.4102311134338388 5.0400834083557138 9.3770933151245135 11.849934101104738 -0.40265084705289439 23.983764330546062 9.6722254753112811 5.6911175251007089 8.0492005348205584 4.1399192810058603 -0.46174861323503363 6.8990633487701425 -0.51864980417341189 -0.85652154684066761 -0.40265084705289439 0.82277426123619091 12.525475025177004 0.49925820529460913 -0.27387973666191096 -0.88321083784103382 -0.51864980417341189 1.1601921916007998 1.3666887283325198 6.8539042472839364 -0.62577451934762984 8.8662776947021502 0.7519911825656892 25.670157432556156 1.3602550029754641 10.237743377685549 22.580557823181156 6.9041965007781991 -0.46174861323503363 11.021241664886476 3.6194204092025761 1.3156615495681765 1.3602550029754641 1.1618161797523501 -0.62577451934762984 -0.43982188403606409 25.213444709777836 -0.159581184387207 7.6994316577911386
decision_type=2 2 2 2 2 2 2 2 2 2 2 2 2 2 2 2 2 2 2 2 2 2 2 2 2 2 2 2 2 2 2 2 2 2 2 2 2 2 2 2 2 2 2 2 2 2 2
left_child=1 5 6 7 8 13 14 24 17 20 31 39 16 35 19 -10 23 -3 30 -2 -9 -5 -16 -6 -4 -26 36 40 -12 -24 38 -8 -15 -30 -11 -1 -13 -27 -14 -7 -19 -20 -33 -35 -23 -46 -18
right_child=2 4 3 21 12 11 10 9 15 34 28 26 18 32 22 -17 46 27 41 -21 -22 44 29 -25 25 37 -28 -29 33 -31 -32 42 -34 43 -36 -37 -38 -39 -40 -41 -42 -43 -44 -45 45 -47 -48
leaf_value=0.49503901869195088 0.52334988379292668 0.50640308490071706 0.53810843369648031 0.49663997755406541 0.51088154809983244 0.49975009165055739 0.52874439160295184 0.54034768300874658 0.5053498540582716 0.53817966220354063 0.5341789448411024 0.50431589273756772 0.51047026281946561 0.4970206374796976 0.51576319879168475 0.50878154454617031 0.51187074153837242 0.50909056187417767 0.51530389211355621 0.52848569736010809 0.54220153908402102 0.51408183749937375 0.51963285794944736 0.51803955245815247 0.53255586143979317 0.53375050281310676 0.50589153008568166 0.51364658940705854 0.52820249825568721 0.52293565573438394 0.52354660620580407 0.52850646632151033 0.49955291325809009 0.52566016132716975 0.52931010529263955 0.5014513547660745 0.50188222797118875 0.53733875077128324 0.51977217075421256 0.50209754907469528 0.51463423988501633 0.51843126405044337 0.52458365022317455 0.53271588439799411 0.51073333779432917 0.5000038044437155 0.51433731533585558
leaf_weight=14799 1353 811 3455 128 290 6112 2915 5126 4044 187 1277 2181 103 10005 449 3082 1869 1308 1450 989 25628 128 1666 1772 1162 823 1393 1716 934 2076 710 596 1707 136 280 212 3911 3057 727 1835 261 1239 1194 1421 116 110 2126
leaf_count=14799 1353 811 3455 128 290 6112 2915 5126 4044 187 1277 2181 103 10005 449 3082 1869 1308 1450 989 25628 128 1666 1772 1162 823 1393 1716 934 2076 710 596 1707 136 280 212 3911 3057 727 1835 261 1239 1194 1421 116 110 2126
internal_value=0.518479 0.50285 0.536503 0.540244 0.511993 0.498185 0.526479 0.540668 0.508285 0.541759 0.529525 0.501765 0.516038 0.496118 0.522529 0.506832 0.514491 0.510815 0.518253 0.525522 0.541893 0.50535 0.520854 0.51703 0.536656 0.535657 0.503334 0.511907 0.531847 0.521466 0.520888 0.527662 0.497388 0.530646 0.532896 0.495128 0.502751 0.536582 0.51861 0.50029 0.51001 0.516744 0.525895 0.532105 0.508552 0.505453 0.513182
internal_weight=118869 63663 55206 40200 21508 42155 15006 39718 11222 31221 8473 15432 10286 26723 6533 7126 6057 4096 4229 2342 30754 482 4191 2062 8497 5042 7485 3285 3768 3742 1540 4705 11712 2491 467 15011 6092 3880 830 7947 1569 2689 1790 1557 354 226 3995
internal_count=118869 63663 55206 40200 21508 42155 15006 39718 11222 31221 8473 15432 10286 26723 6533 7126 6057 4096 4229 2342 30754 482 4191 2062 8497 5042 7485 3285 3768 3742 1540 4705 11712 2491 467 15011 6092 3880 830 7947 1569 2689 1790 1557 354 226 3995
is_linear=0
shrinkage=1


Tree=1
num_leaves=48
num_cat=0
split_feature=16 1 3 16 16 16 3 16 41 40 41 23 16 16 4 16 16 41 3 4 41 31 40 4 40 7 40 41 7 31 7 41 40 40 41 40 30 16 40 15 28 17 43 41 4 41 10
split_gain=12276.5 979.881 780.043 130.146 103.408 64.92 61.2918 16.7698 14.4772 13.2451 12.9213 12.474 11.5647 10.9826 7.52833 7.45616 7.367 7.25405 6.99644 6.27306 6.17107 6.59337 5.92984 5.11094 4.38605 4.3569 4.15529 3.92878 3.62514 3.43447 3.32484 3.31441 3.28887 3.21675 3.18478 3.05312 2.94206 2.8795 2.87082 3.67832 3.3069 2.89197 2.85658 2.72711 2.73788 2.6456 3.29868
threshold=0.56891234397888202 6.257606267929078 10.308948040008547 0.38695296525955208 0.095470027923584014 0.74640191078186047 11.664524555206301 0.30874945402145393 -0.46174861323503363 -0.53729960834682411 -0.51864980417341189 23.983764330546062 0.14742801189422611 0.036210986375808725 12.304600238800051 0.49598344326019289 0.64270828247070322 -0.55543802234893469 9.3703036308288592 8.6731991767883319 -0.46174861323503363 26.848133087158207 -0.17364817766693016 7.7853543758392343 0.065387565056497093 1.3666887283325198 -0.62577451934762973 -0.51864980417341189 1.4119043946266177 7.0990886688232431 1.3422443866729739 -0.55543802234893469 -0.17364817766693016 -0.13052619222005171 -0.23762932952031168 -0.1088409674838548 5.0744609832763681 0.92783043384552 0.36235178784537941 1.217129707336426 9.8348450130886516 7.846691608428956 0.689015599449598 -0.32136297141497111 8.3939423561096209 0.46174861323503363 2.9926451444625859
decision_type=2 2 2 2 2 2 2 2 2 2 2 2 2 2 2 2 2 2 2 2 2 2 2 2 2 2 2 2 2 2 2 2 2 2 2 2 2 2 2 2 2 2 2 2 2 2 2
left_child=1 4 5 7 13 8 22 20 19 43 23 14 30 -1 -8 26 -10 -9 -11 35 21 24 27 32 -3 31 -12 -4 -15 -22 -6 -14 -5 -18 -27 -2 -24 -29 39 40 -31 -40 -42 44 -7 46 -13
right_child=2 3 6 10 12 9 11 17 16 18 15 45 25 28 -16 -17 33 -19 -20 -21 29 -23 36 -25 -26 34 -28 37 -30 38 -32 -33 -34 -35 -36 -37 -38 -39 41 -41 42 -43 -44 -45 -46 -47 -48
leaf_value=-0.022395487652769976 0.0032599232721306445 -0.010599131021685387 0.017787650207064468 -0.003234468505426265 -0.018127571023081497 0.0037911710060794072 0.020376907950012041 -0.0047640596749615651 0.00072532246463385432 0.0097409738260416726 -0.007081705620788842 0.015060418095530534 -0.013558913087431396 -0.020622775899835469 0.022499311551387773 -0.0012939635919751689 0.0030516643325432802 -0.0088271530527030181 0.014001408035355396 0.010526545852732825 -0.014389327000745682 -0.020530081558227539 0.013029723554155884 0.0035400298658618381 -0.0065352115196828826 -0.0082711661320831863 -0.0036841436013104823 0.011860001172993314 -0.01800574212294747 -0.012696917343184393 -0.015332919525269689 -0.016047602330844939 0.00057449842008330365 0.0063170698745582876 -0.013676885006511175 0.0074240987191476872 0.018830881505442987 0.015582469884494169 -0.010478492069053857 -0.021371850567428689 -0.00044535278427329934 -0.0032299888689167702 -0.011923156740764778 0.0069775390236208549 0.012032759412409067 0.019363009296601116 0.0044291334804789769
leaf_weight=12310 764 1468 1354 910 5498 122 5109 1625 2077 1378 1338 204 1976 12621 26622 2420 1605 3418 3299 1055 1337 124 244 905 1226 386 2762 787 1553 2123 1380 4521 1499 1428 980 1046 3429 1660 1473 113 109 153 107 1612 612 152 115
leaf_count=12310 764 1468 1354 910 5498 122 5109 1625 2077 1378 1338 204 1976 12621 26622 2420 1605 3418 3299 1055 1337 124 244 905 1226 386 2762 787 1553 2123 1380 4521 1499 1428 980 1046 3429 1660 1473 113 109 153 107 1612 612 152 115
internal_value=-1.49583e-06 -0.0148056 0.0174185 -0.00656356 -0.0194257 0.00770403 0.0210903 -0.00979276 0.00461612 0.0112094 -0.00220356 0.022038 -0.0160663 -0.0212948 0.0221582 -0.00349553 0.00302001 -0.00751911 0.0127485 0.00746089 -0.0111844 -0.00927814 0.017005 0.000338586 -0.00875281 -0.0147496 -0.00479437 0.0156051 -0.0203373 -0.0121745 -0.0175692 -0.0152929 -0.000865084 0.00459066 -0.0121565 0.00566917 0.0184492 0.0143906 -0.011445 -0.0125321 -0.0120961 -0.00979884 -0.00615986 0.00813684 0.0106699 0.0139062 0.0112536
internal_weight=119009 64335 54674 23110 41225 14998 39676 13276 7975 7023 9834 32202 14741 26484 31731 6520 5110 5043 4677 2865 8233 2818 7474 3314 2694 7863 4100 3801 14174 5415 6878 6497 2409 3033 1366 1810 3673 2447 4078 2452 2339 1626 216 2346 734 471 319
internal_count=119009 64335 54674 23110 41225 14998 39676 13276 7975 7023 9834 32202 14741 26484 31731 6520 5110 5043 4677 2865 8233 2818 7474 3314 2694 7863 4100 3801 14174 5415 6878 6497 2409 3033 1366 1810 3673 2447 4078 2452 2339 1626 216 2346 734 471 319
is_linear=0
shrinkage=0.05


Tree=2
num_leaves=48
num_cat=0
split_feature=16 0 3 16 16 16 3 40 41 23 41 41 16 1 3 8 1 8 31 16 40 2 3 5 8 16 16 4 3 36 21 26 4 41 40 26 6 13 31 40 16 35 40 41 40 4 6
split_gain=11097.7 868.337 734.298 116.869 90.2672 62.5348 56.1343 14.1082 12.5374 12.3093 12.1541 10.8225 9.78422 9.57445 8.79601 8.56479 7.62635 7.22449 6.81619 6.45507 6.31303 5.5437 5.21259 4.72549 4.55481 3.90012 3.75655 3.54967 3.31654 3.29929 3.44887 3.24833 3.15612 3.05521 3.66308 2.99574 2.76383 2.675 2.61813 2.59866 2.45123 2.43012 2.3918 2.36976 2.34951 2.28185 2.11835
threshold=0.56090116500854503 6.2144699096679696 10.308948040008547 0.37459837913513189 0.093774271011352564 0.71496506214141864 11.849934101104738 -0.57357643635104605 -0.51864980417341189 23.983764330546062 -0.32136297141497111 -0.46174861323503363 0.15016853809356692 4.1399192810058603 9.3703036308288592 -0.90584418177604664 6.8084032535552987 -0.86975958943366993 26.848133087158207 0.46951870441436777 -0.70710678118654735 7.7949476242065439 13.085741996765138 0.56307995319366466 -0.25083243846893305 0.64270828247070322 0.79541631221771247 8.4620528221130389 6.810645818710328 27.374317169189457 13.657400131225588 6.779837131500245 10.589446544647219 -0.40265084705289439 -0.17364817766693016 6.9518191814422616 0.16517447680234912 1000.7808227539064 7.148151397705079 -0.08715574274765768 0.94999550819396983 5.9896609783172616 -0.75166088996455094 0.65918890865109991 0.1088409674838549 22.580557823181156 0.061250010505318649
decision_type=2 2 2 2 2 2 2 2 2 2 2 2 2 2 2 2 2 2 2 2 2 2 2 2 2 2 2 2 2 2 2 2 2 2 2 2 2 2 2 2 2 2 2 2 2 2 2
left_child=1 4 5 8 13 11 20 26 17 22 15 27 36 35 -9 -5 38 -3 23 39 32 -17 -8 28 -13 -26 -7 -2 -19 30 -18 -15 -4 34 -14 -1 -6 -23 -10 -12 -22 -41 -21 -16 -40 -11 -47
right_child=2 3 6 10 12 7 9 14 16 45 19 24 33 31 43 21 29 18 -20 42 40 37 -24 -25 25 -27 -28 -29 -30 -31 -32 -33 -34 -35 -36 -37 -38 -39 44 41 -42 -43 -44 -45 -46 46 -48
leaf_value=-0.021194529937960591 0.0045711005199115945 -0.011518932260530579 0.012268964255882397 -0.0080788596144346844 -0.017042225867644801 0.0050189505750934072 0.01971624316155993 0.0088580144551305331 -0.013891743360939381 0.016891811003810483 -0.0069097677151098427 -0.0022908687808457584 -0.014975128720938778 -0.019365541915045442 0.013765148800348292 -0.0020214693076550561 -0.0091283550220145251 -0.0088446197805161046 -0.018739002330280911 -0.0044271392618401148 0.016195562159364796 0.00064476982994775571 0.02142921969768042 -0.0031779197528181862 0.0011649205991929119 0.0043223008916200558 0.0087765365653916325 0.0084378771798668973 -0.0049660750575579744 -0.016285557785341818 -0.002036676838355993 -0.015480246593915429 0.015892835950155459 -0.014785649883692482 -0.010953170003290231 -0.014975015135244647 -0.014381375682672596 0.0041794614759244619 -0.012576449784553793 -0.0058899958092236892 0.018274561123244094 -0.0021380047141756138 -0.0011732932339089219 0.010887235555288316 -0.0098050927359755007 0.013640788885263298 0.0044694957676632658
leaf_weight=14870 1358 824 1118 322 6434 1251 5606 2107 1373 189 1447 518 956 10528 2553 1449 3907 1305 106 777 2822 1486 25400 1080 2020 1897 1434 1061 963 154 180 593 1371 4632 1445 207 1204 836 1620 872 3141 857 2065 1032 1507 142 115
leaf_count=14870 1358 824 1118 322 6434 1251 5606 2107 1373 189 1447 518 956 10528 2553 1449 3907 1305 106 777 2822 1486 25400 1080 2020 1897 1434 1061 963 154 180 593 1371 4632 1445 207 1204 836 1620 872 3141 857 2065 1032 1507 142 115
internal_value=2.19604e-05 -0.0141422 0.0164633 -0.00640015 -0.0185236 0.00712288 0.0200282 0.0100207 -0.00953212 0.0210012 -0.00236686 0.00358019 -0.0153808 -0.020283 0.0114308 -0.000264685 -0.0106184 -0.00731056 -0.00630355 -0.00379632 0.0164051 0.000404521 0.0211202 -0.00590436 0.00211205 0.00269475 0.00702832 0.0062699 -0.00720069 -0.00909159 -0.0088166 -0.0191598 0.0142707 -0.0140278 -0.0125602 -0.0211101 -0.0166247 0.00191863 -0.012055 -0.00534521 0.0172936 -0.00403259 -0.00206414 0.01294 -0.0112444 0.0127037 0.00957013
internal_weight=119134 63999 55135 23130 40869 15231 39904 8377 13019 31452 10111 6854 14671 26198 5692 4093 8741 4278 3454 6018 8452 3771 31006 3348 4435 3917 2685 2419 2268 4241 4087 11121 2489 7033 2401 15077 7638 2322 4500 3176 5963 1729 2842 3585 3127 446 257
internal_count=119134 63999 55135 23130 40869 15231 39904 8377 13019 31452 10111 6854 14671 26198 5692 4093 8741 4278 3454 6018 8452 3771 31006 3348 4435 3917 2685 2419 2268 4241 4087 11121 2489 7033 2401 15077 7638 2322 4500 3176 5963 1729 2842 3585 3127 446 257
is_linear=0
shrinkage=0.05


Tree=3
num_leaves=48
num_cat=0
split_feature=16 2 3 16 16 4 16 16 16 16 16 25 16 40 40 40 40 40 4 40 40 4 4 4 4 4 7 11 21 26 30 7 3 26 4 40 7 18 26 18 40 4 12 11 28 4 10
split_gain=9993.59 846.168 586.168 118.163 86.4351 52.0801 48.1954 15.7334 11.0176 9.75316 9.65498 9.31645 8.74912 8.3455 6.25326 5.80204 5.631 5.58774 5.40727 5.23719 4.95365 4.72888 4.68382 4.6657 4.39303 4.04407 3.61141 3.51938 5.08708 3.41369 3.37337 3.35985 3.35344 3.23535 2.94782 2.93216 2.73125 2.59586 2.42549 5.5891 2.32371 4.68876 2.31046 2.28725 2.27216 2.207 1.98515
threshold=0.58462820053100606 6.2523014545440683 10.308948040008547 0.36887092113494879 0.093774271011352564 11.300841808319094 0.77859278202056892 0.48228528976440438 0.68459280014038104 0.31318652153015142 0.14452481269836429 23.133558273315433 0.036978538036346438 -0.64278760968653914 -0.17364817766693016 -0.57357643635104605 -0.5 -0.17364817766693016 12.304600238800051 0.13052619222005182 -0.69134849440110357 8.6059527397155779 7.4216985702514657 6.7493968009948739 5.2510991096496591 7.5395100116729745 1.3602550029754641 15.281341075897219 12.78613328933716 6.779837131500245 4.5302095413208017 1.3422443866729739 9.7451739311218279 6.9986584186553964 10.674599170684816 -0.17364817766693016 1.4914354681968691 25.239920616149906 26.053762435913089 8.5207214355468768 -0.36235178784537903 5.1054458618164071 87.764751434326186 28.397690773010257 7.8885700040393418 6.6006441116333017 2.6330422163009648
decision_type=2 2 2 2 2 2 2 2 2 2 2 2 2 2 2 2 2 2 2 2 2 2 2 2 2 2 2 2 2 2 2 2 2 2 2 2 2 2 2 2 2 2 2 2 2 2 2
left_child=1 4 6 9 12 14 8 17 16 19 31 18 33 -8 34 -10 -2 -5 -7 27 -9 -17 -22 44 36 -18 40 37 -29 -14 -16 -6 -15 -1 -4 -11 -21 -3 39 42 -12 -42 -26 45 -19 -37 -13
right_child=2 3 5 7 10 11 13 20 15 35 26 46 29 32 30 21 25 23 -20 24 22 -23 -24 -25 38 -27 -28 28 -30 -31 -32 -33 -34 -35 -36 43 -38 -39 -40 -41 41 -43 -44 -45 -46 -47 -48
leaf_value=-0.020299240819574182 0.00065032795355199607 -0.010611234694791916 0.012800357142556194 -0.0053458599962176861 -0.016452570826618849 0.018459587710822855 0.0076837429642187295 -0.0026551726911481603 0.0041231587853465595 -0.0086662897631100098 -0.015113164508842382 0.017682467483240982 -0.018549420930957364 0.010421694395645238 0.0094738073621298217 0.0059624738743172707 0.0020465973507884506 -0.0051939322732245342 0.020326072124410694 -0.011356683333279941 -0.00061994805391436076 0.010072870291524462 0.0029355843338678667 -0.00024941229460229852 -0.0053491453728006823 0.0059562358638601473 -0.011128071533159523 -0.011206944957237938 -0.0020235340004857586 -0.014781225247153924 0.017125142094027736 -0.013651685064865483 0.01335496736332392 -0.012492843853732479 0.015585455774113501 -0.007340388163066861 -0.0061424128317880567 -0.021148123719582433 -0.013553109849598392 0.0042393536746120923 -0.014708087695403433 -0.011382640540879037 -0.0088754594029293119 -0.00044432820346061226 -0.0019203891607507545 -0.0036316271337553893 0.010490037319949642
leaf_weight=12535 1546 101 2278 2903 5540 4699 1530 1306 1496 1476 2416 144 12741 1803 154 1433 1093 1314 26663 1562 2143 1380 1630 1488 819 1680 1518 4146 157 656 3777 1376 2199 140 1704 1386 304 151 140 109 2283 2032 1094 185 891 569 312
leaf_count=12535 1546 101 2278 2903 5540 4699 1530 1306 1496 1476 2416 144 12741 1803 154 1433 1093 1314 26663 1562 2143 1380 1630 1488 819 1680 1518 4146 157 656 3777 1376 2199 140 1704 1386 304 151 140 109 2283 2032 1094 185 891 569 312
internal_value=4.35266e-07 -0.0131816 0.0159269 -0.00569003 -0.0175185 0.0190399 0.00719131 -0.00209406 0.00485464 -0.00913108 -0.0145146 0.0199435 -0.0192652 0.0108342 0.0154047 0.00664343 0.00306886 -0.00370453 0.020047 -0.0100495 -2.27191e-06 0.00798181 0.000916473 -0.00241321 -0.00873009 0.00441651 -0.0133535 -0.0112142 -0.0108724 -0.018366 0.0168279 -0.0158974 0.0120364 -0.020214 0.0139958 -0.00694883 -0.0105109 -0.0169836 -0.0071889 -0.00674177 -0.0138536 -0.0131451 -0.00736935 -0.00576076 -0.00387262 -0.00626337 0.0127951
internal_weight=119002 65111 53891 23874 41237 39731 14160 11675 8628 12199 15165 31818 26072 5532 7913 4309 4319 6596 31362 8583 5079 2813 3773 3693 4028 2773 8249 4555 4303 13397 3931 6916 4002 12675 3982 3616 1866 252 2162 2022 6731 4315 1913 2140 2205 1955 456
internal_count=119002 65111 53891 23874 41237 39731 14160 11675 8628 12199 15165 31818 26072 5532 7913 4309 4319 6596 31362 8583 5079 2813 3773 3693 4028 2773 8249 4555 4303 13397 3931 6916 4002 12675 3982 3616 1866 252 2162 2022 6731 4315 1913 2140 2205 1955 456
is_linear=0
shrinkage=0.05


Tree=4
num_leaves=48
num_cat=0
split_feature=16 1 3 16 1 3 16 40 16 40 16 23 41 41 31 12 3 5 41 1 41 11 28 41 3 16 5 41 3 7 24 7 41 9 40 28 3 16 7 9 9 40 40 43 43 7 35
split_gain=9024.69 734.217 556.97 103.669 71.4502 46.41 44.3702 14.4162 12.8726 11.2771 10.3109 10.0114 9.81317 6.63017 6.56452 6.57071 5.98207 5.85441 5.22328 5.21004 4.69321 5.31313 4.44445 3.8265 3.76072 3.38627 3.38196 3.32025 3.30435 3.20577 3.17039 2.9912 2.96467 2.87439 2.86863 2.84792 2.81889 2.81443 2.75587 2.68496 2.44147 2.4681 2.39315 3.47383 2.80217 2.3069 2.54206
threshold=0.57682842254638678 6.2177398204803476 10.308948040008547 0.36285532712936408 4.853123903274537 9.2226319313049334 0.99079257011413591 -0.57357643635104605 0.49598344326019289 -0.1088409674838548 0.14452481269836429 23.983764330546062 -0.46174861323503363 -0.36235178784537897 26.848133087158207 86.120086669921889 8.2830076217651385 0.41046355664730078 -0.40265084705289439 6.7636907100677499 -0.40265084705289439 25.841908454895023 5.6991474231084194 -0.32136297141497111 13.543733119964601 0.6685959339141847 0.53646409511566173 0.38268343236508956 3.9496266841888432 1.336341977119446 0.49244031924051351 1.3666887283325198 -0.23762932952031168 0.80728992819786083 -0.13052619222005171 7.9817228449715518 9.8272919654846209 0.95306831836700445 1.4480102062225344 0.78724679350852977 0.66844016313552868 -0.36235178784537903 -0.23762932952031182 0.96177147954086928 0.11478523713130605 1.1971820592880251 4.7793025970458993
decision_type=2 2 2 2 2 2 2 2 2 2 2 2 2 2 2 2 2 2 2 2 2 2 2 2 2 2 2 2 2 2 2 2 2 2 2 2 2 2 2 2 2 2 2 2 2 2 2
left_child=1 4 5 12 17 9 20 23 13 25 29 24 14 30 15 26 -11 28 33 45 -4 37 -19 -7 -8 32 -3 -13 -1 -6 -5 40 -2 -10 -15 -36 -9 -22 42 -32 -12 -42 43 -21 -44 -14 -47
right_child=2 3 6 8 10 7 11 36 18 16 31 27 19 34 -16 -17 -18 22 -20 38 21 -23 -24 -25 -26 -27 -28 -29 -30 -31 39 -33 -34 -35 35 -37 -38 -39 -40 -41 41 -43 44 -45 -46 46 -48
leaf_value=-0.019426712114719961 0.0030284303977820251 -0.0060052533392610519 0.016176985165098131 -0.0030531110763438269 -0.015827328569536173 0.0095811845991944297 0.018088589369330037 0.010371756457633576 0.00054339802713134486 0.0033732316017475745 -0.014316831516763232 0.008330356071189959 -0.012267075720154766 -0.0060485035064569634 -0.018305370308519378 -0.0082307269976589405 0.0072577722972073933 -0.017711887250085667 -0.0013289564920771259 -0.0097890224469525649 0.013022949630737708 0.0094080703837518889 -0.014117327642629289 0.0051970092549120453 0.019413705309512964 0.0037157676366505344 -0.0014611909703810644 0.017605840865852072 -0.017963094523177001 -0.013348011481958367 -0.001352097575116574 -0.01070911565795789 -0.00092112780484608712 0.0050284210125303109 -0.0048651167298572684 -0.0014325777782599495 0.012986439872512785 0.015734697344385994 -0.0051772388536933805 0.0034964159032807606 -0.014095650012664546 -0.011241579383915495 -0.0093446821808353675 -0.017885066455717656 -0.0053494247319168364 -0.011973859330937869 -0.0082677207046713466
leaf_weight=11377 801 1020 4093 1669 6885 735 7300 2377 853 1545 3048 293 2157 2041 122 2442 2778 5683 2520 1351 1826 600 1044 1558 23351 1743 685 146 6223 1666 865 1407 1165 614 1552 991 1880 2138 522 425 1248 2049 1235 148 689 820 1097
leaf_count=11377 801 1020 4093 1669 6885 735 7300 2377 853 1545 3048 293 2157 2041 122 2442 2778 5683 2520 1351 1826 600 1044 1558 23351 1743 685 146 6223 1666 865 1407 1165 614 1552 991 1880 2138 522 425 1248 2049 1235 148 689 820 1097
internal_value=3.14739e-05 -0.0126225 0.0150423 -0.00565195 -0.0167086 0.00668346 0.0181087 0.00980696 -0.00224626 0.00413537 -0.014145 0.0189911 -0.00884712 -0.00346074 -0.00690702 -0.00656736 0.00587057 -0.0184259 5.17155e-05 -0.00987897 0.0149379 0.0138234 -0.0171562 0.00660588 0.0190987 0.00211188 -0.00418156 0.0114481 -0.0189103 -0.0153459 -0.00161491 -0.0128184 0.000688747 0.00242271 -0.00465162 -0.00352855 0.0115292 0.0144891 -0.00857792 0.000246752 -0.0132844 -0.0123259 -0.00909485 -0.0105998 -0.00791747 -0.0111364 -0.00985844
internal_weight=118777 64448 54329 23818 40630 14582 39747 6550 11530 8032 16303 31090 12288 7543 4269 4147 4323 24327 3987 8019 8657 4564 6727 2293 30651 3709 1705 439 17600 8551 2959 7752 1966 1467 4584 2543 4257 3964 3945 1290 6345 3297 3423 1499 1924 4074 1917
internal_count=118777 64448 54329 23818 40630 14582 39747 6550 11530 8032 16303 31090 12288 7543 4269 4147 4323 24327 3987 8019 8657 4564 6727 2293 30651 3709 1705 439 17600 8551 2959 7752 1966 1467 4584 2543 4257 3964 3945 1290 6345 3297 3423 1499 1924 4074 1917
is_linear=0
shrinkage=0.05


Tree=5
num_leaves=48
num_cat=0
split_feature=16 2 3 16 16 3 16 40 16 3 23 16 16 1 40 40 4 4 40 9 5 36 4 26 5 40 4 28 3 37 5 40 6 14 4 25 12 5 10 25 31 43 5 9 5 43 18
split_gain=8142.99 594.062 591.056 78.0575 65.3151 49.8971 44.5006 11.3654 9.25185 8.62903 8.08064 7.90696 7.26513 7.08881 6.61023 6.13162 5.56563 5.53153 4.93374 4.78254 3.88267 3.58606 9.07646 3.5868 3.08191 2.98779 4.11545 2.97899 2.88692 2.83244 2.81688 2.63853 2.59375 2.5841 2.54536 2.50531 2.46713 2.45189 2.25214 2.18647 2.18608 2.02082 1.98912 1.93936 1.91649 1.73483 1.70476
threshold=0.54617073059082044 6.2124266624450692 10.149935245513918 0.35629086017608652 0.092200193405151384 11.568408489227297 0.69192245483398451 -0.51864980417341189 0.43058350086212166 9.3703036308288592 23.983764330546062 0.15016853809356692 0.27311173439025888 3.8918534517288212 -0.64278760968653914 -0.53729960834682411 7.5395100116729745 12.304600238800051 -0.75166088996455094 0.80728992819786083 1.2979289889335635 27.374317169189457 6.7493968009948739 26.053762435913089 0.43311172723770147 -0.043619387365335778 6.050922393798829 8.0300358533859271 9.6722254753112811 -0.19397019011326891 1.5218248367309573 -0.17364817766693016 0.16517447680234912 0.20513843744993213 10.181356430053713 7.3568456172943124 94.52716445922853 1.1339038610458376 3.0043843984603886 8.0269665718078631 7.28751564025879 -0.98801846520836312 0.73270076513290416 0.74946388602256786 1.781122148036957 0.85561368268953431 7.1272268295288095
decision_type=2 2 2 2 2 2 2 2 2 2 2 2 2 2 2 2 2 2 2 2 2 2 2 2 2 2 2 2 2 2 2 2 2 2 2 2 2 2 2 2 2 2 2 2 2 2 2
left_child=1 4 6 12 13 14 15 28 31 41 17 32 21 42 34 -2 27 -7 -10 39 25 22 30 -24 -15 -14 -27 43 -8 -18 -3 -5 -6 -33 -4 -16 -28 45 -12 -20 -26 -9 -1 -17 -23 -13 -21
right_child=2 3 5 8 11 10 7 9 18 -11 38 37 20 24 35 16 29 -19 19 46 -22 44 23 -25 40 26 36 -29 -30 -31 -32 33 -34 -35 -36 -37 -38 -39 -40 -41 -42 -43 -44 -45 -46 -47 -48
leaf_value=-0.018453414047748151 0.00021026812486171816 -0.010204911022047094 0.0090897278139393453 -0.0057524605400772573 -0.014729005951464988 0.016590404546111322 0.0041546081188472443 0.00085265775954711351 -0.003930632348013263 0.011026624870865179 0.014087353180773891 -0.012646368116503343 -0.0090165141604683207 -0.017124606077645092 0.0089878175201353293 -0.0029038320605743943 -0.0020119179743500462 0.018333563281699196 -0.0021408210749384211 0.0061558372054717585 -0.0038710196747570578 -0.011040375129782039 0.0046013000928519284 -0.0070618336526756618 -0.016093886974477365 -0.0083308507024671893 -0.002954972703857502 0.0027900497837402187 0.0074650290984976777 0.0054250380367238419 -0.0043053358316989445 -0.0017660092469829018 -0.012195588438792876 -0.0050160246361169274 0.012500370879101125 0.014730543142001102 -0.0076505547360700022 -0.0093895648103626862 0.0068786192289943806 0.0013262831767013395 -0.013273160341107185 0.0074174828656705426 -0.015019581330888499 0.0041031949454918507 -0.019529230690428192 -0.0098760912718441236 0.0011904037193127758
leaf_weight=11224 2192 4980 817 1895 6680 5645 1906 123 1409 2947 290 5620 2559 9904 203 485 135 26618 2804 202 727 138 150 116 3248 1618 845 1237 1011 2324 213 1326 1234 1137 1757 5204 419 801 178 542 919 2622 468 123 139 652 1170
leaf_count=11224 2192 4980 817 1895 6680 5645 1906 123 1409 2947 290 5620 2559 9904 203 485 135 26618 2804 202 727 138 150 116 3248 1618 845 1237 1011 2324 213 1326 1234 1137 1757 5204 419 801 178 542 919 2622 468 123 139 652 1170
internal_value=2.19161e-05 -0.0122779 0.0139352 -0.00573449 -0.0158728 0.0170692 0.00548776 0.00784503 -0.00258839 0.00914602 0.0179342 -0.013246 -0.00850511 -0.0174004 0.0135201 0.00236299 0.00345905 0.0180291 -0.00133542 -0.000559702 -0.00731094 -0.00978772 -0.00950246 -0.000492278 -0.0166373 -0.00776977 -0.00666 0.00138224 0.00530413 0.00501609 -0.00996381 -0.00434925 -0.0143356 -0.00326775 0.0114218 0.0145166 -0.00451632 -0.012025 0.0113661 -0.00157898 -0.0154751 0.00712374 -0.0183173 -0.00148188 -0.0153551 -0.01236 0.00192542
internal_weight=118956 63139 55817 22389 40750 40712 15105 8609 10485 5692 32731 14987 11904 25763 7981 6496 4304 32263 6127 4718 6168 5736 5459 266 14071 5441 2882 1845 2917 2459 5193 4358 7914 2463 2574 5407 1264 7073 468 3346 4167 2745 11692 608 277 6272 1372
internal_count=118956 63139 55817 22389 40750 40712 15105 8609 10485 5692 32731 14987 11904 25763 7981 6496 4304 32263 6127 4718 6168 5736 5459 266 14071 5441 2882 1845 2917 2459 5193 4358 7914 2463 2574 5407 1264 7073 468 3346 4167 2745 11692 608 277 6272 1372
is_linear=0
shrinkage=0.05


Tree=6
num_leaves=48
num_cat=0
split_feature=16 0 3 16 16 16 3 2 16 41 41 40 23 41 31 8 8 3 8 31 16 3 3 40 1 40 10 10 16 1 41 36 40 6 28 8 6 6 8 8 40 11 26 3 41 8 19
split_gain=7339.13 579.592 468.378 78.0722 62.7949 40.5597 38.4074 11.2018 10.246 9.45852 9.26665 7.55054 7.46425 5.91135 5.66576 6.31942 5.25983 5.21438 5.05665 4.4991 4.20163 4.13317 4.07484 3.9147 3.70244 3.62577 3.4697 3.0693 3.03114 3.0081 2.8758 2.61356 2.61068 2.4837 2.39889 2.34681 2.32731 2.2151 2.13088 2.12717 2.09399 2.66029 2.94849 2.0762 2.07016 2.40414 1.94834
threshold=0.56891234397888202 6.2538278102874765 10.308948040008547 0.35629086017608652 0.083695259094238306 0.75530562877655039 11.750916957855226 7.7481510639190683 0.15016853809356692 -0.46174861323503363 -0.51864980417341189 -0.57357643635104605 23.983764330546062 -0.36235178784537897 26.848133087158207 -0.75844031572341908 -0.90584418177604664 9.0042638778686541 -0.29818800091743464 6.6826260089874276 0.63435566902160667 9.3703036308288592 13.543733119964601 -0.70710678118654735 6.5938122272491464 -0.62577451934762973 12.205711841583254 3.0043843984603886 0.033808968067169196 6.9451849460601816 -0.55543802234893469 7.6910500526428232 -0.15208718494349086 0.14592783153057101 8.2728594938913993 -0.32368612289428705 0.10541078448295595 0.15525162220001223 -0.64749902486801136 -0.85652154684066761 0.1088409674838549 14.559175014495851 11.362528800964357 10.801225185394289 -0.48087430661751668 -0.88321083784103382 8.694888114929201
decision_type=2 2 2 2 2 2 2 2 2 2 2 2 2 2 2 2 2 2 2 2 2 2 2 2 2 2 2 2 2 2 2 2 2 2 2 2 2 2 2 2 2 2 2 2 2 2 2
left_child=1 4 5 10 19 9 23 25 31 17 14 -7 22 16 15 -3 -9 39 -11 28 -20 34 -8 43 -12 -5 29 -14 -1 -17 32 -6 -10 40 -13 -15 -21 -33 -19 -2 41 -26 -43 -4 45 -27 -25
right_child=2 3 6 7 8 11 12 13 30 18 24 21 27 35 -16 26 -18 38 20 36 -22 -23 -24 46 33 44 -28 -29 -30 -31 -32 37 -34 -35 -36 -37 -38 -39 -40 -41 -42 42 -44 -45 -46 -47 -48
leaf_value=-0.017601346613654634 -0.0015846779713696191 -0.0090697723667042401 0.0093283962820700991 -0.0065545592656390513 -0.014373918873934488 0.006312353778936023 0.016179454275795875 -0.0073991215146096551 -0.011914491597071468 -0.0023043819875508422 -0.01059135493824236 0.0018185422812199985 0.013882397321137517 -0.0052494989454977339 -0.01710281808461462 -0.0060494704275743756 0.0014260815853694682 0.0052133219438644405 0.00074229330205191136 -0.016191395113073583 0.0038885124190630158 0.010893142692707206 0.017508121729028801 0.0090015200319988973 -0.017049630367684931 -0.0067478183542170793 0.003584998482300972 0.0053048003811475841 -0.016351807222702391 -0.002404122636625693 -0.01196029442553837 -0.01337325114523992 -0.0083783984625381037 -0.0061938096360947981 0.0083493909763216485 -0.0017105194980144641 -0.013652188345522329 -0.010339898518738587 0.01006088086142746 0.0047201985925267058 -0.0076603195143666912 -0.0099610468688791608 -0.0013340000449767655 0.012509804864549707 -0.0043716088850741198 -0.00094119941496601455 0.014090888338072302
leaf_weight=10043 144 994 789 1195 6515 2068 7963 180 880 536 2593 162 274 532 111 1654 2513 330 1610 2129 3115 3302 23334 202 125 210 129 171 10107 863 5292 2499 1327 1140 1097 3892 1674 822 751 1807 1942 1848 105 1571 1994 1152 5302
leaf_count=10043 144 994 789 1195 6515 2068 7963 180 880 536 2593 162 274 532 111 1654 2513 330 1610 2129 3115 3302 23334 202 125 210 129 171 10107 863 5292 2499 1327 1140 1097 3892 1674 822 751 1807 1942 1848 105 1571 1994 1152 5302
internal_value=-4.2351e-05 -0.0114633 0.0134588 -0.00513427 -0.0150151 0.00590867 0.0163032 -0.00225218 -0.0127211 0.00357737 -0.00805699 0.00882419 0.0170789 -0.00101308 -0.00601357 -0.00567081 0.000833678 0.00580143 0.00229475 -0.0166748 0.00281685 0.00996144 0.0171706 0.0131705 -0.00904472 -0.00418928 -0.004391 0.0106056 -0.0169754 -0.00480105 -0.0113239 -0.013785 -0.00979311 -0.0082656 0.00751115 -0.00213718 -0.0150776 -0.0126258 0.00858724 0.00425427 -0.00885144 -0.00996038 -0.00949815 0.0114506 -0.00334535 -0.00184079 0.0139058
internal_weight=118988 64460 54528 23172 41288 14922 39606 11668 17335 8293 11504 6629 31742 7117 3751 3640 2693 3032 5261 23953 4725 4561 31297 7864 7753 4551 2646 445 20150 2517 7499 9836 2207 5160 1259 4424 3803 3321 1081 1951 4020 2078 1953 2360 3356 1362 5504
internal_count=118988 64460 54528 23172 41288 14922 39606 11668 17335 8293 11504 6629 31742 7117 3751 3640 2693 3032 5261 23953 4725 4561 31297 7864 7753 4551 2646 445 20150 2517 7499 9836 2207 5160 1259 4424 3803 3321 1081 1951 4020 2078 1953 2360 3356 1362 5504
is_linear=0
shrinkage=0.05


Tree=7
num_leaves=48
num_cat=0
split_feature=16 0 16 16 16 16 3 41 0 16 41 16 23 41 8 9 8 36 41 11 25 21 26 16 41 16 40 8 41 41 40 41 4 5 28 3 16 7 16 7 7 0 7 7 15 11 16
split_gain=6652.05 561.362 391.466 72.2306 62.7349 37.5163 28.1147 9.34669 8.65023 8.5583 8.35434 8.1925 7.38494 7.34835 7.07132 5.92327 5.21936 5.05882 4.71816 4.56318 4.48485 4.35699 5.46902 4.09573 3.93674 3.82896 3.67349 3.39786 3.30887 3.25745 3.09216 3.739 3.06702 2.79481 2.78511 2.61828 2.57906 2.52288 2.47871 2.42786 2.39393 2.38952 2.33904 2.33207 2.30637 2.17804 2.14386
threshold=0.58462820053100606 6.4620406627655038 0.90091412067413346 0.10681598186492922 0.3993460154533387 0.77091837406158459 11.94867515563965 -0.46174861323503363 4.3901114463806161 0.31318652153015142 -0.36235178784537897 0.18059613704681401 23.983764330546062 -0.46174861323503363 -0.90584418177604664 0.69504553079605114 -0.33804199099540705 27.374317169189457 -0.55543802234893469 25.948200225830082 7.3568456172943124 12.683016300201418 26.053762435913089 0.64270828247070322 -0.59116893267988335 0.49598344326019289 0.1088409674838549 -0.7427382469177245 0.38268343236508956 -0.46174861323503363 -0.065387565056496802 -0.36235178784537897 9.2084045410156268 0.3835293203592301 5.9287569257948141 13.085741996765138 0.68459280014038104 1.4381088614463808 0.50981285095214857 1.4577146768569949 1.3666887283325198 24.080191612243656 1.2428709268569949 1.4203432798385622 1.1618161797523501 28.935076713562015 0.96302162647247325
decision_type=2 2 2 2 2 2 2 2 2 2 2 2 2 2 2 2 2 2 2 2 2 2 2 2 2 2 2 2 2 2 2 2 2 2 2 2 2 2 2 2 2 2 2 2 2 2 2
left_child=1 3 5 8 9 7 20 15 33 17 14 37 35 32 -6 45 -9 21 27 26 -4 24 -23 -18 -3 -12 -15 -11 41 40 31 -22 -7 -1 -35 -8 -17 -5 -16 -20 -13 -14 -26 -10 -27 -2 -33
right_child=2 4 6 11 10 13 12 16 43 18 25 29 28 19 38 36 23 -19 39 -21 30 22 -24 -25 42 44 -28 -29 -30 -31 -32 46 -34 34 -36 -37 -38 -39 -40 -41 -42 -43 -44 -45 -46 -47 -48
leaf_value=-0.01660421187171722 0.0027876357474406802 -0.0058679826273908726 0.0052372951883935953 -0.012555181039164851 -0.0071343624199345246 0.0080468161398243206 0.015318735413419195 -0.0023987094162868758 -0.014646349874835325 -0.0065677578511909585 -0.0035389504726474753 -0.0088304343008475394 0.012667309437636977 0.006803684973934257 0.00016441573316248033 0.0060998860558482727 0.00082453402750976847 -0.01460221575184183 -0.0067096000836993144 0.0042861900713169494 0.014013467368466665 0.0057735232201946984 -0.0087375287617009797 0.0040016984989904216 -0.0097440932161132077 -0.0024034121916480318 0.010291208007996488 -0.0017341261660737115 0.015805063920636332 -0.01066898021455385 0.014229854930029751 0.0097423383292505605 0.011997297932606402 -0.015582634141131591 -0.011527242604667309 0.016585749836264405 0.010122740078633452 -0.0099645027841976097 0.0028918748228931555 -0.0026550841876970873 -0.0034381417219635094 0.0033089919380410006 -0.0072509854034949533 -0.012215193075677909 0.00052379021214767529 0.0080698192612258125 0.012691825063434761
leaf_weight=13043 1167 1671 184 7924 273 675 5104 480 8883 507 3285 1762 107 1637 2186 800 1441 272 3223 855 1795 133 125 3430 2425 1398 1420 1283 154 4158 3762 1463 1905 4830 480 25179 808 1094 1345 419 235 188 1569 1153 1296 234 1105
leaf_count=13043 1167 1671 184 7924 273 675 5104 480 8883 507 3285 1762 107 1637 2186 800 1441 272 3223 855 1795 133 125 3430 2425 1398 1420 1283 154 4158 3762 1463 1905 4830 480 25179 808 1094 1345 419 235 188 1569 1153 1296 234 1105
internal_value=-3.58786e-05 -0.0108085 0.0129513 -0.0140667 -0.00417883 0.00604164 0.0155796 0.00382642 -0.0155556 -0.00666134 -0.001228 -0.01128 0.0162781 0.00889323 0.000603739 0.0060557 0.00257194 -0.00793224 -0.00521074 0.00752293 0.0129945 -0.00762352 -0.00126362 0.00306215 -0.0079129 -0.00239331 0.0084265 -0.00310611 0.0098739 -0.0098687 0.0131695 0.0122521 0.0109673 -0.0162041 -0.0152183 0.0163727 0.00812636 -0.012242 0.00120386 -0.006244 -0.00819793 0.00673469 -0.00876676 -0.0143683 -0.000995554 0.00367501 0.0110159
internal_weight=118865 64972 53893 43562 21410 14852 39041 8360 28389 11627 9783 15173 30732 6492 3804 3009 5351 6195 5432 3912 8309 5923 258 4871 5665 5979 3057 1790 449 6155 8125 4363 2580 18353 5310 30283 1608 9018 3531 3642 1997 295 3994 10036 2694 1401 2568
internal_count=118865 64972 53893 43562 21410 14852 39041 8360 28389 11627 9783 15173 30732 6492 3804 3009 5351 6195 5432 3912 8309 5923 258 4871 5665 5979 3057 1790 449 6155 8125 4363 2580 18353 5310 30283 1608 9018 3531 3642 1997 295 3994 10036 2694 1401 2568
is_linear=0
shrinkage=0.05


Tree=8
num_leaves=48
num_cat=0
split_feature=16 3 0 16 16 4 16 41 40 41 41 16 2 10 6 3 40 5 5 40 5 9 12 33 30 40 40 29 4 43 21 41 33 31 3 43 40 33 10 35 30 9 16 40 10 4 9
split_gain=5972.22 457.968 409.963 49.1644 47.8702 36.8462 36.5392 7.9893 7.48454 7.01543 6.98258 6.95027 6.93258 5.50392 5.08824 4.90053 4.80117 4.50826 4.10759 3.93132 3.83838 3.69058 3.50353 3.39892 3.19805 3.17858 3.0965 3.08604 3.08482 3.06992 3.93327 3.0518 3.02805 2.82906 2.77498 2.70451 2.69774 2.66862 2.60758 2.59067 2.36384 2.34778 2.28994 2.20228 2.16831 2.14018 2.12566
threshold=0.53176198959350596 10.149935245513918 6.2144699096679696 0.35629086017608652 0.083695259094238306 11.300841808319094 0.6997135210037233 -0.51864980417341189 -0.57357643635104605 -0.27976242230339671 -0.40265084705289439 0.12949242591857915 24.146391868591312 2.9926451444625859 0.2006543576717377 9.3703036308288592 -0.64278760968653914 0.44932128489017492 0.48029954731464392 -0.065387565056496802 1.5539026260375979 0.81612294912338268 86.022724151611342 6.4975844091839265 5.5605404376983651 -0.23762932952031182 -0.80625269229011354 1.1191514990212967 12.840233325958254 0.96407344085605606 18.792095184326175 -0.55543802234893469 8.0186967386139774 7.148151397705079 7.4648170471191415 -0.32613736746952143 0.021809693682667879 6.1088640557395095 3.9410291910171513 3.5902752876281743 4.2963731288909921 0.65428122878074657 0.033808968067169196 0.065387565056497093 11.112927436828615 10.181356430053713 0.59738871455192577
decision_type=2 2 2 2 2 2 2 2 2 2 2 2 2 2 2 2 2 2 2 2 2 2 2 2 2 2 2 2 2 2 2 2 2 2 2 2 2 2 2 2 2 2 2 2 2 2 2
left_child=2 6 4 7 17 16 10 14 -8 25 21 -6 28 -14 20 -10 45 42 35 -12 22 39 43 -20 41 -5 27 -26 -7 30 -25 36 -21 -19 44 -9 -13 -33 -39 -2 -18 -11 -1 -4 -27 -3 -24
right_child=1 5 3 9 11 12 8 18 15 24 19 31 13 -15 -16 -17 40 33 23 32 -22 -23 46 29 26 34 -28 -29 -30 -31 -32 37 -34 -35 -36 -37 -38 38 -40 -41 -42 -43 -44 -45 -46 -47 -48
leaf_value=-0.015985878256923613 -0.0039864760087902082 0.0079108939686367251 -0.0056690484838889579 -0.0025920469679977837 -0.012738428214362444 0.014589812974923726 0.0047026108197358273 -0.011180331749068186 0.0063648697338450121 -0.0076948798751349523 -0.00047143692048735945 -0.010871641164227015 0.012578651883977785 -0.00010323178868333832 0.0017059564414363699 0.0093338726533952702 0.0075816169325182373 -0.014345024950518063 -0.009200300398888972 -0.00027593847045065579 -0.015427642023446514 0.0061073065661336468 -0.0085779985836227195 -0.0061905771699401965 -0.0068384617044838503 -0.0021994629314057517 -0.0022223553172716656 -0.00086538536095265609 0.015803994105197394 -0.012038636644526075 0.0022795325928720938 -0.012235638106095114 0.0036627496256260205 -0.011455120788570425 0.0018663826457595918 -0.0083312478086395095 -0.0077663977236741887 -0.011900232867074494 -0.0090231796245931178 0.0030992328954703337 0.012785907059124739 -0.0032530014494462703 -0.014849642587002011 -0.0016819171849742139 0.005057417665375397 0.010969110531055684 -0.005381794906898568
leaf_weight=9324 140 826 672 1640 7205 6942 2599 1370 2615 721 2437 1384 310 118 237 2997 232 4330 1377 712 101 1238 970 2666 820 1064 3365 294 24194 209 144 3450 1549 1087 1275 2194 1449 1372 1917 1532 5825 510 9150 716 113 1974 1141
leaf_count=9324 140 826 672 1640 7205 6942 2599 1370 2615 721 2437 1384 310 118 237 2997 232 4330 1377 712 101 1238 970 2666 820 1064 3365 294 24194 209 144 3450 1549 1087 1275 2194 1449 1372 1917 1532 5825 510 9150 716 113 1974 1141
internal_value=1.33566e-05 0.0118239 -0.010654 -0.00508663 -0.0136106 0.0146464 0.00461109 -0.007261 0.00692404 -0.00246925 0.00211423 -0.0115617 0.0154467 0.00909015 -0.00538407 0.0079518 0.0117931 -0.0150489 -0.00816495 0.000921718 -0.00585117 0.00403847 -0.00557041 -0.00713802 -0.00360149 -0.000888817 -0.00297994 -0.00526427 0.0155338 -0.00619465 -0.00575587 -0.0106747 0.00242286 -0.0137673 0.000250967 -0.00942926 -0.0092867 -0.0112568 -0.0102266 0.0025039 0.0125879 -0.00585876 -0.0154239 -0.00361498 -0.00149905 0.0100701 -0.00685381
internal_weight=118507 56240 62267 21599 40668 40421 15819 11797 8211 9802 7608 16777 31564 428 3837 5612 8857 23891 7960 4698 3600 2910 3499 4396 5710 4092 4479 1114 31136 3019 2810 9572 2261 5417 2452 3564 2833 6739 3289 1672 6057 1231 18474 1388 1177 2800 2111
internal_count=118507 56240 62267 21599 40668 40421 15819 11797 8211 9802 7608 16777 31564 428 3837 5612 8857 23891 7960 4698 3600 2910 3499 4396 5710 4092 4479 1114 31136 3019 2810 9572 2261 5417 2452 3564 2833 6739 3289 1672 6057 1231 18474 1388 1177 2800 2111
is_linear=0
shrinkage=0.05


Tree=9
num_leaves=48
num_cat=0
split_feature=16 16 0 16 3 3 16 16 41 8 41 16 23 41 8 41 8 5 19 4 41 8 5 0 33 5 43 10 10 3 41 8 31 3 41 8 11 8 41 10 9 8 1 16 25 4 6
split_gain=5389 419.921 366.762 59.1466 32.7959 32.2368 30.0628 10.0461 9.58875 6.46875 6.21401 5.78707 5.71291 4.56699 4.47594 4.42317 4.12349 4.06378 4.05736 3.92996 3.888 3.625 3.49957 3.42947 3.34372 3.19633 4.56915 4.71433 3.11965 3.03482 2.96456 2.9574 2.75122 2.83238 2.56009 3.99715 2.55844 2.44509 2.41773 2.59398 2.21527 2.14756 2.07207 1.95771 1.79953 2.14829 1.79118
threshold=0.53176198959350596 0.87498485088348399 5.9291300773620614 0.31318652153015142 11.568408489227297 8.9344220161438006 0.078467969894409198 0.43058350086212166 -0.62577451934762984 -0.3516103327274322 -0.51864980417341189 0.64270828247070322 23.983764330546062 -0.55543802234893469 -0.86975958943366993 -0.27976242230339671 -0.81479164958000172 0.68403995037078869 7.4585752487182626 12.304600238800051 -0.40265084705289439 -0.75844031572341908 0.88367927074432384 9.7878746986389178 6.1088640557395095 0.63460472226142894 0.96407344085605606 3.3692097663879399 12.205711841583254 5.1591818332672128 -0.36235178784537897 -0.90584418177604664 26.848133087158207 7.0533006191253671 -0.36235178784537897 -0.48310714960098261 28.885325431823734 -0.84292352199554432 0.46174861323503363 2.9926451444625859 0.76602506637573253 -0.28623226284980768 3.8592140674591069 0.96302162647247325 7.907027244567872 8.1906442642211932 0.09785079583525659
decision_type=2 2 2 2 2 2 2 2 2 2 2 2 2 2 2 2 2 2 2 2 2 2 2 2 2 2 2 2 2 2 2 2 2 2 2 2 2 2 2 2 2 2 2 2 2 2 2
left_child=2 5 6 10 18 11 17 13 21 -10 14 20 19 16 -4 31 -5 42 -3 -6 37 -7 29 -11 -12 -26 27 -27 32 -8 -24 -9 33 -16 -20 -36 -18 -2 39 -14 -19 -22 -1 -37 45 -13 -15
right_child=1 4 3 7 12 8 22 15 9 23 24 44 38 46 28 -17 36 40 34 -21 41 -23 30 -25 25 26 -28 -29 -30 -31 -32 -33 -34 -35 35 43 -38 -39 -40 -41 -42 -43 -44 -45 -46 -47 -48
leaf_value=-0.015086559881765714 -0.0024699628845674566 0.00096930752065733515 -0.0096784419132364893 -0.0063005255630505354 0.013465872504128625 0.0048971806102989443 -0.01242908404128632 -0.0065893618520429555 -9.2774733551548297e-06 0.0043018382171520512 -0.010122122221351219 0.00041973075405987855 0.0098410190618717624 -0.0058582619778183827 -0.0057507684677283819 -0.0025892984818134714 -0.00190927370683764 -0.012589000102024446 0.012172507384309722 0.014938628176139876 -0.0035543350178435817 0.0098332060409658771 -0.0062663540607843298 0.0071536862050841131 -0.0090209356975022564 0.0030375760322546262 -0.014072189833091192 -0.0065731658679847559 0.0019920136670779141 -0.010804357566051082 -0.010634102388254643 0.00079807147010235399 -0.013515712076967413 0.0024474540724688932 0.0024595853284257764 0.0099610425133055108 0.0048594681509329307 0.0034990900961868916 0.014228851789114427 0.00019063108346678993 -0.0048875757184174695 0.00051065782576784709 -0.014069646374051965 0.012463710131990817 0.0044783609841322477 0.0066442247995143859 -0.0038420806661224058
leaf_weight=10709 190 100 763 545 5603 447 7641 144 506 1817 2699 640 192 3117 2766 3240 1717 1892 3312 26607 367 2312 509 2533 3222 135 190 2172 136 4743 1719 2062 109 109 157 3125 151 1708 146 109 100 2774 10164 1073 2482 176 1718
leaf_count=10709 190 100 763 545 5603 447 7641 144 506 1817 2699 640 192 3117 2766 3240 1717 1892 3312 26607 367 2312 509 2533 3222 135 190 2172 136 4743 1719 2062 109 109 157 3125 151 1708 146 109 100 2774 10164 1073 2482 176 1718
internal_value=-8.81938e-06 0.011199 -0.010123 -0.00543154 0.0139097 0.0043292 -0.0132516 -0.00303688 0.00668089 0.00534146 -0.00790227 0.00218063 0.0146047 -0.00425606 -0.0062439 -0.0014138 -0.00247787 -0.0143847 0.0109859 0.0146829 0.00111454 0.00903556 -0.0114778 0.00596373 -0.00866639 -0.00797773 -0.00662857 -0.0060097 -0.00540115 -0.0118077 -0.00963952 0.000313078 -0.00573865 -0.00543921 0.0111164 0.0103106 -0.00135981 0.00290057 0.00895519 0.00635856 -0.012205 3.47168e-05 -0.0145921 0.0106035 0.00380868 0.00176876 -0.0051428
internal_weight=118848 56376 62472 24995 40424 15952 37477 12694 7615 4856 12301 8337 32657 7248 3883 5446 2413 22865 7767 32210 5039 2759 14612 4350 8418 5719 2497 2307 3120 12384 2228 2206 2984 2875 7667 4355 1868 1898 447 301 1992 3141 20873 4198 3298 816 4835
internal_count=118848 56376 62472 24995 40424 15952 37477 12694 7615 4856 12301 8337 32657 7248 3883 5446 2413 22865 7767 32210 5039 2759 14612 4350 8418 5719 2497 2307 3120 12384 2228 2206 2984 2875 7667 4355 1868 1898 447 301 1992 3141 20873 4198 3298 816 4835
is_linear=0
shrinkage=0.05


Tree=10
num_leaves=48
num_cat=0
split_feature=1 2 3 23 1 2 3 3 1 40 40 9 41 40 2 8 36 40 25 3 2 41 15 23 3 11 41 41 41 5 40 12 7 25 29 7 11 40 7 43 30 36 8 10 25 37 15
split_gain=4799.5 459.588 237.154 89.2638 56.4169 49.3548 31.8147 15.609 7.77221 7.47676 7.00042 7.45956 6.52705 6.29001 5.21735 4.52969 4.1566 3.93493 3.68936 3.40363 3.2997 3.25058 3.44469 3.10501 2.83885 2.8231 2.72257 2.68856 2.5447 2.53589 2.52023 2.58456 2.438 2.32575 2.30319 2.19919 2.11517 2.07382 2.04831 2.64028 2.61153 2.00219 1.98781 2.37405 1.87326 1.84367 1.84127
threshold=8.7501788139343279 6.4598407745361337 10.149935245513918 25.056162039438885 5.2263572216033944 7.5535507202148446 11.568408489227297 9.2226319313049334 4.3860893249511728 -0.5 -0.70710678118654735 0.70677715539932262 -0.27976242230339671 -0.1088409674838548 5.9293782711029062 -0.86975958943366993 27.374317169189457 -0.17364817766693016 23.133558273315433 13.658483505249025 7.170997381210328 -0.27976242230339671 1.165972173213959 8.5575474898020438 8.6675658226013201 28.842059135437015 -0.65918890865109969 0.46174861323503363 -0.65918890865109969 0.41046355664730078 -0.17364817766693016 97.56308746337892 1.4119043946266177 7.907027244567872 1.7937834686283072 1.2084155678749087 19.544708251953129 0.69134849440110402 1.2406135201454165 -0.34234976856068178 5.6549978256225595 8.5101256370544451 -0.40220521390438074 3.089913129806519 8.8372125625610369 -0.0026105145229796179 1.1515508294105532
decision_type=2 2 2 2 2 2 2 2 2 2 2 2 2 2 2 2 2 2 2 2 2 2 2 2 2 2 2 2 2 2 2 2 2 2 2 2 2 2 2 2 2 2 2 2 2 2 2
left_child=1 4 7 6 8 12 17 13 29 42 -7 23 15 -2 28 -3 -5 21 19 46 38 -4 -23 25 33 -12 45 -13 -6 -1 -17 -32 -10 -15 -31 -30 -25 -20 39 -14 -40 -37 -9 -44 -19 -16 -8
right_child=2 5 3 16 14 10 18 9 32 -11 11 27 20 24 26 30 -18 44 37 -21 -22 22 -24 36 -26 -27 -28 -29 35 34 31 -33 -34 -35 -36 41 -38 -39 40 -41 -42 -43 43 -45 -46 -47 -48
leaf_value=-0.014273133830712288 0.0016929535678588542 -0.0074656924049958124 0.010815480314682158 -0.0029130452383331392 -0.0088093131694822052 -0.0030405080312600544 0.01153900937714146 0.0016134546700888261 -0.012501424655955782 0.0083840669241969194 -0.0026409387738582264 0.0026089150154932411 -0.0099704601265267478 0.00070718227555600813 -0.0036947649468067607 -0.0049443853924229769 -0.012825933025077039 0.0085774074937313149 0.011408276989788352 0.01429700789951188 -0.0048729137528858027 0.0051003994450541778 0.0093374605159048784 -0.0041964334296298112 0.0062599339842365756 0.0024249029343015676 -0.0089691476785368138 -0.00012470421575303651 -0.011683240565255484 -0.013155904679734785 -0.0016898514075122152 -0.006921298467095903 -0.010139022183448951 0.0046053967497567648 -0.007971238096722337 -0.010758741918525341 0.0018316620529391953 0.0037038318874422181 -0.0079092309727125682 -0.0068179306413507744 -0.0040567340443160163 -0.0080003498476272032 0.0040406498543976242 0.0080260269160288798 0.011952101430397818 -0.0075837395402569598 0.013467880170058406
leaf_weight=13664 3040 798 1894 170 2224 2603 1535 440 9457 3474 3101 2344 1134 552 423 1463 282 483 333 22958 2141 711 1503 172 1710 301 4458 1459 3319 4404 2053 266 1268 1249 231 1889 916 120 855 1639 914 1038 1107 567 3348 1119 7815
leaf_count=13664 3040 798 1894 170 2224 2603 1535 440 9457 3474 3101 2344 1134 552 423 1463 282 483 333 22958 2141 711 1503 172 1710 301 4458 1459 3319 4404 2053 266 1268 1249 231 1889 916 120 855 1639 914 1038 1107 567 3348 1119 7815
internal_value=9.55739e-06 -0.0090393 0.0111574 0.012969 -0.0120252 -0.00317817 0.0132145 0.00501555 -0.0132971 0.00695688 -0.000778918 -6.87705e-05 -0.00549898 0.0033588 -0.00947338 -0.00404336 -0.0091123 0.0103715 0.0139031 0.0139662 -0.00649579 0.00928945 0.0079797 -0.00144872 0.00480027 -0.00219215 -0.00834091 0.00156042 -0.0102745 -0.0139259 -0.00331946 -0.00229265 -0.0122231 0.00341166 -0.0128993 -0.0107947 0.000875713 0.00938002 -0.00725954 -0.00811027 -0.00592215 -0.0097836 0.00460868 0.00539452 0.011529 -0.00652001 0.0131525
internal_weight=118944 65653 53291 41152 43494 22159 40700 12139 29024 5588 10896 8293 11263 6551 14470 4580 452 7939 32761 32308 6683 4108 2214 4490 3511 3402 6000 3803 8470 18299 3782 2319 10725 1801 4635 6246 1088 453 4542 2773 1769 2927 2114 1674 3831 1542 9350
internal_count=118944 65653 53291 41152 43494 22159 40700 12139 29024 5588 10896 8293 11263 6551 14470 4580 452 7939 32761 32308 6683 4108 2214 4490 3511 3402 6000 3803 8470 18299 3782 2319 10725 1801 4635 6246 1088 453 4542 2773 1769 2927 2114 1674 3831 1542 9350
is_linear=0
shrinkage=0.05


Tree=11
num_leaves=48
num_cat=0
split_feature=16 16 2 16 16 16 16 41 16 41 40 8 2 9 10 8 5 33 36 7 5 24 40 9 41 8 9 40 16 43 21 9 40 8 41 43 14 1 14 40 28 41 17 41 11 43 9
split_gain=4409.43 329.449 309.125 52.6573 28.1678 27.3227 24.1137 7.70962 7.16655 5.99415 5.59243 5.10515 4.73675 4.73558 4.3868 4.34195 4.01758 4.06537 3.94743 3.72837 3.55547 3.39652 3.369 3.39698 3.32088 4.67713 3.23179 3.19317 3.17316 2.99793 4.7703 2.9538 2.89354 2.88407 2.82862 2.80264 2.63855 2.48308 2.29855 2.2955 2.24007 2.23621 2.15886 2.13824 2.1248 3.29277 2.113
threshold=0.53868397712707539 0.87498485088348399 5.9293782711029062 0.33152068853378303 0.6997135210037233 0.99009445667266849 0.083695259094238306 -0.65918890865109969 0.43058350086212166 -0.55543802234893469 -0.53729960834682411 -0.75844031572341908 24.146391868591312 0.80560109019279491 3.0043843984603886 -0.3516103327274322 0.53985923528671276 6.2367075483004255 27.374317169189457 1.2900723218917849 0.43984036147594457 1.0544187048431024 -0.75166088996455094 0.77691692113876354 -0.40265084705289439 -0.42045986652374262 0.6747189760208131 -0.17364817766693016 0.79541631221771247 0.96407344085605606 15.91865396499634 0.73670980334281932 -0.44218343748786676 0.046427141875028617 -0.36235178784537897 -0.31800055644052067 0.18350446224212649 3.8592140674591069 0.23406047374010089 -0.065387565056496802 8.0300358533859271 -0.10884096748385491 7.2663011550903329 -0.5 26.865182876586918 -0.39827153806311183 0.57897114753723156
decision_type=2 2 2 2 2 2 2 2 2 2 2 2 2 2 2 2 2 2 2 2 2 2 2 2 2 2 2 2 2 2 2 2 2 2 2 2 2 2 2 2 2 2 2 2 2 2 2
left_child=2 4 6 9 10 24 21 26 27 11 41 -4 33 40 -14 -9 35 -18 20 31 -13 37 -10 -24 36 -26 -6 -5 -17 30 -19 -8 -33 44 -21 -11 -3 -1 -29 -27 43 -2 -25 -12 45 -7 -37
right_child=1 5 3 8 7 12 19 15 22 16 13 18 14 -15 -16 28 17 29 -20 34 -22 -23 23 42 25 39 -28 38 -30 -31 -32 32 -34 -35 -36 46 -38 -39 -40 -41 -42 -43 -44 -45 -46 -47 -48
leaf_value=-0.013616907581486343 0.0014731967336290841 0.011631855894415202 -0.0081802904402909216 -0.004957357700305475 0.0061512711974452223 -0.00045848688653980693 -0.011578369168436263 0.00057560463493134368 -0.0033496109584159918 -0.010005393783076334 0.0022047023353493986 -0.0054130332373822643 0.011031962136740941 0.004919314065203571 -0.00040129214525222776 0.0042470676492686902 -0.0089129095646968189 -0.0056271283909220468 -0.013574776839126241 -0.0064019711026769791 -0.0018912048900559945 -0.010182303350727652 -0.0014323898651879734 0.0074650859974331506 0.0021154182534453207 0.0086060633537909884 0.0098104054746251806 -0.0015026205870802799 0.0066966076394284028 -0.011397532433378356 0.0037991520479744214 -0.011416775574115683 -0.0088641291896101367 0.013407327271707762 -0.0097033122733095681 -0.010881012525535298 0.0071388570484115267 -0.012559690208449249 -0.0041749539254339859 0.010811481021736596 0.002501705292959342 -0.0015450084839476346 0.00087908071028121662 -0.0024382020115322114 0.011929008592422517 0.011571517097405518 -0.0070488183409338576
leaf_weight=10836 1096 3593 1151 2473 1040 101 5359 512 1303 2068 446 1689 316 1605 114 2827 1290 2926 109 887 1247 1094 3006 136 219 2673 1464 1988 2499 208 140 1832 2912 30235 2510 423 366 12053 1353 2172 2098 1392 1361 556 668 129 2553
leaf_count=10836 1096 3593 1151 2473 1040 101 5359 512 1303 2068 446 1689 316 1605 114 2827 1290 2926 109 887 1247 1094 3006 136 219 2673 1464 1988 2499 208 140 1832 2912 30235 2510 423 366 12053 1353 2172 2098 1392 1361 556 668 129 2553
internal_value=-1.35109e-06 0.0101874 -0.00909099 -0.0048349 0.00399498 0.0125574 -0.0119776 0.00597186 -0.00235446 -0.00692257 0.00170181 -0.00534314 0.0132516 0.00271545 0.00800692 0.00497474 -0.00761171 -0.00653309 -0.00426838 -0.010285 -0.00391837 -0.0129299 -0.0011116 -0.000463404 0.0101281 0.00927371 0.0082937 -0.0035952 0.00539745 -0.00559298 -0.00519561 -0.0107688 -0.00985209 0.0133238 -0.00884343 -0.0085862 0.0112184 -0.0130608 -0.00258576 0.00959677 0.0015732 -0.000215388 0.00148199 -0.000371462 0.0104984 0.00630966 -0.00759699
internal_weight=119028 56121 62907 25424 15535 40586 37483 8342 11620 13804 7193 4196 31563 4705 430 5838 9608 4564 3045 13500 2936 23983 5806 4503 9023 5064 2504 5814 5326 3274 3066 10103 4744 31133 3397 5044 3959 22889 3341 4845 3100 2488 1497 1002 898 230 2976
internal_count=119028 56121 62907 25424 15535 40586 37483 8342 11620 13804 7193 4196 31563 4705 430 5838 9608 4564 3045 13500 2936 23983 5806 4503 9023 5064 2504 5814 5326 3274 3066 10103 4744 31133 3397 5044 3959 22889 3341 4845 3100 2488 1497 1002 898 230 2976
is_linear=0
shrinkage=0.05


Tree=12
num_leaves=48
num_cat=0
split_feature=16 16 16 16 1 16 3 41 19 41 40 1 8 4 9 41 19 11 8 31 1 26 16 40 9 11 4 13 40 41 29 40 33 18 37 11 7 40 43 41 35 16 26 10 2 41 40
split_gain=3978.59 317.044 253.879 40.7666 37.065 31.3999 12.4988 7.65702 6.31062 6.26403 5.58695 5.26496 4.90339 4.80058 4.64982 4.49399 4.05229 4.01786 4.01167 3.23686 3.19133 3.07524 2.99597 2.77297 2.94221 2.72401 2.63879 2.55961 2.43314 2.24489 2.50395 2.22597 2.21843 5.05887 2.8395 2.1937 2.10253 2.08551 2.06704 1.94869 1.94721 1.92759 1.90806 1.8987 1.74394 1.70713 1.64008
threshold=0.56891234397888202 0.21917085170745854 0.92102965354919442 0.38695296525955208 5.1174805164337167 0.78676100254058856 12.239132881164553 -0.46174861323503363 24.075431823730472 -0.27976242230339671 -0.64278760968653914 4.3501033782958993 -0.27387973666191096 8.4620528221130389 0.77691692113876354 -0.32136297141497111 8.8125996589660662 25.783024787902836 -0.71102640032768238 7.0990886688232431 5.8083539009094247 8.9164628982543963 0.67692236900329605 -0.065387565056496802 -0.88408672809600819 28.521467208862308 9.1340093612670916 1010.9157714843751 -1.0000000180025095e-35 0.36235178784537897 0.76281177611924555 -0.36235178784537903 24.699339495764843 9.7901501655578631 0.028552247305787828 28.842059135437015 1.4119043946266177 1.0000000180025095e-35 0.71353761266622884 -0.36235178784537897 6.4803669452667245 0.31318652153015142 6.779837131500245 10.905920028686525 9.1273813247680682 -0.55543802234893469 0.065387565056497093
decision_type=2 2 2 2 2 2 2 2 2 2 2 2 2 2 2 2 2 2 2 2 2 2 2 2 2 2 2 2 2 2 2 2 2 2 2 2 2 2 2 2 2 2 2 2 2 2 2
left_child=1 4 5 9 11 7 16 13 -8 18 -5 42 -9 37 21 26 -4 28 -3 -11 -6 35 -14 24 40 41 -7 32 -17 30 -10 -27 33 43 -34 -12 -13 -2 -25 -16 -21 -20 -1 -22 -15 -45 -24
right_child=2 3 6 10 20 15 8 12 29 19 14 36 22 44 39 17 -18 -19 25 23 27 -23 46 38 -26 31 -28 -29 -30 -31 -32 -33 34 -35 -36 -37 -38 -39 -40 -41 -42 -43 -44 45 -46 -47 -48
leaf_value=-0.012670268686060929 0.0007532821578121727 -0.0065227326472561097 0.0034152947882539596 -0.0031885353379398104 -0.0095537566202593578 0.0058995000439219522 0.012760755189107603 -0.0021888678516289546 0.0092317524860645161 -0.0086680541375420226 -0.0026864055578802813 -0.011411842284714851 0.0011585951314571426 0.0043363711187232512 0.0025832320286128347 0.0056030898816883451 0.010656222018433409 0.0030101756133886085 -0.0047073603425572038 -0.0059454273936735899 -0.0085514657621511749 0.00044528313744482244 0.0024251632079531336 -0.0054315986618397333 -0.0082692861013470616 -0.0046757702532363686 0.0095119826361350166 -0.00028122282211319 0.0084716638294488212 0.011467191990878848 0.00024936067029124217 0.0034479888230729179 -0.0068107856366470577 0.00066096547148943312 -0.016776375183553408 0.0020913704864906047 -0.009092889678009284 0.0044097715044537468 -0.0016870904712974651 -0.00024496809470792231 -0.00030549926021742208 -0.0022512728742829623 -0.0088531798807620684 0.00037435370374142252 0.0074959527116143614 -0.0067394215957285175 0.004820332775011771
leaf_weight=17369 720 1318 199 2632 8429 644 28961 658 144 1324 2927 8734 2656 662 1313 1497 8342 787 2082 888 4584 1508 1625 2972 1868 126 2468 105 1482 179 167 250 130 166 164 261 1129 851 422 1135 185 1301 344 101 1315 507 1281
leaf_count=17369 720 1318 199 2632 8429 644 28961 658 144 1324 2927 8734 2656 662 1313 1497 8342 787 2082 888 4584 1508 1625 2972 1868 126 2468 105 1482 179 167 250 130 166 164 261 1129 851 422 1135 185 1301 344 101 1315 507 1281
internal_value=6.98962e-07 -0.00843165 0.00992016 -0.00364848 -0.0110099 0.00477071 0.0121762 0.00294798 0.0126654 -0.00551252 -0.00121973 -0.0120787 0.0018902 0.00480133 -0.00049403 0.00735851 0.0104879 0.00619297 -0.00414897 -0.00641574 -0.00893154 -0.00141493 0.00237307 -0.00594372 -0.00706921 -0.00331515 0.00876655 -0.00801904 0.00703252 0.00701546 0.00442467 0.000720484 -0.00816272 -0.00792751 -0.0124078 -0.00229472 -0.0111473 0.00273552 -0.00496665 0.00127239 -0.00497422 -0.00376377 -0.0125966 -0.00820218 0.00644069 -0.00555902 0.00348228
internal_weight=118912 64274 54638 22512 41762 16646 37992 9768 29451 12736 9776 27576 6220 3548 7144 6878 8541 3766 5077 7659 14186 4696 5562 6335 2941 3759 3112 5757 2979 490 311 376 5652 5358 294 3188 9863 1571 3394 2448 1073 3383 17713 5192 1977 608 2906
internal_count=118912 64274 54638 22512 41762 16646 37992 9768 29451 12736 9776 27576 6220 3548 7144 6878 8541 3766 5077 7659 14186 4696 5562 6335 2941 3759 3112 5757 2979 490 311 376 5652 5358 294 3188 9863 1571 3394 2448 1073 3383 17713 5192 1977 608 2906
is_linear=0
shrinkage=0.05


Tree=13
num_leaves=48
num_cat=0
split_feature=2 3 0 25 2 0 3 3 40 40 4 5 40 4 36 40 40 9 17 4 8 5 35 3 12 38 5 7 15 35 15 12 10 26 3 33 40 3 34 7 4 9 24 9 37 7 8
split_gain=3527.42 257.833 254.316 66.2108 30.6852 29.9494 27.7597 16.8125 8.17493 4.70301 5.33127 4.32129 4.25892 4.73101 4.25572 4.10905 3.85044 3.72687 3.55051 3.45441 3.35875 3.20587 3.20113 3.18066 2.88005 2.76481 2.5802 2.5601 2.48712 2.37174 2.10192 2.09576 2.09204 2.08897 2.06481 2.41421 2.057 2.01702 1.93451 1.90568 1.84539 1.78799 2.06115 1.77099 1.64902 1.6421 1.62511
threshold=8.363983631134035 9.9884567260742205 6.2538278102874765 24.204011917114261 7.3116116523742685 5.0767998695373544 11.388199806213381 8.8673634529113787 -0.1088409674838548 -0.17364817766693016 6.5491456985473642 0.51704475283622753 -0.043619387365335778 5.3254344463348398 27.374317169189457 -0.69134849440110357 -0.3007057995042734 0.82107120752334606 25.24669170379639 12.304600238800051 -0.36693848669528956 1.2136474847793581 5.9896609783172616 3.9800708293914799 87.680248260498061 0.29002571105957037 0.63460472226142894 1.5040235519409182 1.1817795634269717 2.8413319587707524 1.1515508294105532 85.057247161865249 3.0772389173507695 8.4936056137084979 8.1522917747497576 8.0186967386139774 1.0000000180025095e-35 22.82037448883057 2.4595248951392894 1.5940534472465517 9.9369306564331072 0.40578806400299078 0.71571032563814907 0.79312488436698925 0.17317285049836148 1.4381088614463808 -0.36693848669528956
decision_type=2 2 2 2 2 2 2 2 2 2 2 2 2 2 2 2 2 2 2 2 2 2 2 2 2 2 2 2 2 2 2 2 2 2 2 2 2 2 2 2 2 2 2 2 2 2 2
left_child=2 7 5 6 12 11 16 15 20 46 22 23 39 27 -5 -2 40 33 19 30 -9 28 -11 -1 -15 26 -22 -14 -7 32 -8 -12 -18 -13 35 -17 -36 -21 -10 -4 -3 -30 -43 -16 -39 -37 -6
right_child=1 3 4 14 9 21 18 8 38 10 31 17 13 24 43 34 29 -19 -20 37 25 -23 -24 -25 -26 -27 -28 -29 41 -31 -32 -33 -34 -35 36 45 -38 44 -40 -41 -42 42 -44 -45 -46 -47 -48
leaf_value=-0.012268034223863092 -0.00042006575752809804 0.0055457450975341816 -0.0067616385367028353 -0.0017383778791712678 -0.0045276469419682401 -0.0091948619851418504 0.0090659114369092721 0.00060894220995182406 0.0071717955444026097 -0.0039141498250910628 0.002634538974888777 -0.010675412157450334 -0.0069226440612826156 -0.0017181302190011627 -0.0061169765889644628 -0.00096542700605328096 0.0093675599536334059 -0.005129908098277936 0.0024161989293476141 0.012209008874918799 0.0019151158164184179 -0.0058921748465726488 -0.00051458319642213343 -0.011034254896597278 -0.0046707964101308751 0.0062216920006537358 0.0061797243655399379 -0.0025827822497367491 -0.012028037601924358 0.009871478073528818 0.011301221997650358 -0.00023538100465032098 -0.00070356192512777995 -0.0034316314468294598 0.0014699393684751577 0.0016523293703563744 0.0040963880309388577 0.010542155025317707 0.0023863605643504641 -0.00057886801226887598 0.0080674872654692732 -0.0078509364285087573 -0.0043050564593643008 -0.014452705767167652 0.0038846530498714625 0.0060419003036528418 -0.0023617543047396352
leaf_weight=13417 1829 1000 5026 183 1195 10396 1358 821 3096 1465 990 4464 2193 1445 101 838 102 349 100 26118 1349 998 1313 8800 1932 1091 481 404 200 4033 5147 1776 103 103 1176 1360 2043 747 228 128 2752 1926 526 183 108 252 3163
leaf_count=13417 1829 1000 5026 183 1195 10396 1358 821 3096 1465 990 4464 2193 1445 101 838 102 349 100 26118 1349 998 1313 8800 1932 1091 481 404 200 4033 5147 1776 103 103 1176 1360 2043 747 228 128 2752 1926 526 183 108 252 3163
internal_value=-8.72858e-06 0.00902347 -0.00822642 0.0110099 -0.00375266 -0.010511 0.0112202 0.00328994 0.00503979 -0.0017277 -0.000761362 -0.0114816 -0.00555421 -0.00464391 -0.00769891 0.00164046 0.00856893 -0.0101318 0.0118508 0.0118789 0.00343539 -0.00863533 -0.00230813 -0.0117799 -0.00340825 0.00422934 0.00303879 -0.00624877 -0.00884467 0.00960444 0.010836 0.000792395 0.00432858 -0.0105128 0.00230521 0.0012107 0.00313762 0.0121301 0.00684437 -0.00660823 0.00739704 -0.00746896 -0.00709234 -0.0115201 0.00970673 0.00234186 -0.00295656
internal_weight=118808 56599 62209 42035 21030 41179 41568 14564 7066 9902 5544 27133 11128 5974 467 7498 7990 4916 33578 33478 3742 14046 2778 22217 3377 2921 1830 2597 13048 4238 6505 2766 205 4567 5669 2450 3219 26973 3324 5154 3752 2652 2452 284 855 1612 4358
internal_count=118808 56599 62209 42035 21030 41179 41568 14564 7066 9902 5544 27133 11128 5974 467 7498 7990 4916 33578 33478 3742 14046 2778 22217 3377 2921 1830 2597 13048 4238 6505 2766 205 4567 5669 2450 3219 26973 3324 5154 3752 2652 2452 284 855 1612 4358
is_linear=0
shrinkage=0.05


Tree=14
num_leaves=48
num_cat=0
split_feature=16 4 2 16 16 3 16 40 16 40 40 4 28 40 9 36 3 12 4 4 43 1 7 9 24 7 28 18 7 28 14 9 18 35 43 7 4 22 33 40 40 12 7 33 10 2 36
split_gain=3233.03 256.118 222.791 33.3335 22.8568 22.177 18.7952 8.09268 5.52412 5.15833 4.96581 4.80634 3.74581 3.71008 3.6429 3.38329 3.34407 3.28399 3.00197 2.94163 2.81426 2.79674 2.54317 2.22374 2.16445 2.1529 2.12571 2.11575 2.1117 2.1046 2.10231 1.96045 2.38871 2.1246 1.93538 2.07991 1.84357 1.88481 1.84256 1.83376 1.7819 1.77937 1.77155 1.83467 1.72475 1.85311 1.71386
threshold=0.53176198959350596 9.7802748680114764 6.3787899017333993 0.087280378341674819 0.3993460154533387 9.0042638778686541 0.96302162647247325 -0.5 0.14742801189422611 -0.17364817766693016 -0.065387565056496802 5.7192950248718271 6.6252795325385208 -0.64278760968653914 0.78526434302330028 7.600990056991578 8.1522917747497576 86.502918243408217 12.304600238800051 21.98825836181641 0.96177147954086928 6.8084032535552987 1.1947208046913149 0.68036615848541271 1.7807101251359145 1.4203432798385622 7.9361695448557548 7.2187545299530038 1.4203432798385622 8.0300358533859271 0.20513843744993213 0.80560109019279491 5.1522283554077157 4.3450164794921884 -0.99052477729077237 1.185434937477112 8.3259835243225115 7.5637459754943857 8.8056860102547549 -0.36235178784537903 -0.3007057995042734 78.453742980957045 1.2939394712448122 8.1182120905982149 3.0043843984603886 24.146391868591312 27.374317169189457
decision_type=2 2 2 2 2 2 2 2 2 2 2 2 2 2 2 2 2 2 2 2 2 2 2 2 2 2 2 2 2 2 2 2 2 2 2 2 2 2 2 2 2 2 2 2 2 2 2
left_child=2 5 3 15 9 10 40 -7 -5 20 34 12 -11 -6 26 -1 29 46 -8 -20 21 -4 23 -10 41 -17 30 -16 -28 -12 -15 33 -33 -24 -2 36 -36 -38 -37 -25 -3 -9 -14 -44 -21 -46 -13
right_child=1 6 4 8 13 7 18 24 22 11 16 17 42 14 27 25 -18 -19 19 44 -22 -23 31 39 -26 -27 28 -29 -30 -31 -32 32 -34 -35 35 38 37 -39 -40 -41 -42 -43 43 -45 45 -47 -48
leaf_value=-0.011356110797317836 -0.0034214243918299966 0.0074122779948366082 -0.0071446810850451297 -0.0091441179992950376 -0.0031428061581139297 0.0032333816006684781 0.010340908490909941 0.0084858372203352739 -0.0094710812850947092 -0.0070425250311044272 -0.0011120048818107874 -0.00026449686519530849 -0.0053121551046496022 -0.00071919438759349879 0.0046180685371314699 -0.010319782462959379 0.0039768893866058306 -0.0038174986615213177 0.011607013159785795 0.0099519990683044103 -0.010377940198568305 -0.0047228014542297359 -0.0080943482221065757 -0.0087949683621882796 0.00082523260707369987 -0.0073605753646061719 -0.00096588641176289277 0.00038782701051161115 0.0038203818684152367 0.0023639806607690488 -0.004068722158759394 0.0035407110578426632 -0.0053204452146535684 -0.0056741688113471382 -0.0013229828276588125 -0.00015408098213179428 0.0047315469895126286 8.9425982924568363e-05 0.0036342756308905726 -0.0063561770638782076 0.0091350636045055885 0.0062418219387732005 -0.0032993619580703017 0.0022297301372317534 0.0090980427492348883 8.2258107485594573e-05 -0.006898267694881984
leaf_weight=19923 301 3132 1911 8665 1904 2760 7037 1214 1931 1541 633 1340 993 823 375 3963 2649 2194 26168 673 333 3203 1722 1285 155 742 1449 1383 273 1391 1088 100 309 1949 1408 500 307 754 895 1980 2966 3364 907 179 121 107 104
leaf_count=19923 301 3132 1911 8665 1904 2760 7037 1214 1931 1541 633 1340 993 823 375 3963 2649 2194 26168 673 333 3203 1722 1285 155 742 1449 1383 273 1391 1088 100 309 1949 1408 500 307 754 895 1980 2966 3364 907 179 121 107 104
internal_value=4.46096e-07 0.00866664 -0.00783002 -0.00987507 -0.00347695 0.00338606 0.0108115 0.00538699 -0.00823464 -0.00475771 0.00168922 -0.00388383 -0.0051738 -0.00124604 -0.000575679 -0.0110697 0.00280796 -0.00259918 0.0112689 0.0115098 -0.0059212 -0.00562903 -0.00738417 -0.00812008 0.0066419 -0.00985477 -0.00147969 0.00129229 -0.000205311 0.00127686 -0.00262733 -0.00644521 -0.00315055 -0.00681133 0.000433653 0.000734765 -0.000137348 0.00143581 0.0022773 -0.00731841 0.00825158 0.00683862 -0.00378594 -0.00238682 0.00867682 0.00488579 -0.000746719
internal_weight=119104 56535 62569 42569 20000 16331 40204 7493 17941 12705 8838 7258 3620 7295 5391 24628 4673 3638 34106 27069 5447 5114 9276 5196 4733 4705 3633 1758 1722 2024 1911 4080 409 3671 4165 3864 2469 1061 1395 3265 6098 4578 2079 1086 901 228 1444
internal_count=119104 56535 62569 42569 20000 16331 40204 7493 17941 12705 8838 7258 3620 7295 5391 24628 4673 3638 34106 27069 5447 5114 9276 5196 4733 4705 3633 1758 1722 2024 1911 4080 409 3671 4165 3864 2469 1061 1395 3265 6098 4578 2079 1086 901 228 1444
is_linear=0
shrinkage=0.05


Tree=15
num_leaves=48
num_cat=0
split_feature=16 0 3 16 16 16 16 16 40 40 40 18 43 40 7 9 14 9 33 7 36 31 24 1 33 20 3 40 14 7 30 6 7 40 9 37 40 14 7 31 3 9 35 32 9 28 17
split_gain=2928.48 278.033 144.958 35.5532 28.0758 16.1282 9.19535 6.64049 5.48293 4.21568 4.00617 3.8889 3.76481 3.67153 3.43739 3.37447 3.22875 3.12626 2.90333 3.92921 2.81918 3.20254 2.53204 2.51541 2.45174 2.40777 2.26081 3.32828 2.12489 2.11486 1.98447 1.92036 1.84735 1.84206 1.81486 1.80923 1.68272 1.82113 1.65813 1.65508 1.65186 1.63021 1.74901 1.62543 1.53966 1.51028 1.50001
threshold=0.61775850296020518 6.5461292266845712 10.633259296417238 0.12949242591857915 0.43058350086212166 0.77091837406158459 0.99294624328613301 0.069014120101928728 -0.17364817766693016 -0.5 -0.64278760968653914 24.077286720275882 0.96177147954086928 -0.3007057995042734 1.5175575017929079 0.86060988903045665 0.23406047374010089 0.70677715539932262 8.0657149089707278 1.2788586616516116 27.374317169189457 16.619649887084964 1.0253083995325898 7.1733191013336191 7.6787766151958055 8.6937069892883319 5.8218207359313974 -0.15208718494349086 0.20513843744993213 1.4119043946266177 5.0744609832763681 0.079556725919246687 1.3307021260261538 -0.065387565056496802 -0.51136150956153859 -0.20143756940097879 -0.3007057995042734 0.18013586848974231 1.2752819061279299 9.6982440948486346 8.5405063629150408 0.8845210373401643 8.6570148468017596 0.066953797827564152 0.699293613433838 8.2252220312754343 7.1259417533874521
decision_type=2 2 2 2 2 2 2 2 2 2 2 2 2 2 2 2 2 2 2 2 2 2 2 2 2 2 2 2 2 2 2 2 2 2 2 2 2 2 2 2 2 2 2 2 2 2 2
left_child=1 3 5 7 8 9 30 22 12 41 -6 -8 23 -7 26 40 20 18 28 -20 21 32 -1 -3 -18 31 -5 -28 34 36 -4 -15 44 -32 -12 -19 -9 -38 -26 -25 45 -2 -43 -41 -10 -11 -37
right_child=2 4 6 14 10 13 11 29 16 15 17 -13 -14 25 -16 -17 24 35 19 -21 -22 -23 -24 39 38 -27 27 -29 -30 -31 33 -33 -34 -35 -36 46 37 -39 -40 43 -42 42 -44 -45 -46 -47 -48
leaf_value=-0.010800655648316934 0.00036696626356979965 -0.0058605305426729769 0.0052902786058369282 -0.0077683600987201763 -0.001969984113809629 0.0048709085698236364 0.01092457211754227 -0.010285198975899747 -0.0037726785468515708 -0.00097418321014314962 0.0016666832941008725 0.0063126299561972318 -0.01034713833088604 0.0063141964003228471 -0.0041592976412903613 0.0063615145686036073 -0.0051649840438363244 -0.0023733662040639585 -0.0011973568486325309 0.0037839386861716071 -0.0088040954286330627 0.006883996132049053 -0.0081865227457095929 -0.0045516919354166218 -0.0042076039705377108 0.0076654222083668289 -0.0076857699426712616 -0.0048017224276528858 -0.0033093870484724266 -0.0072304829148333921 0.0084391268892377563 0.0014024926482602733 0.0010183865729142243 0.010047416805395618 -0.0027432766763170174 0.0070012301732383687 -0.0080182451358801476 -0.0098139849659620287 0.00016024230871292567 -0.0026309576056690307 0.0039865295355564247 0.0042968868581797657 -0.0019050301285460593 0.0040694907878507649 -0.0016232644672056753 0.0026976109122566739 0.0016158974718001127
leaf_weight=19857 1774 2645 363 8426 2648 3285 29477 3419 1376 378 571 469 325 648 941 971 2162 274 919 694 151 101 989 1602 432 3572 2122 1908 1158 1304 4411 288 425 3075 393 135 3031 2728 436 701 1889 611 139 103 2117 1075 2676
leaf_count=19857 1774 2645 363 8426 2648 3285 29477 3419 1376 378 571 469 325 648 941 971 2162 274 919 694 151 101 989 1602 432 3572 2122 1908 1158 1304 4411 288 425 3075 393 135 3031 2728 436 701 1889 611 139 103 2117 1075 2676
internal_value=-2.77853e-05 -0.00697232 0.0088168 -0.00923745 -0.00237638 0.00459048 0.0104526 -0.0101596 -0.00392456 0.00281745 -0.000319786 0.0108526 -0.00513301 0.00614544 -0.00708056 0.00376712 -0.00302166 0.00032113 -0.000651718 0.000946883 -0.00211826 -0.00186494 -0.010677 -0.00479553 -0.00426385 0.00707292 -0.0073009 -0.00632185 -0.00186674 -0.00912953 0.00892547 0.00480601 -0.00209217 0.00910101 -0.000132133 0.00149878 -0.00939853 -0.00887043 -0.00201596 -0.00362279 0.00301165 0.0011938 0.00314646 -0.00176858 -0.00247082 0.00174238 0.00187693
internal_weight=119194 66769 52425 44725 22044 14630 37795 31328 12576 6837 9468 29946 5376 7793 13397 4313 7200 6820 3735 1613 4170 4019 20846 5051 3030 4508 12456 4030 2122 10482 7849 936 3918 7486 964 3085 9178 5759 868 2406 3342 2524 750 804 3493 1453 2811
internal_count=119194 66769 52425 44725 22044 14630 37795 31328 12576 6837 9468 29946 5376 7793 13397 4313 7200 6820 3735 1613 4170 4019 20846 5051 3030 4508 12456 4030 2122 10482 7849 936 3918 7486 964 3085 9178 5759 868 2406 3342 2524 750 804 3493 1453 2811
is_linear=0
shrinkage=0.05


Tree=16
num_leaves=48
num_cat=0
split_feature=0 4 1 25 1 0 1 3 40 41 41 41 8 25 9 8 7 43 8 41 30 40 25 40 4 40 5 9 8 41 40 5 7 29 7 3 31 8 3 13 35 25 41 7 4 8 9
split_gain=2618.65 200.72 176.772 57.3596 23.0853 19.5372 17.8894 15.5323 5.42999 4.71003 4.69871 4.34972 5.23422 3.22637 3.52155 3.19409 3.14856 3.3338 2.94727 2.91084 2.61126 2.60743 2.582 2.80145 2.74799 2.56801 2.5545 2.54977 2.49208 2.41522 2.41884 2.39385 2.24309 2.12907 2.11157 2.26901 2.01928 2.02603 1.98905 1.83885 1.83268 1.71893 1.69159 2.85425 2.75079 2.51646 1.67452
threshold=8.2541322708129901 9.7802748680114764 6.1352157592773446 24.204011917114261 7.1289989948272714 9.2466726303100604 4.7406656742095956 11.388199806213381 -0.17364817766693016 -0.55543802234893469 -0.30070579950427329 -0.27976242230339671 -0.86975958943366993 9.4777312278747576 -0.87274324893951405 -0.71102640032768238 1.3422443866729739 0.35645927230573393 -0.84292352199554432 -0.36235178784537897 5.6021504402160653 -0.8312717450509387 23.133558273315433 0.77969889170510687 13.401841640472414 -0.80625269229011354 0.41689990460872656 0.74946388602256786 -0.28623226284980768 -0.51864980417341189 -0.065387565056496802 1.5218248367309573 1.5040235519409182 1.5262267739240674 1.5336449146270754 7.4131822586059579 26.848133087158207 0.60126328468322765 5.1591818332672128 996.88156127929699 5.2544188499450692 6.3061499595642099 -0.32136297141497111 1.1489642858505251 8.3939423561096209 -0.3516103327274322 0.81612294912338268
decision_type=2 2 2 2 2 2 2 2 2 2 2 2 2 2 2 2 2 2 2 2 2 2 2 2 2 2 2 2 2 2 2 2 2 2 2 2 2 2 2 2 2 2 2 2 2 2 2
left_child=2 5 6 7 9 10 26 29 42 15 18 12 -6 14 40 -4 17 38 -2 -18 -13 33 24 25 39 -24 -1 -28 -12 -3 -31 -17 -11 -22 35 -14 -5 -38 -8 -9 -10 -37 44 -44 -7 -45 -20
right_child=1 3 4 36 11 8 16 22 13 32 28 20 34 -15 -16 31 19 -19 46 -21 21 -23 23 -25 -26 -27 27 -29 -30 30 -32 -33 -34 -35 -36 41 37 -39 -40 -41 -42 -43 43 45 -46 -47 -48
leaf_value=-0.010363162233397578 -0.0021440140017567992 0.0086562777700362019 -0.0060115654427741229 -0.0028100590451040131 -0.0048322962804377319 0.00058918940259742735 -0.0092925874230237876 0.0080230282634192376 -0.00283676296869419 -0.0061166721261098761 -0.0030913538341406821 -0.0045414063167675094 -0.0015423424741656442 0.0074348461893829088 0.0058056509345907718 -0.0029411003400345911 -0.0038983347755234183 -0.0068173610420430644 0.0020855225948579552 -0.0073614731271869783 -0.0050274207697142536 -0.0015030380835399123 0.0021493220274601509 -0.0007927381495634715 0.010566823169429251 0.011474927530510014 -0.0095551212150636056 -0.0064837530243687259 0.00064557813521830124 0.0056765984140523989 0.0082580493021478969 0.0042321588562014021 -0.0030971031687969282 0.0017366744814243055 0.0062987700732264791 0.0040795997088698749 -0.013504119081202373 -0.0054943805009546424 -0.0078974814807002396 0.0098630568568466807 0.0031286117505551127 0.00024028555253234005 0.00087486337490354444 -2.5616167173817914e-05 0.0057985145652177626 0.0052233463130731241 0.0044515927437487014
leaf_weight=16975 285 2786 946 137 659 322 5807 1618 164 6872 499 1531 1758 1889 2143 2180 810 3190 1637 2465 1008 3591 108 104 22074 236 5262 786 4141 2286 1522 122 679 131 127 353 185 141 4685 9582 587 1653 1265 287 1193 1116 1381
leaf_count=16975 285 2786 946 137 659 322 5807 1618 164 6872 499 1531 1758 1889 2143 2180 810 3190 1637 2465 1008 3591 108 104 22074 236 5262 786 4141 2286 1522 122 679 131 127 353 185 141 4685 9582 587 1653 1265 287 1193 1116 1381
internal_value=8.03063e-07 0.00765566 -0.00716909 0.0095548 -0.00352538 0.00307525 -0.00913845 0.0097558 0.00467482 -0.00516045 0.0012693 -0.00189181 -0.000715105 0.00582582 0.00477336 -0.00356631 -0.00790471 -0.00823892 0.00271035 -0.00650639 -0.00274669 -0.00216494 0.0101901 0.00639331 0.010241 0.00856184 -0.0100467 -0.0091571 0.000243117 0.00753365 0.00671026 -0.00255926 -0.00584559 -0.00424862 -1.67336e-05 -0.00023144 -0.00793051 -0.0100672 -0.00867044 0.00959798 0.00182388 0.000917594 0.00335765 0.00259823 0.00469244 0.00415036 0.00316932
internal_weight=119278 57688 61590 40779 21610 16909 39980 40316 8966 10799 7943 10811 4550 4783 2894 3248 16957 13682 3303 3275 6261 4730 33722 448 33274 344 23023 6048 4640 6594 3808 2302 7551 1139 3891 3764 463 326 10492 11200 751 2006 4183 2668 1515 1403 3018
internal_count=119278 57688 61590 40779 21610 16909 39980 40316 8966 10799 7943 10811 4550 4783 2894 3248 16957 13682 3303 3275 6261 4730 33722 448 33274 344 23023 6048 4640 6594 3808 2302 7551 1139 3891 3764 463 326 10492 11200 751 2006 4183 2668 1515 1403 3018
is_linear=0
shrinkage=0.05


Tree=17
num_leaves=48
num_cat=0
split_feature=16 16 16 0 0 16 4 1 7 40 17 40 4 4 40 19 7 43 12 26 33 7 13 8 4 30 33 7 40 4 40 17 5 40 22 40 4 4 3 13 8 33 10 8 7 31 26
split_gain=2377.31 246.077 101.491 30.3867 25.8458 10.4019 7.93064 5.53269 4.13114 4.07324 3.60765 3.40885 3.81666 3.35438 3.21973 3.10141 3.00772 3.20652 2.65456 2.34829 2.33685 3.00607 2.86854 2.25842 2.17511 2.10181 2.09854 2.01675 1.94562 1.9363 2.00696 2.11364 2.76641 1.92909 1.89716 1.8757 1.84117 1.82934 1.8271 1.73769 2.11685 1.60278 1.59762 1.44689 1.43333 1.41742 1.91888
threshold=0.64270828247070322 0.25593980550765999 0.92102965354919442 5.4140663146972665 7.6994316577911386 0.80453982830047621 11.889075279235842 4.2815008163452157 1.4381088614463808 -0.72219205899833561 24.080191612243656 -0.17364817766693016 6.050922393798829 7.4216985702514657 -0.70710678118654735 8.5795078277587908 1.3602550029754641 -0.031174269516803289 95.189746856689467 6.779837131500245 8.0657149089707278 1.2752819061279299 1005.2767333984376 -0.90584418177604664 8.3939423561096209 3.1333525180816655 6.0644623272948808 1.4119043946266177 -0.44218343748786676 4.7628500461578378 0.21643961393810304 25.24669170379639 0.41689990460872656 -0.3007057995042734 10.531179428100588 -0.70710678118654735 4.6345608234405526 7.131988763809205 5.5392408370971689 1001.830780029297 0.60876327753067028 11.812109384271835 3.0043843984603886 -0.27387973666191096 1.6220570206642153 9.7383561134338397 26.053762435913089
decision_type=2 2 2 2 2 2 2 2 2 2 2 2 2 2 2 2 2 2 2 2 2 2 2 2 2 2 2 2 2 2 2 2 2 2 2 2 2 2 2 2 2 2 2 2 2 2 2
left_child=1 3 5 7 8 14 15 19 11 -6 -8 37 -13 20 43 -4 17 -5 39 -1 22 -22 -11 -15 -16 -20 -18 28 -9 -19 31 32 -31 -7 -34 -17 -30 -3 -10 -14 -41 -25 -12 -2 -40 -32 -47
right_child=2 4 6 16 9 33 10 27 38 13 42 12 18 23 24 35 26 29 25 -21 21 -23 -24 41 -26 -27 -28 -29 36 30 45 -33 34 -35 -36 -37 -38 -39 44 40 -42 -43 -44 -45 -46 46 -48
leaf_value=-0.0098491164748173068 -0.0011459813473493341 -0.0054010791650113965 0.0016341275667930328 -0.0073322245680305575 -0.0018459804812548325 0.004883926850680227 0.0098943938062147421 -0.0095430324393045909 -0.0025868113469926695 -0.0022123115875312808 0.0076215237527590659 -0.004344324569905059 -0.0022098036383266188 -0.0057671237093232137 0.0025749535774880891 0.007103539765200121 -0.0066722881345387969 -0.0073221517176729469 -0.009216970418180738 -0.005407246710224585 -0.00074163795777984834 0.0029233318011607202 0.0034892890271485638 0.0020608778122411828 0.0046330350415891668 -0.0029384229644520243 -0.0037086366517479173 -0.0068074275448119824 -0.0086489058995888064 -0.0064939923821627707 -0.0041872314391080663 -0.010336040191071802 -0.0036746601188973396 0.0066644704377757675 0.0043401899489362052 0.0087202956184201045 -0.0069694656940961844 -0.0027045020562026399 4.3292536944003283e-05 0.0024754013554379802 -0.0022852318011424145 -0.0024496004946108554 0.0015126886245395458 0.0020798043266142393 0.0065571047756569833 0.0036386704820575233 -0.0051622939677465531
leaf_weight=16589 447 3621 181 7034 2676 2795 28462 4178 717 2070 300 3014 1137 101 2315 2555 942 1129 167 307 1503 890 246 3211 2896 655 1648 1704 6473 1125 925 238 274 3388 100 6320 2224 765 491 610 377 209 167 1554 101 150 104
leaf_count=16589 447 3621 181 7034 2676 2795 28462 4178 717 2070 300 3014 1137 101 2315 2555 942 1129 167 307 1503 890 246 3211 2896 655 1648 1704 6473 1125 925 238 274 3388 100 6320 2224 765 491 610 377 209 167 1554 101 150 104
internal_value=-1.12533e-05 -0.00616541 0.00809823 -0.00829633 -0.00190131 0.00435559 0.00941787 -0.0091514 -0.00353825 -0.000151773 0.00982276 -0.00387307 -0.00309349 0.000399259 0.00306477 0.00812356 -0.00632688 -0.006686 -0.00181275 -0.00976873 -0.000473583 0.000622082 -0.00160546 0.0015664 0.0037194 -0.00422364 -0.0047887 -0.00843533 -0.00865023 -0.00556073 -0.00487648 -0.00595784 -0.00525627 0.0058605 -0.00152579 0.0082557 -0.00822029 -0.00493147 -0.000890997 -0.000878167 0.000656531 0.0017846 0.00544489 0.00135899 0.00116379 -0.00327964 2.90132e-05
internal_weight=119085 67705 51380 45144 22561 13395 37985 31475 11655 10906 28929 10346 5960 8230 7212 9056 13669 11079 2946 16896 4709 2393 2316 3521 5211 822 2590 14579 12875 4045 2916 1737 1499 6183 374 8875 8697 4386 1309 2124 987 3420 467 2001 592 1179 254
internal_count=119085 67705 51380 45144 22561 13395 37985 31475 11655 10906 28929 10346 5960 8230 7212 9056 13669 11079 2946 16896 4709 2393 2316 3521 5211 822 2590 14579 12875 4045 2916 1737 1499 6183 374 8875 8697 4386 1309 2124 987 3420 467 2001 592 1179 254
is_linear=0
shrinkage=0.05


Tree=18
num_leaves=48
num_cat=0
split_feature=16 0 16 1 16 3 4 40 40 26 26 7 9 4 3 40 9 35 26 36 11 40 35 40 4 39 11 8 37 21 26 7 25 8 29 9 8 33 40 7 40 7 14 33 40 7 4
split_gain=2156.53 207.88 108.638 26.8837 19.3101 11.6464 6.52167 4.98208 4.59516 4.4028 4.18975 3.3604 3.63675 3.11031 3.01837 2.94863 2.86926 3.12846 2.75313 2.72806 2.48228 2.3813 2.32719 2.26207 2.2372 2.22302 2.34862 2.17351 2.82223 2.16619 3.06352 2.03147 2.00633 1.92889 1.77437 2.15055 1.694 2.11503 1.64076 1.62911 1.62336 1.60008 1.58389 1.76341 1.56712 1.55399 1.54573
threshold=0.61775850296020518 6.5885961055755624 0.92102965354919442 5.2263572216033944 0.44328572273254402 9.6722254753112811 11.792291641235353 -0.1088409674838548 -0.17364817766693016 6.779837131500245 24.965970993041996 1.2862762808799746 0.63591349124908458 5.3254344463348398 3.9496266841888432 -0.46174861323503386 0.62569090723991405 4.8997573852539071 26.053762435913089 16.953495979309086 28.761341094970707 -0.8312717450509387 4.8228807449340829 1.0000000180025095e-35 7.5395100116729745 0.61481499671936046 24.652615547180179 0.56231960654258739 0.038524020669389737 25.213444709777836 10.47507429122925 1.271710276603699 7.4557936191558847 -0.36693848669528956 2.1127075597198859 0.77477505803108226 0.4164873361587525 9.263872007528942 -0.69134849440110357 1.4577146768569949 -0.3007057995042734 1.1684280633926394 0.15632437169551852 8.0657149089707278 -0.79335334029123528 1.2131356596946719 5.1400916576385507
decision_type=2 2 2 2 2 2 2 2 2 2 2 2 2 2 2 2 2 2 2 2 2 2 2 2 2 2 2 2 2 2 2 2 2 2 2 2 2 2 2 2 2 2 2 2 2 2 2
left_child=1 3 5 9 8 7 32 33 29 14 -8 12 -5 39 -1 -14 17 38 19 20 34 -7 46 25 -9 26 -18 -12 -29 30 36 -19 -4 -2 35 41 37 -3 -6 -10 -16 -15 -33 -44 -34 -22 -13
right_child=2 4 6 11 16 21 10 24 13 -11 27 22 15 18 40 -17 23 31 -20 -21 45 -23 -24 -25 -26 -27 -28 28 -30 -31 -32 42 44 -35 -36 -37 -38 -39 -40 -41 -42 -43 43 -45 -46 -47 -48
leaf_value=-0.0093980267716600868 -0.0005541662108127024 -0.0041868543436340321 0.0023080115971554605 -0.0077241999414857489 -0.0077237795539012001 0.0038119058027778472 0.0093931756217568926 0.0020896368987863025 -0.0048859127165783714 -0.0057393277114864876 0.0085145220901426035 -0.0064853723863859628 -0.0073979565111928691 -0.0042231391412850964 -0.0090640292380722246 -0.0051776473435350724 -0.00039977705742201075 -0.0015155848215195769 -0.0077496333460550064 0.0062507223511453387 -0.0011960790551557847 0.0062546476887909682 -0.0035593925689431007 0.0018567214536944082 0.0045669390948268182 0.0017917869596826429 -0.0050200613880563823 0.0073605729945909193 -0.0034604338794082833 -0.009861238732845827 0.0014745406682777685 0.0061556869016266835 0.0066070538336800572 0.0020746046931885941 -0.0069408113398323106 -0.00041509195008824904 -0.0058596589364643681 -0.00010938395002581688 -0.0025234390844447348 -0.001480866833191841 -0.0078511256608672624 -0.0017667449419014256 -0.0018774412546693463 0.0018913887453279245 0.0082355721988042769 0.0056778560210125244 -0.0030709986194006095
leaf_weight=16222 875 3391 167 5065 182 1312 28995 1249 1490 1114 180 2248 2289 1031 4684 4368 1188 1598 184 109 153 4249 1602 2238 3397 788 357 106 137 168 235 137 1952 3438 174 1731 1377 351 900 461 6995 1862 485 858 6476 176 392
leaf_count=16222 875 3391 167 5065 182 1312 28995 1249 1490 1114 180 2248 2289 1031 4684 4368 1188 1598 184 109 153 4249 1602 2238 3397 788 357 106 137 168 235 137 1952 3438 174 1731 1377 351 900 461 6995 1862 485 858 6476 176 392
internal_value=-1.33648e-05 -0.00598775 0.00756112 -0.00792455 -0.00195891 0.00388175 0.0089664 0.00276558 -0.00318839 -0.00883151 0.00932104 -0.00627569 -0.00671272 -0.00237082 -0.00895476 -0.00594209 -0.00014319 -0.00109318 -0.00175404 -0.0015419 -0.00170876 0.00567912 -0.00506675 0.000721435 0.00390155 -0.000367951 -0.00146993 0.00436597 0.00127066 -0.0042791 -0.00410213 -0.000279853 0.00775164 0.00154129 -0.00199694 -0.00180944 -0.00435838 -0.00380452 -0.0034045 -0.00408251 -0.00833831 -0.00264331 0.00105452 0.00052996 0.00785922 0.00248723 -0.00597974
internal_weight=119136 66603 52533 44979 21624 14520 38013 8959 12893 29015 29418 15964 11722 7371 27901 6657 8731 4160 5420 5236 5127 5561 4242 4571 4646 2333 1545 423 243 5522 5354 3078 8595 4313 4798 4624 5119 3742 1082 1951 11679 2893 1480 1343 8428 329 2640
internal_count=119136 66603 52533 44979 21624 14520 38013 8959 12893 29015 29418 15964 11722 7371 27901 6657 8731 4160 5420 5236 5127 5561 4242 4571 4646 2333 1545 423 243 5522 5354 3078 8595 4313 4798 4624 5119 3742 1082 1951 11679 2893 1480 1343 8428 329 2640
is_linear=0
shrinkage=0.05


Tree=19
num_leaves=48
num_cat=0
split_feature=2 3 1 25 2 3 3 0 40 41 41 5 8 8 40 41 8 41 8 30 40 41 36 36 5 19 36 31 40 5 43 5 8 40 36 24 8 5 31 15 42 15 5 8 3 43 4
split_gain=1923.82 147.377 134.191 37.0028 22.5368 16.1665 9.86627 9.51408 4.84531 4.16994 3.9916 3.78502 3.70381 3.60094 3.47955 2.84916 3.06341 2.60534 2.70146 2.49671 2.72418 2.67666 2.57358 2.48094 2.4456 2.42212 2.24382 2.23686 2.45839 2.27253 2.14432 2.12764 2.07837 2.0312 1.9935 1.98594 1.88785 1.82549 1.94839 1.75039 1.68551 2.21811 1.67218 1.6693 1.66416 1.60833 1.60432
threshold=8.3131504058837908 9.9884567260742205 5.8905391693115243 24.204011917114261 7.2149808406829843 11.388199806213381 8.8673634529113787 4.5303118228912362 -0.1088409674838548 -0.27976242230339671 -0.27976242230339671 0.67935660481452953 -0.035574125126004212 -0.81479164958000172 -0.70710678118654735 -0.62577451934762984 -0.60984644293785084 -0.23762932952031168 -0.69634777307510365 4.3697566986083993 -0.25881904510252113 -0.32136297141497111 11.036108016967775 27.374317169189457 0.53266209363937389 5.6084513664245614 7.6407663822174081 7.0990886688232431 0.36235178784537941 0.50559535622596752 0.51113019672828186 0.37497676908969885 -0.071332227438688264 0.72219205899833594 9.7870244979858416 1.6784463283109023 -0.42045986652374262 0.41689990460872656 7.6031029224395761 1.164914131164551 -0.36647417525074694 1.1404939889907839 0.39847800135612493 0.60617110133171093 7.7427959442138681 0.65071284653328287 7.5395100116729745
decision_type=2 2 2 2 2 2 2 2 2 2 2 2 2 2 2 2 2 2 2 2 2 2 2 2 2 2 2 2 2 2 2 2 2 2 2 2 2 2 2 2 2 2 2 2 2 2 2
left_child=2 6 7 5 9 19 14 37 17 11 13 12 -4 -6 -2 16 -9 18 -8 22 21 -21 -3 -5 -19 -14 45 30 29 -29 -11 -18 -7 42 -12 -10 -26 -1 -39 -23 -13 -42 -28 -25 -16 -17 -15
right_child=1 3 4 23 10 32 8 15 35 27 34 40 25 46 44 26 31 24 -20 20 -22 39 -24 43 36 -27 33 28 -30 -31 -32 -33 -34 -35 -36 -37 -38 38 -40 -41 41 -43 -44 -45 -46 -47 -48
leaf_value=-0.0090281907396873931 -0.00071463044649270301 0.0075860940641723582 -0.0057280794190281018 -0.0013202293637471323 -0.0035018373799304823 0.0064904381650516055 0.0005692081024853109 -0.0078088668676815466 0.0053393855125086608 -0.0071927423873654681 -0.0033531947355275554 -0.0039335733548441854 0.00050548919975932618 -0.00036069529894806321 0.0002559881181018972 -0.0084049277734165838 -0.006136812388223313 -0.000336924328960301 0.0051701877102935632 0.0070167708169307508 0.0073373585043139972 0.002226960887288442 -0.0017412045903303639 -0.011545189478240171 -0.0016973684135448645 -0.0035795257414235528 -0.008453204984178524 -0.006736303081376762 -0.0035138265108269496 -0.0042989609950704151 -0.0033114258833664431 -0.0033875379565777193 0.0088202510986778778 -0.004968500305846453 -0.0015220048253818241 -0.001366230571622272 0.0040808905952426635 -0.0082900576706145708 -0.0052772543392278744 0.0052851723887121296 0.0031958880275455384 -0.0019490657388613016 -0.0063515173743058304 -0.0035579730428400495 0.0021955257106498361 -0.0059614739356347079 0.0019495199082067247
leaf_weight=15211 1916 119 2043 194 731 1000 433 1714 3186 2021 2607 348 442 2434 1456 6232 2003 1089 1214 1554 3921 699 192 181 170 2020 1766 1930 2530 1914 435 1092 32791 1225 3463 114 824 4356 620 1428 357 504 2094 104 4603 768 1086
leaf_count=15211 1916 119 2043 194 731 1000 433 1714 3186 2021 2607 348 442 2434 1456 6232 2003 1089 1214 1554 3921 699 192 181 170 2020 1766 1930 2530 1914 435 1092 32791 1225 3463 114 824 4356 620 1428 357 504 2094 104 4603 768 1086
internal_value=-1.04529e-05 0.00660234 -0.00611533 0.00811616 -0.00327325 0.00827489 0.00234631 -0.00802097 0.00371178 -0.00454127 -0.00148613 -0.00348757 -0.00415412 -0.000311032 0.00114233 -0.00714412 -0.0061108 0.00247603 0.00396166 0.0062388 0.00641846 0.00543793 0.00184064 -0.0056922 0.00130002 -0.00284624 -0.00755477 -0.00522266 -0.00472687 -0.00552414 -0.00650692 -0.0051682 0.0087515 -0.00675081 -0.0023089 0.00510739 0.00309194 -0.0087544 -0.0079158 0.00428167 -0.00100245 0.000185441 -0.00731501 -0.00865319 0.00172957 -0.00813774 0.00035241
internal_weight=119134 57188 61946 42183 24865 41704 15005 37081 7030 14544 10321 5714 4505 4251 7975 16894 4809 3730 1647 7913 7602 3681 311 479 2083 2462 12085 8830 6374 3844 2456 3095 33791 5085 6070 3300 994 20187 4976 2127 1209 861 3860 285 6059 7000 3520
internal_count=119134 57188 61946 42183 24865 41704 15005 37081 7030 14544 10321 5714 4505 4251 7975 16894 4809 3730 1647 7913 7602 3681 311 479 2083 2462 12085 8830 6374 3844 2456 3095 33791 5085 6070 3300 994 20187 4976 2127 1209 861 3860 285 6059 7000 3520
is_linear=0
shrinkage=0.05


Tree=20
num_leaves=48
num_cat=0
split_feature=0 0 0 4 4 1 1 3 41 21 40 41 40 15 4 8 5 15 36 41 36 40 41 31 3 41 8 9 8 7 3 35 19 7 7 35 7 41 15 3 43 8 9 40 7 7 31
split_gain=1733.03 136.783 114.262 32.0594 17.4309 13.9481 13.015 7.99149 4.7247 4.14755 3.80861 3.36641 3.12856 3.09888 2.94977 2.86877 2.84084 2.66265 2.6532 2.54659 2.73899 2.61003 2.47186 3.53844 2.43098 2.24987 2.23167 2.18326 2.66008 1.98369 1.89644 1.85443 1.82671 1.73231 1.72337 2.0221 1.71795 1.65499 2.17675 1.63408 1.62894 1.55486 1.55229 1.96538 1.54424 1.52796 1.90805
threshold=8.2541322708129901 10.224020004272463 6.2144699096679696 23.676401138305668 10.934169292449953 4.853123903274537 7.1289989948272714 9.0042638778686541 -0.32136297141497111 25.213444709777836 -0.17364817766693016 -0.59116893267988335 -0.36235178784537903 1.1618161797523501 6.5491456985473642 -0.64749902486801136 1.5218248367309573 1.1654034256935122 7.600990056991578 -0.59116893267988335 7.7549724578857431 0.59116893267988357 -0.30070579950427329 9.9242210388183612 8.0935201644897479 -0.36235178784537897 0.037251429632306106 -0.64706593751907338 -0.13174827396869657 1.3666887283325198 13.892458438873293 5.9896609783172616 8.0499701499938983 1.336341977119446 1.1545107364654543 4.9425113201141366 1.1947208046913149 -0.4421834374878667 1.1476908326148989 22.82037448883057 0.65071284653328287 -0.46002539992332453 0.90208506584167492 -0.80625269229011354 1.4480102062225344 1.1040474176406863 9.1982107162475604
decision_type=2 2 2 2 2 2 2 2 2 2 2 2 2 2 2 2 2 2 2 2 2 2 2 2 2 2 2 2 2 2 2 2 2 2 2 2 2 2 2 2 2 2 2 2 2 2 2
left_child=2 7 5 4 17 18 11 12 15 -5 29 16 45 -10 31 -9 26 25 -1 27 40 36 23 -20 44 32 -4 -7 -29 42 37 -12 -3 -16 -13 -36 -22 -6 -39 -32 -21 -27 -8 -44 -14 46 -2
right_child=1 3 6 9 30 19 10 8 13 -11 14 34 24 -15 33 -17 -18 -19 22 20 21 -23 -24 -25 -26 41 -28 28 -30 -31 39 -33 -34 -35 35 -37 -38 38 -40 -41 -42 -43 43 -45 -46 -47 -48
leaf_value=-0.0083976478683042838 0.0019247467832187307 -0.00063576217898937942 -0.0042906650454052715 0.00061249772539246565 0.0084980456678985586 -0.0027611558865534053 -0.0036701667336630664 0.00195818709404575 -0.00063609008082248452 -0.0091267449910649012 -0.0027925315704557291 -0.005765835328307334 0.00011035342390315464 0.0031370461115399987 0.00012143057964305398 0.0059912188049870288 0.0053662098209315452 0.0065702587572235823 -0.0061009716553142241 -0.0076650470383879017 -0.0076781185360440957 -0.0041217994225028294 -0.0076881946128323055 0.0021999316557000082 0.0027200548197407978 0.00016305838570615473 -0.0014083400331266222 -0.0071158145448585496 -0.0045287731873292414 5.272594279528636e-05 0.0086689434189272229 -0.0004045875886074844 0.0062134079263358472 0.0059887606437383292 -0.0052923501210952158 -0.0031516526785854478 -0.005546089026235085 0.0042033158554382949 0.0075332039250547052 0.00650997874512068 -0.0050849975835162552 0.0041524435477389666 -0.0038857752629021139 0.00047026710207047942 0.0039914714584440283 0.00042384598105490285 -0.0043212376212304155
leaf_weight=19680 176 102 1479 176 4704 734 2986 566 739 287 1955 2519 1999 2060 2680 2015 105 5190 907 5480 1779 1590 3619 149 3361 298 1232 1865 2147 574 21426 1392 2056 131 2029 2433 2056 539 6017 930 698 1355 459 592 293 2928 396
leaf_count=19680 176 102 1479 176 4704 734 2986 566 739 287 1955 2519 1999 2060 2680 2015 105 5190 907 5480 1779 1590 3619 149 3361 298 1232 1865 2147 574 21426 1392 2056 131 2029 2433 2056 539 6017 930 698 1355 459 592 293 2928 396
internal_value=5.08879e-06 0.00623057 -0.00584882 0.00764558 0.00778777 -0.00738362 -0.00281096 0.00203584 0.00356501 -0.00543123 -0.00161103 -0.00412965 0.00113673 0.00214098 -0.00079716 0.0051079 -0.00266874 0.00583217 -0.00814235 -0.00625291 -0.00665285 -0.00582992 -0.00706607 -0.00492875 0.00186399 0.00482554 -0.00298181 -0.00527393 -0.00573285 -0.00269754 0.00831122 -0.00179982 0.00588953 0.000396896 -0.00471849 -0.00412606 -0.00653685 0.00777799 0.00726012 0.00857943 -0.00737442 0.00343378 -0.0030885 -0.00143402 0.000608024 -3.81052e-05 -0.00239939
internal_weight=118883 57613 61270 43080 42617 40704 20566 14533 5380 463 10769 9797 9153 2799 6158 2581 2816 9001 24355 16349 11603 5425 4675 1056 5653 3811 2711 4746 4012 4611 33616 3347 2158 2811 6981 4462 3835 11260 6556 22356 6178 1653 4037 1051 2292 3500 572
internal_count=118883 57613 61270 43080 42617 40704 20566 14533 5380 463 10769 9797 9153 2799 6158 2581 2816 9001 24355 16349 11603 5425 4675 1056 5653 3811 2711 4746 4012 4611 33616 3347 2158 2811 6981 4462 3835 11260 6556 22356 6178 1653 4037 1051 2292 3500 572
is_linear=0
shrinkage=0.05


Tree=21
num_leaves=48
num_cat=0
split_feature=16 16 0 16 3 16 16 40 40 4 40 40 11 4 4 40 33 15 5 8 4 6 7 4 23 8 42 12 4 37 31 33 13 12 31 12 43 33 25 30 30 12 30 33 11 15 4
split_gain=1589.4 136.505 98.5792 16.2792 11.8398 8.45214 7.80469 3.65166 3.56268 3.13443 2.73385 2.68527 3.46826 2.57236 2.53754 2.52639 2.80621 2.16388 2.16105 2.11947 1.99726 1.95093 1.92638 1.89825 1.99263 1.93062 1.85469 1.87301 1.84105 1.83945 1.80358 1.79656 1.9834 1.79148 1.76164 1.7057 1.67726 1.77736 1.65498 1.51841 1.51683 1.51603 2.50067 1.47124 1.46952 1.46481 2.55006
