{"learner":{"attributes":{"scikit_learn":"{\"_estimator_type\": \"regressor\"}"},"feature_names":[],"feature_types":[],"gradient_booster":{"model":{"cats":{"enc":[],"feature_segments":[],"sorted_idx":[]},"gbtree_model_param":{"num_parallel_tree":"1","num_trees":"350"},"iteration_indptr":[0,1,2,3,4,5,6,7,8,9,10,11,12,13,14,15,16,17,18,19,20,21,22,23,24,25,26,27,28,29,30,31,32,33,34,35,36,37,38,39,40,41,42,43,44,45,46,47,48,49,50,51,52,53,54,55,56,57,58,59,60,61,62,63,64,65,66,67,68,69,70,71,72,73,74,75,76,77,78,79,80,81,82,83,84,85,86,87,88,89,90,91,92,93,94,95,96,97,98,99,100,101,102,103,104,105,106,107,108,109,110,111,112,113,114,115,116,117,118,119,120,121,122,123,124,125,126,127,128,129,130,131,132,133,134,135,136,137,138,139,140,141,142,143,144,145,146,147,148,149,150,151,152,153,154,155,156,157,158,159,160,161,162,163,164,165,166,167,168,169,170,171,172,173,174,175,176,177,178,179,180,181,182,183,184,185,186,187,188,189,190,191,192,193,194,195,196,197,198,199,200,201,202,203,204,205,206,207,208,209,210,211,212,213,214,215,216,217,218,219,220,221,222,223,224,225,226,227,228,229,230,231,232,233,234,235,236,237,238,239,240,241,242,243,244,245,246,247,248,249,250,251,252,253,254,255,256,257,258,259,260,261,262,263,264,265,266,267,268,269,270,271,272,273,274,275,276,277,278,279,280,281,282,283,284,285,286,287,288,289,290,291,292,293,294,295,296,297,298,299,300,301,302,303,304,305,306,307,308,309,310,311,312,313,314,315,316,317,318,319,320,321,322,323,324,325,326,327,328,329,330,331,332,333,334,335,336,337,338,339,340,341,342,343,344,345,346,347,348,349,350],"tree_info":[0,0,0,0,0,0,0,0,0,0,0,0,0,0,0,0,0,0,0,0,0,0,0,0,0,0,0,0,0,0,0,0,0,0,0,0,0,0,0,0,0,0,0,0,0,0,0,0,0,0,0,0,0,0,0,0,0,0,0,0,0,0,0,0,0,0,0,0,0,0,0,0,0,0,0,0,0,0,0,0,0,0,0,0,0,0,0,0,0,0,0,0,0,0,0,0,0,0,0,0,0,0,0,0,0,0,0,0,0,0,0,0,0,0,0,0,0,0,0,0,0,0,0,0,0,0,0,0,0,0,0,0,0,0,0,0,0,0,0,0,0,0,0,0,0,0,0,0,0,0,0,0,0,0,0,0,0,0,0,0,0,0,0,0,0,0,0,0,0,0,0,0,0,0,0,0,0,0,0,0,0,0,0,0,0,0,0,0,0,0,0,0,0,0,0,0,0,0,0,0,0,0,0,0,0,0,0,0,0,0,0,0,0,0,0,0,0,0,0,0,0,0,0,0,0,0,0,0,0,0,0,0,0,0,0,0,0,0,0,0,0,0,0,0,0,0,0,0,0,0,0,0,0,0,0,0,0,0,0,0,0,0,0,0,0,0,0,0,0,0,0,0,0,0,0,0,0,0,0,0,0,0,0,0,0,0,0,0,0,0,0,0,0,0,0,0,0,0,0,0,0,0,0,0,0,0,0,0,0,0,0,0,0,0,0,0,0,0,0,0,0,0,0,0,0,0,0,0,0,0,0,0,0,0,0,0,0,0,0,0,0,0,0,0,0,0,0,0,0,0],"trees":[{"base_weights":[-6.2783767E-4,-2.2573824E-1,2.8002232E-1,-3.263451E-1,-1.00694045E-1,1.410121E-1,3.9153913E-1,-3.7760407E-1,-2.3646443E-1,-2.198353E-1,2.9291019E-2,-1.5909862E-2,2.7130345E-1,2.9908064E-1,4.3652478E-1,-4.0126303E-1,-3.119287E-1,-2.7506167E-1,-7.530373E-2,-2.8884518E-1,-1.6463082E-1,7.935853E-2,-1.03810124E-1,3.2969326E-2,-1.3101393E-1,1.09598644E-1,3.215417E-1,1.6748275E-1,4.1486076E-1,1.1824164E-1,4.4477248E-1,-4.203662E-1,-3.343764E-1,1.15339056E-1,-3.1875736E-1,-3.3156013E-1,-1.8360853E-1,2.5163158E-3,-2.2551744E-1,-3.3549318E-1,-2.1577004E-1,-2.6770005E-1,-1.4247687E-1,-1.9306046E-1,1.08763084E-1,-1.4102328E-1,8.950245E-2,-2.4013145E-2,1.2261262E-1,8.6403415E-2,-1.6266268E-1,1.4163212E-2,1.6401142E-1,2.4032901E-1,3.678115E-1,2.2473049E-1,4.645916E-2,3.3242077E-1,4.5201403E-1,4.2076167E-2,2.3765299E-1,4.4927657E-1,3.1195113E-1,-2.1950526E-2,-1.880786E-2,-1.3001147E-2,-1.8605439E-2,-1.6015677E-2,8.204416E-3,-9.910601E-3,-1.669923E-2,-1.4546973E-2,-1.9804208E-2,-1.0724043E-2,2.8710868E-3,1.3866593E-2,-8.1033347E-4,-1.1963299E-2,5.7763993E-3,-1.7973421E-2,-1.3320281E-2,-1.5229075E-2,-5.993144E-3,1.5405849E-2,-1.3670458E-2,-1.0088099E-2,-4.86246E-3,-1.2322673E-2,2.0119704E-3,2.05694E-3,9.262818E-3,-1.4024052E-2,-4.8807627E-3,-1.854586E-2,5.3273914E-3,-3.8705093E-3,3.2455933E-3,3.1310034E-3,1.2250879E-2,-5.569215E-4,1.17319375E-2,-9.337281E-3,-2.2016594E-3,-8.8959E-4,9.79041E-3,9.064464E-3,-1.810554E-2,1.5724352E-2,9.53821E-3,2.0111924E-2,1.5523388E-2,1.3975262E-2,6.549768E-3,-6.539825E-4,8.284516E-3,2.2105007E-2,1.4235459E-2,2.2691729E-2,-7.978691E-3,4.176336E-3,-1.6081957E-2,7.6216296E-3,1.965496E-2,2.1034645E-2,2.3265129E-2,1.6943645E-2,-2.19453E-2],"categories":[],"categories_nodes":[],"categories_segments":[],"categories_sizes":[],"default_left":[0,0,0,0,0,0,0,0,0,0,0,0,0,0,0,0,0,0,0,0,0,0,0,0,0,0,0,0,0,0,0,0,0,0,0,0,0,0,0,0,0,0,0,0,0,0,0,0,0,0,0,0,0,0,0,0,0,0,0,0,0,0,0,0,0,0,0,0,0,0,0,0,0,0,0,0,0,0,0,0,0,0,0,0,0,0,0,0,0,0,0,0,0,0,0,0,0,0,0,0,0,0,0,0,0,0,0,0,0,0,0,0,0,0,0,0,0,0,0,0,0,0,0,0,0,0,0],"id":0,"left_children":[1,3,5,7,9,11,13,15,17,19,21,23,25,27,29,31,33,35,37,39,41,43,45,47,49,51,53,55,57,59,61,63,65,67,69,71,73,75,77,79,81,83,85,87,89,91,93,95,97,99,101,103,105,107,109,111,113,115,117,119,121,123,125,-1,-1,-1,-1,-1,-1,-1,-1,-1,-1,-1,-1,-1,-1,-1,-1,-1,-1,-1,-1,-1,-1,-1,-1,-1,-1,-1,-1,-1,-1,-1,-1,-1,-1,-1,-1,-1,-1,-1,-1,-1,-1,-1,-1,-1,-1,-1,-1,-1,-1,-1,-1,-1,-1,-1,-1,-1,-1,-1,-1,-1,-1,-1,-1],"loss_changes":[7.3725986E3,8.146172E2,8.0513306E2,1.652351E2,4.4715054E2,4.7274683E2,1.19740234E2,3.537964E1,8.106171E1,5.734485E1,9.203201E1,5.9023087E1,1.02592285E2,1.4370135E2,5.0835205E1,2.1319092E1,1.7706177E1,5.4274902E1,2.9458454E1,2.2746216E1,1.90784E1,8.040494E1,2.716911E1,3.761896E1,2.1530903E1,1.5555626E1,3.6128235E1,3.0598907E1,1.5222534E1,4.4556556E0,1.116333E1,1.0599609E1,1.0384674E1,2.0913835E0,1.0875671E1,1.691864E1,2.9910904E1,8.550951E0,4.06007E0,6.6689453E0,2.220308E1,4.9495926E0,1.8462769E1,1.2192444E1,4.6847626E1,1.9138275E1,4.8268185E0,2.1386765E1,2.1001427E1,5.7573547E0,7.791237E0,6.3245497E0,1.7409855E1,1.2808365E1,1.1992615E1,1.5361221E1,1.0082577E1,8.053268E0,3.9215088E0,4.5648007E0,2.470292E0,8.174805E0,1.274231E1,0E0,0E0,0E0,0E0,0E0,0E0,0E0,0E0,0E0,0E0,0E0,0E0,0E0,0E0,0E0,0E0,0E0,0E0,0E0,0E0,0E0,0E0,0E0,0E0,0E0,0E0,0E0,0E0,0E0,0E0,0E0,0E0,0E0,0E0,0E0,0E0,0E0,0E0,0E0,0E0,0E0,0E0,0E0,0E0,0E0,0E0,0E0,0E0,0E0,0E0,0E0,0E0,0E0,0E0,0E0,0E0,0E0,0E0,0E0,0E0,0E0,0E0,0E0,0E0],"parents":[2147483647,0,0,1,1,2,2,3,3,4,4,5,5,6,6,7,7,8,8,9,9,10,10,11,11,12,12,13,13,14,14,15,15,16,16,17,17,18,18,19,19,20,20,21,21,22,22,23,23,24,24,25,25,26,26,27,27,28,28,29,29,30,30,31,31,32,32,33,33,34,34,35,35,36,36,37,37,38,38,39,39,40,40,41,41,42,42,43,43,44,44,45,45,46,46,47,47,48,48,49,49,50,50,51,51,52,52,53,53,54,54,55,55,56,56,57,57,58,58,59,59,60,60,61,61,62,62],"right_children":[2,4,6,8,10,12,14,16,18,20,22,24,26,28,30,32,34,36,38,40,42,44,46,48,50,52,54,56,58,60,62,64,66,68,70,72,74,76,78,80,82,84,86,88,90,92,94,96,98,100,102,104,106,108,110,112,114,116,118,120,122,124,126,-1,-1,-1,-1,-1,-1,-1,-1,-1,-1,-1,-1,-1,-1,-1,-1,-1,-1,-1,-1,-1,-1,-1,-1,-1,-1,-1,-1,-1,-1,-1,-1,-1,-1,-1,-1,-1,-1,-1,-1,-1,-1,-1,-1,-1,-1,-1,-1,-1,-1,-1,-1,-1,-1,-1,-1,-1,-1,-1,-1,-1,-1,-1,-1],"split_conditions":[8.896948E0,1.7907254E-1,9.9540806E-1,5E-1,1.3052619E-1,-3.007058E-1,-6.755902E-1,7.786765E0,5.728908E0,8.995184E0,6.4278764E-1,2.6204817E1,2.0245312E-1,1.5126501E1,8.217436E-2,2.2576263E-2,9.8664044E2,5.222649E-1,5E-1,-4.2261827E-1,-5.0826365E-1,-6.468997E-1,7.1504414E-1,-7.0710677E-1,-9.462572E-1,5.741742E0,8.303475E-1,2.2798468E1,1.6529016E1,8.873006E-2,2.3561285E1,1.2246469E-16,-8.660254E-1,-9.593828E-1,-7.933533E-1,3.4202015E-1,8.862235E-1,-9.906923E-1,9.9413666E1,1.0410075E-1,1.2083335E-1,1.1239674E0,3.7754446E-1,5.0281005E0,7.347815E0,6.1027093E0,6.1482966E-2,5.464425E-2,1.081555E1,8.133905E0,1.43771E1,2.2576263E-2,1.96575E1,1.0945309E1,4.2261827E-1,8.6753434E-1,1.4859825E1,1.6391367E1,2.9508932E1,1.37546E1,2.3851258E-1,1.4496333E1,2.6725767E1,-2.1950526E-2,-1.880786E-2,-1.3001147E-2,-1.8605439E-2,-1.6015677E-2,8.204416E-3,-9.910601E-3,-1.669923E-2,-1.4546973E-2,-1.9804208E-2,-1.0724043E-2,2.8710868E-3,1.3866593E-2,-8.1033347E-4,-1.1963299E-2,5.7763993E-3,-1.7973421E-2,-1.3320281E-2,-1.5229075E-2,-5.993144E-3,1.5405849E-2,-1.3670458E-2,-1.0088099E-2,-4.86246E-3,-1.2322673E-2,2.0119704E-3,2.05694E-3,9.262818E-3,-1.4024052E-2,-4.8807627E-3,-1.854586E-2,5.3273914E-3,-3.8705093E-3,3.2455933E-3,3.1310034E-3,1.2250879E-2,-5.569215E-4,1.17319375E-2,-9.337281E-3,-2.2016594E-3,-8.8959E-4,9.79041E-3,9.064464E-3,-1.810554E-2,1.5724352E-2,9.53821E-3,2.0111924E-2,1.5523388E-2,1.3975262E-2,6.549768E-3,-6.539825E-4,8.284516E-3,2.2105007E-2,1.4235459E-2,2.2691729E-2,-7.978691E-3,4.176336E-3,-1.6081957E-2,7.6216296E-3,1.965496E-2,2.1034645E-2,2.3265129E-2,1.6943645E-2,-2.19453E-2],"split_indices":[2,16,16,40,40,40,40,36,33,36,41,11,8,4,8,43,13,9,41,40,8,8,43,40,9,35,16,11,4,6,2,40,41,43,41,41,43,42,12,43,9,15,16,35,2,33,8,6,4,30,36,43,36,36,41,9,0,11,11,30,42,4,11,0,0,0,0,0,0,0,0,0,0,0,0,0,0,0,0,0,0,0,0,0,0,0,0,0,0,0,0,0,0,0,0,0,0,0,0,0,0,0,0,0,0,0,0,0,0,0,0,0,0,0,0,0,0,0,0,0,0,0,0,0,0,0,0],"split_type":[0,0,0,0,0,0,0,0,0,0,0,0,0,0,0,0,0,0,0,0,0,0,0,0,0,0,0,0,0,0,0,0,0,0,0,0,0,0,0,0,0,0,0,0,0,0,0,0,0,0,0,0,0,0,0,0,0,0,0,0,0,0,0,0,0,0,0,0,0,0,0,0,0,0,0,0,0,0,0,0,0,0,0,0,0,0,0,0,0,0,0,0,0,0,0,0,0,0,0,0,0,0,0,0,0,0,0,0,0,0,0,0,0,0,0,0,0,0,0,0,0,0,0,0,0,0,0],"sum_hessian":[1.16695E5,6.4755E4,5.194E4,3.5883E4,2.8872E4,2.3121E4,2.8819E4,2.2849E4,1.3034E4,1.5064E4,1.3808E4,1.0489E4,1.2632E4,9.435E3,1.9384E4,1.6794E4,6.055E3,1.0515E4,2.519E3,6.693E3,8.371E3,1.0034E4,3.774E3,7.363E3,3.126E3,2.995E3,9.637E3,4.417E3,5.018E3,4.9E2,1.8894E4,1.3059E4,3.735E3,9.5E1,5.96E3,6.498E3,4.017E3,1.66E3,8.59E2,4.083E3,2.61E3,1.479E3,6.892E3,9.77E2,9.057E3,3.165E3,6.09E2,4.502E3,2.861E3,3.97E2,2.729E3,1.088E3,1.907E3,3.5E3,6.137E3,2.998E3,1.419E3,1.562E3,3.456E3,3E2,1.9E2,1.8272E4,6.22E2,9.179E3,3.88E3,1.26E3,2.475E3,9E0,8.6E1,6.7E2,5.29E3,3.991E3,2.507E3,3.561E3,4.56E2,1.05E2,1.555E3,8.26E2,3.3E1,3.028E3,1.055E3,1.354E3,1.256E3,1.4E1,1.465E3,2.981E3,3.911E3,7.95E2,1.82E2,4.808E3,4.249E3,7.5E2,2.415E3,2.1E1,5.88E2,2.813E3,1.689E3,1.921E3,9.4E2,2.4E2,1.57E2,2.268E3,4.61E2,9.26E2,1.62E2,1.847E3,6E1,1.4E3,2.1E3,3.831E3,2.306E3,1.891E3,1.107E3,9.47E2,4.72E2,4.71E2,1.091E3,3.446E3,1E1,2.7E2,3E1,1.24E2,6.6E1,6.574E3,1.1698E4,6.01E2,2.1E1],"tree_param":{"num_deleted":"0","num_feature":"44","num_nodes":"127","size_leaf_vector":"1"}},{"base_weights":[1.8357736E-4,-2.0721473E-1,2.75248E-1,-3.0203477E-1,-8.026641E-2,1.4772724E-1,3.7552515E-1,-3.3533722E-1,-2.3470384E-1,-2.4518253E-1,-4.912947E-2,1.1583276E-2,1.9880477E-1,2.9718798E-1,4.1216895E-1,-3.5980678E-1,-2.6548052E-1,-2.6644692E-1,-1.4043532E-1,-1.9407393E-1,-2.8920397E-1,-1.00849256E-1,2.5186323E-2,-4.7513384E-2,1.2188037E-1,1.1911674E-1,2.383937E-1,1.1517403E-1,3.2206777E-1,2.074921E-1,4.1609904E-1,-3.4021148E-1,-3.9811853E-1,-3.2831436E-1,-2.2356673E-1,-3.0220222E-1,-2.0973726E-1,-2.5480285E-1,-1.1462022E-1,-1.462969E-1,-2.3859568E-1,-3.0779853E-1,-1.9378802E-1,-7.428536E-2,-1.9174008E-1,-1.667621E-2,7.5550355E-2,-1.308024E-1,4.216026E-2,1.5987043E-1,-2.8407969E-2,2.4427824E-1,3.9574552E-2,1.3706203E-1,2.8223062E-1,2.5513251E-3,1.8034701E-1,1.5993555E-1,3.4249327E-1,2.963147E-1,-2.5669783E-1,3.781791E-1,4.2795885E-1,-1.9603945E-2,-1.5140289E-2,-2.0991778E-2,-1.8531255E-2,-6.116619E-3,-1.6973425E-2,-6.7359074E-3,-1.3523824E-2,-1.7118348E-2,-1.3089734E-2,-7.520668E-3,-1.4499825E-2,-1.3138442E-2,1.7729152E-2,-4.1467277E-3,-1.2265815E-2,-1.4639101E-2,-5.9404913E-3,-1.2739347E-2,-3.4400355E-3,-1.5578586E-2,1.1079851E-2,-5.3022993E-3,-1.4510396E-2,2.9652586E-4,-7.6397485E-3,-4.6007857E-3,-1.3040421E-2,2.6449866E-3,-2.1166094E-3,8.820956E-3,2.2927661E-5,-9.1005135E-3,-9.976617E-4,3.136899E-3,-1.0942174E-2,2.1791433E-3,9.93299E-3,-2.829227E-3,1.7317405E-2,1.3734022E-2,-4.9546906E-3,3.0959395E-3,-1.1734351E-2,1.5775574E-2,5.045657E-3,1.5487772E-2,8.067447E-3,1.7539732E-2,-2.253948E-3,4.499547E-3,1.2643531E-2,4.517068E-3,1.3913365E-2,1.9992491E-2,1.5703576E-2,1.6326366E-2,-1.1825357E-2,6.691786E-3,-2.3020158E-2,2.1808801E-2,1.7574556E-2,2.1743268E-2,1.779544E-2],"categories":[],"categories_nodes":[],"categories_segments":[],"categories_sizes":[],"default_left":[0,0,0,0,0,0,0,0,0,0,0,0,0,0,0,0,0,0,0,0,0,0,0,0,0,0,0,0,0,0,0,0,0,0,0,0,0,0,0,0,0,0,0,0,0,0,0,0,0,0,0,0,0,0,0,0,0,0,0,0,0,0,0,0,0,0,0,0,0,0,0,0,0,0,0,0,0,0,0,0,0,0,0,0,0,0,0,0,0,0,0,0,0,0,0,0,0,0,0,0,0,0,0,0,0,0,0,0,0,0,0,0,0,0,0,0,0,0,0,0,0,0,0,0,0,0,0],"id":1,"left_children":[1,3,5,7,9,11,13,15,17,19,21,23,25,27,29,31,33,35,37,39,41,43,45,47,49,51,53,55,57,59,61,63,65,67,69,71,73,75,77,79,81,83,85,87,89,91,93,95,97,99,101,103,105,107,109,111,113,115,117,119,121,123,125,-1,-1,-1,-1,-1,-1,-1,-1,-1,-1,-1,-1,-1,-1,-1,-1,-1,-1,-1,-1,-1,-1,-1,-1,-1,-1,-1,-1,-1,-1,-1,-1,-1,-1,-1,-1,-1,-1,-1,-1,-1,-1,-1,-1,-1,-1,-1,-1,-1,-1,-1,-1,-1,-1,-1,-1,-1,-1,-1,-1,-1,-1,-1,-1],"loss_changes":[6.68704E3,8.0441284E2,6.4428955E2,8.569971E1,1.467201E2,1.5425598E2,8.08479E1,4.3652344E1,3.785504E1,1.0153809E1,9.239491E1,3.9460392E1,5.0861084E1,4.0687378E1,1.5370361E1,1.4091309E1,1.742163E1,1.91427E1,9.394878E0,4.438423E0,4.2623444E0,3.4207672E1,2.080029E1,2.944764E1,1.2062927E1,5.331263E1,4.78291E1,7.948715E0,2.6143555E1,1.5083986E1,8.316162E0,2.4220215E1,3.6698608E0,6.0607605E0,1.6585007E1,9.334839E0,1.7411285E1,2.9426918E0,1.0771603E1,4.06011E0,2.9708443E0,4.1379547E0,3.3532562E0,6.908686E1,2.2051376E1,9.620029E0,3.391816E1,1.1598831E1,1.0212995E1,7.5964165E0,4.528436E0,2.1751328E1,2.0090399E1,2.0971802E1,2.4974243E1,6.617411E0,4.4725647E0,7.279484E0,1.1326355E1,5.003195E0,4.75529E0,6.8118896E0,6.987549E0,0E0,0E0,0E0,0E0,0E0,0E0,0E0,0E0,0E0,0E0,0E0,0E0,0E0,0E0,0E0,0E0,0E0,0E0,0E0,0E0,0E0,0E0,0E0,0E0,0E0,0E0,0E0,0E0,0E0,0E0,0E0,0E0,0E0,0E0,0E0,0E0,0E0,0E0,0E0,0E0,0E0,0E0,0E0,0E0,0E0,0E0,0E0,0E0,0E0,0E0,0E0,0E0,0E0,0E0,0E0,0E0,0E0,0E0,0E0,0E0,0E0,0E0,0E0,0E0],"parents":[2147483647,0,0,1,1,2,2,3,3,4,4,5,5,6,6,7,7,8,8,9,9,10,10,11,11,12,12,13,13,14,14,15,15,16,16,17,17,18,18,19,19,20,20,21,21,22,22,23,23,24,24,25,25,26,26,27,27,28,28,29,29,30,30,31,31,32,32,33,33,34,34,35,35,36,36,37,37,38,38,39,39,40,40,41,41,42,42,43,43,44,44,45,45,46,46,47,47,48,48,49,49,50,50,51,51,52,52,53,53,54,54,55,55,56,56,57,57,58,58,59,59,60,60,61,61,62,62],"right_children":[2,4,6,8,10,12,14,16,18,20,22,24,26,28,30,32,34,36,38,40,42,44,46,48,50,52,54,56,58,60,62,64,66,68,70,72,74,76,78,80,82,84,86,88,90,92,94,96,98,100,102,104,106,108,110,112,114,116,118,120,122,124,126,-1,-1,-1,-1,-1,-1,-1,-1,-1,-1,-1,-1,-1,-1,-1,-1,-1,-1,-1,-1,-1,-1,-1,-1,-1,-1,-1,-1,-1,-1,-1,-1,-1,-1,-1,-1,-1,-1,-1,-1,-1,-1,-1,-1,-1,-1,-1,-1,-1,-1,-1,-1,-1,-1,-1,-1,-1,-1,-1,-1,-1,-1,-1,-1],"split_conditions":[9.13971E0,2.00461E-1,9.969083E-1,5.682314E0,-5.3005403E-1,1.1494495E0,1.4247467E1,2.2576263E-2,6.9827974E-2,-6.007545E-1,4.3260372E-1,4.670004E0,4.740094E-1,1.1484752E0,1.1336595E0,4.617486E-1,1.6011736E-1,4.27695E0,9.264661E-2,-4.617486E-1,7.648914E-1,8.93555E-1,4.614337E-1,9.818173E-1,-7.572198E-1,-7.933533E-1,-1.8387985E0,9.490083E-1,4.6151608E-1,1.52949E1,1.6521568E1,-4.8550382E-1,1.3079268E-1,5.6952197E-2,-2.1643962E-1,4.514102E-2,-7.795774E-1,9.99315E1,8.435847E0,3.6761622E0,9.639717E1,1.31703E1,1.1538459E0,4.617486E-1,-7.933533E-1,-7.0710677E-1,7.025995E0,1.1405078E0,9.783961E-1,-9.86324E-1,9.871958E-1,1.8244097E-1,9.946781E-1,-1.7364818E-1,9.039462E-1,-8.2418865E-1,1.2687439E-1,8.9212644E-1,-5.7357645E-1,9.957229E-1,8.629733E1,-6.755902E-1,2.375769E1,-1.9603945E-2,-1.5140289E-2,-2.0991778E-2,-1.8531255E-2,-6.116619E-3,-1.6973425E-2,-6.7359074E-3,-1.3523824E-2,-1.7118348E-2,-1.3089734E-2,-7.520668E-3,-1.4499825E-2,-1.3138442E-2,1.7729152E-2,-4.1467277E-3,-1.2265815E-2,-1.4639101E-2,-5.9404913E-3,-1.2739347E-2,-3.4400355E-3,-1.5578586E-2,1.1079851E-2,-5.3022993E-3,-1.4510396E-2,2.9652586E-4,-7.6397485E-3,-4.6007857E-3,-1.3040421E-2,2.6449866E-3,-2.1166094E-3,8.820956E-3,2.2927661E-5,-9.1005135E-3,-9.976617E-4,3.136899E-3,-1.0942174E-2,2.1791433E-3,9.93299E-3,-2.829227E-3,1.7317405E-2,1.3734022E-2,-4.9546906E-3,3.0959395E-3,-1.1734351E-2,1.5775574E-2,5.045657E-3,1.5487772E-2,8.067447E-3,1.7539732E-2,-2.253948E-3,4.499547E-3,1.2643531E-2,4.517068E-3,1.3913365E-2,1.9992491E-2,1.5703576E-2,1.6326366E-2,-1.1825357E-2,6.691786E-3,-2.3020158E-2,2.1808801E-2,1.7574556E-2,2.1743268E-2,1.779544E-2],"split_indices":[2,16,16,26,8,15,4,43,43,9,16,10,8,15,15,41,8,35,8,41,42,9,8,29,43,41,39,29,29,35,2,8,42,43,41,42,9,12,33,35,12,36,15,41,41,41,35,15,9,43,42,14,43,41,42,9,8,43,41,9,12,41,26,0,0,0,0,0,0,0,0,0,0,0,0,0,0,0,0,0,0,0,0,0,0,0,0,0,0,0,0,0,0,0,0,0,0,0,0,0,0,0,0,0,0,0,0,0,0,0,0,0,0,0,0,0,0,0,0,0,0,0,0,0,0,0,0],"split_type":[0,0,0,0,0,0,0,0,0,0,0,0,0,0,0,0,0,0,0,0,0,0,0,0,0,0,0,0,0,0,0,0,0,0,0,0,0,0,0,0,0,0,0,0,0,0,0,0,0,0,0,0,0,0,0,0,0,0,0,0,0,0,0,0,0,0,0,0,0,0,0,0,0,0,0,0,0,0,0,0,0,0,0,0,0,0,0,0,0,0,0,0,0,0,0,0,0,0,0,0,0,0,0,0,0,0,0,0,0,0,0,0,0,0,0,0,0,0,0,0,0,0,0,0,0,0,0],"sum_hessian":[1.17216E5,6.6828E4,5.0388E4,3.8254E4,2.8574E4,2.2182E4,2.8206E4,2.5592E4,1.2662E4,4.537E3,2.4037E4,6.052E3,1.613E4,8.992E3,1.9214E4,1.895E4,6.642E3,9.471E3,3.191E3,2.102E3,2.435E3,1.4173E4,9.864E3,3.941E3,2.111E3,5.355E3,1.0775E4,1.082E3,7.91E3,3.63E2,1.8851E4,1.2544E4,6.406E3,2.655E3,3.987E3,5.806E3,3.665E3,5.86E2,2.605E3,1.016E3,1.086E3,2.036E3,3.99E2,1.0969E4,3.204E3,5.387E3,4.477E3,2.043E3,1.898E3,1.685E3,4.26E2,2.08E3,3.275E3,3.255E3,7.52E3,3.97E2,6.85E2,8.86E2,7.024E3,3.05E2,5.8E1,4.499E3,1.4352E4,5.252E3,7.292E3,3.571E3,2.835E3,1.37E2,2.518E3,1.379E3,2.608E3,2.908E3,2.898E3,2.109E3,1.556E3,5.79E2,7E0,2.098E3,5.07E2,1.59E2,8.57E2,9.91E2,9.5E1,2.022E3,1.4E1,2.1E2,1.89E2,5.426E3,5.543E3,1.312E3,1.892E3,1.451E3,3.936E3,1.91E3,2.567E3,1.397E3,6.46E2,1.76E3,1.38E2,4.22E2,1.263E3,3.97E2,2.9E1,1.911E3,1.69E2,3.029E3,2.46E2,5.47E2,2.708E3,6.124E3,1.396E3,4.7E1,3.5E2,3.06E2,3.79E2,5.59E2,3.27E2,2.323E3,4.701E3,2.89E2,1.6E1,2E1,3.8E1,1.413E3,3.086E3,1.3092E4,1.26E3],"tree_param":{"num_deleted":"0","num_feature":"44","num_nodes":"127","size_leaf_vector":"1"}},{"base_weights":[-2.8113124E-4,-1.9572133E-1,2.6262316E-1,-2.8066522E-1,-6.518932E-2,1.4546989E-1,3.6093566E-1,-3.3226615E-1,-1.894375E-1,-1.6389164E-1,7.4963845E-2,-1.0857321E-2,2.6836935E-1,2.7958417E-1,3.9757958E-1,-3.5208803E-1,-2.553651E-1,-2.4160564E-1,-5.4912645E-2,-2.3727866E-1,-1.20616354E-1,1.2073904E-1,-4.6613324E-2,-5.6186467E-2,7.5216144E-2,1.12994425E-1,3.130355E-1,1.651584E-1,3.8036248E-1,1.0821474E-1,4.0426958E-1,-3.6266053E-1,-2.5178704E-1,-6.851749E-2,-2.7925062E-1,-1.8125165E-1,-3.1447095E-1,-1.4653501E-2,-1.9896749E-1,-1.3474067E-1,-2.845837E-1,-1.539269E-1,-2.7579216E-2,5.277395E-2,1.9349062E-1,-8.1670366E-2,1.2702216E-1,-1.5060906E-1,-2.2350663E-2,2.4180888E-4,1.7092055E-1,2.174636E-2,1.6389775E-1,2.6155838E-1,3.623126E-1,5.544239E-3,1.9777077E-1,3.081301E-1,4.156676E-1,2.004236E-1,-1.0993655E-3,4.107681E-1,2.8685534E-1,-1.9175863E-2,-1.6121311E-2,-1.5137938E-2,-7.2614574E-3,-4.29197E-3,2.2121994E-2,3.3785522E-3,-1.4246926E-2,-9.853578E-3,3.2293105E-3,-1.6281782E-2,-5.8031157E-3,-6.761136E-3,8.565465E-4,-1.1316275E-2,2.5683627E-4,-1.1774928E-2,2.5750088E-4,-1.5798416E-2,-1.1055826E-2,-8.263978E-3,5.0643976E-3,-4.7796736E-3,2.3665505E-3,-3.9989487E-3,7.3954067E-3,6.963587E-3,1.3550994E-2,-1.0538149E-2,-2.719691E-3,6.8585523E-3,-2.2263994E-2,-9.974331E-3,-1.244351E-3,-3.213082E-3,3.5663103E-3,-2.3648306E-3,7.1477294E-3,6.639654E-5,1.0800141E-2,-8.3856285E-4,1.0151174E-2,8.580994E-3,-1.1262975E-2,8.101041E-3,1.4496227E-2,1.9387603E-2,1.568893E-2,-3.8547812E-3,3.6898442E-3,7.1398425E-3,1.4197707E-2,1.2888181E-2,1.989886E-2,2.089364E-2,8.306204E-3,5.512134E-3,2.0682259E-2,-1.7811297E-2,2.6610289E-3,1.9259626E-2,2.116163E-2,-1.7732603E-2,1.5537051E-2],"categories":[],"categories_nodes":[],"categories_segments":[],"categories_sizes":[],"default_left":[0,0,0,0,0,0,0,0,0,0,0,0,0,0,0,0,0,0,0,0,0,0,0,0,0,0,0,0,0,0,0,0,0,0,0,0,0,0,0,0,0,0,0,0,0,0,0,0,0,0,0,0,0,0,0,0,0,0,0,0,0,0,0,0,0,0,0,0,0,0,0,0,0,0,0,0,0,0,0,0,0,0,0,0,0,0,0,0,0,0,0,0,0,0,0,0,0,0,0,0,0,0,0,0,0,0,0,0,0,0,0,0,0,0,0,0,0,0,0,0,0,0,0,0,0,0,0],"id":2,"left_children":[1,3,5,7,9,11,13,15,17,19,21,23,25,27,29,31,33,35,37,39,41,43,45,47,49,51,53,55,57,59,61,63,65,67,69,71,73,75,77,79,81,83,85,87,89,91,93,95,97,99,101,103,105,107,109,111,113,115,117,119,121,123,125,-1,-1,-1,-1,-1,-1,-1,-1,-1,-1,-1,-1,-1,-1,-1,-1,-1,-1,-1,-1,-1,-1,-1,-1,-1,-1,-1,-1,-1,-1,-1,-1,-1,-1,-1,-1,-1,-1,-1,-1,-1,-1,-1,-1,-1,-1,-1,-1,-1,-1,-1,-1,-1,-1,-1,-1,-1,-1,-1,-1,-1,-1,-1,-1],"loss_changes":[6.012986E3,7.4425684E2,5.746775E2,1.9135547E2,3.660867E2,4.374722E2,8.076709E1,3.949829E1,1.0310095E2,4.928589E1,6.086686E1,3.9110332E1,8.843573E1,9.713739E1,3.6162598E1,2.180249E1,2.375055E1,4.6501587E1,2.3815731E1,2.7896057E1,3.0274155E1,3.927439E1,1.8223116E1,2.0974113E1,2.48124E1,1.3224911E1,2.5020569E1,2.0555016E1,1.1299255E1,4.2740245E0,1.3830322E1,1.5547363E1,1.066684E1,5.392681E0,9.33429E0,2.2542496E1,1.0583954E1,1.2307586E1,5.009907E0,2.5654278E1,7.7782288E0,2.0860352E1,1.3134246E1,5.1905792E1,1.6091263E1,8.756325E0,2.9826174E0,1.0638149E1,1.8987225E1,1.3168381E1,1.1613411E1,7.1323967E0,5.5320168E0,1.3635712E1,6.1209106E0,3.7903903E0,1.5494827E1,6.5721893E0,1.5852661E0,4.376957E0,3.7805974E0,5.35791E0,1.4850777E1,0E0,0E0,0E0,0E0,0E0,0E0,0E0,0E0,0E0,0E0,0E0,0E0,0E0,0E0,0E0,0E0,0E0,0E0,0E0,0E0,0E0,0E0,0E0,0E0,0E0,0E0,0E0,0E0,0E0,0E0,0E0,0E0,0E0,0E0,0E0,0E0,0E0,0E0,0E0,0E0,0E0,0E0,0E0,0E0,0E0,0E0,0E0,0E0,0E0,0E0,0E0,0E0,0E0,0E0,0E0,0E0,0E0,0E0,0E0,0E0,0E0,0E0,0E0,0E0],"parents":[2147483647,0,0,1,1,2,2,3,3,4,4,5,5,6,6,7,7,8,8,9,9,10,10,11,11,12,12,13,13,14,14,15,15,16,16,17,17,18,18,19,19,20,20,21,21,22,22,23,23,24,24,25,25,26,26,27,27,28,28,29,29,30,30,31,31,32,32,33,33,34,34,35,35,36,36,37,37,38,38,39,39,40,40,41,41,42,42,43,43,44,44,45,45,46,46,47,47,48,48,49,49,50,50,51,51,52,52,53,53,54,54,55,55,56,56,57,57,58,58,59,59,60,60,61,61,62,62],"right_children":[2,4,6,8,10,12,14,16,18,20,22,24,26,28,30,32,34,36,38,40,42,44,46,48,50,52,54,56,58,60,62,64,66,68,70,72,74,76,78,80,82,84,86,88,90,92,94,96,98,100,102,104,106,108,110,112,114,116,118,120,122,124,126,-1,-1,-1,-1,-1,-1,-1,-1,-1,-1,-1,-1,-1,-1,-1,-1,-1,-1,-1,-1,-1,-1,-1,-1,-1,-1,-1,-1,-1,-1,-1,-1,-1,-1,-1,-1,-1,-1,-1,-1,-1,-1,-1,-1,-1,-1,-1,-1,-1,-1,-1,-1,-1,-1,-1,-1,-1,-1,-1,-1,-1,-1,-1,-1],"split_conditions":[6.745062E-1,6.3354588E0,9.991991E-1,5E-1,3.007058E-1,-3.4202015E-1,-7.0710677E-1,8.699719E0,6.6688576E0,8.995184E0,5.7357645E-1,9.6167624E-1,2.1306865E-1,1.5403E1,1.2687439E-1,6.748633E-1,-7.933533E-1,1.3052619E-1,6.4278764E-1,-9.063078E-1,-2.1643962E-1,3.3080113E-1,7.1504414E-1,1.1406705E0,-7.933533E-1,5.741742E0,1.0532734E1,1.1547713E0,1.68298E1,1.1365443E0,2.2960995E1,-8.7155744E-2,5.604828E0,1.6716516E1,9.8664044E2,8.9976585E-1,4.3622956E0,7.209524E0,8.229151E0,1.4247202E-2,3.4202015E-1,1.104811E1,1.0015719E3,4.9082956E0,7.0466933E0,6.1027093E0,2.3048906E-1,8.633239E-2,-6.4278764E-1,1.1505865E0,1.1479472E0,2.2576263E-2,1.96575E1,8.7155744E-2,4.617486E-1,7.719658E-1,7.937788E-1,1.2008808E0,9.791783E1,2.5881904E-1,2.2991848E-1,1.4496333E1,1.1330831E0,-1.9175863E-2,-1.6121311E-2,-1.5137938E-2,-7.2614574E-3,-4.29197E-3,2.2121994E-2,3.3785522E-3,-1.4246926E-2,-9.853578E-3,3.2293105E-3,-1.6281782E-2,-5.8031157E-3,-6.761136E-3,8.565465E-4,-1.1316275E-2,2.5683627E-4,-1.1774928E-2,2.5750088E-4,-1.5798416E-2,-1.1055826E-2,-8.263978E-3,5.0643976E-3,-4.7796736E-3,2.3665505E-3,-3.9989487E-3,7.3954067E-3,6.963587E-3,1.3550994E-2,-1.0538149E-2,-2.719691E-3,6.8585523E-3,-2.2263994E-2,-9.974331E-3,-1.244351E-3,-3.213082E-3,3.5663103E-3,-2.3648306E-3,7.1477294E-3,6.639654E-5,1.0800141E-2,-8.3856285E-4,1.0151174E-2,8.580994E-3,-1.1262975E-2,8.101041E-3,1.4496227E-2,1.9387603E-2,1.568893E-2,-3.8547812E-3,3.6898442E-3,7.1398425E-3,1.4197707E-2,1.2888181E-2,1.989886E-2,2.089364E-2,8.306204E-3,5.512134E-3,2.0682259E-2,-1.7811297E-2,2.6610289E-3,1.9259626E-2,2.116163E-2,-1.7732603E-2,1.5537051E-2],"split_indices":[16,2,16,40,40,40,40,36,31,36,41,16,8,4,8,43,41,41,41,41,40,8,43,15,40,35,3,15,4,15,23,40,26,36,13,43,35,36,33,8,41,23,13,35,4,33,37,6,40,7,15,43,36,40,41,5,5,15,12,41,39,4,15,0,0,0,0,0,0,0,0,0,0,0,0,0,0,0,0,0,0,0,0,0,0,0,0,0,0,0,0,0,0,0,0,0,0,0,0,0,0,0,0,0,0,0,0,0,0,0,0,0,0,0,0,0,0,0,0,0,0,0,0,0,0,0,0],"split_type":[0,0,0,0,0,0,0,0,0,0,0,0,0,0,0,0,0,0,0,0,0,0,0,0,0,0,0,0,0,0,0,0,0,0,0,0,0,0,0,0,0,0,0,0,0,0,0,0,0,0,0,0,0,0,0,0,0,0,0,0,0,0,0,0,0,0,0,0,0,0,0,0,0,0,0,0,0,0,0,0,0,0,0,0,0,0,0,0,0,0,0,0,0,0,0,0,0,0,0,0,0,0,0,0,0,0,0,0,0,0,0,0,0,0,0,0,0,0,0,0,0,0,0,0,0,0,0],"sum_hessian":[1.17023E5,6.7124E4,4.9899E4,4.0662E4,2.6462E4,2.2769E4,2.713E4,2.597E4,1.4692E4,1.5527E4,1.0935E4,1.0022E4,1.2747E4,8.428E3,1.8702E4,2.0645E4,5.325E3,1.0586E4,4.106E3,5.758E3,9.769E3,7.944E3,2.991E3,6.565E3,3.457E3,2.847E3,9.9E3,3.948E3,4.48E3,4.23E2,1.8279E4,1.8674E4,1.971E3,6.04E2,4.721E3,5.792E3,4.794E3,3.21E3,8.96E2,1.819E3,3.939E3,7.193E3,2.576E3,4.108E3,3.836E3,2.489E3,5.02E2,1.731E3,4.834E3,1.939E3,1.518E3,1.02E3,1.827E3,4.845E3,5.055E3,6.7E2,3.278E3,1.474E3,3.006E3,2.29E2,1.94E2,1.7318E4,9.61E2,1.2293E4,6.381E3,1.332E3,6.39E2,5.85E2,1.9E1,7.6E1,4.645E3,5.442E3,3.5E2,4.538E3,2.56E2,6.69E2,2.541E3,7.9E2,1.06E2,1.057E3,7.62E2,2.633E3,1.306E3,6.887E3,3.06E2,1.35E3,1.226E3,1.715E3,2.393E3,2.259E3,1.577E3,4.33E2,2.056E3,4.94E2,8E0,1.246E3,4.85E2,3.34E3,1.494E3,1.455E3,4.84E2,3.19E2,1.199E3,8.42E2,1.78E2,1.792E3,3.5E1,1.076E3,3.769E3,3.312E3,1.743E3,3.03E2,3.67E2,2.003E3,1.275E3,9.47E2,5.27E2,2.979E3,2.7E1,1.62E2,6.7E1,2.5E1,1.69E2,5.685E3,1.1633E4,3.4E1,9.27E2],"tree_param":{"num_deleted":"0","num_feature":"44","num_nodes":"127","size_leaf_vector":"1"}},{"base_weights":[-2.7897587E-4,-1.9262373E-1,2.3934002E-1,-2.6758167E-1,-6.9696926E-2,1.10437855E-1,3.2728553E-1,-3.050696E-1,-2.0902768E-1,-1.11430846E-1,2.7265414E-3,-7.800576E-4,1.5794146E-1,2.6490846E-1,3.7388232E-1,-3.272913E-1,-2.4086313E-1,-2.3687233E-1,-1.2912333E-1,-1.7984957E-1,-3.9638665E-2,-5.8582593E-2,5.327673E-2,-6.0477447E-2,1.0477029E-1,1.890462E-1,7.2390966E-2,1.0683191E-1,2.8758317E-1,1.889171E-1,3.7801927E-1,-3.3650607E-1,-2.5699827E-1,-2.0386665E-1,-2.8483886E-1,-2.6509103E-1,-1.3918792E-1,-3.010761E-1,-1.1915128E-1,-1.2943211E-1,-2.3457424E-1,-1.461217E-1,1.0458063E-2,4.8096525E-3,-1.22510985E-1,-3.2485455E-2,8.77571E-2,-1.2903993E-1,1.3558807E-2,-6.924241E-3,1.4986478E-1,9.083025E-2,2.243152E-1,1.2597728E-1,-2.37134E-2,-1.7792034E-1,1.3114284E-1,3.596242E-1,2.5091892E-1,-2.1490754E-1,2.6321614E-1,3.832475E-1,3.10632E-1,-2.0623875E-3,-1.6923908E-2,-1.0208956E-2,-1.548621E-2,-1.1454136E-2,-3.2706067E-3,-1.5515271E-2,-1.0461808E-2,-2.870369E-3,-1.36925345E-2,-3.2384028E-3,-1.0502766E-2,-1.0497509E-2,-2.07118E-2,-1.9954385E-2,-5.627868E-3,-3.833032E-6,-7.826596E-3,-1.9472095E-3,-1.2245688E-2,-1.0274494E-2,-3.2035776E-3,4.562539E-3,-1.8565819E-3,2.4407764E-3,-4.2825206E-3,-4.143176E-3,-1.1084614E-2,8.298855E-3,-3.6142678E-3,1.7971003E-2,3.3714154E-3,-1.3745238E-2,-4.280351E-3,-2.1808583E-3,4.52803E-3,3.1838212E-3,-4.936513E-3,1.8197282E-3,8.8507235E-3,-3.906435E-3,6.847575E-3,1.1701579E-2,-6.120152E-3,5.4932344E-3,1.5317178E-2,-8.42004E-3,1.0812151E-3,2.454092E-3,-1.8230885E-2,1.1163421E-2,4.3433527E-3,8.22306E-3,1.8267786E-2,1.4436076E-2,4.0550563E-3,1.943411E-2,-1.6342482E-2,1.5720956E-2,-1.1956779E-2,1.3194536E-2,1.9344298E-2,1.6246883E-2,-8.376569E-3],"categories":[],"categories_nodes":[],"categories_segments":[],"categories_sizes":[],"default_left":[0,0,0,0,0,0,0,0,0,0,0,0,0,0,0,0,0,0,0,0,0,0,0,0,0,0,0,0,0,0,0,0,0,0,0,0,0,0,0,0,0,0,0,0,0,0,0,0,0,0,0,0,0,0,0,0,0,0,0,0,0,0,0,0,0,0,0,0,0,0,0,0,0,0,0,0,0,0,0,0,0,0,0,0,0,0,0,0,0,0,0,0,0,0,0,0,0,0,0,0,0,0,0,0,0,0,0,0,0,0,0,0,0,0,0,0,0,0,0,0,0,0,0,0,0,0,0],"id":3,"left_children":[1,3,5,7,9,11,13,15,17,19,21,23,25,27,29,31,33,35,37,39,41,43,45,47,49,51,53,55,57,59,61,63,65,67,69,71,73,75,77,79,81,83,85,87,89,91,93,95,97,99,101,103,105,107,109,111,113,115,117,119,121,123,125,-1,-1,-1,-1,-1,-1,-1,-1,-1,-1,-1,-1,-1,-1,-1,-1,-1,-1,-1,-1,-1,-1,-1,-1,-1,-1,-1,-1,-1,-1,-1,-1,-1,-1,-1,-1,-1,-1,-1,-1,-1,-1,-1,-1,-1,-1,-1,-1,-1,-1,-1,-1,-1,-1,-1,-1,-1,-1,-1,-1,-1,-1,-1,-1],"loss_changes":[5.3821426E3,5.968679E2,5.894319E2,8.826587E1,7.416979E1,1.1142392E2,8.9740234E1,3.4921387E1,3.492273E1,7.646179E1,2.7809038E1,3.9785053E1,3.9310974E1,4.7354187E1,1.3464844E1,1.171582E1,1.0209595E1,3.2073853E1,6.9293213E0,2.196228E1,4.0532692E1,1.6433737E1,1.4545928E1,2.04737E1,1.1489998E1,3.7518738E1,2.0303808E1,1.1514832E1,3.0446228E1,1.1728042E1,5.9768066E0,9.364258E0,5.8296967E0,1.1963577E1,5.4819794E0,1.6424744E1,1.3767204E1,2.2022533E0,7.0450935E0,1.4551346E1,7.7192535E0,1.182864E1,1.9873838E1,8.113018E0,7.9209194E0,1.115719E1,1.934898E1,1.3242657E1,8.5450945E0,4.2646756E0,4.9996643E0,2.233649E1,2.6888428E1,7.3218575E0,9.266071E0,5.569769E0,6.2213707E0,4.299011E0,4.9182465E1,4.2486343E0,8.537691E0,6.8688965E0,8.611839E0,0E0,0E0,0E0,0E0,0E0,0E0,0E0,0E0,0E0,0E0,0E0,0E0,0E0,0E0,0E0,0E0,0E0,0E0,0E0,0E0,0E0,0E0,0E0,0E0,0E0,0E0,0E0,0E0,0E0,0E0,0E0,0E0,0E0,0E0,0E0,0E0,0E0,0E0,0E0,0E0,0E0,0E0,0E0,0E0,0E0,0E0,0E0,0E0,0E0,0E0,0E0,0E0,0E0,0E0,0E0,0E0,0E0,0E0,0E0,0E0,0E0,0E0,0E0,0E0],"parents":[2147483647,0,0,1,1,2,2,3,3,4,4,5,5,6,6,7,7,8,8,9,9,10,10,11,11,12,12,13,13,14,14,15,15,16,16,17,17,18,18,19,19,20,20,21,21,22,22,23,23,24,24,25,25,26,26,27,27,28,28,29,29,30,30,31,31,32,32,33,33,34,34,35,35,36,36,37,37,38,38,39,39,40,40,41,41,42,42,43,43,44,44,45,45,46,46,47,47,48,48,49,49,50,50,51,51,52,52,53,53,54,54,55,55,56,56,57,57,58,58,59,59,60,60,61,61,62,62],"right_children":[2,4,6,8,10,12,14,16,18,20,22,24,26,28,30,32,34,36,38,40,42,44,46,48,50,52,54,56,58,60,62,64,66,68,70,72,74,76,78,80,82,84,86,88,90,92,94,96,98,100,102,104,106,108,110,112,114,116,118,120,122,124,126,-1,-1,-1,-1,-1,-1,-1,-1,-1,-1,-1,-1,-1,-1,-1,-1,-1,-1,-1,-1,-1,-1,-1,-1,-1,-1,-1,-1,-1,-1,-1,-1,-1,-1,-1,-1,-1,-1,-1,-1,-1,-1,-1,-1,-1,-1,-1,-1,-1,-1,-1,-1,-1,-1,-1,-1,-1,-1,-1,-1,-1,-1,-1,-1],"split_conditions":[8.896948E0,2.2425744E-1,9.910007E-1,9.176696E-2,1.00172833E3,1.1494495E0,1.5541517E1,2.2576263E-2,6.9827974E-2,6.418241E-1,7.442802E0,4.7915845E0,8.367329E-1,1.1494495E0,1.1336595E0,6.731561E-1,1.7364818E-1,1.3743734E0,3.2865274E-1,2.7364033E1,4.9082956E0,5.663619E-1,-1.878583E0,9.592424E-1,6.0750966E0,-1.7314663E0,1.99844E1,7.9847825E-1,-5.7357645E-1,1.1039615E0,2.2960995E1,9.8664044E2,3.8268343E-1,7.786765E0,9.271236E0,-9.9039733E-1,4.2261827E-1,4.7275922E-1,9.978429E2,-9.4740427E-1,1.4623991E0,1.5420404E-1,8.3412886E-1,8.229151E0,9.102302E-1,-2.5881904E-1,-9.4175893E-1,9.934487E2,1.0004258E1,-8.27793E-1,-9.86324E-1,2.2894118E0,2.7366692E1,1.0109586E3,8.8853854E-1,9.944873E2,-8.433914E-1,3.3574966E-1,8.834883E-1,-9.86324E-1,9.912192E2,-4.6230483E-1,2.532895E-1,-2.0623875E-3,-1.6923908E-2,-1.0208956E-2,-1.548621E-2,-1.1454136E-2,-3.2706067E-3,-1.5515271E-2,-1.0461808E-2,-2.870369E-3,-1.36925345E-2,-3.2384028E-3,-1.0502766E-2,-1.0497509E-2,-2.07118E-2,-1.9954385E-2,-5.627868E-3,-3.833032E-6,-7.826596E-3,-1.9472095E-3,-1.2245688E-2,-1.0274494E-2,-3.2035776E-3,4.562539E-3,-1.8565819E-3,2.4407764E-3,-4.2825206E-3,-4.143176E-3,-1.1084614E-2,8.298855E-3,-3.6142678E-3,1.7971003E-2,3.3714154E-3,-1.3745238E-2,-4.280351E-3,-2.1808583E-3,4.52803E-3,3.1838212E-3,-4.936513E-3,1.8197282E-3,8.8507235E-3,-3.906435E-3,6.847575E-3,1.1701579E-2,-6.120152E-3,5.4932344E-3,1.5317178E-2,-8.42004E-3,1.0812151E-3,2.454092E-3,-1.8230885E-2,1.1163421E-2,4.3433527E-3,8.22306E-3,1.8267786E-2,1.4436076E-2,4.0550563E-3,1.943411E-2,-1.6342482E-2,1.5720956E-2,-1.1956779E-2,1.3194536E-2,1.9344298E-2,1.6246883E-2,-8.376569E-3],"split_indices":[2,16,16,16,13,15,2,43,43,5,2,10,42,15,15,5,41,7,29,11,35,42,39,29,35,39,11,34,41,34,23,13,41,36,36,42,41,42,13,42,35,42,34,33,9,41,42,13,4,43,43,10,36,13,34,13,41,29,9,43,13,43,37,0,0,0,0,0,0,0,0,0,0,0,0,0,0,0,0,0,0,0,0,0,0,0,0,0,0,0,0,0,0,0,0,0,0,0,0,0,0,0,0,0,0,0,0,0,0,0,0,0,0,0,0,0,0,0,0,0,0,0,0,0,0,0,0],"split_type":[0,0,0,0,0,0,0,0,0,0,0,0,0,0,0,0,0,0,0,0,0,0,0,0,0,0,0,0,0,0,0,0,0,0,0,0,0,0,0,0,0,0,0,0,0,0,0,0,0,0,0,0,0,0,0,0,0,0,0,0,0,0,0,0,0,0,0,0,0,0,0,0,0,0,0,0,0,0,0,0,0,0,0,0,0,0,0,0,0,0,0,0,0,0,0,0,0,0,0,0,0,0,0,0,0,0,0,0,0,0,0,0,0,0,0,0,0,0,0,0,0,0,0,0,0,0,0],"sum_hessian":[1.16774E5,6.4777E4,5.1997E4,4.0239E4,2.4538E4,2.1089E4,3.0908E4,2.453E4,1.5709E4,1.5567E4,8.971E3,6.312E3,1.4777E4,1.3219E4,1.7689E4,1.822E4,6.31E3,1.1648E4,4.061E3,7.97E3,7.597E3,4.054E3,4.917E3,4.032E3,2.28E3,1.0836E4,3.941E3,1.659E3,1.156E4,3.88E2,1.7301E4,1.6105E4,2.115E3,3.43E3,2.88E3,9.036E3,2.612E3,2.21E2,3.84E3,4.15E3,3.82E3,2.43E3,5.167E3,2.036E3,2.018E3,1.41E3,3.507E3,2.093E3,1.939E3,6.56E2,1.624E3,2.864E3,7.972E3,2.53E3,1.411E3,1.3E2,1.529E3,3.896E3,7.664E3,6E1,3.28E2,1.6051E4,1.25E3,1.07E2,1.5998E4,1.059E3,1.056E3,2.901E3,5.29E2,2.152E3,7.28E2,3.66E2,8.67E3,1.275E3,1.337E3,1.24E2,9.7E1,8.7E1,3.753E3,7.19E2,3.431E3,1.92E2,3.628E3,1.409E3,1.021E3,1.915E3,3.252E3,1.37E3,6.66E2,1.443E3,5.75E2,2.35E2,1.175E3,2.43E2,3.264E3,4.79E2,1.614E3,1.113E3,8.26E2,3.71E2,2.85E2,3.14E2,1.31E3,6.14E2,2.25E3,7.755E3,2.17E2,2.324E3,2.06E2,3.36E2,1.075E3,5.9E1,7.1E1,4.95E2,1.034E3,1.12E2,3.784E3,6.268E3,1.396E3,9E0,5.1E1,2.98E2,3E1,4.77E2,1.5574E4,1.214E3,3.6E1],"tree_param":{"num_deleted":"0","num_feature":"44","num_nodes":"127","size_leaf_vector":"1"}},{"base_weights":[2.3391026E-4,-1.7339912E-1,2.4066493E-1,-2.4523017E-1,-4.225412E-2,1.4440493E-1,3.335359E-1,-2.9486087E-1,-1.5166172E-1,-1.4275566E-1,7.855584E-2,1.2708077E-2,2.6745555E-1,2.593179E-1,3.6530274E-1,-3.1553236E-1,-2.2270544E-1,-2.2000949E-1,-3.6286008E-2,-1.8902828E-1,-8.502507E-2,1.2383257E-1,-3.0528378E-2,5.5862304E-2,-8.887953E-2,1.3044219E-1,3.0388454E-1,1.663355E-1,3.501214E-1,9.699678E-2,3.6869913E-1,-3.331497E-1,-2.5669283E-1,-5.9333E-2,-2.443101E-1,-2.7180526E-1,-1.4623176E-1,3.740667E-3,-1.3965897E-1,-2.4520153E-1,-1.1962339E-1,-2.2529069E-1,-4.420907E-2,-1.1152531E-1,1.4746477E-1,-6.414368E-2,1.3402027E-1,1.0231632E-3,1.5435852E-1,-1.21476375E-1,6.425758E-2,8.563056E-2,2.3131506E-1,2.4226099E-1,3.3916342E-1,2.0962165E-1,5.8208197E-2,2.7767146E-1,3.7471148E-1,1.8853555E-2,2.914354E-1,3.74037E-1,2.727572E-1,-1.7722202E-2,-1.5079925E-2,-1.4534009E-2,-8.972142E-3,-3.949492E-3,1.5500902E-2,5.321765E-3,-1.2452557E-2,-1.1451083E-2,-1.6245347E-2,-1.9681542E-3,-1.06960535E-2,1.6001305E-2,-5.37734E-4,-9.873993E-3,-1.3598403E-3,-1.4182066E-2,-9.374856E-3,-6.964974E-3,5.171383E-3,4.537021E-3,-1.1814264E-2,-4.4048964E-3,2.5613566E-3,-1.0852548E-2,-1.9275917E-3,4.652708E-3,9.756369E-3,-5.0959387E-3,2.0329016E-3,5.8316193E-3,2.0429075E-2,-2.3394204E-3,4.109099E-3,4.165261E-3,1.3246867E-2,-7.582914E-3,-3.087587E-4,1.0526049E-3,1.0196457E-2,2.6611832E-3,9.133131E-3,5.0741048E-3,1.4583582E-2,1.4716077E-2,9.25678E-3,1.8387085E-2,1.5118531E-2,6.722271E-3,1.2759703E-2,1.2949882E-3,1.277856E-2,1.4430039E-2,-8.1209075E-3,1.8879306E-2,-3.4922608E-3,5.816246E-3,-1.0347088E-2,8.220841E-3,1.75515E-2,1.8819114E-2,1.2230241E-2,-1.7871756E-2,1.4580565E-2],"categories":[],"categories_nodes":[],"categories_segments":[],"categories_sizes":[],"default_left":[0,0,0,0,0,0,0,0,0,0,0,0,0,0,0,0,0,0,0,0,0,0,0,0,0,0,0,0,0,0,0,0,0,0,0,0,0,0,0,0,0,0,0,0,0,0,0,0,0,0,0,0,0,0,0,0,0,0,0,0,0,0,0,0,0,0,0,0,0,0,0,0,0,0,0,0,0,0,0,0,0,0,0,0,0,0,0,0,0,0,0,0,0,0,0,0,0,0,0,0,0,0,0,0,0,0,0,0,0,0,0,0,0,0,0,0,0,0,0,0,0,0,0,0,0,0,0],"id":4,"left_children":[1,3,5,7,9,11,13,15,17,19,21,23,25,27,29,31,33,35,37,39,41,43,45,47,49,51,53,55,57,59,61,63,65,67,69,71,73,75,77,79,81,83,85,87,89,91,93,95,97,99,101,103,105,107,109,111,113,115,117,119,121,123,125,-1,-1,-1,-1,-1,-1,-1,-1,-1,-1,-1,-1,-1,-1,-1,-1,-1,-1,-1,-1,-1,-1,-1,-1,-1,-1,-1,-1,-1,-1,-1,-1,-1,-1,-1,-1,-1,-1,-1,-1,-1,-1,-1,-1,-1,-1,-1,-1,-1,-1,-1,-1,-1,-1,-1,-1,-1,-1,-1,-1,-1,-1,-1,-1],"loss_changes":[4.886501E3,6.4025793E2,4.3875122E2,2.0388623E2,2.9206497E2,3.906111E2,5.8802002E1,4.272705E1,1.2002771E2,3.506134E1,5.395716E1,5.1051502E1,6.2156372E1,6.318921E1,1.590332E1,2.3031494E1,2.2550293E1,3.648877E1,2.3436321E1,2.83844E1,3.3447422E1,4.295527E1,1.7736582E1,4.414588E1,1.7339285E1,1.1818802E1,2.131659E1,1.7319374E1,6.64624E0,3.3371992E0,8.743164E0,1.1421631E1,1.3450897E1,5.4551706E0,9.415222E0,1.268219E1,2.852919E1,1.8727219E1,1.0275337E1,8.879288E0,1.4330578E1,4.5975266E0,1.8970432E1,5.420538E0,1.8176788E1,1.054272E1,2.5494213E0,2.037946E1,2.2943916E1,9.962334E0,3.6767986E0,5.6975613E0,6.2786026E0,1.0613159E1,6.4678955E0,9.023933E0,6.7524595E0,4.6835938E0,3.6377869E0,3.5014277E0,4.1917086E-1,4.8737793E0,1.0964111E1,0E0,0E0,0E0,0E0,0E0,0E0,0E0,0E0,0E0,0E0,0E0,0E0,0E0,0E0,0E0,0E0,0E0,0E0,0E0,0E0,0E0,0E0,0E0,0E0,0E0,0E0,0E0,0E0,0E0,0E0,0E0,0E0,0E0,0E0,0E0,0E0,0E0,0E0,0E0,0E0,0E0,0E0,0E0,0E0,0E0,0E0,0E0,0E0,0E0,0E0,0E0,0E0,0E0,0E0,0E0,0E0,0E0,0E0,0E0,0E0,0E0,0E0,0E0,0E0],"parents":[2147483647,0,0,1,1,2,2,3,3,4,4,5,5,6,6,7,7,8,8,9,9,10,10,11,11,12,12,13,13,14,14,15,15,16,16,17,17,18,18,19,19,20,20,21,21,22,22,23,23,24,24,25,25,26,26,27,27,28,28,29,29,30,30,31,31,32,32,33,33,34,34,35,35,36,36,37,37,38,38,39,39,40,40,41,41,42,42,43,43,44,44,45,45,46,46,47,47,48,48,49,49,50,50,51,51,52,52,53,53,54,54,55,55,56,56,57,57,58,58,59,59,60,60,61,61,62,62],"right_children":[2,4,6,8,10,12,14,16,18,20,22,24,26,28,30,32,34,36,38,40,42,44,46,48,50,52,54,56,58,60,62,64,66,68,70,72,74,76,78,80,82,84,86,88,90,92,94,96,98,100,102,104,106,108,110,112,114,116,118,120,122,124,126,-1,-1,-1,-1,-1,-1,-1,-1,-1,-1,-1,-1,-1,-1,-1,-1,-1,-1,-1,-1,-1,-1,-1,-1,-1,-1,-1,-1,-1,-1,-1,-1,-1,-1,-1,-1,-1,-1,-1,-1,-1,-1,-1,-1,-1,-1,-1,-1,-1,-1,-1,-1,-1,-1,-1,-1,-1,-1,-1,-1,-1,-1,-1,-1],"split_conditions":[6.8925405E-1,6.625E0,1.2758883E1,5.3729963E-1,1.7364818E-1,-2.1643962E-1,-7.372773E-1,8.699719E0,5.215614E0,-5.3729963E-1,5.7357645E-1,2.5841883E1,2.2272122E-1,1.5819417E1,1.6011736E-1,2.2576263E-2,-7.933533E-1,2.2272122E-1,5E-1,1.0427982E1,-3.5372856E-1,-6.468997E-1,7.1504414E-1,-6.4278764E-1,5.165443E0,2.8304632E1,9.84645E0,2.2873499E1,1.68298E1,9.2220336E-2,2.4333225E1,-1.7364818E-1,1.199454E-1,1.66141E1,9.8664044E2,1.3052619E-1,-1.7364818E-1,-9.906923E-1,-8.0549E-2,4.3063053E-1,1.275335E1,1.1281458E0,7.876967E0,6.731565E0,3.3080113E-1,8.279817E0,9.984376E-1,2.95174E0,1.0990165E1,2.254715E0,1.0560175E1,8.433914E-1,8.7155744E-2,2.1643962E-1,4.3619387E-2,4.9654436E-1,1.2546124E-1,9.9675065E-1,2.9385918E1,1.3483909E1,-5.7357645E-1,3.778042E-1,1.1327738E0,-1.7722202E-2,-1.5079925E-2,-1.4534009E-2,-8.972142E-3,-3.949492E-3,1.5500902E-2,5.321765E-3,-1.2452557E-2,-1.1451083E-2,-1.6245347E-2,-1.9681542E-3,-1.06960535E-2,1.6001305E-2,-5.37734E-4,-9.873993E-3,-1.3598403E-3,-1.4182066E-2,-9.374856E-3,-6.964974E-3,5.171383E-3,4.537021E-3,-1.1814264E-2,-4.4048964E-3,2.5613566E-3,-1.0852548E-2,-1.9275917E-3,4.652708E-3,9.756369E-3,-5.0959387E-3,2.0329016E-3,5.8316193E-3,2.0429075E-2,-2.3394204E-3,4.109099E-3,4.165261E-3,1.3246867E-2,-7.582914E-3,-3.087587E-4,1.0526049E-3,1.0196457E-2,2.6611832E-3,9.133131E-3,5.0741048E-3,1.4583582E-2,1.4716077E-2,9.25678E-3,1.8387085E-2,1.5118531E-2,6.722271E-3,1.2759703E-2,1.2949882E-3,1.277856E-2,1.4430039E-2,-8.1209075E-3,1.8879306E-2,-3.4922608E-3,5.816246E-3,-1.0347088E-2,8.220841E-3,1.75515E-2,1.8819114E-2,1.2230241E-2,-1.7871756E-2,1.4580565E-2],"split_indices":[16,2,4,40,40,40,40,36,28,40,41,11,8,4,8,43,41,8,41,36,8,8,43,40,10,11,4,11,4,6,31,40,16,36,13,41,41,42,43,24,26,15,3,4,8,1,43,10,4,34,25,40,40,41,41,8,43,42,11,30,41,37,15,0,0,0,0,0,0,0,0,0,0,0,0,0,0,0,0,0,0,0,0,0,0,0,0,0,0,0,0,0,0,0,0,0,0,0,0,0,0,0,0,0,0,0,0,0,0,0,0,0,0,0,0,0,0,0,0,0,0,0,0,0,0,0,0],"split_type":[0,0,0,0,0,0,0,0,0,0,0,0,0,0,0,0,0,0,0,0,0,0,0,0,0,0,0,0,0,0,0,0,0,0,0,0,0,0,0,0,0,0,0,0,0,0,0,0,0,0,0,0,0,0,0,0,0,0,0,0,0,0,0,0,0,0,0,0,0,0,0,0,0,0,0,0,0,0,0,0,0,0,0,0,0,0,0,0,0,0,0,0,0,0,0,0,0,0,0,0,0,0,0,0,0,0,0,0,0,0,0,0,0,0,0,0,0,0,0,0,0,0,0,0,0,0,0],"sum_hessian":[1.17049E5,6.7966E4,4.9083E4,4.3913E4,2.4053E4,2.4103E4,2.498E4,2.8692E4,1.5221E4,1.313E4,1.0923E4,1.1643E4,1.246E4,7.49E3,1.749E4,2.23E4,6.392E3,9.558E3,5.663E3,7.287E3,5.843E3,7.719E3,3.204E3,8.172E3,3.471E3,2.618E3,9.842E3,3.702E3,3.788E3,2.19E2,1.7271E4,1.7158E4,5.142E3,7.47E2,5.645E3,5.614E3,3.944E3,4.083E3,1.58E3,4.026E3,3.261E3,1.316E3,4.527E3,7.04E2,7.015E3,2.661E3,5.43E2,5.25E3,2.922E3,2.862E3,6.09E2,1.814E3,8.04E2,3.586E3,6.256E3,2.643E3,1.059E3,9.63E2,2.825E3,1.57E2,6.2E1,1.6358E4,9.13E2,1.0238E4,6.92E3,3.569E3,1.573E3,7.1E2,3.7E1,7.5E1,5.57E3,3.112E3,2.502E3,1.53E3,2.414E3,1.78E2,3.905E3,1.043E3,5.37E2,2.414E3,1.612E3,2.997E3,2.64E2,4.4E1,1.272E3,3.101E3,1.426E3,2.87E2,4.17E2,3.277E3,3.738E3,1.956E3,7.05E2,5.12E2,3.1E1,3.304E3,1.946E3,1.78E3,1.142E3,2.268E3,5.94E2,4.66E2,1.43E2,1.361E3,4.53E2,2.56E2,5.48E2,1.874E3,1.712E3,3.516E3,2.74E3,9.99E2,1.644E3,9.11E2,1.48E2,9.4E2,2.3E1,2.807E3,1.8E1,1.1E2,4.7E1,2.1E1,4.1E1,1.6065E4,2.93E2,2.6E1,8.87E2],"tree_param":{"num_deleted":"0","num_feature":"44","num_nodes":"127","size_leaf_vector":"1"}},{"base_weights":[-4.7797873E-4,-1.7438315E-1,2.1609214E-1,-2.5578493E-1,-7.9303846E-2,9.818866E-2,2.969389E-1,-3.051792E-1,-1.9361535E-1,-1.697322E-1,3.7982803E-2,-2.3012606E-2,2.1775576E-1,2.0363246E-1,3.3308083E-1,-3.257744E-1,-2.5635135E-1,-1.4800845E-1,-2.79498E-1,-2.2582862E-1,-1.238251E-1,8.619726E-2,-6.407252E-2,-6.3050024E-2,6.514492E-2,1.2510468E-1,2.5150755E-1,5.8503915E-2,2.9226455E-1,3.403866E-1,1.9244389E-1,-3.3300486E-1,-2.2202674E-1,8.810284E-2,-2.6181418E-1,-1.8550177E-1,-2.6305528E-2,-3.2286537E-1,-2.2336408E-1,-1.3344094E-1,-2.5741652E-1,-1.5648167E-1,-5.8598377E-2,2.3716679E-2,1.5623693E-1,-9.547659E-2,9.245543E-2,-1.0203956E-1,-4.872835E-3,1.4303623E-1,-3.0521898E-2,1.3350874E-1,-4.5393217E-1,2.766747E-1,1.727126E-1,1.16986856E-1,-5.1912308E-2,2.229213E-1,3.5196158E-1,3.0843833E-1,3.5455146E-1,2.0963149E-1,-2.040611E-2,-1.41702015E-2,-1.7333006E-2,6.4246925E-3,-1.2948419E-2,1.1238E-2,-6.346114E-3,-1.5144753E-2,-1.1596795E-2,-9.966879E-3,1.1223989E-3,-5.706023E-3,1.0934989E-3,-1.6631413E-2,-1.3190701E-2,-1.17045045E-2,7.7988952E-3,-9.51811E-3,-2.117798E-3,-1.357794E-2,-7.965273E-3,-9.685229E-3,-6.3469084E-3,-6.796037E-3,-5.851185E-4,-1.4941626E-3,4.5472053E-3,9.448331E-3,3.2682016E-3,-7.8663025E-3,-2.3260168E-3,-1.5852923E-2,5.1564076E-3,-1.12450905E-2,-3.7817073E-3,2.9589513E-3,-4.5705726E-3,3.804094E-3,1.0685207E-2,7.0299827E-3,-2.7349328E-3,3.1212235E-3,8.97021E-3,6.739476E-3,-2.3600997E-2,1.4191806E-2,-2.3589388E-3,1.2196438E-2,4.8804977E-3,1.1898975E-3,8.586057E-3,-8.415136E-3,-3.3720068E-4,1.7206663E-2,9.5575005E-3,1.7738748E-2,-5.7302527E-3,1.21247545E-2,1.6900446E-2,1.8024007E-2,1.3492926E-2,6.6804676E-3,1.4256084E-2],"categories":[],"categories_nodes":[],"categories_segments":[],"categories_sizes":[],"default_left":[0,0,0,0,0,0,0,0,0,0,0,0,0,0,0,0,0,0,0,0,0,0,0,0,0,0,0,0,0,0,0,0,0,0,0,0,0,0,0,0,0,0,0,0,0,0,0,0,0,0,0,0,0,0,0,0,0,0,0,0,0,0,0,0,0,0,0,0,0,0,0,0,0,0,0,0,0,0,0,0,0,0,0,0,0,0,0,0,0,0,0,0,0,0,0,0,0,0,0,0,0,0,0,0,0,0,0,0,0,0,0,0,0,0,0,0,0,0,0,0,0,0,0,0,0],"id":5,"left_children":[1,3,5,7,9,11,13,15,17,19,21,23,25,27,29,31,33,35,37,39,41,43,45,47,49,51,53,55,57,59,61,63,65,67,69,71,73,75,77,79,81,83,85,87,89,91,93,95,97,99,101,103,105,107,109,111,113,115,117,119,121,123,-1,-1,-1,-1,-1,-1,-1,-1,-1,-1,-1,-1,-1,-1,-1,-1,-1,-1,-1,-1,-1,-1,-1,-1,-1,-1,-1,-1,-1,-1,-1,-1,-1,-1,-1,-1,-1,-1,-1,-1,-1,-1,-1,-1,-1,-1,-1,-1,-1,-1,-1,-1,-1,-1,-1,-1,-1,-1,-1,-1,-1,-1,-1],"loss_changes":[4.4044976E3,5.0198718E2,4.964414E2,1.072478E2,3.173285E2,3.070548E2,1.0412549E2,1.9496826E1,6.056781E1,4.3477844E1,6.41005E1,3.714608E1,3.332263E1,1.1097812E2,2.2815186E1,1.0196167E1,1.0901154E1,4.6122925E1,1.2990753E1,2.2150787E1,1.978566E1,3.8711815E1,2.0556097E1,1.6415203E1,2.4497824E1,1.3929443E1,1.5453674E1,2.1141361E1,2.209729E1,9.469971E0,1.1460716E1,8.569458E0,1.1622467E1,2.702537E0,6.915039E0,2.2239105E1,1.0079614E1,1.656189E0,9.565704E0,1.0045013E1,7.8156433E0,6.784729E0,1.1246602E1,1.6855747E1,1.2393211E1,1.0535891E1,3.0877647E0,1.4040234E1,1.6107706E1,8.557262E0,6.114145E0,9.156273E0,5.0021935E-1,1.3750305E1,1.0111637E1,1.0911255E1,5.960479E0,9.488693E0,3.8170776E0,1.2612488E1,7.2631836E0,6.1140366E0,0E0,0E0,0E0,0E0,0E0,0E0,0E0,0E0,0E0,0E0,0E0,0E0,0E0,0E0,0E0,0E0,0E0,0E0,0E0,0E0,0E0,0E0,0E0,0E0,0E0,0E0,0E0,0E0,0E0,0E0,0E0,0E0,0E0,0E0,0E0,0E0,0E0,0E0,0E0,0E0,0E0,0E0,0E0,0E0,0E0,0E0,0E0,0E0,0E0,0E0,0E0,0E0,0E0,0E0,0E0,0E0,0E0,0E0,0E0,0E0,0E0,0E0,0E0],"parents":[2147483647,0,0,1,1,2,2,3,3,4,4,5,5,6,6,7,7,8,8,9,9,10,10,11,11,12,12,13,13,14,14,15,15,16,16,17,17,18,18,19,19,20,20,21,21,22,22,23,23,24,24,25,25,26,26,27,27,28,28,29,29,30,30,31,31,32,32,33,33,34,34,35,35,36,36,37,37,38,38,39,39,40,40,41,41,42,42,43,43,44,44,45,45,46,46,47,47,48,48,49,49,50,50,51,51,52,52,53,53,54,54,55,55,56,56,57,57,58,58,59,59,60,60,61,61],"right_children":[2,4,6,8,10,12,14,16,18,20,22,24,26,28,30,32,34,36,38,40,42,44,46,48,50,52,54,56,58,60,62,64,66,68,70,72,74,76,78,80,82,84,86,88,90,92,94,96,98,100,102,104,106,108,110,112,114,116,118,120,122,124,-1,-1,-1,-1,-1,-1,-1,-1,-1,-1,-1,-1,-1,-1,-1,-1,-1,-1,-1,-1,-1,-1,-1,-1,-1,-1,-1,-1,-1,-1,-1,-1,-1,-1,-1,-1,-1,-1,-1,-1,-1,-1,-1,-1,-1,-1,-1,-1,-1,-1,-1,-1,-1,-1,-1,-1,-1,-1,-1,-1,-1,-1,-1],"split_conditions":[8.896948E0,1.7292565E-1,9.910007E-1,3.007058E-1,2.5881904E-1,-1.7364818E-1,-7.6604444E-1,7.534278E0,4.2261827E-1,8.995184E0,5E-1,-5.7357645E-1,1.1514834E0,1.4120032E1,2.6637234E1,7.614175E-1,9.8664044E2,5.215614E0,6.7518244E0,-9.396926E-1,-3.4202015E-1,5.7354116E0,7.1504414E-1,6.2454474E-1,2.3512867E1,1.9675392E1,8.367329E-1,2.2798468E1,1.6529016E1,1.46525E1,2.0815666E1,-9.5371693E-1,-5.13901E-1,-1.378417E-1,-9.019E-2,8.862235E-1,7.209524E0,4.7937766E-1,9.9413666E1,6.939217E0,1.0056103E3,3.6028337E0,5.8361616E0,-3.0369502E-1,7.0672655E-1,5.1042156E0,-1.4925352E-2,1.1403276E0,2.6495117E1,1.1406492E1,-9.753364E-1,3.007058E-1,9.657642E0,1.6305261E0,-4.3619387E-2,8.242567E1,8.8351154E-1,1.5894816E1,2.9385918E1,-2.1643962E-1,2.2960995E1,-1.7364818E-1,-2.040611E-2,-1.41702015E-2,-1.7333006E-2,6.4246925E-3,-1.2948419E-2,1.1238E-2,-6.346114E-3,-1.5144753E-2,-1.1596795E-2,-9.966879E-3,1.1223989E-3,-5.706023E-3,1.0934989E-3,-1.6631413E-2,-1.3190701E-2,-1.17045045E-2,7.7988952E-3,-9.51811E-3,-2.117798E-3,-1.357794E-2,-7.965273E-3,-9.685229E-3,-6.3469084E-3,-6.796037E-3,-5.851185E-4,-1.4941626E-3,4.5472053E-3,9.448331E-3,3.2682016E-3,-7.8663025E-3,-2.3260168E-3,-1.5852923E-2,5.1564076E-3,-1.12450905E-2,-3.7817073E-3,2.9589513E-3,-4.5705726E-3,3.804094E-3,1.0685207E-2,7.0299827E-3,-2.7349328E-3,3.1212235E-3,8.97021E-3,6.739476E-3,-2.3600997E-2,1.4191806E-2,-2.3589388E-3,1.2196438E-2,4.8804977E-3,1.1898975E-3,8.586057E-3,-8.415136E-3,-3.3720068E-4,1.7206663E-2,9.5575005E-3,1.7738748E-2,-5.7302527E-3,1.21247545E-2,1.6900446E-2,1.8024007E-2,1.3492926E-2,6.6804676E-3,1.4256084E-2],"split_indices":[2,16,16,40,40,40,40,36,41,36,41,40,15,4,11,43,13,28,36,41,40,30,43,5,11,22,42,11,4,2,35,41,42,37,42,43,36,43,12,4,13,10,4,43,42,35,14,15,11,26,42,40,0,5,41,12,34,11,11,40,23,40,0,0,0,0,0,0,0,0,0,0,0,0,0,0,0,0,0,0,0,0,0,0,0,0,0,0,0,0,0,0,0,0,0,0,0,0,0,0,0,0,0,0,0,0,0,0,0,0,0,0,0,0,0,0,0,0,0,0,0,0,0,0,0],"split_type":[0,0,0,0,0,0,0,0,0,0,0,0,0,0,0,0,0,0,0,0,0,0,0,0,0,0,0,0,0,0,0,0,0,0,0,0,0,0,0,0,0,0,0,0,0,0,0,0,0,0,0,0,0,0,0,0,0,0,0,0,0,0,0,0,0,0,0,0,0,0,0,0,0,0,0,0,0,0,0,0,0,0,0,0,0,0,0,0,0,0,0,0,0,0,0,0,0,0,0,0,0,0,0,0,0,0,0,0,0,0,0,0,0,0,0,0,0,0,0,0,0,0,0,0,0],"sum_hessian":[1.16944E5,6.4861E4,5.2083E4,3.4943E4,2.9918E4,2.1187E4,3.0896E4,1.947E4,1.5473E4,1.6893E4,1.3025E4,1.0522E4,1.0665E4,8.628E3,2.2268E4,1.369E4,5.78E3,1.0108E4,5.365E3,7.601E3,9.292E3,8.846E3,4.179E3,7.236E3,3.286E3,2.849E3,7.816E3,3.272E3,5.356E3,2.1167E4,1.101E3,1.2796E4,8.94E2,9E1,5.69E3,7.727E3,2.381E3,3.024E3,2.341E3,1.938E3,5.663E3,6.191E3,3.101E3,4.676E3,4.17E3,3.481E3,6.98E2,4.332E3,2.904E3,1.811E3,1.475E3,2.809E3,4E1,5.922E3,1.894E3,2.139E3,1.133E3,2.48E3,2.876E3,6.509E3,1.4658E4,1.071E3,3E1,2.767E3,1.0029E4,8.5E1,8.09E2,5.5E1,3.5E1,2.392E3,3.298E3,7.245E3,4.82E2,8.43E2,1.538E3,2.591E3,4.33E2,2.277E3,6.4E1,1.192E3,7.46E2,4.948E3,7.15E2,2.737E3,3.454E3,1.17E3,1.931E3,2.602E3,2.074E3,3.065E3,1.105E3,1.537E3,1.944E3,1.7E1,6.81E2,7.65E2,3.567E3,1.669E3,1.235E3,9.31E2,8.8E2,1.82E2,1.293E3,1.103E3,1.706E3,1E0,3.9E1,5.794E3,1.28E2,9.71E2,9.23E2,7.92E2,1.347E3,3.16E2,8.17E2,5.13E2,1.967E3,2.859E3,1.7E1,2.018E3,4.491E3,1.3696E4,9.62E2,5.35E2,5.36E2],"tree_param":{"num_deleted":"0","num_feature":"44","num_nodes":"125","size_leaf_vector":"1"}},{"base_weights":[-2.6386583E-4,-1.588062E-1,2.1396866E-1,-2.3298569E-1,-5.944188E-2,1.2684263E-1,3.0006894E-1,-2.7894026E-1,-1.6258714E-1,-1.377989E-1,6.586242E-2,5.780638E-3,2.3336644E-1,2.3043728E-1,3.2707033E-1,-2.9953057E-1,-2.2727203E-1,-2.0626736E-1,-6.0288377E-2,-1.8008414E-1,-7.86199E-2,1.03414014E-1,-3.193768E-2,4.54037E-2,-8.339514E-2,9.363732E-2,2.6794517E-1,1.3253923E-1,3.055786E-1,3.0901695E-2,3.298055E-1,-3.0540702E-1,-1.432658E-1,2.0289102E-1,-2.3162353E-1,-2.6310974E-1,-1.2618132E-1,-1.7231313E-3,-1.5554044E-1,-2.289759E-1,-1.0725778E-1,-1.5204558E-1,-4.53221E-3,4.7610734E-2,1.637122E-1,-6.283758E-2,7.8073025E-2,-1.482495E-2,1.2207343E-1,5.1230676E-2,-1.1537312E-1,4.0004972E-2,1.9566727E-1,2.1180604E-1,3.018905E-1,1.0095762E-1,2.6451388E-1,2.4264863E-1,3.3711872E-1,-7.560781E-2,3.0218336E-1,3.3515227E-1,2.3648947E-1,-1.3349756E-2,-1.5996298E-2,-8.939617E-3,4.6056025E-3,1.3115001E-2,-1.7190015E-2,-1.3571638E-2,-9.664478E-3,-1.1329819E-2,-1.5322412E-2,-2.9149596E-3,-1.0240102E-2,1.6591031E-2,-8.469903E-4,-1.04403095E-2,-4.40473E-3,-1.2426052E-2,-7.7087157E-3,-6.240587E-3,5.1752925E-3,-9.335328E-3,-2.568608E-3,-3.9430866E-3,3.8712271E-3,-1.8686121E-3,6.4013633E-3,6.0039945E-3,1.2313976E-2,-2.2896323E-3,-8.505612E-3,6.0594487E-3,-3.5254918E-3,-2.662786E-3,7.2073825E-3,2.844378E-3,1.057917E-2,-9.893504E-5,8.910271E-3,-6.5880152E-3,5.290801E-3,-1.4124481E-3,5.327978E-3,3.669704E-3,1.3305686E-2,1.313208E-2,7.588683E-3,1.6316568E-2,1.2802471E-2,6.675227E-3,-1.1497353E-3,1.8016624E-3,1.4081811E-2,1.6950587E-2,9.890777E-3,1.6976984E-2,-1.3529609E-2,-1.3074524E-2,2.8180182E-3,-1.4760955E-2,1.676475E-2,1.4864332E-2,1.7220935E-2,9.909606E-4,1.4356081E-2],"categories":[],"categories_nodes":[],"categories_segments":[],"categories_sizes":[],"default_left":[0,0,0,0,0,0,0,0,0,0,0,0,0,0,0,0,0,0,0,0,0,0,0,0,0,0,0,0,0,0,0,0,0,0,0,0,0,0,0,0,0,0,0,0,0,0,0,0,0,0,0,0,0,0,0,0,0,0,0,0,0,0,0,0,0,0,0,0,0,0,0,0,0,0,0,0,0,0,0,0,0,0,0,0,0,0,0,0,0,0,0,0,0,0,0,0,0,0,0,0,0,0,0,0,0,0,0,0,0,0,0,0,0,0,0,0,0,0,0,0,0,0,0,0,0,0,0],"id":6,"left_children":[1,3,5,7,9,11,13,15,17,19,21,23,25,27,29,31,33,35,37,39,41,43,45,47,49,51,53,55,57,59,61,63,65,67,69,71,73,75,77,79,81,83,85,87,89,91,93,95,97,99,101,103,105,107,109,111,113,115,117,119,121,123,125,-1,-1,-1,-1,-1,-1,-1,-1,-1,-1,-1,-1,-1,-1,-1,-1,-1,-1,-1,-1,-1,-1,-1,-1,-1,-1,-1,-1,-1,-1,-1,-1,-1,-1,-1,-1,-1,-1,-1,-1,-1,-1,-1,-1,-1,-1,-1,-1,-1,-1,-1,-1,-1,-1,-1,-1,-1,-1,-1,-1,-1,-1,-1,-1],"loss_changes":[3.971383E3,4.9528137E2,3.730078E2,1.2442334E2,2.8203485E2,3.1877454E2,4.6948975E1,2.4695557E1,6.78988E1,4.4210693E1,4.0592327E1,4.0888958E1,6.3506287E1,5.139395E1,1.4587524E1,1.5237427E1,1.2470428E1,4.844861E1,2.5376146E1,3.6674683E1,4.0075344E1,2.6863785E1,1.043062E1,3.699894E1,1.5331934E1,1.427437E1,2.0021729E1,1.2635597E1,7.768158E0,4.8192644E0,8.829346E0,8.858276E0,5.075577E0,2.2662303E0,9.97522E0,9.786011E0,2.3593353E1,1.4308172E1,6.203911E0,8.97641E0,1.5337227E1,1.2901344E1,2.2350851E1,2.8359196E1,1.3797218E1,4.371442E0,4.319978E0,2.7426838E1,2.055558E1,4.621626E0,1.0442112E1,7.779963E0,7.7241974E0,1.2090973E1,7.272949E0,9.899124E0,2.2823524E0,5.652954E0,3.9641418E0,2.9584088E0,1.0286908E0,5.8222656E0,1.0646648E1,0E0,0E0,0E0,0E0,0E0,0E0,0E0,0E0,0E0,0E0,0E0,0E0,0E0,0E0,0E0,0E0,0E0,0E0,0E0,0E0,0E0,0E0,0E0,0E0,0E0,0E0,0E0,0E0,0E0,0E0,0E0,0E0,0E0,0E0,0E0,0E0,0E0,0E0,0E0,0E0,0E0,0E0,0E0,0E0,0E0,0E0,0E0,0E0,0E0,0E0,0E0,0E0,0E0,0E0,0E0,0E0,0E0,0E0,0E0,0E0,0E0,0E0,0E0,0E0],"parents":[2147483647,0,0,1,1,2,2,3,3,4,4,5,5,6,6,7,7,8,8,9,9,10,10,11,11,12,12,13,13,14,14,15,15,16,16,17,17,18,18,19,19,20,20,21,21,22,22,23,23,24,24,25,25,26,26,27,27,28,28,29,29,30,30,31,31,32,32,33,33,34,34,35,35,36,36,37,37,38,38,39,39,40,40,41,41,42,42,43,43,44,44,45,45,46,46,47,47,48,48,49,49,50,50,51,51,52,52,53,53,54,54,55,55,56,56,57,57,58,58,59,59,60,60,61,61,62,62],"right_children":[2,4,6,8,10,12,14,16,18,20,22,24,26,28,30,32,34,36,38,40,42,44,46,48,50,52,54,56,58,60,62,64,66,68,70,72,74,76,78,80,82,84,86,88,90,92,94,96,98,100,102,104,106,108,110,112,114,116,118,120,122,124,126,-1,-1,-1,-1,-1,-1,-1,-1,-1,-1,-1,-1,-1,-1,-1,-1,-1,-1,-1,-1,-1,-1,-1,-1,-1,-1,-1,-1,-1,-1,-1,-1,-1,-1,-1,-1,-1,-1,-1,-1,-1,-1,-1,-1,-1,-1,-1,-1,-1,-1,-1,-1,-1,-1,-1,-1,-1,-1,-1,-1,-1,-1,-1,-1],"split_conditions":[6.745062E-1,6.134548E0,1.2758883E1,4.2261827E-1,3.8268343E-1,-2.5881904E-1,-7.6604444E-1,7.786765E0,5.215614E0,-3.8268343E-1,5.3729963E-1,2.5782284E1,2.3261485E-1,1.5403E1,8.217436E-2,1.0080398E3,9.852947E2,5.222649E-1,3.8268343E-1,1.0427982E1,1.0445304E-1,3.3080113E-1,8.220205E0,-7.372773E-1,-8.5341334E-1,2.82469E1,1.0587283E1,6.095877E-1,1.68298E1,3.007058E-1,2.4333225E1,-9.063078E-1,1.4126751E0,-4.5370308E-1,9.66127E-2,2.1643962E-1,-8.7155744E-2,-9.906923E-1,-6.007545E-1,4.617486E-1,1.0907513E1,9.834791E0,6.9868083E0,8.588077E-1,7.1556187E0,9.248026E-1,7.187919E-1,7.350842E-1,1.081555E1,1.1440385E1,1.644476E1,4.617486E-1,8.7155744E-2,1.7364818E-1,5E-1,2.4967634E1,7.0616484E-1,1.6615551E1,2.9508932E1,7.801895E-1,-9.99833E-1,-4.617486E-1,1.1813874E0,-1.3349756E-2,-1.5996298E-2,-8.939617E-3,4.6056025E-3,1.3115001E-2,-1.7190015E-2,-1.3571638E-2,-9.664478E-3,-1.1329819E-2,-1.5322412E-2,-2.9149596E-3,-1.0240102E-2,1.6591031E-2,-8.469903E-4,-1.04403095E-2,-4.40473E-3,-1.2426052E-2,-7.7087157E-3,-6.240587E-3,5.1752925E-3,-9.335328E-3,-2.568608E-3,-3.9430866E-3,3.8712271E-3,-1.8686121E-3,6.4013633E-3,6.0039945E-3,1.2313976E-2,-2.2896323E-3,-8.505612E-3,6.0594487E-3,-3.5254918E-3,-2.662786E-3,7.2073825E-3,2.844378E-3,1.057917E-2,-9.893504E-5,8.910271E-3,-6.5880152E-3,5.290801E-3,-1.4124481E-3,5.327978E-3,3.669704E-3,1.3305686E-2,1.313208E-2,7.588683E-3,1.6316568E-2,1.2802471E-2,6.675227E-3,-1.1497353E-3,1.8016624E-3,1.4081811E-2,1.6950587E-2,9.890777E-3,1.6976984E-2,-1.3529609E-2,-1.3074524E-2,2.8180182E-3,-1.4760955E-2,1.676475E-2,1.4864332E-2,1.7220935E-2,9.909606E-4,1.4356081E-2],"split_indices":[16,0,4,40,40,40,40,36,28,40,41,11,9,4,8,13,13,9,41,36,8,8,1,40,9,11,1,8,4,41,31,41,38,42,42,41,41,42,9,41,18,36,4,5,4,42,42,5,4,28,36,40,40,41,41,11,34,11,11,38,42,40,15,0,0,0,0,0,0,0,0,0,0,0,0,0,0,0,0,0,0,0,0,0,0,0,0,0,0,0,0,0,0,0,0,0,0,0,0,0,0,0,0,0,0,0,0,0,0,0,0,0,0,0,0,0,0,0,0,0,0,0,0,0,0,0,0],"split_type":[0,0,0,0,0,0,0,0,0,0,0,0,0,0,0,0,0,0,0,0,0,0,0,0,0,0,0,0,0,0,0,0,0,0,0,0,0,0,0,0,0,0,0,0,0,0,0,0,0,0,0,0,0,0,0,0,0,0,0,0,0,0,0,0,0,0,0,0,0,0,0,0,0,0,0,0,0,0,0,0,0,0,0,0,0,0,0,0,0,0,0,0,0,0,0,0,0,0,0,0,0,0,0,0,0,0,0,0,0,0,0,0,0,0,0,0,0,0,0,0,0,0,0,0,0,0,0],"sum_hessian":[1.16924E5,6.7196E4,4.9728E4,3.8473E4,2.8723E4,2.4718E4,2.501E4,2.3276E4,1.5197E4,1.7672E4,1.1051E4,1.157E4,1.3148E4,6.991E3,1.8019E4,1.664E4,6.636E3,1.0649E4,4.548E3,1.0306E4,7.366E3,7.985E3,3.066E3,8.011E3,3.559E3,2.609E3,1.0539E4,3.037E3,3.954E3,1.65E2,1.7854E4,1.6036E4,6.04E2,6.6E1,6.57E3,6.227E3,4.422E3,2.817E3,1.731E3,6.165E3,4.141E3,3.699E3,3.667E3,4.148E3,3.837E3,2.394E3,6.72E2,4.487E3,3.524E3,6.83E2,2.876E3,1.711E3,8.98E2,3.974E3,6.565E3,2.452E3,5.85E2,1.323E3,2.631E3,1.19E2,4.6E1,1.6884E4,9.7E2,4.404E3,1.1632E4,5.25E2,7.9E1,6E1,6E0,3.22E3,3.35E3,3.383E3,2.844E3,2.374E3,2.048E3,1.22E2,2.695E3,9.66E2,7.65E2,4.886E3,1.279E3,3.823E3,3.18E2,2.751E3,9.48E2,1.923E3,1.744E3,2.017E3,2.131E3,2.512E3,1.325E3,2.067E3,3.27E2,5.21E2,1.51E2,3.614E3,8.73E2,2.04E3,1.484E3,4.82E2,2.01E2,2.678E3,1.98E2,8.45E2,8.66E2,3.29E2,5.69E2,2.15E3,1.824E3,4.278E3,2.287E3,1.942E3,5.1E2,4.1E1,5.44E2,4.18E2,9.05E2,2.621E3,1E1,4.9E1,7E1,2E0,4.4E1,3.326E3,1.3558E4,1.84E2,7.86E2],"tree_param":{"num_deleted":"0","num_feature":"44","num_nodes":"127","size_leaf_vector":"1"}},{"base_weights":[-3.4273314E-4,-1.5766339E-1,1.9648455E-1,-2.2463138E-1,-6.325167E-2,1.0526949E-1,2.816602E-1,-2.4919006E-1,-1.571449E-1,-1.9424792E-1,-4.3331176E-2,3.375318E-2,1.5995607E-1,2.3263109E-1,3.0876416E-1,-2.5920495E-1,-1.2908643E-1,-2.3636328E-1,-1.18970364E-1,-2.1708515E-1,-1.4652686E-1,-8.918033E-2,4.646078E-3,1.051749E-1,-6.4392234E-3,2.4991062E-1,1.270193E-1,9.064997E-2,2.511083E-1,2.0261377E-1,3.1247547E-1,-2.8118533E-1,-2.2787443E-1,-1.8508042E-1,-3.8424898E-2,-1.863945E-1,-2.7887237E-1,-1.5440561E-1,-3.992423E-2,-2.2066914E-1,1.6368504E-1,-2.8980353E-1,-1.2252364E-1,-4.3640144E-2,-1.3232008E-1,-3.511743E-2,5.190952E-2,-2.8174732E-2,1.7265582E-1,8.896415E-2,-4.8082065E-2,2.2742542E-2,2.634307E-1,1.4072713E-1,-1.193286E-1,2.0487708E-1,2.6883595E-2,2.5873888E-1,4.261774E-2,-4.1126108E-1,2.4825591E-1,3.159401E-1,2.4075146E-1,-1.3289645E-2,-1.5519588E-2,-2.2399593E-3,-1.174557E-2,-1.1156558E-2,-5.703177E-3,3.0033495E-3,-7.371254E-3,-1.0142169E-2,1.914698E-2,-1.4263311E-2,1.0870901E-3,-5.284521E-3,-9.777491E-3,1.3555362E-3,-5.1320666E-3,-1.1664572E-2,-6.3466355E-3,2.1690486E-2,-1.5235498E-2,-7.1367198E-3,-1.634423E-2,2.0842018E-2,-6.4223334E-3,1.4207994E-4,-7.390266E-3,-7.739918E-3,-2.17203E-3,-5.3737373E-3,3.9117923E-4,1.107846E-2,1.8673207E-3,-5.5295513E-3,1.8062888E-3,-4.167181E-4,1.0022736E-2,6.136203E-3,-2.0248916E-3,2.9988675E-3,-4.4995816E-3,1.9367484E-2,-1.3635382E-3,1.094048E-2,1.5285285E-2,3.4884606E-3,9.414257E-3,1.8522775E-2,-7.072465E-3,1.0208098E-3,1.1990936E-2,-1.979741E-3,1.2948357E-2,1.0326567E-2,1.4072749E-2,4.781888E-3,-1.2997716E-2,1.3016175E-2,-2.2618813E-2,1.3453892E-2,-1.43048465E-2,1.0405864E-2,1.5914597E-2,1.3598526E-2,-4.913238E-3],"categories":[],"categories_nodes":[],"categories_segments":[],"categories_sizes":[],"default_left":[0,0,0,0,0,0,0,0,0,0,0,0,0,0,0,0,0,0,0,0,0,0,0,0,0,0,0,0,0,0,0,0,0,0,0,0,0,0,0,0,0,0,0,0,0,0,0,0,0,0,0,0,0,0,0,0,0,0,0,0,0,0,0,0,0,0,0,0,0,0,0,0,0,0,0,0,0,0,0,0,0,0,0,0,0,0,0,0,0,0,0,0,0,0,0,0,0,0,0,0,0,0,0,0,0,0,0,0,0,0,0,0,0,0,0,0,0,0,0,0,0,0,0,0,0,0,0],"id":7,"left_children":[1,3,5,7,9,11,13,15,17,19,21,23,25,27,29,31,33,35,37,39,41,43,45,47,49,51,53,55,57,59,61,63,65,67,69,71,73,75,77,79,81,83,85,87,89,91,93,95,97,99,101,103,105,107,109,111,113,115,117,119,121,123,125,-1,-1,-1,-1,-1,-1,-1,-1,-1,-1,-1,-1,-1,-1,-1,-1,-1,-1,-1,-1,-1,-1,-1,-1,-1,-1,-1,-1,-1,-1,-1,-1,-1,-1,-1,-1,-1,-1,-1,-1,-1,-1,-1,-1,-1,-1,-1,-1,-1,-1,-1,-1,-1,-1,-1,-1,-1,-1,-1,-1,-1,-1,-1,-1],"loss_changes":[3.62018E3,4.1080713E2,4.0346912E2,6.2962646E1,7.0357E1,9.808203E1,3.56167E1,3.3488037E1,3.0651657E1,3.8468475E0,5.1489178E1,3.1201345E1,4.2075745E1,2.507013E1,6.7491455E0,1.7650269E1,1.0892139E1,6.9533997E0,1.9175217E1,3.3181686E0,3.936655E0,2.350843E1,2.1499823E1,3.5225216E1,2.7639542E1,1.1689636E1,3.5153366E1,8.028576E0,1.345282E1,1.6548994E1,4.0753174E0,6.711548E0,1.3659668E1,3.5604248E0,8.82281E0,1.4302963E1,3.4275055E0,9.455879E0,8.9199705E0,2.7898788E0,3.0422618E0,8.531656E-1,3.2194529E0,2.819894E1,1.227211E1,1.930523E1,1.290645E1,6.978018E0,1.30780945E1,9.244474E0,2.1938E1,3.931133E0,6.712677E0,3.3250458E1,6.0004683E0,2.5410213E0,1.0949092E1,9.623901E0,4.8375735E0,1.2498703E0,6.163044E0,3.974121E0,8.218563E0,0E0,0E0,0E0,0E0,0E0,0E0,0E0,0E0,0E0,0E0,0E0,0E0,0E0,0E0,0E0,0E0,0E0,0E0,0E0,0E0,0E0,0E0,0E0,0E0,0E0,0E0,0E0,0E0,0E0,0E0,0E0,0E0,0E0,0E0,0E0,0E0,0E0,0E0,0E0,0E0,0E0,0E0,0E0,0E0,0E0,0E0,0E0,0E0,0E0,0E0,0E0,0E0,0E0,0E0,0E0,0E0,0E0,0E0,0E0,0E0,0E0,0E0,0E0,0E0],"parents":[2147483647,0,0,1,1,2,2,3,3,4,4,5,5,6,6,7,7,8,8,9,9,10,10,11,11,12,12,13,13,14,14,15,15,16,16,17,17,18,18,19,19,20,20,21,21,22,22,23,23,24,24,25,25,26,26,27,27,28,28,29,29,30,30,31,31,32,32,33,33,34,34,35,35,36,36,37,37,38,38,39,39,40,40,41,41,42,42,43,43,44,44,45,45,46,46,47,47,48,48,49,49,50,50,51,51,52,52,53,53,54,54,55,55,56,56,57,57,58,58,59,59,60,60,61,61,62,62],"right_children":[2,4,6,8,10,12,14,16,18,20,22,24,26,28,30,32,34,36,38,40,42,44,46,48,50,52,54,56,58,60,62,64,66,68,70,72,74,76,78,80,82,84,86,88,90,92,94,96,98,100,102,104,106,108,110,112,114,116,118,120,122,124,126,-1,-1,-1,-1,-1,-1,-1,-1,-1,-1,-1,-1,-1,-1,-1,-1,-1,-1,-1,-1,-1,-1,-1,-1,-1,-1,-1,-1,-1,-1,-1,-1,-1,-1,-1,-1,-1,-1,-1,-1,-1,-1,-1,-1,-1,-1,-1,-1,-1,-1,-1,-1,-1,-1,-1,-1,-1,-1,-1,-1,-1,-1,-1,-1],"split_conditions":[6.246945E-1,6.7705526E0,1.2339666E1,2.2576263E-2,-6.1020184E-1,4.4106007E-1,1.473035E1,9.402522E-1,9.264661E-2,4.9460888E-1,7.397827E0,-8.1915206E-1,-3.4202015E-1,4.6151608E-1,9.9221466E2,4.704978E0,1.3718541E-1,-6.755902E-1,1.285739E-1,2.3261485E-1,2.5458474E0,3.007058E-1,1.00108435E3,-6.286197E-1,-8.769383E-1,9.9286145E2,2.686005E1,-5E-1,2.7968884E1,9.3176526E-1,2.3498425E1,4.617486E-1,-9.9039733E-1,4.3150377E0,5.3729963E-1,9.989315E-1,1.1957719E0,8.7155744E-2,4.0052648E0,8.88701E-1,6.166212E-1,9.9458966E2,9.8298706E2,8.6753434E-1,4.7937766E-1,1.2008002E0,-9.4175893E-1,2.8161165E1,8.539227E0,-7.572198E-1,1.8775333E1,1.1965008E0,1.00528436E3,-8.614352E-2,9.8298706E2,2.8770477E-1,3.8268343E-1,4.769688E-1,1.4049692E1,2.2949966E1,2.1489273E1,-4.6230483E-1,2.368761E0,-1.3289645E-2,-1.5519588E-2,-2.2399593E-3,-1.174557E-2,-1.1156558E-2,-5.703177E-3,3.0033495E-3,-7.371254E-3,-1.0142169E-2,1.914698E-2,-1.4263311E-2,1.0870901E-3,-5.284521E-3,-9.777491E-3,1.3555362E-3,-5.1320666E-3,-1.1664572E-2,-6.3466355E-3,2.1690486E-2,-1.5235498E-2,-7.1367198E-3,-1.634423E-2,2.0842018E-2,-6.4223334E-3,1.4207994E-4,-7.390266E-3,-7.739918E-3,-2.17203E-3,-5.3737373E-3,3.9117923E-4,1.107846E-2,1.8673207E-3,-5.5295513E-3,1.8062888E-3,-4.167181E-4,1.0022736E-2,6.136203E-3,-2.0248916E-3,2.9988675E-3,-4.4995816E-3,1.9367484E-2,-1.3635382E-3,1.094048E-2,1.5285285E-2,3.4884606E-3,9.414257E-3,1.8522775E-2,-7.072465E-3,1.0208098E-3,1.1990936E-2,-1.979741E-3,1.2948357E-2,1.0326567E-2,1.4072749E-2,4.781888E-3,-1.2997716E-2,1.3016175E-2,-2.2618813E-2,1.3453892E-2,-1.43048465E-2,1.0405864E-2,1.5914597E-2,1.3598526E-2,-4.913238E-3],"split_indices":[16,26,4,43,8,8,4,5,8,38,0,41,41,29,13,1,42,41,16,9,35,41,13,8,9,13,11,41,11,34,0,41,42,35,41,42,5,41,35,42,42,13,13,9,43,7,42,11,4,43,11,35,13,32,13,29,41,8,30,11,35,43,34,0,0,0,0,0,0,0,0,0,0,0,0,0,0,0,0,0,0,0,0,0,0,0,0,0,0,0,0,0,0,0,0,0,0,0,0,0,0,0,0,0,0,0,0,0,0,0,0,0,0,0,0,0,0,0,0,0,0,0,0,0,0,0,0],"split_type":[0,0,0,0,0,0,0,0,0,0,0,0,0,0,0,0,0,0,0,0,0,0,0,0,0,0,0,0,0,0,0,0,0,0,0,0,0,0,0,0,0,0,0,0,0,0,0,0,0,0,0,0,0,0,0,0,0,0,0,0,0,0,0,0,0,0,0,0,0,0,0,0,0,0,0,0,0,0,0,0,0,0,0,0,0,0,0,0,0,0,0,0,0,0,0,0,0,0,0,0,0,0,0,0,0,0,0,0,0,0,0,0,0,0,0,0,0,0,0,0,0,0,0,0,0,0,0],"sum_hessian":[1.1691E5,6.4976E4,5.1934E4,3.8012E4,2.6964E4,2.5079E4,2.6855E4,2.7868E4,1.0144E4,3.558E3,2.3406E4,1.0868E4,1.4211E4,9.564E3,1.7291E4,2.5722E4,2.146E3,3.297E3,6.847E3,2.404E3,1.154E3,1.1968E4,1.1438E4,3.913E3,6.955E3,3.807E3,1.0404E4,1.102E3,8.462E3,5.86E2,1.6705E4,1.5112E4,1.061E4,1.326E3,8.2E2,1.518E3,1.779E3,4.727E3,2.12E3,2.382E3,2.2E1,1.64E2,9.9E2,5.823E3,6.145E3,6.212E3,5.226E3,1.315E3,2.598E3,2.113E3,4.842E3,2.14E2,3.593E3,9.856E3,5.48E2,3.94E2,7.08E2,8.163E3,2.99E2,4E1,5.46E2,1.5932E4,7.73E2,9.903E3,5.209E3,3.93E2,1.0217E4,8.62E2,4.64E2,4.31E2,3.89E2,1.476E3,4.2E1,1.742E3,3.7E1,2.166E3,2.561E3,1.025E3,1.095E3,2.098E3,2.84E2,1.4E1,8E0,3.4E1,1.3E2,1E1,9.8E2,4.027E3,1.796E3,4.904E3,1.241E3,2.313E3,3.899E3,4.12E2,4.814E3,5.76E2,7.39E2,3.46E2,2.252E3,1.676E3,4.37E2,1.353E3,3.489E3,2.5E1,1.89E2,1.751E3,1.842E3,3.956E3,5.9E3,2.3E1,5.25E2,6.3E1,3.31E2,5.51E2,1.57E2,2.478E3,5.685E3,2.55E2,4.4E1,2E0,3.8E1,5.26E2,2E1,3.42E2,1.559E4,7.08E2,6.5E1],"tree_param":{"num_deleted":"0","num_feature":"44","num_nodes":"127","size_leaf_vector":"1"}},{"base_weights":[1.0633058E-3,-1.624853E-1,1.7191312E-1,-2.2306745E-1,-8.81094E-2,6.563485E-2,2.510336E-1,-2.7038875E-1,-1.7060766E-1,-1.5822269E-1,2.4055975E-2,-4.295483E-2,1.730976E-1,1.7494895E-1,2.9113108E-1,-2.8831875E-1,-2.2521819E-1,-2.1999332E-1,-1.10807516E-1,-1.92273E-1,-9.579139E-2,-7.890613E-2,4.9214434E-2,-8.4869646E-2,2.009873E-2,7.4122936E-2,2.1269256E-1,6.269285E-2,2.5631484E-1,1.101498E-1,2.9771608E-1,-2.937201E-1,-2.1286626E-1,1.1898374E-1,-2.3055553E-1,-2.5763616E-1,-1.23972274E-1,-1.2995258E-1,4.932787E-2,-2.381218E-1,-1.4354315E-1,-1.7030165E-1,-2.2438131E-2,-1.5965933E-1,3.3254206E-2,-8.062483E-4,8.454023E-2,-1.3511519E-1,-2.6632754E-2,8.85954E-2,-5.0961345E-2,-5.392908E-2,1.070712E-1,2.1797566E-1,-1.6410878E-1,1.11913115E-1,-2.7347928E-2,2.0205367E-1,3.0790687E-1,2.527587E-2,2.136169E-1,3.0173618E-1,1.502671E-1,-1.547675E-2,-1.372385E-2,-1.1977688E-2,1.00519685E-2,-1.5233706E-2,9.768349E-3,-1.3534732E-2,-9.99657E-3,-1.3072187E-2,5.447114E-3,-7.932918E-3,-2.1184972E-3,5.1384275E-3,-7.2047706E-3,-8.345415E-3,3.974712E-3,-1.3284701E-2,-1.01163415E-2,-1.1703276E-2,-6.37294E-3,-1.3454069E-2,-5.484287E-3,-2.8330905E-3,3.2989755E-3,-9.64059E-3,-6.5751147E-4,1.7017407E-2,4.1351846E-4,4.93004E-3,-2.2012282E-3,3.0679286E-3,9.1030365E-3,-8.027795E-3,-5.5471103E-4,1.4119645E-3,-4.572577E-3,1.1078193E-3,6.2554213E-3,1.8450853E-3,-3.8341712E-3,-1.4895859E-2,-1.8610925E-3,3.795759E-3,1.0781017E-2,1.2341488E-2,7.514161E-3,2.066601E-2,-1.3731882E-2,1.2489724E-3,8.102975E-3,-7.87223E-3,8.105406E-4,1.4953761E-2,8.747701E-3,1.5472881E-2,-9.681306E-3,5.762278E-3,-5.924867E-3,5.173638E-3,1.6805837E-2,1.5135819E-2,-3.1474107E-3,-1.8975036E-2,9.504682E-3],"categories":[],"categories_nodes":[],"categories_segments":[],"categories_sizes":[],"default_left":[0,0,0,0,0,0,0,0,0,0,0,0,0,0,0,0,0,0,0,0,0,0,0,0,0,0,0,0,0,0,0,0,0,0,0,0,0,0,0,0,0,0,0,0,0,0,0,0,0,0,0,0,0,0,0,0,0,0,0,0,0,0,0,0,0,0,0,0,0,0,0,0,0,0,0,0,0,0,0,0,0,0,0,0,0,0,0,0,0,0,0,0,0,0,0,0,0,0,0,0,0,0,0,0,0,0,0,0,0,0,0,0,0,0,0,0,0,0,0,0,0,0,0,0,0,0,0],"id":8,"left_children":[1,3,5,7,9,11,13,15,17,19,21,23,25,27,29,31,33,35,37,39,41,43,45,47,49,51,53,55,57,59,61,63,65,67,69,71,73,75,77,79,81,83,85,87,89,91,93,95,97,99,101,103,105,107,109,111,113,115,117,119,121,123,125,-1,-1,-1,-1,-1,-1,-1,-1,-1,-1,-1,-1,-1,-1,-1,-1,-1,-1,-1,-1,-1,-1,-1,-1,-1,-1,-1,-1,-1,-1,-1,-1,-1,-1,-1,-1,-1,-1,-1,-1,-1,-1,-1,-1,-1,-1,-1,-1,-1,-1,-1,-1,-1,-1,-1,-1,-1,-1,-1,-1,-1,-1,-1,-1],"loss_changes":[3.2749155E3,2.6979517E2,4.8199207E2,8.187537E1,2.1141145E2,2.8548627E2,1.0019507E2,1.39852295E1,4.6203125E1,3.5146667E1,2.6790876E1,3.2162895E1,4.817099E1,1.03588806E2,2.5610474E1,4.9971924E0,9.091782E0,3.095163E1,2.171843E1,2.3878479E1,3.1915112E1,1.84007E1,1.4685776E1,2.1386513E1,2.3659973E1,1.483588E1,1.7518005E1,2.1134031E1,1.8346893E1,6.642317E0,1.2260864E1,3.4400024E0,9.249565E0,2.5189104E0,5.9186707E0,8.622284E0,6.8316803E0,2.0835785E1,4.951225E0,5.3872986E0,7.528244E0,1.7316635E1,8.912214E0,5.7337456E0,6.526385E0,1.4787583E1,1.1000633E1,1.237915E1,1.2049256E1,6.0013027E0,5.3952374E0,2.923895E0,9.43959E0,1.6879578E1,7.899865E0,1.3436012E1,9.556857E0,8.382309E0,2.6801758E0,5.407648E0,4.5662107E0,7.243042E0,1.1739796E1,0E0,0E0,0E0,0E0,0E0,0E0,0E0,0E0,0E0,0E0,0E0,0E0,0E0,0E0,0E0,0E0,0E0,0E0,0E0,0E0,0E0,0E0,0E0,0E0,0E0,0E0,0E0,0E0,0E0,0E0,0E0,0E0,0E0,0E0,0E0,0E0,0E0,0E0,0E0,0E0,0E0,0E0,0E0,0E0,0E0,0E0,0E0,0E0,0E0,0E0,0E0,0E0,0E0,0E0,0E0,0E0,0E0,0E0,0E0,0E0,0E0,0E0,0E0,0E0],"parents":[2147483647,0,0,1,1,2,2,3,3,4,4,5,5,6,6,7,7,8,8,9,9,10,10,11,11,12,12,13,13,14,14,15,15,16,16,17,17,18,18,19,19,20,20,21,21,22,22,23,23,24,24,25,25,26,26,27,27,28,28,29,29,30,30,31,31,32,32,33,33,34,34,35,35,36,36,37,37,38,38,39,39,40,40,41,41,42,42,43,43,44,44,45,45,46,46,47,47,48,48,49,49,50,50,51,51,52,52,53,53,54,54,55,55,56,56,57,57,58,58,59,59,60,60,61,61,62,62],"right_children":[2,4,6,8,10,12,14,16,18,20,22,24,26,28,30,32,34,36,38,40,42,44,46,48,50,52,54,56,58,60,62,64,66,68,70,72,74,76,78,80,82,84,86,88,90,92,94,96,98,100,102,104,106,108,110,112,114,116,118,120,122,124,126,-1,-1,-1,-1,-1,-1,-1,-1,-1,-1,-1,-1,-1,-1,-1,-1,-1,-1,-1,-1,-1,-1,-1,-1,-1,-1,-1,-1,-1,-1,-1,-1,-1,-1,-1,-1,-1,-1,-1,-1,-1,-1,-1,-1,-1,-1,-1,-1,-1,-1,-1,-1,-1,-1,-1,-1,-1,-1,-1,-1,-1,-1,-1,-1],"split_conditions":[8.280032E0,1.5518567E-1,9.779741E-1,2.1643962E-1,4.2261827E-1,-1.3052619E-1,-6.4278764E-1,7.534278E0,3.1927735E-1,-2.1643962E-1,7.209524E0,-6.4278764E-1,5.935098E-1,1.4247467E1,-2.3811947E-1,7.501537E-1,9.8664044E2,3.3604558E0,8.862235E-1,9.062384E0,4.8612314E-1,4.8612314E-1,7.933533E-1,5.67009E-1,2.3450167E1,4.9493566E0,1.6305261E0,2.271905E1,1.68298E1,1.3052619E-1,9.6434206E-1,-4.617486E-1,2.450125E1,1.0427982E1,-5.802557E-2,1.3002075E1,4.3982115E0,-9.9039733E-1,7.036215E1,3.9196178E-1,-7.036774E-1,5.9785876E0,6.9868083E0,4.27695E0,-9.753364E-1,8.07255E-2,1.1727226E0,9.639717E1,2.653935E1,8.3250336E1,-9.189132E-1,1.7734075E0,2.8521935E1,7.187919E-1,1.3144417E1,8.2305504E1,8.787705E-1,1.5809549E1,2.9508932E1,1.1383498E0,2.7428867E1,2.8883018E1,-9.977069E-1,-1.547675E-2,-1.372385E-2,-1.1977688E-2,1.00519685E-2,-1.5233706E-2,9.768349E-3,-1.3534732E-2,-9.99657E-3,-1.3072187E-2,5.447114E-3,-7.932918E-3,-2.1184972E-3,5.1384275E-3,-7.2047706E-3,-8.345415E-3,3.974712E-3,-1.3284701E-2,-1.01163415E-2,-1.1703276E-2,-6.37294E-3,-1.3454069E-2,-5.484287E-3,-2.8330905E-3,3.2989755E-3,-9.64059E-3,-6.5751147E-4,1.7017407E-2,4.1351846E-4,4.93004E-3,-2.2012282E-3,3.0679286E-3,9.1030365E-3,-8.027795E-3,-5.5471103E-4,1.4119645E-3,-4.572577E-3,1.1078193E-3,6.2554213E-3,1.8450853E-3,-3.8341712E-3,-1.4895859E-2,-1.8610925E-3,3.795759E-3,1.0781017E-2,1.2341488E-2,7.514161E-3,2.066601E-2,-1.3731882E-2,1.2489724E-3,8.102975E-3,-7.87223E-3,8.105406E-4,1.4953761E-2,8.747701E-3,1.5472881E-2,-9.681306E-3,5.762278E-3,-5.924867E-3,5.173638E-3,1.6805837E-2,1.5135819E-2,-3.1474107E-3,-1.8975036E-2,9.504682E-3],"split_indices":[2,16,16,40,40,40,40,36,9,40,36,40,9,4,9,43,13,35,43,36,9,9,40,5,11,35,5,11,4,40,9,40,11,36,42,36,35,42,12,24,42,33,4,35,42,14,5,12,11,12,9,35,11,42,11,12,34,11,11,15,11,11,42,0,0,0,0,0,0,0,0,0,0,0,0,0,0,0,0,0,0,0,0,0,0,0,0,0,0,0,0,0,0,0,0,0,0,0,0,0,0,0,0,0,0,0,0,0,0,0,0,0,0,0,0,0,0,0,0,0,0,0,0,0,0,0,0],"split_type":[0,0,0,0,0,0,0,0,0,0,0,0,0,0,0,0,0,0,0,0,0,0,0,0,0,0,0,0,0,0,0,0,0,0,0,0,0,0,0,0,0,0,0,0,0,0,0,0,0,0,0,0,0,0,0,0,0,0,0,0,0,0,0,0,0,0,0,0,0,0,0,0,0,0,0,0,0,0,0,0,0,0,0,0,0,0,0,0,0,0,0,0,0,0,0,0,0,0,0,0,0,0,0,0,0,0,0,0,0,0,0,0,0,0,0,0,0,0,0,0,0,0,0,0,0,0,0],"sum_hessian":[1.17201E5,5.988E4,5.7321E4,3.2999E4,2.6881E4,2.4463E4,3.2858E4,1.7347E4,1.5652E4,1.6541E4,1.034E4,1.2168E4,1.2295E4,1.1342E4,2.1516E4,1.2414E4,4.933E3,8.571E3,7.081E3,1.0702E4,5.839E3,2.03E3,8.31E3,7.309E3,4.859E3,3.514E3,8.781E3,4.767E3,6.575E3,7.56E2,2.076E4,1.1582E4,8.32E2,7.5E1,4.858E3,6.156E3,2.415E3,6.325E3,7.56E2,5.512E3,5.19E3,2.896E3,2.943E3,1.18E3,8.5E2,3.44E3,4.87E3,3.923E3,3.386E3,2.474E3,2.385E3,7.19E2,2.795E3,8.66E3,1.21E2,3.082E3,1.685E3,3.207E3,3.368E3,4.16E2,3.4E2,2.0208E4,5.52E2,6.349E3,5.233E3,7.82E2,5E1,1.1E1,6.4E1,2.099E3,2.759E3,6.093E3,6.3E1,1.694E3,7.21E2,3.62E2,5.963E3,9.2E1,6.64E2,3.11E3,2.402E3,7.81E2,4.409E3,1.1E3,1.796E3,2.122E3,8.21E2,9.62E2,2.18E2,6.3E1,7.87E2,1.042E3,2.398E3,3.936E3,9.34E2,3.255E3,6.68E2,1.834E3,1.552E3,8.78E2,1.596E3,5.4E2,1.845E3,4.5E1,6.74E2,2.173E3,6.22E2,6.07E3,2.59E3,1.9E1,1.02E2,1.128E3,1.954E3,4.22E2,1.263E3,6.98E2,2.509E3,3.358E3,1E1,2.56E2,1.6E2,1.8E2,1.6E2,2.0154E4,5.4E1,3.8E1,5.14E2],"tree_param":{"num_deleted":"0","num_feature":"44","num_nodes":"127","size_leaf_vector":"1"}},{"base_weights":[6.329764E-5,-1.333598E-1,1.8900202E-1,-2.0500277E-1,-5.093646E-2,1.06805556E-1,2.53578E-1,-2.271706E-1,-1.4299694E-1,-1.7498142E-1,-3.2751594E-2,1.3899396E-1,9.643899E-3,2.0687999E-1,2.78205E-1,-2.51253E-1,-1.9146387E-1,-2.1131371E-1,-1.10124394E-1,-2.1020047E-1,-1.433159E-1,-8.067494E-2,1.385608E-2,7.2413534E-2,1.6689904E-1,-2.7335854E-2,1.0809679E-1,7.561509E-2,2.2223477E-1,1.8283795E-1,2.8287524E-1,-2.528771E-1,-1.653141E-2,-2.0567517E-1,-1.0854258E-1,-2.1902311E-1,5.238239E-2,-1.3615935E-1,-1.922159E-2,-2.1595344E-1,2.7593416E-1,9.984183E-2,-1.5082042E-1,-6.953895E-2,-1.6825664E-1,-1.636269E-2,5.159121E-2,8.465587E-2,-1.8141368E-1,8.843362E-2,1.9612667E-1,-9.9805176E-2,3.4724142E-2,1.301079E-1,-7.172462E-5,-8.630959E-2,1.062639E-1,8.378538E-2,2.3697801E-1,5.0793838E-2,2.522799E-1,2.864806E-1,2.0805965E-1,-1.2900083E-2,-1.0256886E-2,7.773594E-3,-7.6389774E-3,-2.181187E-3,-1.05844475E-2,-8.190357E-3,-1.3189695E-3,-1.2665793E-2,-8.600657E-3,1.7134175E-2,-3.2271964E-3,-1.2870009E-2,-5.7835006E-3,-3.0738476E-3,6.111679E-3,-1.1844712E-2,-7.4877697E-3,-1.4205559E-2,2.2364315E-2,9.226083E-3,-8.5511375E-3,-7.85864E-3,7.385177E-3,-4.131606E-3,6.9523696E-4,-1.0572382E-2,-3.2549233E-3,-2.7525127E-3,9.3571254E-4,-1.7453295E-3,4.923657E-3,1.5050555E-3,6.467371E-3,1.6830647E-2,-1.2212024E-2,-1.1060865E-3,6.8610758E-3,1.1028114E-2,4.720673E-3,-1.26893865E-2,-3.9800936E-3,2.4990828E-3,-1.0108197E-2,1.2414156E-3,8.25868E-3,-1.7422652E-3,1.5436026E-2,2.8373844E-3,-1.0407757E-2,-1.8680816E-3,6.667528E-3,7.362127E-3,-2.2431118E-3,9.6571E-3,1.2728213E-2,-3.977462E-3,8.7314425E-3,3.7257434E-3,1.3624254E-2,1.44035695E-2,8.390176E-3,1.1685086E-2,-3.2309399E-3],"categories":[],"categories_nodes":[],"categories_segments":[],"categories_sizes":[],"default_left":[0,0,0,0,0,0,0,0,0,0,0,0,0,0,0,0,0,0,0,0,0,0,0,0,0,0,0,0,0,0,0,0,0,0,0,0,0,0,0,0,0,0,0,0,0,0,0,0,0,0,0,0,0,0,0,0,0,0,0,0,0,0,0,0,0,0,0,0,0,0,0,0,0,0,0,0,0,0,0,0,0,0,0,0,0,0,0,0,0,0,0,0,0,0,0,0,0,0,0,0,0,0,0,0,0,0,0,0,0,0,0,0,0,0,0,0,0,0,0,0,0,0,0,0,0,0,0],"id":9,"left_children":[1,3,5,7,9,11,13,15,17,19,21,23,25,27,29,31,33,35,37,39,41,43,45,47,49,51,53,55,57,59,61,63,65,67,69,71,73,75,77,79,81,83,85,87,89,91,93,95,97,99,101,103,105,107,109,111,113,115,117,119,121,123,125,-1,-1,-1,-1,-1,-1,-1,-1,-1,-1,-1,-1,-1,-1,-1,-1,-1,-1,-1,-1,-1,-1,-1,-1,-1,-1,-1,-1,-1,-1,-1,-1,-1,-1,-1,-1,-1,-1,-1,-1,-1,-1,-1,-1,-1,-1,-1,-1,-1,-1,-1,-1,-1,-1,-1,-1,-1,-1,-1,-1,-1,-1,-1,-1],"loss_changes":[2.9508657E3,4.051234E2,2.571361E2,5.0418457E1,7.196369E1,6.667023E1,3.1145142E1,2.3200195E1,2.1690872E1,4.5188904E0,6.2155388E1,2.9739014E1,1.9320848E1,1.8872864E1,7.8587646E0,6.1497803E0,1.2815399E1,6.394867E0,1.5451607E1,5.4544525E0,3.9401665E0,1.3369537E1,1.6088327E1,1.4716648E1,2.5858612E1,1.7354612E1,3.4499454E0,4.8876014E0,1.7105743E1,7.616129E0,4.50708E0,3.8691406E0,2.648487E0,9.05304E0,7.242655E0,4.874954E0,3.0770636E0,1.2579742E1,8.704397E0,2.6080856E0,2.3342729E0,1.5224471E0,3.9808617E0,1.3301758E1,6.8789024E0,1.0633449E1,2.544566E1,1.1001854E1,7.177233E0,1.6529524E1,2.0409363E1,5.5173016E0,7.524281E0,4.440708E0,2.6522593E0,2.7484627E0,3.2222881E0,6.6109676E0,5.7958984E0,4.66251E0,1.9372101E0,3.0003662E0,5.482876E0,0E0,0E0,0E0,0E0,0E0,0E0,0E0,0E0,0E0,0E0,0E0,0E0,0E0,0E0,0E0,0E0,0E0,0E0,0E0,0E0,0E0,0E0,0E0,0E0,0E0,0E0,0E0,0E0,0E0,0E0,0E0,0E0,0E0,0E0,0E0,0E0,0E0,0E0,0E0,0E0,0E0,0E0,0E0,0E0,0E0,0E0,0E0,0E0,0E0,0E0,0E0,0E0,0E0,0E0,0E0,0E0,0E0,0E0,0E0,0E0,0E0,0E0,0E0,0E0],"parents":[2147483647,0,0,1,1,2,2,3,3,4,4,5,5,6,6,7,7,8,8,9,9,10,10,11,11,12,12,13,13,14,14,15,15,16,16,17,17,18,18,19,19,20,20,21,21,22,22,23,23,24,24,25,25,26,26,27,27,28,28,29,29,30,30,31,31,32,32,33,33,34,34,35,35,36,36,37,37,38,38,39,39,40,40,41,41,42,42,43,43,44,44,45,45,46,46,47,47,48,48,49,49,50,50,51,51,52,52,53,53,54,54,55,55,56,56,57,57,58,58,59,59,60,60,61,61,62,62],"right_children":[2,4,6,8,10,12,14,16,18,20,22,24,26,28,30,32,34,36,38,40,42,44,46,48,50,52,54,56,58,60,62,64,66,68,70,72,74,76,78,80,82,84,86,88,90,92,94,96,98,100,102,104,106,108,110,112,114,116,118,120,122,124,126,-1,-1,-1,-1,-1,-1,-1,-1,-1,-1,-1,-1,-1,-1,-1,-1,-1,-1,-1,-1,-1,-1,-1,-1,-1,-1,-1,-1,-1,-1,-1,-1,-1,-1,-1,-1,-1,-1,-1,-1,-1,-1,-1,-1,-1,-1,-1,-1,-1,-1,-1,-1,-1,-1,-1,-1,-1,-1,-1,-1,-1,-1,-1,-1],"split_conditions":[9.394567E0,6.6590643E0,9.991991E-1,2.2576263E-2,-6.286197E-1,2.5782284E1,1.5541517E1,4.7777467E0,9.264661E-2,-8.4015965E-1,3.836398E-1,4.480796E-1,4.967716E0,1.1487712E0,1.1438543E0,1.31703E1,9.046327E-1,1.0346129E0,8.9212644E-1,2.3261485E-1,1.1272125E0,9.412606E-1,4.514212E-1,9.9732864E-1,-1.9940357E0,9.1192114E-1,-7.572198E-1,6.2886184E-1,4.314798E-1,9.329755E-1,2.3498425E1,6.731561E-1,3.897289E-1,-9.9039733E-1,1.3718541E-1,8.769677E-1,7.785926E1,3.939321E-1,1.1226339E0,6.944521E-1,5.3518233E0,7.5615625E0,9.917834E1,6.90574E-1,7.659254E-1,6.7763615E-1,-1.878583E0,6.4770386E-2,7.381112E1,2.676352E0,9.039462E-1,1.1295851E0,9.8071295E-1,-9.86324E-1,9.6550715E-1,3.5011554E-1,-6.1020184E-1,4.266741E-1,4.7995305E-1,8.000685E-2,5.1712263E-2,9.9675065E-1,1.9024281E-1,-1.2900083E-2,-1.0256886E-2,7.773594E-3,-7.6389774E-3,-2.181187E-3,-1.05844475E-2,-8.190357E-3,-1.3189695E-3,-1.2665793E-2,-8.600657E-3,1.7134175E-2,-3.2271964E-3,-1.2870009E-2,-5.7835006E-3,-3.0738476E-3,6.111679E-3,-1.1844712E-2,-7.4877697E-3,-1.4205559E-2,2.2364315E-2,9.226083E-3,-8.5511375E-3,-7.85864E-3,7.385177E-3,-4.131606E-3,6.9523696E-4,-1.0572382E-2,-3.2549233E-3,-2.7525127E-3,9.3571254E-4,-1.7453295E-3,4.923657E-3,1.5050555E-3,6.467371E-3,1.6830647E-2,-1.2212024E-2,-1.1060865E-3,6.8610758E-3,1.1028114E-2,4.720673E-3,-1.26893865E-2,-3.9800936E-3,2.4990828E-3,-1.0108197E-2,1.2414156E-3,8.25868E-3,-1.7422652E-3,1.5436026E-2,2.8373844E-3,-1.0407757E-2,-1.8680816E-3,6.667528E-3,7.362127E-3,-2.2431118E-3,9.6571E-3,1.2728213E-2,-3.977462E-3,8.7314425E-3,3.7257434E-3,1.3624254E-2,1.44035695E-2,8.390176E-3,1.1685086E-2,-3.2309399E-3],"split_indices":[2,26,16,43,8,11,2,1,8,8,16,8,10,15,15,36,5,5,43,9,15,9,8,43,39,29,43,29,29,29,17,5,8,42,42,9,12,29,39,42,20,25,12,43,38,5,39,27,12,10,42,15,9,43,42,8,8,42,8,37,8,42,37,0,0,0,0,0,0,0,0,0,0,0,0,0,0,0,0,0,0,0,0,0,0,0,0,0,0,0,0,0,0,0,0,0,0,0,0,0,0,0,0,0,0,0,0,0,0,0,0,0,0,0,0,0,0,0,0,0,0,0,0,0,0,0,0],"split_type":[0,0,0,0,0,0,0,0,0,0,0,0,0,0,0,0,0,0,0,0,0,0,0,0,0,0,0,0,0,0,0,0,0,0,0,0,0,0,0,0,0,0,0,0,0,0,0,0,0,0,0,0,0,0,0,0,0,0,0,0,0,0,0,0,0,0,0,0,0,0,0,0,0,0,0,0,0,0,0,0,0,0,0,0,0,0,0,0,0,0,0,0,0,0,0,0,0,0,0,0,0,0,0,0,0,0,0,0,0,0,0,0,0,0,0,0,0,0,0,0,0,0,0,0,0,0,0],"sum_hessian":[1.17055E5,6.8607E4,4.8448E4,3.6703E4,3.1904E4,2.1317E4,2.7131E4,2.7035E4,9.668E3,4.078E3,2.7826E4,1.6012E4,5.305E3,9.371E3,1.776E4,1.6142E4,1.0893E4,3.139E3,6.529E3,1.928E3,2.15E3,1.3719E4,1.4107E4,4.73E3,1.1282E4,3.857E3,1.448E3,9.82E2,8.389E3,8.31E2,1.6929E4,1.6031E4,1.11E2,9.298E3,1.595E3,3.05E3,8.9E1,5.075E3,1.454E3,1.906E3,2.2E1,6.4E1,2.086E3,1.2173E4,1.546E3,7.834E3,6.273E3,4.513E3,2.17E2,3.063E3,8.219E3,1.779E3,2.078E3,1.203E3,2.45E2,1.56E2,8.26E2,8.08E2,7.581E3,2.87E2,5.44E2,1.6148E4,7.81E2,1.4473E4,1.558E3,4.9E1,6.2E1,3.33E2,8.965E3,9.53E2,6.42E2,1.761E3,1.289E3,2.5E1,6.4E1,7.32E2,4.343E3,1.12E3,3.34E2,1.446E3,4.6E2,5E0,1.7E1,4.9E1,1.5E1,2.043E3,4.3E1,1.0522E4,1.651E3,1.089E3,4.57E2,3.725E3,4.109E3,2.205E3,4.068E3,2.033E3,2.48E3,2.3E1,1.94E2,9.38E2,2.125E3,6.626E3,1.593E3,2.05E2,1.574E3,1.953E3,1.25E2,3.01E2,9.02E2,2.21E2,2.4E1,7.2E1,8.4E1,1.31E2,6.95E2,5.41E2,2.67E2,2.174E3,5.407E3,1.4E2,1.47E2,5.6E1,4.88E2,1.5933E4,2.15E2,7.14E2,6.7E1],"tree_param":{"num_deleted":"0","num_feature":"44","num_nodes":"127","size_leaf_vector":"1"}},{"base_weights":[-1.4703907E-4,-1.2717748E-1,1.7937885E-1,-1.8219723E-1,-2.9583266E-2,1.101281E-1,2.4149802E-1,-2.1293369E-1,-1.3299195E-1,-1.4763361E-1,-7.016238E-3,3.7684668E-2,1.4987631E-1,2.4619359E-1,1.3079838E-2,-2.3014697E-1,-1.6410504E-1,-1.5677346E-1,-6.7120865E-2,-1.9468032E-1,-1.1505386E-1,-3.862387E-2,3.1451747E-2,1.0422159E-1,-3.5414768E-3,2.3363449E-1,1.1936911E-1,2.0741576E-1,2.684649E-1,2.7855286E-1,-1.6480364E-1,-2.4367793E-1,-1.9829682E-1,-2.1941453E-1,-1.24716185E-1,-1.8136777E-1,-8.13867E-2,-1.593291E-1,-4.4946626E-2,-2.1542436E-1,-1.359437E-1,-1.5031847E-1,-7.010046E-2,-1.0250985E-1,-7.8794075E-4,7.093591E-2,-2.585051E-2,-9.379953E-3,1.6042495E-1,-4.580322E-2,9.150863E-2,4.8518807E-2,2.442917E-1,-6.724846E-2,1.3457343E-1,8.220404E-2,2.219734E-1,1.1528467E-1,2.708782E-1,-2.0330335E-1,3.2551962E-1,1.131049E-1,-3.324228E-1,-1.1491864E-2,-1.3619425E-2,3.7761473E-3,-1.0130872E-2,-8.7067485E-3,-1.2297525E-2,-3.1788682E-3,-8.544487E-3,-7.4403966E-4,-9.423187E-3,-4.4169868E-4,-6.6236756E-3,-9.468443E-3,8.3618256E-4,-4.058804E-3,1.70056E-3,-9.657567E-3,-1.51807545E-2,-7.7328295E-3,9.8924665E-3,-9.707483E-3,-6.525539E-3,-1.038351E-2,-2.3946417E-3,6.8130535E-6,-7.0430227E-3,-3.1449303E-3,3.0306901E-3,5.689266E-3,-1.5650481E-3,3.5573696E-3,-2.9245755E-3,-4.4246856E-3,2.870784E-3,9.299821E-3,4.2109145E-4,2.5908977E-3,-4.0876437E-3,-4.116036E-3,5.756099E-3,4.656705E-4,2.1613302E-2,1.0298827E-2,1.3749251E-2,-7.0145763E-3,5.4471893E-3,3.7211608E-3,8.694182E-3,6.426602E-3,-6.068537E-3,6.21587E-3,1.1885111E-2,1.1044675E-2,-1.7663894E-2,-5.397668E-4,1.3588237E-2,-2.9633192E-2,6.6873217E-3,1.7130852E-2,-2.7248578E-3,1.3979581E-2,-2.1303521E-2,-2.3220299E-2,1.7306518E-2],"categories":[],"categories_nodes":[],"categories_segments":[],"categories_sizes":[],"default_left":[0,0,0,0,0,0,0,0,0,0,0,0,0,0,0,0,0,0,0,0,0,0,0,0,0,0,0,0,0,0,0,0,0,0,0,0,0,0,0,0,0,0,0,0,0,0,0,0,0,0,0,0,0,0,0,0,0,0,0,0,0,0,0,0,0,0,0,0,0,0,0,0,0,0,0,0,0,0,0,0,0,0,0,0,0,0,0,0,0,0,0,0,0,0,0,0,0,0,0,0,0,0,0,0,0,0,0,0,0,0,0,0,0,0,0,0,0,0,0,0,0,0,0,0,0,0,0],"id":10,"left_children":[1,3,5,7,9,11,13,15,17,19,21,23,25,27,29,31,33,35,37,39,41,43,45,47,49,51,53,55,57,59,61,63,65,67,69,71,73,75,77,79,81,83,85,87,89,91,93,95,97,99,101,103,105,107,109,111,113,115,117,119,121,123,125,-1,-1,-1,-1,-1,-1,-1,-1,-1,-1,-1,-1,-1,-1,-1,-1,-1,-1,-1,-1,-1,-1,-1,-1,-1,-1,-1,-1,-1,-1,-1,-1,-1,-1,-1,-1,-1,-1,-1,-1,-1,-1,-1,-1,-1,-1,-1,-1,-1,-1,-1,-1,-1,-1,-1,-1,-1,-1,-1,-1,-1,-1,-1,-1],"loss_changes":[2.6639045E3,3.6731335E2,2.0819775E2,6.613147E1,6.5702324E1,6.5906006E1,2.7362915E1,2.2591919E1,2.634137E1,6.044304E0,2.5177267E1,2.2249338E1,3.7738373E1,2.153601E1,2.4365889E1,8.529541E0,1.5268433E1,2.2899902E1,9.120146E0,1.9421387E0,3.7005672E0,2.7476067E1,2.113388E1,1.98135E1,2.012526E1,7.7709045E0,3.0755035E1,1.6614685E1,5.838135E0,4.750841E0,1.4431683E1,5.4866333E0,7.0427246E0,3.464447E0,1.1571892E1,1.1005371E1,1.1273964E1,4.5777893E0,1.0300917E1,2.2867012E0,2.6852474E0,1.1128654E0,3.1398582E0,1.6643711E1,2.7233654E1,2.4229322E1,1.2070201E1,5.4374986E0,8.06773E0,1.2175E1,6.338914E0,3.245686E0,4.3299103E0,1.0529764E1,2.367952E1,8.994116E0,1.2525818E1,1.2350152E1,3.9058838E0,2.57271E0,1.246664E0,1.0621693E1,1.7445362E1,0E0,0E0,0E0,0E0,0E0,0E0,0E0,0E0,0E0,0E0,0E0,0E0,0E0,0E0,0E0,0E0,0E0,0E0,0E0,0E0,0E0,0E0,0E0,0E0,0E0,0E0,0E0,0E0,0E0,0E0,0E0,0E0,0E0,0E0,0E0,0E0,0E0,0E0,0E0,0E0,0E0,0E0,0E0,0E0,0E0,0E0,0E0,0E0,0E0,0E0,0E0,0E0,0E0,0E0,0E0,0E0,0E0,0E0,0E0,0E0,0E0,0E0,0E0,0E0],"parents":[2147483647,0,0,1,1,2,2,3,3,4,4,5,5,6,6,7,7,8,8,9,9,10,10,11,11,12,12,13,13,14,14,15,15,16,16,17,17,18,18,19,19,20,20,21,21,22,22,23,23,24,24,25,25,26,26,27,27,28,28,29,29,30,30,31,31,32,32,33,33,34,34,35,35,36,36,37,37,38,38,39,39,40,40,41,41,42,42,43,43,44,44,45,45,46,46,47,47,48,48,49,49,50,50,51,51,52,52,53,53,54,54,55,55,56,56,57,57,58,58,59,59,60,60,61,61,62,62],"right_children":[2,4,6,8,10,12,14,16,18,20,22,24,26,28,30,32,34,36,38,40,42,44,46,48,50,52,54,56,58,60,62,64,66,68,70,72,74,76,78,80,82,84,86,88,90,92,94,96,98,100,102,104,106,108,110,112,114,116,118,120,122,124,126,-1,-1,-1,-1,-1,-1,-1,-1,-1,-1,-1,-1,-1,-1,-1,-1,-1,-1,-1,-1,-1,-1,-1,-1,-1,-1,-1,-1,-1,-1,-1,-1,-1,-1,-1,-1,-1,-1,-1,-1,-1,-1,-1,-1,-1,-1,-1,-1,-1,-1,-1,-1,-1,-1,-1,-1,-1,-1,-1,-1,-1,-1,-1,-1],"split_conditions":[9.394567E0,6.625E0,1.3600217E1,5.1563683E0,-5.0826365E-1,3.998052E-1,2.7366692E1,2.2576263E-2,6.9827974E-2,-8.269354E-1,1.0015719E3,-8.1915206E-1,-5E-1,1.5126501E1,-4.5222808E-2,5.917301E0,2.3216446E-1,1.3601161E0,9.264661E-2,5.9437615E-1,3.452158E-1,1.1897067E0,7.0672655E-1,-6.286197E-1,4.967716E0,1.1403276E0,1.1479472E0,1.1482005E0,1.1336595E0,-8.660254E-1,1.0041879E3,4.2261827E-1,9.8664044E2,-7.6604444E-1,8.7155744E-2,-9.9039733E-1,2.1643962E-1,9.8112464E-1,1.8415479E-2,9.992733E2,-3.3323526E-2,-9.3160135E-1,4.0566607E0,-7.0710677E-1,5.741742E0,1.2429684E1,-6.4278764E-1,2.8219252E1,1.7598245E-1,1.8705133E1,-6.531601E-1,2.9508932E1,1.0045223E3,1.4550853E0,-7.681369E-2,1.4049692E1,5.049068E-1,1.718425E1,-9.605871E-1,2.1489273E1,9.961947E-1,2.6725767E1,1.2222239E0,-1.1491864E-2,-1.3619425E-2,3.7761473E-3,-1.0130872E-2,-8.7067485E-3,-1.2297525E-2,-3.1788682E-3,-8.544487E-3,-7.4403966E-4,-9.423187E-3,-4.4169868E-4,-6.6236756E-3,-9.468443E-3,8.3618256E-4,-4.058804E-3,1.70056E-3,-9.657567E-3,-1.51807545E-2,-7.7328295E-3,9.8924665E-3,-9.707483E-3,-6.525539E-3,-1.038351E-2,-2.3946417E-3,6.8130535E-6,-7.0430227E-3,-3.1449303E-3,3.0306901E-3,5.689266E-3,-1.5650481E-3,3.5573696E-3,-2.9245755E-3,-4.4246856E-3,2.870784E-3,9.299821E-3,4.2109145E-4,2.5908977E-3,-4.0876437E-3,-4.116036E-3,5.756099E-3,4.656705E-4,2.1613302E-2,1.0298827E-2,1.3749251E-2,-7.0145763E-3,5.4471893E-3,3.7211608E-3,8.694182E-3,6.426602E-3,-6.068537E-3,6.21587E-3,1.1885111E-2,1.1044675E-2,-1.7663894E-2,-5.397668E-4,1.3588237E-2,-2.9633192E-2,6.6873217E-3,1.7130852E-2,-2.7248578E-3,1.3979581E-2,-2.1303521E-2,-2.3220299E-2,1.7306518E-2],"split_indices":[2,2,2,0,8,8,36,43,43,8,13,41,41,4,32,31,8,7,8,42,38,7,42,8,10,15,15,15,15,41,13,41,13,41,41,42,41,42,37,13,43,43,30,41,35,36,41,11,14,11,42,11,13,29,32,30,29,30,43,35,41,11,15,0,0,0,0,0,0,0,0,0,0,0,0,0,0,0,0,0,0,0,0,0,0,0,0,0,0,0,0,0,0,0,0,0,0,0,0,0,0,0,0,0,0,0,0,0,0,0,0,0,0,0,0,0,0,0,0,0,0,0,0,0,0,0,0],"split_type":[0,0,0,0,0,0,0,0,0,0,0,0,0,0,0,0,0,0,0,0,0,0,0,0,0,0,0,0,0,0,0,0,0,0,0,0,0,0,0,0,0,0,0,0,0,0,0,0,0,0,0,0,0,0,0,0,0,0,0,0,0,0,0,0,0,0,0,0,0,0,0,0,0,0,0,0,0,0,0,0,0,0,0,0,0,0,0,0,0,0,0,0,0,0,0,0,0,0,0,0,0,0,0,0,0,0,0,0,0,0,0,0,0,0,0,0,0,0,0,0,0,0,0,0,0,0,0],"sum_hessian":[1.16809E5,6.8406E4,4.8403E4,4.3744E4,2.4662E4,2.2889E4,2.5514E4,2.6923E4,1.6821E4,3.957E3,2.0705E4,8.11E3,1.4779E4,2.5E4,5.14E2,1.9903E4,7.02E3,1.2358E4,4.463E3,1.617E3,2.34E3,1.1366E4,9.339E3,3.102E3,5.008E3,3.944E3,1.0835E4,9.124E3,1.5876E4,2.06E2,3.08E2,1.3964E4,5.939E3,2.918E3,4.102E3,9.317E3,3.041E3,8.64E2,3.599E3,1.193E3,4.24E2,1.31E3,1.03E3,4.227E3,7.139E3,5.529E3,3.81E3,1.027E3,2.075E3,3.467E3,1.541E3,2.15E2,3.729E3,8.16E2,1.0019E4,9.51E2,8.173E3,2.47E2,1.5629E4,1.8E1,1.88E2,1.16E2,1.92E2,9.428E3,4.536E3,9.2E1,5.847E3,1.081E3,1.837E3,1.766E3,2.336E3,3.81E2,8.936E3,1.257E3,1.784E3,7.38E2,1.26E2,2.467E3,1.132E3,9.55E2,2.38E2,4.02E2,2.2E1,4.05E2,9.05E2,1.42E2,8.88E2,1.15E3,3.077E3,3.549E3,3.59E3,3.896E3,1.633E3,9.59E2,2.851E3,4.7E2,5.57E2,1.776E3,2.99E2,9.33E2,2.534E3,1.84E2,1.357E3,1.96E2,1.9E1,1.662E3,2.067E3,5.77E2,2.39E2,3.961E3,6.058E3,7.75E2,1.76E2,1.135E3,7.038E3,2.02E2,4.5E1,4.9E1,1.558E4,8E0,1E1,1.8E2,8E0,8.9E1,2.7E1,1.61E2,3.1E1],"tree_param":{"num_deleted":"0","num_feature":"44","num_nodes":"127","size_leaf_vector":"1"}},{"base_weights":[-4.9681746E-4,-1.214614E-1,1.6835895E-1,-1.8314229E-1,-4.3312166E-2,1.0396157E-1,2.3654163E-1,-2.2132622E-1,-1.1801931E-1,-1.18615195E-1,6.0774677E-2,-1.4340929E-2,1.8682815E-1,1.8991137E-1,2.6275706E-1,-2.3831451E-1,-1.7057058E-1,-1.5154505E-1,-3.3519674E-2,-1.5987538E-1,-7.033309E-2,1.0107721E-1,-3.0093746E-2,-6.577516E-2,3.0017532E-2,7.260344E-2,2.1706133E-1,1.3305922E-1,2.5951117E-1,2.684657E-1,1.7210443E-1,1.4096491E-1,-2.3946826E-1,-2.0447819E-1,-1.1221036E-1,-9.981034E-2,-2.1008629E-1,-3.3723298E-3,-1.5365262E-1,-1.9980603E-1,-1.0287288E-1,-1.278848E-1,-2.0118559E-2,5.2139495E-2,1.5078396E-1,-5.9523612E-2,1.121738E-1,-1.408481E-1,-3.6478445E-2,-1.4510864E-2,1.0535702E-1,-1.2223702E-2,1.1968825E-1,1.6383822E-1,2.4461654E-1,1.0877398E-1,2.2646745E-1,2.6090896E-1,-2.4886103E-1,-1.0620639E-2,2.705809E-1,1.34922E-1,3.101435E-1,-1.5435043E-2,1.1203594E-2,-1.0382152E-2,-1.2584291E-2,-1.1866696E-2,-7.747033E-3,-1.0312161E-2,-3.980711E-3,-8.148968E-3,-1.3935014E-3,-1.08547425E-2,-2.458656E-3,1.5083988E-2,-9.158935E-4,-9.8809805E-3,2.8315975E-4,-1.087863E-2,-6.8791644E-3,-5.7797367E-3,4.6153744E-3,-8.092704E-3,-2.2775417E-3,-4.2466265E-3,2.3180267E-3,-6.700381E-4,6.9633597E-3,8.832883E-3,4.349288E-4,-7.047961E-3,-1.631765E-3,1.0518132E-2,3.4955987E-3,4.2613433E-3,-7.6594152E-3,5.2422937E-3,-2.4647075E-3,-2.4943196E-3,5.4844427E-3,7.1883053E-3,1.08585824E-4,-3.6231037E-3,2.3692166E-3,3.5938264E-3,1.0877746E-2,9.3263965E-3,3.3282065E-3,1.3399459E-2,1.0800347E-2,3.092272E-3,7.7397497E-3,9.463243E-3,1.3544114E-2,1.1692642E-2,1.38266105E-2,-6.041015E-4,-1.5006808E-2,-5.5346247E-3,1.2075784E-2,6.0034078E-3,1.3629596E-2,7.900705E-3,-1.2791054E-2,-1.26394555E-2,1.6026316E-2],"categories":[],"categories_nodes":[],"categories_segments":[],"categories_sizes":[],"default_left":[0,0,0,0,0,0,0,0,0,0,0,0,0,0,0,0,0,0,0,0,0,0,0,0,0,0,0,0,0,0,0,0,0,0,0,0,0,0,0,0,0,0,0,0,0,0,0,0,0,0,0,0,0,0,0,0,0,0,0,0,0,0,0,0,0,0,0,0,0,0,0,0,0,0,0,0,0,0,0,0,0,0,0,0,0,0,0,0,0,0,0,0,0,0,0,0,0,0,0,0,0,0,0,0,0,0,0,0,0,0,0,0,0,0,0,0,0,0,0,0,0,0,0,0,0,0,0],"id":11,"left_children":[1,3,5,7,9,11,13,15,17,19,21,23,25,27,29,31,33,35,37,39,41,43,45,47,49,51,53,55,57,59,61,63,65,67,69,71,73,75,77,79,81,83,85,87,89,91,93,95,97,99,101,103,105,107,109,111,113,115,117,119,121,123,125,-1,-1,-1,-1,-1,-1,-1,-1,-1,-1,-1,-1,-1,-1,-1,-1,-1,-1,-1,-1,-1,-1,-1,-1,-1,-1,-1,-1,-1,-1,-1,-1,-1,-1,-1,-1,-1,-1,-1,-1,-1,-1,-1,-1,-1,-1,-1,-1,-1,-1,-1,-1,-1,-1,-1,-1,-1,-1,-1,-1,-1,-1,-1,-1],"loss_changes":[2.38156E3,3.2744562E2,2.1365308E2,9.438208E1,2.348902E2,2.4537009E2,2.8844727E1,2.0594727E1,3.9754837E1,3.4627914E1,4.6073864E1,2.3526968E1,5.0814453E1,3.363867E1,7.7824707E0,7.8789062E0,1.1860077E1,3.0410538E1,1.4442778E1,2.1318314E1,2.3157345E1,2.1191673E1,1.619329E1,1.0496954E1,1.857676E1,1.2311186E1,1.7027893E1,1.0605286E1,2.782959E0,8.403198E0,4.5723877E0,2.1245406E0,6.897705E0,6.1432037E0,6.754406E0,2.424437E1,5.3045044E0,1.4544714E1,5.604828E0,6.063507E0,9.605198E0,1.043597E1,1.8449799E1,2.5087524E1,1.5891006E1,7.0110893E0,2.7365046E0,3.751402E0,6.228349E0,1.52997E1,8.1521015E0,3.9567842E0,9.25849E0,8.756477E0,5.068268E0,8.026669E0,1.5448952E0,1.5479431E0,1.2992334E-1,2.7517629E0,4.2421875E0,6.44681E0,1.1915417E0,0E0,0E0,0E0,0E0,0E0,0E0,0E0,0E0,0E0,0E0,0E0,0E0,0E0,0E0,0E0,0E0,0E0,0E0,0E0,0E0,0E0,0E0,0E0,0E0,0E0,0E0,0E0,0E0,0E0,0E0,0E0,0E0,0E0,0E0,0E0,0E0,0E0,0E0,0E0,0E0,0E0,0E0,0E0,0E0,0E0,0E0,0E0,0E0,0E0,0E0,0E0,0E0,0E0,0E0,0E0,0E0,0E0,0E0,0E0,0E0,0E0,0E0,0E0,0E0],"parents":[2147483647,0,0,1,1,2,2,3,3,4,4,5,5,6,6,7,7,8,8,9,9,10,10,11,11,12,12,13,13,14,14,15,15,16,16,17,17,18,18,19,19,20,20,21,21,22,22,23,23,24,24,25,25,26,26,27,27,28,28,29,29,30,30,31,31,32,32,33,33,34,34,35,35,36,36,37,37,38,38,39,39,40,40,41,41,42,42,43,43,44,44,45,45,46,46,47,47,48,48,49,49,50,50,51,51,52,52,53,53,54,54,55,55,56,56,57,57,58,58,59,59,60,60,61,61,62,62],"right_children":[2,4,6,8,10,12,14,16,18,20,22,24,26,28,30,32,34,36,38,40,42,44,46,48,50,52,54,56,58,60,62,64,66,68,70,72,74,76,78,80,82,84,86,88,90,92,94,96,98,100,102,104,106,108,110,112,114,116,118,120,122,124,126,-1,-1,-1,-1,-1,-1,-1,-1,-1,-1,-1,-1,-1,-1,-1,-1,-1,-1,-1,-1,-1,-1,-1,-1,-1,-1,-1,-1,-1,-1,-1,-1,-1,-1,-1,-1,-1,-1,-1,-1,-1,-1,-1,-1,-1,-1,-1,-1,-1,-1,-1,-1,-1,-1,-1,-1,-1,-1,-1,-1,-1,-1,-1,-1],"split_conditions":[6.9662017E-1,6.7705526E0,1.309125E1,5E-1,2.5881904E-1,-4.2261827E-1,-6.087614E-1,2.2576263E-2,5.215614E0,-5.3729963E-1,5.3729963E-1,9.428076E-1,2.1306865E-1,1.6529016E1,2.2960995E1,9.852947E2,-8.7155744E-2,8.7155744E-2,6.4278764E-1,1.0573324E1,7.13456E-2,5.4001083E0,7.1504414E-1,3.3120975E-1,-7.6604444E-1,1.2246469E-16,1.0292546E1,6.095877E-1,2.9508932E1,7.13456E-2,1.2222239E0,4.2208447E0,-8.660254E-1,4.3621388E-1,-1.9443135E-1,1.0445304E-1,9.423414E0,-9.906923E-1,5.09282E-1,4.2261827E-1,1.3401248E1,7.748326E0,6.9868083E0,3.3710152E-1,1.2534384E1,6.443411E0,6.4798856E-1,-9.753364E-1,3.1993299E0,1.1582123E0,2.47204E1,-6.1020184E-1,2.8161165E1,1.48789425E1,-1.8369701E-16,-9.063078E-1,1.2023625E0,1.798515E1,1.6676855E1,3.007058E-1,2.4629066E0,2.7366692E1,4.4275934E-1,-1.5435043E-2,1.1203594E-2,-1.0382152E-2,-1.2584291E-2,-1.1866696E-2,-7.747033E-3,-1.0312161E-2,-3.980711E-3,-8.148968E-3,-1.3935014E-3,-1.08547425E-2,-2.458656E-3,1.5083988E-2,-9.158935E-4,-9.8809805E-3,2.8315975E-4,-1.087863E-2,-6.8791644E-3,-5.7797367E-3,4.6153744E-3,-8.092704E-3,-2.2775417E-3,-4.2466265E-3,2.3180267E-3,-6.700381E-4,6.9633597E-3,8.832883E-3,4.349288E-4,-7.047961E-3,-1.631765E-3,1.0518132E-2,3.4955987E-3,4.2613433E-3,-7.6594152E-3,5.2422937E-3,-2.4647075E-3,-2.4943196E-3,5.4844427E-3,7.1883053E-3,1.08585824E-4,-3.6231037E-3,2.3692166E-3,3.5938264E-3,1.0877746E-2,9.3263965E-3,3.3282065E-3,1.3399459E-2,1.0800347E-2,3.092272E-3,7.7397497E-3,9.463243E-3,1.3544114E-2,1.1692642E-2,1.38266105E-2,-6.041015E-4,-1.5006808E-2,-5.5346247E-3,1.2075784E-2,6.0034078E-3,1.3629596E-2,7.900705E-3,-1.2791054E-2,-1.26394555E-2,1.6026316E-2],"split_indices":[16,26,4,40,40,40,40,43,28,40,41,16,8,4,23,13,40,41,41,36,8,35,43,24,40,40,3,8,11,8,15,33,41,24,8,8,36,42,43,41,26,33,4,8,36,33,29,42,35,7,11,8,11,36,41,40,15,4,33,41,35,36,34,0,0,0,0,0,0,0,0,0,0,0,0,0,0,0,0,0,0,0,0,0,0,0,0,0,0,0,0,0,0,0,0,0,0,0,0,0,0,0,0,0,0,0,0,0,0,0,0,0,0,0,0,0,0,0,0,0,0,0,0,0,0,0,0],"split_type":[0,0,0,0,0,0,0,0,0,0,0,0,0,0,0,0,0,0,0,0,0,0,0,0,0,0,0,0,0,0,0,0,0,0,0,0,0,0,0,0,0,0,0,0,0,0,0,0,0,0,0,0,0,0,0,0,0,0,0,0,0,0,0,0,0,0,0,0,0,0,0,0,0,0,0,0,0,0,0,0,0,0,0,0,0,0,0,0,0,0,0,0,0,0,0,0,0,0,0,0,0,0,0,0,0,0,0,0,0,0,0,0,0,0,0,0,0,0,0,0,0,0,0,0,0,0,0],"sum_hessian":[1.16595E5,6.7931E4,4.8664E4,3.7965E4,2.9966E4,2.5028E4,2.3636E4,2.3931E4,1.4034E4,1.7387E4,1.2579E4,1.031E4,1.4718E4,8.509E3,1.5127E4,1.7927E4,6.004E3,1.0047E4,3.987E3,9.374E3,8.013E3,8.714E3,3.865E3,4.774E3,5.536E3,3.081E3,1.1637E4,4.685E3,3.824E3,1.4229E4,8.98E2,5.4E1,1.7873E4,3.796E3,2.208E3,5.335E3,4.712E3,3.188E3,7.99E2,5.511E3,3.863E3,3.733E3,4.28E3,4.392E3,4.322E3,3.203E3,6.62E2,1.339E3,3.435E3,3.48E3,2.056E3,1.1E3,1.981E3,3.972E3,7.665E3,3.72E3,9.65E2,3.814E3,1E1,1.07E2,1.4122E4,7.09E2,1.89E2,8E0,4.6E1,4.963E3,1.291E4,2.28E3,1.516E3,5.67E2,1.641E3,2.84E3,2.495E3,4.515E3,1.97E2,1.48E2,3.04E3,6.26E2,1.73E2,4.285E3,1.226E3,3.627E3,2.36E2,2.642E3,1.091E3,2.167E3,2.113E3,2.507E3,1.885E3,3.656E3,6.66E2,7.94E2,2.409E3,1.98E2,4.64E2,6.9E1,1.27E3,2.85E2,3.15E3,2.709E3,7.71E2,1.498E3,5.58E2,5.47E2,5.53E2,1.332E3,6.49E2,3.22E3,7.52E2,4.214E3,3.451E3,1.843E3,1.877E3,5.28E2,4.37E2,1.402E3,2.412E3,2E0,8E0,7.7E1,3E1,1.87E2,1.3935E4,6.7E2,3.9E1,3E0,1.86E2],"tree_param":{"num_deleted":"0","num_feature":"44","num_nodes":"127","size_leaf_vector":"1"}},{"base_weights":[-3.637758E-4,-1.1110657E-1,1.6697277E-1,-1.641015E-1,-2.266437E-2,9.11307E-2,2.1388698E-1,-2.0113547E-1,-9.00047E-2,-1.1469355E-1,6.2563166E-2,-1.2100125E-3,2.005738E-1,7.5799234E-2,2.3284575E-1,-2.1765503E-1,-1.5314427E-1,-1.3161147E-1,2.0841073E-2,-1.534339E-1,-7.762559E-2,7.728626E-3,1.1476424E-1,-5.951504E-2,3.976602E-2,1.4994684E-1,2.3639387E-1,-2.7982308E-2,9.876636E-2,1.8497635E-1,2.4954645E-1,-2.3114528E-1,-1.6314928E-1,-2.0572817E-1,-1.08624525E-1,-1.7328471E-1,-5.3351615E-2,-2.6688483E-3,1.0712943E-1,-1.899305E-1,-1.1176051E-1,1.2143128E-2,-1.02989696E-1,-8.5361876E-2,5.6619022E-2,6.961531E-2,1.5825193E-1,-7.619215E-2,6.890843E-2,8.127132E-2,-3.23571E-2,-2.6436532E-2,1.7308792E-1,2.4589385E-1,1.4476065E-2,-1.6318302E-1,8.109229E-3,1.0679766E-1,-2.8940824E-1,1.1111437E-1,2.1251974E-1,2.5619274E-1,1.638732E-1,-1.2258846E-2,-1.0102609E-2,6.7344788E-3,-8.524934E-3,-1.0403126E-2,2.7128002E-2,-1.2257192E-2,-4.012259E-3,-1.0196296E-2,-6.66122E-3,-3.8819753E-3,5.246133E-3,3.656876E-3,-1.9136276E-3,-1.7813485E-3,6.822628E-3,-7.4706497E-3,-1.1930699E-2,-9.847989E-3,-3.3016533E-3,-5.452148E-3,4.7242106E-3,1.8995309E-4,-6.5821297E-3,-5.6532877E-3,1.5465751E-4,-7.3542085E-4,5.62428E-3,-4.30655E-3,4.2655985E-3,1.0097597E-2,5.125266E-3,-8.273741E-3,-1.9297628E-3,7.2404966E-3,-2.9886265E-3,1.6163332E-4,6.279345E-3,1.0435892E-3,-6.592482E-3,1.9218539E-3,-2.2166604E-2,9.046349E-3,-6.6948906E-3,1.2426315E-2,-8.775748E-3,1.3434487E-2,-1.4851347E-2,1.3252245E-2,-9.275061E-3,-2.0618348E-3,4.328023E-3,4.097498E-3,8.654601E-3,1.6747525E-2,-1.9800233E-2,-1.7579477E-3,6.2634125E-3,8.009022E-3,1.1660324E-2,1.2845187E-2,4.5370028E-4,9.22772E-3,-7.752339E-3],"categories":[],"categories_nodes":[],"categories_segments":[],"categories_sizes":[],"default_left":[0,0,0,0,0,0,0,0,0,0,0,0,0,0,0,0,0,0,0,0,0,0,0,0,0,0,0,0,0,0,0,0,0,0,0,0,0,0,0,0,0,0,0,0,0,0,0,0,0,0,0,0,0,0,0,0,0,0,0,0,0,0,0,0,0,0,0,0,0,0,0,0,0,0,0,0,0,0,0,0,0,0,0,0,0,0,0,0,0,0,0,0,0,0,0,0,0,0,0,0,0,0,0,0,0,0,0,0,0,0,0,0,0,0,0,0,0,0,0,0,0,0,0,0,0,0,0],"id":12,"left_children":[1,3,5,7,9,11,13,15,17,19,21,23,25,27,29,31,33,35,37,39,41,43,45,47,49,51,53,55,57,59,61,63,65,67,69,71,73,75,77,79,81,83,85,87,89,91,93,95,97,99,101,103,105,107,109,111,113,115,117,119,121,123,125,-1,-1,-1,-1,-1,-1,-1,-1,-1,-1,-1,-1,-1,-1,-1,-1,-1,-1,-1,-1,-1,-1,-1,-1,-1,-1,-1,-1,-1,-1,-1,-1,-1,-1,-1,-1,-1,-1,-1,-1,-1,-1,-1,-1,-1,-1,-1,-1,-1,-1,-1,-1,-1,-1,-1,-1,-1,-1,-1,-1,-1,-1,-1,-1],"loss_changes":[2.1690352E3,3.3011963E2,1.6583276E2,1.2084021E2,2.0701074E2,1.8004973E2,7.537488E1,2.324707E1,6.770133E1,1.8211258E1,3.922288E1,2.3090715E1,1.4749695E1,8.292797E0,2.0196655E1,1.6023438E1,1.7589172E1,3.4799057E1,8.129017E0,9.414673E0,1.4771519E1,3.0425266E1,1.3772209E1,8.548618E0,1.6993689E1,1.3804817E1,1.005896E1,3.0803516E0,8.909679E0,1.3307861E1,1.0645264E1,7.097229E0,9.51635E0,6.1356964E0,1.5772091E1,8.521118E0,1.4269935E1,8.504609E0,3.5965042E0,6.4855423E0,1.1281338E1,1.4279692E1,1.5477005E1,5.64151E0,1.7467117E1,8.43177E0,8.688454E0,1.1846302E1,4.491745E0,1.2459951E1,1.0986399E1,1.064593E1,7.217186E0,5.1210327E0,1.5679909E1,1.3202846E0,1.9353226E0,4.5833225E0,3.9927974E0,3.6937447E0,5.1294403E0,3.057495E0,8.959118E0,0E0,0E0,0E0,0E0,0E0,0E0,0E0,0E0,0E0,0E0,0E0,0E0,0E0,0E0,0E0,0E0,0E0,0E0,0E0,0E0,0E0,0E0,0E0,0E0,0E0,0E0,0E0,0E0,0E0,0E0,0E0,0E0,0E0,0E0,0E0,0E0,0E0,0E0,0E0,0E0,0E0,0E0,0E0,0E0,0E0,0E0,0E0,0E0,0E0,0E0,0E0,0E0,0E0,0E0,0E0,0E0,0E0,0E0,0E0,0E0,0E0,0E0,0E0,0E0],"parents":[2147483647,0,0,1,1,2,2,3,3,4,4,5,5,6,6,7,7,8,8,9,9,10,10,11,11,12,12,13,13,14,14,15,15,16,16,17,17,18,18,19,19,20,20,21,21,22,22,23,23,24,24,25,25,26,26,27,27,28,28,29,29,30,30,31,31,32,32,33,33,34,34,35,35,36,36,37,37,38,38,39,39,40,40,41,41,42,42,43,43,44,44,45,45,46,46,47,47,48,48,49,49,50,50,51,51,52,52,53,53,54,54,55,55,56,56,57,57,58,58,59,59,60,60,61,61,62,62],"right_children":[2,4,6,8,10,12,14,16,18,20,22,24,26,28,30,32,34,36,38,40,42,44,46,48,50,52,54,56,58,60,62,64,66,68,70,72,74,76,78,80,82,84,86,88,90,92,94,96,98,100,102,104,106,108,110,112,114,116,118,120,122,124,126,-1,-1,-1,-1,-1,-1,-1,-1,-1,-1,-1,-1,-1,-1,-1,-1,-1,-1,-1,-1,-1,-1,-1,-1,-1,-1,-1,-1,-1,-1,-1,-1,-1,-1,-1,-1,-1,-1,-1,-1,-1,-1,-1,-1,-1,-1,-1,-1,-1,-1,-1,-1,-1,-1,-1,-1,-1,-1,-1,-1,-1,-1,-1,-1],"split_conditions":[9.67185E0,6.625E0,-5.3729963E-1,5.7357645E-1,-4.3619387E-2,1.4773884E1,2.5837728E-1,2.2576263E-2,5.728908E0,1.0060417E1,6.33598E-1,1.1572333E1,1.9234509E1,-7.416078E-1,1.1619367E1,6.396646E0,-3.8268343E-1,6.2303776E-1,1.0241149E1,-6.4278764E-1,1.883905E1,4.876361E0,8.028937E0,9.740483E1,2.271905E1,-4.6230483E-1,2.5366558E1,-9.8411554E-1,2.1489273E1,1.2246469E-16,2.2605967E1,1.2246469E-16,9.8664044E2,1.228241E0,-1.7932543E-1,2.8201756E0,8.862235E-1,1.472543E-1,7.372773E-1,8.4130377E-1,-3.5372856E-1,8.7197334E1,-9.572572E-1,1.0985563E0,6.755902E-1,1.6011736E-1,1.0945309E1,2.4586394E0,9.652527E0,8.2305504E1,1.1088657E1,1.4475891E1,2.7187033E1,2.9385918E1,9.276396E-1,-9.996093E-1,2.8219252E1,2.8304632E1,-6.613495E-2,9.9607635E2,-5.4186225E-2,2.8933249E1,2.4129207E-1,-1.2258846E-2,-1.0102609E-2,6.7344788E-3,-8.524934E-3,-1.0403126E-2,2.7128002E-2,-1.2257192E-2,-4.012259E-3,-1.0196296E-2,-6.66122E-3,-3.8819753E-3,5.246133E-3,3.656876E-3,-1.9136276E-3,-1.7813485E-3,6.822628E-3,-7.4706497E-3,-1.1930699E-2,-9.847989E-3,-3.3016533E-3,-5.452148E-3,4.7242106E-3,1.8995309E-4,-6.5821297E-3,-5.6532877E-3,1.5465751E-4,-7.3542085E-4,5.62428E-3,-4.30655E-3,4.2655985E-3,1.0097597E-2,5.125266E-3,-8.273741E-3,-1.9297628E-3,7.2404966E-3,-2.9886265E-3,1.6163332E-4,6.279345E-3,1.0435892E-3,-6.592482E-3,1.9218539E-3,-2.2166604E-2,9.046349E-3,-6.6948906E-3,1.2426315E-2,-8.775748E-3,1.3434487E-2,-1.4851347E-2,1.3252245E-2,-9.275061E-3,-2.0618348E-3,4.328023E-3,4.097498E-3,8.654601E-3,1.6747525E-2,-1.9800233E-2,-1.7579477E-3,6.2634125E-3,8.009022E-3,1.1660324E-2,1.2845187E-2,4.5370028E-4,9.22772E-3,-7.752339E-3],"split_indices":[2,2,40,40,40,2,8,43,33,36,9,2,36,8,3,33,40,9,10,40,11,35,0,12,11,43,17,43,35,40,2,40,13,15,9,35,43,14,40,9,8,12,9,5,40,8,36,10,30,12,35,35,11,11,43,43,11,11,8,13,37,11,37,0,0,0,0,0,0,0,0,0,0,0,0,0,0,0,0,0,0,0,0,0,0,0,0,0,0,0,0,0,0,0,0,0,0,0,0,0,0,0,0,0,0,0,0,0,0,0,0,0,0,0,0,0,0,0,0,0,0,0,0,0,0,0,0],"split_type":[0,0,0,0,0,0,0,0,0,0,0,0,0,0,0,0,0,0,0,0,0,0,0,0,0,0,0,0,0,0,0,0,0,0,0,0,0,0,0,0,0,0,0,0,0,0,0,0,0,0,0,0,0,0,0,0,0,0,0,0,0,0,0,0,0,0,0,0,0,0,0,0,0,0,0,0,0,0,0,0,0,0,0,0,0,0,0,0,0,0,0,0,0,0,0,0,0,0,0,0,0,0,0,0,0,0,0,0,0,0,0,0,0,0,0,0,0,0,0,0,0,0,0,0,0,0,0],"sum_hessian":[1.17045E5,7.0433E4,4.6612E4,4.4042E4,2.6391E4,1.7815E4,2.8797E4,2.9364E4,1.4678E4,1.2689E4,1.3702E4,9.663E3,8.152E3,3.477E3,2.532E4,2.1842E4,7.522E3,1.0672E4,4.006E3,6.203E3,6.486E3,6.683E3,7.019E3,3.988E3,5.675E3,3.38E3,4.772E3,6.3E2,2.847E3,6.552E3,1.8768E4,1.7506E4,4.336E3,3.447E3,4.075E3,6.963E3,3.709E3,3.149E3,8.57E2,3.305E3,2.898E3,1.429E3,5.057E3,2.301E3,4.382E3,3.445E3,3.574E3,3.53E3,4.58E2,3.602E3,2.073E3,3.92E2,2.988E3,4.576E3,1.96E2,1.32E2,4.98E2,2.79E3,5.7E1,1.781E3,4.771E3,1.7415E4,1.353E3,1.1805E4,5.701E3,1.04E2,4.232E3,3.437E3,1E1,7E2,3.375E3,3.943E3,3.02E3,3.216E3,4.93E2,1.006E3,2.143E3,1.46E2,7.11E2,