tree
version=v4
num_class=1
num_tree_per_iteration=1
label_index=0
max_feature_idx=22
objective=quantile
feature_names=P_lag0 WS_lag0 P_lag1 WS_lag1 P_lag3 WS_lag3 P_lag6 WS_lag6 P_lag18 WS_lag18 P_lag36 WS_lag36 WS_tr_1h WS_tr_3h P_tr_1h WD_sin WD_cos ti rho hs hc ds dc
feature_infos=[0:1] [0.24144333600997925:53.085189819335938] [0:1] [0.24144333600997925:53.085189819335938] [0:1] [0.24144333600997925:53.085189819335938] [0:1] [0.24144333600997925:53.085189819335938] [0:1] [0.24144333600997925:53.085189819335938] [0:1] [0.24144333600997925:53.085189819335938] [-21.36829948425293:15.780830383300781] [-30.632476806640625:21.313783645629883] [-1:1] [-0.99965029954910278:0.99978786706924438] [-0.99981725215911865:0.99979323148727417] [0.0095564322546124458:1] [1.0909414291381836:1.2565940618515015] [-1:1] [-1:1] [-0.9999994220246925:0.99998555065071859] [-0.99997919295908233:0.9999907524084426]
tree_sizes=11307 11754 11758 11704 11738 11750 11749 11750 11838 11814 11815 11827 11836 11803 11812 11854 11794 11855 11845 11862 11892 11845 11803 11869 11862 11850 11873 11852 11851 11921 11879 11873 11848 11887 11897 11868 11918 11862 11873 11917 11876 11820 11916 11877 11884 11916 11865 11851 11857 11901 11873 11927 11929 11873 11820 11805 11893 11912 11847 11872 11828 11891 11927 11816 11836 11893 11876 11831 11817 11821 11830 11835 11841 11765 11782 11795 11804 11736 11775 11774 11785 11866 11770 11895 11790 11912 11784 11864 11913 11762 11772 11767 11845 11841 11724 11698 11763 11861 11753 11721 11762 11773 11796 11742 11742 11777 11834 11897 11759 11737 11855 11755 11800 11807 11683 11772 11811 11794 11727 11730 11722 11735 11706 11671 11734 11786 11753 11748 11630 11857 11666 11806 11652 11743 11799 11666 11701 11700 11676 11665 11685 11694 11832 11802 11682 11735 11730 11785 11724 11663 11748 11668 11736 11634 11616 11632 11606 11688 11661 11686 11745 11764 11691 11637 11605

Tree=0
num_leaves=127
num_cat=0
split_feature=0 0 1 0 1 1 1 20 20 20 17 16 19 17 19 2 17 20 19 14 20 16 5 17 19 16 20 18 16 15 13 16 15 11 17 20 16 13 8 19 16 19 1 1 17 15 0 22 21 15 21 15 13 14 0 15 14 1 2 21 18 8 10 22 18 18 5 0 16 14 3 18 15 1 13 22 15 21 20 11 19 21 21 18 6 19 0 19 15 16 4 11 19 0 21 18 13 10 10 17 11 18 22 18 18 19 10 0 14 19 16 21 21 18 20 0 22 6 21 15 6 15 16 14 19 17
split_gain=12050.3 702.191 608.594 86.5772 74.0234 59.056 49.4037 41.8058 36.2802 30.9315 26.7767 25.9548 27.9263 23.0966 22.8585 21.2973 19.5499 19.0252 17.4305 15.9558 14.6997 15.8967 14.2106 12.4669 14.925 11.9904 9.85758 10.5349 9.09448 9.06087 8.14661 7.95942 7.69698 7.57579 7.29788 8.37967 7.29266 7.13755 6.66833 6.51165 7.67667 6.31558 6.1428 6.10851 6.04219 6.03171 5.66069 5.49324 5.44249 5.24145 5.18437 4.98883 4.8199 4.76823 4.71687 4.59417 4.58556 4.53961 4.53079 4.49402 5.09319 4.44886 4.42349 4.58267 5.62671 4.40112 5.36453 4.39562 4.39252 4.38052 4.25953 4.21311 4.20275 4.08186 4.04776 3.98265 4.15706 4.69852 3.97352 3.91922 3.91131 5.56602 3.78647 3.74624 3.72816 3.70049 3.65866 3.59273 3.58984 3.57193 3.56538 3.55154 3.5194 3.51687 3.49656 3.45914 3.37544 3.36852 3.3533 3.3426 3.2832 3.27491 3.66903 3.27388 3.2678 3.25584 3.20929 3.64984 3.20364 3.19265 3.17071 3.15969 4.65231 3.13076 3.12228 3.02063 3.01042 2.99355 2.98274 2.97879 3.63075 2.97594 6.53615 2.95383 2.94675 2.9099
threshold=0.044762332336529202 0.012327086701274938 5.2517571449279794 0.028327816814184531 2.453278779983521 4.7244262695312509 6.1550188064575204 -0.46174861323503363 -0.46174861323503363 -0.8765181184813301 0.13354247808456424 -0.33018288016319269 0.40265084705289472 0.12973685562610629 -0.5 0.049866649367300515 0.10060668736696245 -0.75166088996455105 -0.57357643635104605 -0.036319025628430174 -0.62577451934762984 -0.69357204437255848 24.158054351806644 0.093626890331506743 0.93178607664859781 0.89527124166488659 -0.51864980417341189 1.1749088168144228 -0.2213996425271034 0.40244820713996893 -3.8379862308502193 0.93463075160980236 0.71160474419593822 5.6173086166381845 0.16320211440324786 -0.91509365977396817 -0.67553737759590138 0.29362487792968756 0.01592116119565418 0.36235178784537941 0.41331066191196447 -0.70710678118654735 7.1456518173217782 3.5416008234024052 0.18540626764297488 -0.91793790459632862 0.03479845779268332 0.080547328232315238 -0.17647087149565668 0.89062941074371349 1.0000000180025095e-35 0.070526577532291426 1.7135632038116457 0.020610738392813775 0.088127069823482909 0.75831395387649547 0.0075429659846290133 4.2462759017944345 0.13316269506763095 0.92922379131507438 1.1388117671012881 0.0044320136692400083 0.12996104861135224 0.8852232634113919 1.1405296921730044 1.1535174846649172 4.4814052581787118 0.13981946264021733 0.58415246009826671 -0.12407393710141491 25.458582878112797 1.1506808996200564 0.87199884653091442 1.9236824512481692 -2.0281057357788081 -0.82413948779581736 0.71669942140579235 -0.159513159777915 0.72219205899833583 22.924307823181156 0.32136297141497111 -0.59869031648930193 -0.91597725483594616 1.191728472709656 0.17668569033841666 -0.043619387365335778 0.014933191995771439 -0.75166088996455094 0.69412800669670116 0.75328493118286144 0.013947047190627445 1.8644170761108401 -0.065387565056496802 0.059989227979529013 -0.73866753694953124 1.1411773562431338 1.9896836280822756 0.075156266265570662 0.0093364914183702314 0.086358159780502333 1.2827782630920412 1.1403646469116213 -0.90892157495189674 1.1416528224945071 1.1653628945350649 -0.62577451934762973 0.0047703035321390542 0.017454290573159316 -0.026223394528850291 0.99381977973277802 -0.63764923810958851 -0.65882179392489248 -0.94139628442229062 1.1856967806816103 -0.93178607664859736 0.0073964911547385994 -0.36648370705903521 0.9999995433702954 0.9893236546938301 -0.80369552969932545 0.0057448507151249837 -0.29424074292182917 0.15386538207530978 -0.10600539833864715 0.75166088996455116 0.10386985167860986
decision_type=2 2 2 2 2 2 2 2 2 2 2 2 2 2 2 2 2 2 2 2 2 2 2 2 2 2 2 2 2 2 2 2 2 2 2 2 2 2 2 2 2 2 2 2 2 2 2 2 2 2 2 2 2 2 2 2 2 2 2 2 2 2 2 2 2 2 2 2 2 2 2 2 2 2 2 2 2 2 2 2 2 2 2 2 2 2 2 2 2 2 2 2 2 2 2 2 2 2 2 2 2 2 2 2 2 2 2 2 2 2 2 2 2 2 2 2 2 2 2 2 2 2 2 2 2 2
left_child=1 4 5 7 17 9 29 14 18 57 32 23 25 48 33 16 26 38 121 69 -7 44 42 24 82 47 79 -28 -12 -4 -21 85 45 98 35 94 61 65 -1 54 -41 67 72 62 109 -10 50 55 87 118 71 -25 -39 92 -23 97 80 -2 75 60 -40 -15 63 64 114 -27 -67 -31 -14 -19 117 -47 -8 -32 -68 -56 -77 -78 113 -6 81 -29 103 111 115 91 -63 -9 119 -30 116 95 110 -49 -18 -20 -52 -13 -3 -80 -84 -45 -103 -11 -33 -60 -89 -108 -76 -22 -50 112 -34 -48 -16 -37 -38 -24 -43 120 -87 122 -5 -69 -53 -99
right_child=2 3 6 8 15 20 22 13 10 11 28 12 68 36 43 -17 34 19 31 30 21 39 70 51 -26 37 27 56 89 41 73 104 83 -35 -36 84 90 52 59 40 -42 49 -44 101 -46 46 78 93 53 -51 96 124 -54 -55 58 -57 -58 -59 105 -61 -62 86 -64 -65 -66 66 74 123 -70 -71 -72 -73 -74 -75 108 76 77 -79 99 -81 -82 -83 100 -85 -86 88 -88 106 -90 -91 -92 -93 -94 -95 -96 -97 -98 125 -100 -101 -102 102 -104 -105 -106 -107 107 -109 -110 -111 -112 -113 -114 -115 -116 -117 -118 -119 -120 -121 -122 -123 -124 -125 -126 -127
leaf_value=0.033247643400682134 0.03469220418483019 0.033400390931637956 0.037582469638437033 0.034317936375737192 0.033475869812536987 0.036405642330646512 0.041022632271051407 0.033359429752454164 0.033502134220907462 0.033688963809981945 0.034813086874783038 0.033946175035089253 0.034176805359311405 0.033603811264038087 0.03473020794335753 0.033187818079750284 0.033472456713207067 0.033178281784057614 0.034638219303451477 0.033178281784057614 0.035528683010488747 0.034231601282954216 0.033178281784057614 0.035380562394857408 0.033655942650511861 0.033668663818389177 0.033178281784057614 0.033178281784057614 0.03341400995850563 0.034262586198747155 0.033178281784057614 0.035467401240020992 0.03352087405510247 0.034190814453177155 0.033456013188697398 0.033196303348813669 0.033471698308130723 0.035074990382418035 0.033491754671558738 0.033859364921227098 0.035542300529778005 0.037277294509112838 0.066152951121330267 0.034855549782514574 0.037132854014635085 0.033558369765523823 0.033752388553693891 0.03358227078570053 0.03361894168192521 0.034454223932698369 0.033809373760595916 0.034873041231185196 0.033650609361939129 0.033869174029678109 0.03393183588050306 0.033488822658546268 0.033690257975831625 0.035330418962985277 0.033775518368929627 0.034171107853762803 0.033231136403628625 0.03368204345460981 0.034046742459759118 0.034920636145398018 0.033778415201231836 0.035037367977201937 0.033537336054723713 0.034793803840875624 0.034852600330486892 0.033178281784057614 0.033178281784057614 0.033726102276705208 0.034564072731882334 0.033178281784057614 0.035668757790699598 0.035288406163454057 0.035764919361099601 0.033566559059545399 0.033983500208705664 0.033178281784057614 0.033178281784057614 0.033178281784057614 0.034232226759195329 0.033650320267770442 0.033229632169241088 0.034133783122524616 0.03436004435643554 0.033468437037663536 0.033415890421019868 0.034501541871577501 0.033325750840594991 0.034569617453962566 0.03350950381718576 0.033933694532606751 0.033860586956143378 0.034053481230512259 0.034671420510858295 0.033671193290501833 0.033471144438954069 0.034571559634059668 0.034784718882292509 0.03392129347193986 0.034319392731413247 0.034562605340033768 0.034736203891225156 0.034928349778056145 0.033358101162593815 0.033501792280003426 0.034152575116604564 0.03435306823812425 0.033296621835324912 0.033379816822707652 0.034389058384113012 0.034273195778951049 0.033981853537261485 0.033393612550571564 0.033764433825854215 0.083178281784057617 0.034836558019742371 0.034684819821268323 0.034737906605005267 0.034481392195448282 0.033516617049463092 0.036446752212941649 0.034024035930633544 0.034127736836671828
leaf_weight=674 203 168 6354 83 855 1621 8313 405 106 47 426 309 206 47 116 150 91 149 46 743 1448 393 88 1057 190 211 2759 43 81 139 6997 223 64 40 751 918 48 198 43 74 698 1727 55847 133 405 420 648 158 170 59 525 176 47 108 97 95 77 1046 114 66 211 42 167 48 760 125 42 153 910 571 46 144 61 3660 40 505 40 43 405 121 361 471 41 92 45 76 261 396 52 41 152 257 961 212 143 86 61 201 174 148 794 43 315 73 192 71 335 661 46 87 591 275 78 107 161 820 48 296 110 530 251 150 107 267 96 41
leaf_count=674 203 168 6354 83 855 1621 8313 405 106 47 426 309 206 47 116 150 91 149 46 743 1448 393 88 1057 190 211 2759 43 81 139 6997 223 64 40 751 918 48 198 43 74 698 1727 55847 133 405 420 648 158 170 59 525 176 47 108 97 95 77 1046 114 66 211 42 167 48 760 125 42 153 910 571 46 144 61 3660 40 505 40 43 405 121 361 471 41 92 45 76 261 396 52 41 152 257 961 212 143 86 61 201 174 148 794 43 315 73 192 71 335 661 46 87 591 275 78 107 161 820 48 296 110 530 251 150 107 267 96 41
internal_value=0.0348893 0.00909112 0.0447552 0.0187028 0.00351312 0.0343941 0.0464702 0.0146922 0.0231912 0.0311768 0.0201807 0.0295129 0.0262524 0.011815 0.0204127 0.00743766 0.00706233 0.00123723 0.028501 0.000691834 0.0381679 0.0365314 0.0469489 0.0332572 0.0294332 0.0222651 0.00509466 0.00391871 0.0303625 0.0429575 0.000235911 0.0305535 0.018365 0.0093355 0.0103942 0.00882758 0.0209195 0.0272553 0.00788728 0.0334442 0.0370618 0.0403777 0.0470095 0.0228405 0.0397699 0.0194799 0.0199835 0.0187828 0.0103139 0.0417547 0.0174245 0.0365517 0.0341592 0.0122333 0.0312329 0.0160004 0.00845392 0.0382572 0.0332866 0.0138308 0.0108103 0.0255674 0.0209868 0.0198208 0.0191217 0.0236099 0.0280569 0.0357072 0.0324155 0.00791062 0.0378896 0.0140025 0.0457467 -0.000117015 0.020862 0.0351617 0.0367102 0.0263402 0.0222334 0.0095659 0.00742451 0.00462295 0.0319795 0.0127487 0.00766007 0.0286264 0.0277875 0.0083594 0.0303728 0.0183261 0.01436 0.0245453 0.0115941 0.0236407 0.0177237 0.0178791 0.020718 0.0177512 0.00692743 0.0254534 0.033173 0.0275671 0.0250781 0.0236745 0.0365811 0.0263434 0.00956531 0.0110791 0.0270757 0.0383366 0.00905394 0.0107339 0.0167907 0.0198748 0.0252223 0.00729217 0.0219037 0.039612 0.0422258 0.0311468 0.0273939 0.0181598 0.0140035 0.0382578 0.0305127 0.0133336
internal_weight=118363 32743 85620 12024 20719 12160 73460 6350 5674 6564 3621 5315 2841 4225 2125 7605 7455 13114 2053 12120 5596 3975 64651 2474 1145 1725 4687 3711 548 8809 11400 1713 3073 382 2768 2017 598 709 994 2035 772 2455 64221 1743 1940 2564 2458 1016 3627 1896 1150 1329 245 1830 1263 646 952 1249 870 320 254 350 1252 1085 1037 464 253 559 1116 720 430 564 8374 10657 128 685 588 83 1308 976 875 514 955 509 1783 1298 303 1797 909 122 248 389 1722 370 234 132 586 551 342 553 835 491 358 120 415 185 1392 996 86 1535 761 417 142 755 277 1738 96 384 1837 857 327 340 190 420 272 242
internal_count=118363 32743 85620 12024 20719 12160 73460 6350 5674 6564 3621 5315 2841 4225 2125 7605 7455 13114 2053 12120 5596 3975 64651 2474 1145 1725 4687 3711 548 8809 11400 1713 3073 382 2768 2017 598 709 994 2035 772 2455 64221 1743 1940 2564 2458 1016 3627 1896 1150 1329 245 1830 1263 646 952 1249 870 320 254 350 1252 1085 1037 464 253 559 1116 720 430 564 8374 10657 128 685 588 83 1308 976 875 514 955 509 1783 1298 303 1797 909 122 248 389 1722 370 234 132 586 551 342 553 835 491 358 120 415 185 1392 996 86 1535 761 417 142 755 277 1738 96 384 1837 857 327 340 190 420 272 242
is_linear=0
shrinkage=1


Tree=1
num_leaves=127
num_cat=0
split_feature=0 0 0 20 0 0 0 0 7 20 19 20 20 2 16 16 5 20 16 19 19 16 20 0 16 10 16 0 15 8 11 10 8 7 18 15 22 18 21 21 14 21 19 18 6 15 5 15 16 19 22 10 19 16 22 21 15 19 0 13 19 22 10 15 20 7 16 18 4 16 22 19 18 11 10 8 19 5 15 18 22 8 11 21 22 21 12 18 20 19 15 21 20 3 16 20 10 19 13 20 16 2 20 19 20 22 18 4 15 11 21 20 8 8 22 13 18 18 6 13 15 18 16 21 7 16
split_gain=11580.5 736.718 566.179 71.3965 71.0731 61.401 48.9211 41.9045 37.3597 28.0692 25.0416 19.3688 19.3182 17.5694 17.1093 16.8788 15.9653 15.6935 17.1822 15.3969 11.4506 15.0241 12.968 11.324 11.2876 10.2038 9.9445 9.39127 9.25101 9.21877 9.19302 8.8485 8.81775 7.39682 7.78652 7.38578 7.2412 7.20116 7.08957 7.05304 6.84465 6.18562 6.05874 5.89708 5.84215 5.65578 5.51531 5.76461 5.50803 5.90985 6.41185 5.83372 5.34925 5.18225 5.92499 4.88548 4.7703 6.1593 4.75327 4.66774 7.12865 4.64228 5.04352 4.92619 4.60863 9.72562 4.77059 4.57412 4.50432 4.47864 6.51741 6.77318 4.55793 4.36221 4.34277 4.32919 4.31681 4.30699 4.24987 4.1875 5.46367 4.17459 4.16864 4.16005 4.12571 5.22292 4.1176 4.08362 4.06096 4.05336 4.02033 3.93942 4.6998 3.85788 3.85023 4.71427 3.83952 3.71362 3.69881 3.68738 3.68127 3.66248 3.57726 3.52187 3.47206 4.41701 3.50517 3.46334 3.43367 3.42778 3.35752 3.35538 3.40002 3.3411 3.32963 3.23782 3.12022 3.11312 3.1025 3.65135 3.06778 3.15621 3.05638 3.05468 3.0403 3.16899
threshold=0.044762332336529202 0.01318153998716696 0.12650427974265316 -0.77969889170510653 0.004048688104449384 0.080389795390024124 0.027538980896066722 0.21927805057299116 3.9605753421783452 -0.62577451934762984 -0.42261826174069955 -0.30070579950427329 -0.6913484944011038 0.038933234978634067 -0.6562247872352599 -0.29519426822662348 24.158054351806644 -0.72219205899833583 -0.69357204437255848 0.55543802234893513 -0.1950438958025166 -0.6562247872352599 -0.40265084705289439 0.022709184553279586 0.88819998502731334 0.060157051470814633 0.60100984573364269 0.51609433159446794 0.89062941074371349 0.068720882091222416 2.6893662214279179 0.051872930031337895 0.23908930255774638 4.6394972801208505 1.1753053069114687 0.83515143394470226 0.90803977035715633 1.1431066393852236 -0.091260668982868151 0.099822040462190967 0.0055757584625017219 -0.94139628442229062 0.89665931010743594 1.1410072445869448 0.15630668741250847 0.83515143394470226 4.0414958000183114 0.035509856417775161 0.70271944999694835 -0.32136297141497117 -0.95242240592625282 0.42169886010684626 -0.42261826174069955 0.79549610614776622 -0.8611288361322974 0.41398981800788198 -0.4137024581432342 1.0000000180025095e-35 0.018308045987834309 0.060694992542266853 0.98055188006607075 -0.79382744783423187 0.19358859565855088 -0.39783972501754755 0.043619387365335889 4.3225812911987314 -0.97778978943824757 1.1698633432388308 0.042824014413378401 -0.85238730907440174 -0.26867065956352881 -0.08715574274765768 1.164442837238312 1.6749036908149721 0.01764436455787774 0.078965992624833364 0.91509365977396862 1.7414050698280337 0.36574852466583258 1.1869911551475527 -0.84313311835787952 0.30508454711032917 8.8626708984375018 -0.25205528343633254 0.63755505330306683 -0.33425342068356556 1.6890977621078493 1.1295567750930788 0.95982138851864762 0.69134849440110402 -0.91793790459632862 0.3504237462291826 0.087155742747658027 25.458582878112797 1.0000000180025095e-35 -0.40265084705289439 0.0033821474711507454 0.27976242230339715 -2.1355752944946285 -0.9598213885186474 -0.98141726851463307 0.061499801021136599 -0.91509365977396817 -0.51864980417341189 -0.36235178784537897 -0.45273527932988084 1.1629562973976137 0.11376200172534257 0.30321970582008367 2.7368148565292363 -0.90163369914317015 -0.30070579950427329 0.11771538341080261 0.022048356291082673 0.42763731121559989 -0.98989874124526966 1.1431066393852236 1.182412385940552 0.22888282583733746 0.38069057464599615 0.20888192206621173 1.1790652871131899 -0.78731077909469593 0.1169228398841501 3.5000283718109135 0.79128429293632518
decision_type=2 2 2 2 2 2 2 2 2 2 2 2 2 2 2 2 2 2 2 2 2 2 2 2 2 2 2 2 2 2 2 2 2 2 2 2 2 2 2 2 2 2 2 2 2 2 2 2 2 2 2 2 2 2 2 2 2 2 2 2 2 2 2 2 2 2 2 2 2 2 2 2 2 2 2 2 2 2 2 2 2 2 2 2 2 2 2 2 2 2 2 2 2 2 2 2 2 2 2 2 2 2 2 2 2 2 2 2 2 2 2 2 2 2 2 2 2 2 2 2 2 2 2 2 2 2
left_child=1 4 5 23 8 10 20 28 12 36 15 37 87 44 25 -2 27 -7 31 53 21 75 73 117 84 39 30 45 52 -26 -21 123 82 34 68 41 61 -12 58 59 -36 -13 -41 102 -10 -9 88 -48 -20 50 -50 -52 78 94 -55 83 57 -45 -24 60 100 63 -63 99 65 113 -67 -58 77 74 72 -72 -71 -22 76 -5 -66 -11 90 80 -28 -80 -14 101 -17 -86 91 -1 111 -32 115 -40 -93 -18 95 -16 -69 -37 -84 -6 -8 -31 -25 -96 105 -82 -106 -73 -42 -60 -59 -27 -113 -43 -76 -4 -111 -3 119 -23 121 -98 -35 -19 125 -54
right_child=2 3 7 6 9 17 14 16 13 33 11 35 32 -15 19 24 93 18 48 26 22 118 38 43 29 46 79 -29 -30 55 89 -33 -34 122 40 97 -38 -39 86 42 108 64 -44 56 -46 -47 47 -49 49 -51 51 -53 124 54 -56 -57 67 110 109 -61 -62 62 -64 -65 69 66 -68 96 -70 70 71 107 -74 -75 114 -77 -78 -79 81 -81 104 -83 98 -85 85 -87 -88 -89 -90 -91 -92 92 -94 -95 103 -97 120 -99 -100 -101 -102 -103 -104 -105 106 -107 -108 -109 -110 116 -112 112 -114 -115 -116 -117 -118 -119 -120 -121 -122 -123 -124 -125 -126 -127
leaf_value=-0.0015147695499035762 -0.00019901968422345812 -0.00094299226300790899 -0.00079318562056869275 -0.0013123335256386784 -0.00034607898036483693 0.0017841143161058427 -0.0012744336474861486 0.0078093221411108978 -0.0016589140892028808 -0.0015550142535357735 0.00085037555370945481 -0.0008980285160942004 -0.0016589140892028808 -0.0016593909039875144 -0.00050372675526887188 -0.0011680337504367344 0.045841085910797122 -0.00021086957538500421 -0.00031545534729957584 -0.0012297903606668114 -0.0012976732174865902 -0.001517037262528902 -0.0014278662938158959 7.4295625090598999e-05 -1.5151880215853384e-05 1.0940725915133815e-05 0.0010950875954586082 0.038132720142602924 -0.00056422452733386321 -0.0012916813837364318 -0.00015456416702363634 0.0015256374655291439 -0.0016589140892028808 -0.0014706718479283157 -0.0016523159931966802 -0.0012819842276803684 -0.00019692065150593419 4.5656425645575031e-05 -0.0011435431544668973 -0.00038856950821354982 -0.0014524651737883689 -0.00056294752052053808 -0.0010944400960579516 -0.00086522947996854789 -0.0016589140892028808 0.00089573478326201441 7.9222982749342999e-05 -0.00094484294124413297 -0.0012385062570683661 0.00075709137134253972 9.1997450217604605e-05 -0.0008923064311966302 -0.00020980391069315378 -0.0014928797128959559 -0.0011573085351847111 -0.00040098003286402671 2.1590128890238738e-05 0.00018407715891953546 -0.001375694212401868 -0.0011797772912541405 -0.0014838078104367014 -0.0013405670547217599 -0.00093041095824446533 -0.00036017656600961339 -5.7829839643090947e-05 -0.00083406149409711357 0.00036315537989139551 -0.0012137427690322512 -0.0015721095673507082 -0.00051973776251543311 -0.0011932036344660447 0.00062339219031855471 -0.00098452412406913937 -0.00074723313329741372 0.00031998895108699795 -0.0010262085479917007 -0.00092765559675171976 -0.0016428678996453527 0.0014723015949130059 -0.00029205649349023594 -0.0009233754687011244 -7.1142986416816709e-05 -0.0016589140892028808 -0.0014656539075076581 0.00029456295596901332 -0.0013160984643036501 -0.00084277032699901625 -0.00159512391051976 0.00021061956664198073 -0.0010966461144562346 0.0024123599985614421 -0.0013727087643928826 -0.001332641940098256 -0.0016589140892028808 -0.0015136079372314272 -0.001369726157281548 -0.00047545770299620914 -0.00090414068312384211 -0.00163442803255748 -0.0011819172634568533 -0.00036652177936048248 -0.00053555153775960204 -0.00054807964159408584 -0.0014178078986878974 -0.00071892024716362361 0.00018358591652940958 -0.0012409956310875715 -0.00076030852826079352 -0.0011342566764506045 -0.0013431257475167513 -0.00046415926597546779 -0.00094600240961881374 -0.00058134921258897517 -0.00128630647319369 -0.0003613278502598405 0.0010535189183428883 -0.0012077315966598689 -0.00028892015805467955 -0.0014381809920450907 -0.0015106765244854614 -0.00079379948379937587 0.00038302820525132136 -0.0016589140892028808 0.00081945141428150245 0.0029953027982264758 0.0030602111550979316
leaf_weight=48 796 640 51 284 40 1610 60 15193 1065 306 788 270 10400 105 74 639 388 419 849 114 64 1082 412 361 365 45 42 47873 80 61 58 1541 336 161 711 46 52 1267 204 313 118 43 96 316 197 151 346 127 53 793 627 141 138 111 702 136 287 62 272 372 42 1222 74 78 304 42 165 62 187 340 46 301 51 465 733 117 89 3800 493 219 52 325 193 62 57 52 58 1109 48 183 1840 169 619 43 328 213 60 90 65 186 154 71 201 230 194 72 121 66 100 224 315 210 80 84 40 125 281 77 44 230 102 86 384 340 5462 143
leaf_count=48 796 640 51 284 40 1610 60 15193 1065 306 788 270 10400 105 74 639 388 419 849 114 64 1082 412 361 365 45 42 47873 80 61 58 1541 336 161 711 46 52 1267 204 313 118 43 96 316 197 151 346 127 53 793 627 141 138 111 702 136 287 62 272 372 42 1222 74 78 304 42 165 62 187 340 46 301 51 465 733 117 89 3800 493 219 52 325 193 62 57 52 58 1109 48 183 1840 169 619 43 328 213 60 90 65 186 154 71 201 230 194 72 121 66 100 224 315 210 80 84 40 125 281 77 44 230 102 86 384 340 5462 143
internal_value=3.53916e-05 -0.0253098 0.00968961 -0.0152607 -0.0309255 0.000240151 -0.0173324 0.0114378 -0.0330837 -0.0269932 -0.00299115 -0.000941763 -0.0339653 -0.0252469 -0.013705 -0.00735261 0.0118818 0.00379139 0.00234883 -0.0162505 -0.0210249 -0.0241818 -0.019021 -0.00789704 -0.0105769 -0.0100568 -0.0115284 0.0119471 0.00817402 -0.00598921 -0.0183451 0.00545652 -0.0346121 -0.0286392 -0.0292177 -0.00371771 -0.021247 0.00271898 -0.0206845 -0.013392 -0.0250673 -0.00311772 -0.0082824 -0.00583153 -0.0268819 0.0108707 -0.00601636 -0.00240486 -0.000553187 0.00116171 -0.00181181 -0.000651042 0.00833188 -0.0192551 -0.0164053 -0.0120455 -0.0076938 -0.0105159 -0.0233284 -0.0167197 -0.0115234 -0.0218438 -0.0231481 -0.0162829 -0.00227865 -0.00770958 -0.00102657 -0.00441792 -0.0301159 -0.00135787 -0.00422886 0.000151332 -0.0088555 -0.0119802 0.000621784 -0.0156796 -0.00365776 -0.0304615 0.00655434 -0.00807143 -0.0106809 0.00351467 -0.0348635 -0.0171392 -0.0148396 -0.00584862 -0.0176905 -0.0278198 -0.0104765 -0.0128112 0.0077877 -0.0184476 -0.0200508 0.00229118 -0.021997 -0.0172909 -0.00862903 -0.0150735 -0.0285853 -0.0200221 -0.0078271 -0.0121212 -0.00155694 -0.0244176 -0.0123292 -0.00524194 -0.015119 0.00241826 -0.0173165 -0.0210264 -0.00620027 -0.0124254 -0.0143966 -0.0186024 0.00279754 0.000568182 -0.0185891 -0.0132322 -0.0266962 -0.0271341 -0.00584677 -0.00119863 -0.0230963 0.00103755 0.00920904 0.00413701
internal_weight=118319 32637 85682 11700 20937 13377 9131 72305 13518 7419 7004 4765 12151 1367 4606 2239 63648 6373 4763 2713 4525 1757 2768 2569 1443 1893 1055 63217 8657 695 355 2300 10994 5767 5222 2710 1652 2055 2239 1037 929 2574 409 1852 1262 15344 856 473 2463 1614 821 768 8577 1658 813 330 1290 693 1189 628 256 1600 1296 304 2304 334 207 597 4293 1970 804 413 391 529 1166 401 393 4106 2834 700 481 818 10658 194 748 109 1050 1157 383 241 2016 992 788 431 845 287 310 136 258 226 214 132 562 558 439 124 315 367 218 777 377 335 290 127 773 176 505 717 1356 1312 248 146 545 759 5743 281
internal_count=118319 32637 85682 11700 20937 13377 9131 72305 13518 7419 7004 4765 12151 1367 4606 2239 63648 6373 4763 2713 4525 1757 2768 2569 1443 1893 1055 63217 8657 695 355 2300 10994 5767 5222 2710 1652 2055 2239 1037 929 2574 409 1852 1262 15344 856 473 2463 1614 821 768 8577 1658 813 330 1290 693 1189 628 256 1600 1296 304 2304 334 207 597 4293 1970 804 413 391 529 1166 401 393 4106 2834 700 481 818 10658 194 748 109 1050 1157 383 241 2016 992 788 431 845 287 310 136 258 226 214 132 562 558 439 124 315 367 218 777 377 335 290 127 773 176 505 717 1356 1312 248 146 545 759 5743 281
is_linear=0
shrinkage=0.05


Tree=2
num_leaves=127
num_cat=0
split_feature=0 1 0 20 1 1 0 1 20 20 20 14 14 5 20 19 15 18 20 15 15 15 9 1 19 19 20 5 22 0 1 1 22 15 1 19 19 1 19 18 4 21 1 7 3 21 21 21 6 21 1 6 22 0 1 6 15 15 15 8 21 8 20 13 22 19 15 7 18 21 21 22 22 15 10 15 6 20 10 22 13 10 15 21 10 9 20 10 19 19 22 18 11 0 15 21 18 18 4 3 11 19 18 8 19 14 15 15 7 12 15 15 10 20 15 22 20 19 6 22 5 5 13 19 1 21
split_gain=11192.5 667.533 645.166 79.8942 78.7611 77.0002 53.2853 47.1646 22.3752 19.9704 19.7861 17.8764 16.4633 15.4467 15.4202 15.27 14.0298 11.7113 11.1481 10.5777 10.3656 9.99659 9.85646 9.80479 9.3459 8.94828 11.1798 8.86249 7.90775 7.82833 7.55339 7.20205 6.87841 6.31301 6.06162 5.92783 5.78251 5.77434 5.72098 5.48381 5.62795 5.45174 5.37892 5.17883 5.19546 4.87677 4.87101 4.77189 4.73549 4.71242 4.6923 4.66063 7.25279 4.63895 4.63744 4.50809 4.47986 4.45936 4.52571 6.07152 4.44748 4.42896 4.35491 4.19617 4.07602 4.06703 6.59013 6.56297 3.94145 3.93656 4.49364 4.23604 5.4021 3.891 3.86762 3.80568 3.77717 3.75824 3.72821 3.68995 3.49511 3.42689 4.23448 3.38083 3.35782 3.33023 4.02222 3.30246 3.29228 3.28255 4.67835 3.27286 3.21491 3.19765 3.19473 3.09864 3.07705 4.20013 3.01536 2.99557 3.18879 3.93514 2.97916 2.96674 2.96663 2.91153 2.90661 2.89897 2.88567 2.86669 2.85236 2.85212 10.4559 3.66341 4.4212 3.23471 4.61452 3.51767 5.11185 3.15476 3.77792 2.78867 2.78203 2.78191 4.01404 3.05637
threshold=0.039778252087104997 5.3877291679382333 0.0099021651971133925 -0.77969889170510653 4.6036128997802743 2.453278779983521 0.025170283082020437 6.6244504451751718 -0.6913484944011038 -0.72219205899833583 -0.8765181184813301 -0.036319025628430174 -0.22147368362785291 24.158054351806644 -0.46174861323503363 -0.55543802234893536 0.83515143394470226 1.1410072445869448 -0.40265084705289439 0.71669942140579235 0.75831395387649547 0.92900735139846813 5.5783147811889657 4.9465894699096689 -0.55543802234893536 0.04361938736533582 -0.36235178784537897 4.9452066421508798 0.8852232634113919 0.64744402982562821 25.458582878112797 3.4631433486938481 0.96849880583763492 0.83515143394470226 5.9068949222564706 -0.40265084705289439 -0.36235178784537903 4.4440953731536874 0.95982138851864773 1.1444427967071535 0.074914184468650571 -0.814291907305839 3.5416008234024052 1.8666716217994692 4.4816143512725839 -0.03977009085991149 -0.099819732675876835 -0.93545489084327571 0.11713170413399611 0.3342611484689354 2.6471611261367802 1.0000000180025095e-35 0.87709077819680659 0.00041649590748306771 4.2055630683898935 0.25797139662038721 0.48116727173328405 0.581903636455536 -0.33515599370002741 0.18044248352148459 -0.92274349529687905 0.050353672440152493 -0.23762932952031168 0.18510639667510989 -0.92272482904738262 -0.40265084705289439 -0.34973689913749689 5.02954125404358 1.1623447537422182 -0.98523971305672675 -0.99467753128998015 -0.26867065956352881 -0.35846086284744721 -0.93974551558494557 0.058346814902944293 -0.73384433984756459 0.014858044968013646 0.36235178784537897 0.19358859565855088 -0.99628250747696534 -0.5055093765258788 0.065018784415676142 0.061270754784345634 -0.61237985104942771 0.048469117218144515 2.2971037626266484 0.89665931010743594 0.13995940509295227 -0.4808743066175169 -0.23762932952031182 0.689015599449598 1.152363181114197 5.2929487228393564 0.015747208763428947 -0.061348019167780869 0.73283908552571653 1.1777549982070925 1.1358447670936587 0.038115874257686928 5.1635761260986337 6.0994346141815194 -0.51864980417341189 1.1258945465087893 0.030972389638968995 -0.44218343748786676 0.0028738301465575915 -0.93242672085762013 -0.4660221636295318 24.15943813323975 -0.39537000656127924 0.89062941074371349 -0.025258749723434445 0.03419788656803676 0.55543802234893513 -0.52439525723457325 1.0000000180025095e-35 -0.64278760968653914 0.27976242230339715 0.023426112426403311 -0.85225707553516283 3.4607912302017216 1.4266229271888735 1.2341775894165041 0.40265084705289472 3.8836102485656743 -0.65882179392489248
decision_type=2 2 2 2 2 2 2 2 2 2 2 2 2 2 2 2 2 2 2 2 2 2 2 2 2 2 2 2 2 2 2 2 2 2 2 2 2 2 2 2 2 2 2 2 2 2 2 2 2 2 2 2 2 2 2 2 2 2 2 2 2 2 2 2 2 2 2 2 2 2 2 2 2 2 2 2 2 2 2 2 2 2 2 2 2 2 2 2 2 2 2 2 2 2 2 2 2 2 2 2 2 2 2 2 2 2 2 2 2 2 2 2 2 2 2 2 2 2 2 2 2 2 2 2 2 2
left_child=2 4 5 17 10 8 25 20 61 65 54 48 -7 29 30 57 18 42 -17 23 34 24 53 36 37 43 49 38 31 33 32 78 35 102 88 84 56 60 69 40 46 -21 -4 -5 55 98 -28 62 -10 -27 -37 52 -47 -13 107 -45 75 58 59 -8 -12 105 -26 -58 77 66 67 -6 -63 70 -20 72 123 -25 -51 -11 -59 -53 -19 -33 104 91 -83 -29 -14 -18 -87 -61 -3 94 103 -75 -52 -41 106 110 97 -60 121 -84 -101 -102 -9 -91 -43 -1 -81 -2 -15 -64 -22 112 113 -49 -115 116 -113 -117 -119 -118 -121 -16 -108 124 -71 -125
right_child=1 7 3 6 9 12 15 13 11 19 21 22 14 108 45 16 85 28 27 41 95 -23 -24 73 47 26 39 83 -30 -31 -32 79 -34 -35 -36 50 -38 -39 -40 93 -42 80 -44 44 -46 51 -48 111 -50 74 92 64 -54 -55 -56 -57 63 76 96 87 -62 68 109 -65 -66 -67 -68 -69 -70 71 -72 -73 -74 81 -76 -77 -78 -79 -80 89 -82 82 99 -85 -86 86 -88 -89 -90 90 -92 -93 -94 -95 -96 -97 -98 -99 -100 100 101 -103 -104 -105 -106 -107 122 -109 -110 -111 -112 115 -114 114 -116 117 119 118 -120 120 -122 -123 -124 125 -126 -127
leaf_value=-0.0015384862481296294 -0.00041380054410547034 0.0013306931004626677 -0.0006528744002298483 -0.0013178945503168505 -0.00048065011379003409 -0.0015759683847427369 -0.0012936645160589251 0.0010040716174989938 -0.0015759683847427369 -0.00067809665342792873 -0.0012115567674627526 -0.0015759683847427369 -0.0015688400903127329 0.043549031615257264 -0.0014857484707172259 -0.00040476798220515791 -0.0013189726104110375 -0.0010831843790365381 -0.00075418952295876803 0.00051666285294777478 0.0017580186906270682 -0.0013664860156131907 -0.0015759683847427369 -0.00061446974053978908 0.00069899145449744547 -0.00098708819836610924 -0.0013383999542129462 -0.0010189526239828411 0.00019137490450521003 0.040247619204223158 -0.0015759683847427369 -0.00064200476193218494 -0.00050995697845428384 0.00039707783609628684 0.0042001055837608877 -0.0013079146811105604 0.0001646385799394922 -0.00039974161615828065 -0.0011708691352214373 -0.0013921980429695397 -0.0011942399753625068 -0.0011832936687969778 2.252303096611265e-05 -0.0014323448961204124 -0.0012432724945574593 -0.0014512301644990658 -0.0012354114817571828 -0.00072144887906688392 -0.0015759683847427369 -0.0011737280843080952 -0.0011812225128305727 -0.0015767706942206132 -0.0012145382679445904 -0.0015759683847427369 0.00021762117912294354 -0.0012134941338263162 -0.00121181104030984 -0.0011422037851534694 -0.0012118806095095351 7.0848291868969718e-05 -0.00083370111726617339 -0.0015397726642113413 -0.0012775753001042179 0.00038756210309657033 -0.0015762982895430469 0.0017908937237662032 0.0018390812464058404 0.00072336741909384767 -0.0013135015769985331 -0.0010501861304855994 -0.0012764664647293103 -0.00081377923826221371 -0.0010982779741752894 -2.9021940077654866e-05 -0.00066857839387375855 -2.8980550312553492e-05 -0.0014345143374121109 -0.0014652069347012003 -0.00021317471045767899 -0.00039211136964149775 -0.00024505787063390012 0.0015762110797222706 0.0011152969552786088 -0.00028132405328506126 -0.0013252595855519755 -0.0011423064603277454 -0.0014778246744517674 -0.0012982494939424217 0.0024435302282217889 -0.00051257579275988956 -0.0013149471804354107 0.0013024839262216119 -0.0011430980474615355 -0.0012625429400359282 -0.00039445761149545434 -0.00042998052349867052 -0.0011744232346536593 -0.00090957969645933182 -0.0015759683847427369 0.0014794446984888055 -0.0009412867289502173 0.00011264498485252248 0.0099710821360349672 2.5512480904580846e-05 -0.00062643980607390403 -0.0012831862129605723 -0.00099595169751410151 5.1031936756771626e-05 -0.0015759683847427369 -0.00091729837193452114 -0.00077495661398279466 0.0014519884712135538 0.00016438565880525849 -0.00101105725983507 8.6998046259395914e-05 -0.00093391307398451326 -0.00038262081745779153 -0.00062155055500261376 0.00012766935906256566 0.00012004656511271613 -0.00087252465554047375 -0.0015759683847427369 -0.00028555645991582435 -0.0012035581774252934 -0.00045977147200028417 -0.0009818377557394343
leaf_weight=951 141 1499 290 142 116 231 406 91 556 151 97 8037 232 183 85 434 68 579 74 147 257 101 650 65 65 332 586 90 97 43230 150 54 57 134 6309 362 1537 473 449 555 62 80 451 1890 47 368 116 324 159 171 801 121 45 2433 879 43 108 50 105 40 1064 114 80 51 1273 1631 239 103 86 320 55 605 98 665 113 638 211 126 52 42 239 1126 424 211 65 148 62 49 3338 533 58 422 97 835 78 158 123 434 188 152 111 204 16630 165 173 74 130 150 239 190 60 66 778 61 216 158 280 123 407 68 474 2312 44 105 169 352
leaf_count=951 141 1499 290 142 116 231 406 91 556 151 97 8037 232 183 85 434 68 579 74 147 257 101 650 65 65 332 586 90 97 43230 150 54 57 134 6309 362 1537 473 449 555 62 80 451 1890 47 368 116 324 159 171 801 121 45 2433 879 43 108 50 105 40 1064 114 80 51 1273 1631 239 103 86 320 55 605 98 665 113 638 211 126 52 42 239 1126 424 211 65 148 62 49 3338 533 58 422 97 835 78 158 123 434 188 152 111 204 16630 165 173 74 130 150 239 190 60 66 778 61 216 158 280 123 407 68 474 2312 44 105 169 352
internal_value=1.57304e-05 0.00931045 -0.0254101 -0.016346 -0.00044848 -0.0310242 -0.0184529 0.0112827 -0.0332389 0.00271117 -0.00472357 -0.0339047 -0.0265834 0.0118431 -0.0270654 -0.0146254 -0.0127315 -0.00852604 -0.0117235 0.00130502 0.00836524 -0.00608706 -0.0343975 0.00199416 -0.00576767 -0.0220973 -0.0202256 -0.0129945 -0.0106714 0.01191 -0.0231009 -0.0114481 -0.0221035 0.010996 0.00867352 -0.022728 -0.000357143 -0.00885863 -0.0140828 -0.0219243 -0.0253272 -0.00479264 -0.003222 -0.0245405 -0.025202 -0.0286133 -0.0266026 -0.00423252 -0.0262413 -0.0142857 -0.0212302 -0.0267137 -0.0220036 -0.0347684 0.00113248 -0.0256014 -0.00342827 -0.0189528 -0.017621 -0.0212374 -0.0107558 -0.0268061 -0.00988806 -0.0110849 -0.0279934 0.0069471 0.00278384 -0.00348174 -0.02 -0.0128093 -0.0212209 -0.0121513 -0.0140805 0.00383796 -0.0190141 -0.0018853 -0.0248563 -0.0221154 -0.0157092 -0.00901268 -0.00731707 0.00409149 0.00531111 -0.00494186 -0.0290825 -0.0234712 -0.0203571 -0.00941011 0.00734184 -0.00835714 -0.00661376 0.00182843 -0.0192929 -0.020054 -0.0128401 0.00113158 -0.0149169 -0.0132885 -0.0300338 0.00273569 -2.67666e-05 -0.00289683 0.0110826 -0.00547994 -0.011413 -0.0281341 -0.0159722 -0.00433849 0.00231043 -0.0126852 0.00398265 -0.00359137 -0.00193075 -0.00688436 -0.00266245 -0.00504442 -0.00703829 -0.00247093 -0.000518868 -0.00805961 -0.010286 -0.0305121 -0.0188218 -0.0129228 -0.0103016 -0.0157276
internal_weight=118401 86705 31696 12123 14577 19573 9550 72128 13060 8382 6195 11835 6513 60507 6282 4658 3240 2573 2962 6293 11621 5025 11120 5654 4924 4892 2770 2528 1832 60085 1764 1735 1614 16855 11146 1557 2485 1634 2227 2154 764 639 741 2122 1980 4518 702 3290 715 616 1260 1933 413 10470 1170 1933 948 1418 1157 495 1161 1225 335 159 1520 2089 458 219 200 1778 129 1649 1044 3169 284 789 261 247 631 1104 492 3104 2017 301 297 278 210 89 4837 1050 756 1087 898 1390 294 475 662 539 2585 891 467 315 16721 698 253 1025 216 291 422 270 317 2955 1379 601 277 1576 888 688 530 822 542 2397 174 946 489 457
internal_count=118401 86705 31696 12123 14577 19573 9550 72128 13060 8382 6195 11835 6513 60507 6282 4658 3240 2573 2962 6293 11621 5025 11120 5654 4924 4892 2770 2528 1832 60085 1764 1735 1614 16855 11146 1557 2485 1634 2227 2154 764 639 741 2122 1980 4518 702 3290 715 616 1260 1933 413 10470 1170 1933 948 1418 1157 495 1161 1225 335 159 1520 2089 458 219 200 1778 129 1649 1044 3169 284 789 261 247 631 1104 492 3104 2017 301 297 278 210 89 4837 1050 756 1087 898 1390 294 475 662 539 2585 891 467 315 16721 698 253 1025 216 291 422 270 317 2955 1379 601 277 1576 888 688 530 822 542 2397 174 946 489 457
is_linear=0
shrinkage=0.05


Tree=3
num_leaves=127
num_cat=0
split_feature=0 0 1 1 20 1 0 17 0 20 20 17 9 15 14 16 20 5 17 1 19 19 15 16 0 5 19 19 17 20 13 15 16 17 16 0 19 18 15 18 14 15 22 16 18 15 19 19 19 0 9 20 19 15 5 21 17 11 16 14 21 5 22 18 20 10 16 18 19 9 19 20 19 11 1 18 19 21 22 16 5 19 18 22 7 16 15 16 9 18 11 12 3 19 0 11 13 12 12 21 10 21 20 19 21 0 18 10 12 13 18 16 21 15 17 9 5 16 14 2 13 15 22 18 18 15
split_gain=10862.3 676.554 648.211 80.7848 75.8004 71.7934 57.2224 49.8479 41.9344 19.6424 19.4452 22.985 18.6865 18.5106 17.5586 16.4306 15.0842 14.873 13.2316 11.894 10.8854 10.3536 9.85618 9.28656 9.11309 8.95262 8.84434 8.48819 7.90333 9.94191 7.6377 7.51253 7.43543 7.43115 7.36113 7.21325 6.9711 6.88016 6.57799 6.56691 6.43466 6.09316 5.99364 5.89234 5.83651 5.98664 5.65056 5.62635 5.43008 5.2998 5.26002 5.18777 5.01135 7.20466 6.21879 4.96186 6.17916 4.86145 4.78302 4.7598 4.72762 4.65227 4.58666 4.52616 5.16332 4.49422 6.18062 4.6157 4.43184 4.29164 4.22734 4.03837 3.9797 3.92509 3.90543 3.89902 6.35856 3.8676 3.80347 5.56122 4.79671 4.59222 3.72117 3.71921 3.69731 3.63559 3.60744 8.55873 3.60117 3.55199 3.48834 3.4082 3.3799 3.3021 3.30075 3.29816 3.32647 3.2724 3.27083 3.23164 3.23066 3.21536 3.1924 3.16599 3.16109 3.16033 3.1524 3.38422 3.14492 3.1095 4.61677 3.10183 3.0994 3.05935 3.02946 3.02636 3.01127 3.00833 3.00675 2.97752 2.97595 3.00101 2.9713 2.95669 2.95314 3.09495
threshold=0.039778252087104997 0.0099021651971133925 5.3877291679382333 2.3019165992736821 -0.72219205899833583 4.6036128997802743 0.28853923512870555 0.15528788417577746 0.025170283082020437 -0.75166088996455105 -0.62577451934762984 0.1075849048793316 5.388700246810914 0.29650336503982549 -0.22147368362785291 -0.18381221592426297 -0.6913484944011038 24.158054351806644 0.13156637549400332 3.5416008234024052 0.065387565056497093 -0.51864980417341189 0.19870008528232577 -0.33018288016319269 0.75096548678350994 25.458582878112797 0.971110916704501 -0.53729960834682411 0.20161966234445575 -0.62577451934762984 0.44281959533691412 0.83515143394470226 0.78266298770904552 0.10060668736696245 -0.69357204437255848 0.088127069823482909 -0.4808743066175169 1.141335189342499 0.83515143394470226 1.1781619787216189 -0.036319025628430174 0.87199884653091442 -0.11692317777808843 -0.70962512493133534 1.1372053623199465 0.81952118873596203 -0.80625269229011354 0.98055188006607075 -0.62577451934762973 0.0067496339370845251 3.658542394638062 -0.30070579950427329 -0.40265084705289439 -0.34973689913749689 4.7665295600891122 -0.16799356919963607 0.083679269999265685 3.3004870414733891 -0.99635073542594899 0.0041174279307520387 -0.93545489084327571 2.0346759557724003 0.8852232634113919 1.1440924406051638 -0.46174861323503363 0.080558905037540873 0.93687814474105846 1.1358447670936587 -0.32136297141497117 5.6210169792175302 0.65918890865109991 0.25881904510252057 -0.1950438958025166 5.7581117153167733 5.9068949222564706 1.1865534186363222 0.40265084705289472 0.92602006027323147 -0.26867065956352881 -0.39331433176994318 4.3622388839721689 0.971110916704501 1.1418060660362246 0.93158198870884079 3.4189082384109502 0.96556487679481517 -0.4489873051643371 0.048811161890625961 4.4841904640197763 1.1510084867477419 1.973558306694031 -1.3948826789855955 25.458582878112797 -0.65918890865109958 0.027538980896066722 8.8626708984375018 -2.1355752944946285 -2.1465125083923335 -1.7752208709716795 -0.11692013674435776 0.58813338730025133 0.92922379131507438 -0.64278760968653914 0.19504389580251663 0.75580964594513067 0.049937273760800177 1.1437380909919741 0.12658599673956419 1.8045325279235842 -0.70325833559036244 1.1442605853080752 -0.25957478582859034 -0.57078386445773377 -0.28054791688919062 0.19303112477064135 9.5195889472961444 3.0909852981567387 0.90848657488822948 0.0084694805259609065 0.015693282803897552 0.52906775474548351 0.91074597835540783 -0.15101602693478741 1.203391492366791 1.1983723044395449 0.66939032077789318
decision_type=2 2 2 2 2 2 2 2 2 2 2 2 2 2 2 2 2 2 2 2 2 2 2 2 2 2 2 2 2 2 2 2 2 2 2 2 2 2 2 2 2 2 2 2 2 2 2 2 2 2 2 2 2 2 2 2 2 2 2 2 2 2 2 2 2 2 2 2 2 2 2 2 2 2 2 2 2 2 2 2 2 2 2 2 2 2 2 2 2 2 2 2 2 2 2 2 2 2 2 2 2 2 2 2 2 2 2 2 2 2 2 2 2 2 2 2 2 2 2 2 2 2 2 2 2 2
left_child=1 3 5 12 19 10 22 8 33 25 36 30 16 28 -11 73 -1 24 39 48 35 43 74 112 38 61 31 85 29 52 60 42 -28 50 57 124 86 -29 93 -16 -18 102 55 -10 97 77 116 98 -3 59 63 -14 53 54 -7 68 -57 -31 -59 -20 100 -5 106 64 -6 66 69 -68 -23 -45 -17 -40 -52 -9 108 -41 -77 103 79 81 83 -62 -38 -80 -63 99 87 -2 117 -36 -65 -44 -19 -8 -67 -42 -97 -24 -48 -21 -12 -51 -22 109 -104 -90 -50 -108 -4 110 -46 -58 114 -91 -13 -53 -35 -81 -100 -78 -32 -122 -25 -37 125 -15
right_child=2 4 6 9 7 13 17 15 21 14 11 23 51 20 18 70 40 92 49 27 41 26 44 122 -26 -27 32 37 -30 34 120 -33 -34 46 89 123 82 -39 71 75 95 -43 91 65 45 -47 47 -49 62 101 72 115 -54 -55 -56 56 111 58 -60 -61 78 84 -64 90 -66 94 67 -69 -70 -71 -72 -73 -74 -75 -76 76 119 -79 80 88 -82 -83 -84 -85 -86 -87 -88 -89 105 113 -92 -93 -94 -95 -96 96 -98 -99 118 -101 -102 -103 104 -105 -106 -107 107 -109 -110 -111 -112 -113 -114 -115 -116 -117 -118 -119 -120 -121 121 -123 -124 -125 -126 -127
leaf_value=-0.0014761933931753445 0.00017311081979478338 -0.0013733858104119463 0.0021836087110335941 -0.0010861994608643726 -0.00079893858350533239 -0.00049701141741388709 0.0082375620822422203 -0.0006628090312256747 -0.00070420346537830483 -0.0014971699655056 -0.0012152539674978474 -0.0005640861878440772 -0.0014788701363101153 -0.00070945993552377342 -0.0014971699655056 -0.0013398089304702807 -0.0014971699655056 0.041371580034494405 -0.0014971699655056 -0.00091607844628342728 0.0026903133628169602 -0.00042330511247028001 -0.0014002209080790633 -0.0010964399875003437 0.040584231217578058 -0.0014971699655056 -0.0011937810542212903 3.4191336466392161e-05 0.002370821703906404 -7.1809290483543147e-05 0.00020062876267602425 -0.001258831716954012 -0.00049509014679733796 -0.001289774796432994 -0.00042776167028787336 -0.00025602723923475422 0.00044204363320313851 -0.00048449610560346651 -0.0016017335448414091 -0.0014971699655056 -0.0014971699655056 -0.00078841714916052315 0.00014469646964807934 -0.0012403271068291135 -0.00093426585947891001 -6.5312681311206766e-05 -0.00067374757525026315 -0.0014054278049130519 -0.0006184392379577732 -0.0013898120736885405 -0.0013981802697257994 -0.0014971699655056 0.0017526149538556642 0.0014715906261932108 0.00019293785717891326 -0.0010712984510304524 -0.00019646760986802292 -0.00028590979539440018 0.00088051726507255802 -0.0011922501983343407 -0.00045588639907218759 -0.0012030286102199172 0.00026091343256266585 -0.0013038243444856562 -0.0013275817927192292 -0.0013482579718550598 -0.0012975184513037679 -0.00076160279478704087 -0.0010664827488054472 -0.00065693755432459991 -0.00075336302616658491 0.008069372900994496 -0.0013013961794316404 0.00017022952674997181 0.0045659817569889127 -0.0014971699655056 -0.0014971699655056 0.0014936612499164767 2.7175840313702939e-05 -0.0011238005755090854 -0.00093202129557030293 -0.0011373374801414687 -3.6515444543329128e-05 -0.0011421899034529815 -0.0012286332811683224 -0.00025587516233172225 -0.00012312275856584155 -0.0009292790061788764 -0.0013139653414043551 -0.00027719595851249338 -0.0012139378060064248 -0.00076456003730263555 -0.0014971699655056 0.011969817035831512 -0.0013067927050605249 -0.0014971699655056 -0.0014983942683378701 0.00076679527617525315 -0.0012052001666879278 -0.0011248882837917335 -0.0006525946120035772 -0.00099566009505165295 0.00068149526607594432 0.0046872366811934628 -0.00023926464116375427 -0.00087204243550659157 -0.0010590686053794343 -0.00059723214305595343 0.00071805609335424373 0.0028073369836391069 0.0016459231872926465 -0.0010766301755318747 0.00060552229688910276 0.00043178390021930674 0.00019793515665805889 -0.0014971699655056 -0.0014411377722558429 5.2699553024695114e-05 -0.001138815439833161 -0.0011360920345971409 -0.00046003679875357195 -0.0011476774547190872 -0.00035012838826805823 0.0015998024165791776 0.00042103671805689363 -0.0011918298200582285
leaf_weight=969 69 41 2831 211 57 115 5098 452 176 196 127 196 170 252 4110 149 274 389 679 61 235 58 45 142 39443 107 352 463 529 500 62 188 81 66 514 743 545 983 61 252 9241 104 100 354 54 248 60 62 448 418 774 791 1405 298 154 461 210 89 1659 114 399 699 46 269 503 74 40 171 545 44 74 68 838 267 4688 464 300 648 255 49 469 68 1044 47 292 41 181 114 126 134 823 662 43 13887 375 114 61 369 435 68 44 46 879 1936 286 301 589 96 265 1154 893 58 618 287 135 47 178 56 181 42 1039 49 91 60 48 121
leaf_count=969 69 41 2831 211 57 115 5098 452 176 196 127 196 170 252 4110 149 274 389 679 61 235 58 45 142 39443 107 352 463 529 500 62 188 81 66 514 743 545 983 61 252 9241 104 100 354 54 248 60 62 448 418 774 791 1405 298 154 461 210 89 1659 114 399 699 46 269 503 74 40 171 545 44 74 68 838 267 4688 464 300 648 255 49 469 68 1044 47 292 41 181 114 126 134 823 662 43 13887 375 114 61 369 435 68 44 46 879 1936 286 301 589 96 265 1154 893 58 618 287 135 47 178 56 181 42 1039 49 91 60 48 121
internal_value=3.97201e-05 -0.0250736 0.00917812 -0.0307949 -0.0157093 -0.000415016 0.0111252 -0.0179257 -0.0191779 -0.026901 -0.00448522 -0.00637433 -0.0334415 0.00259748 -0.0280075 -0.00703291 -0.0340569 0.0117897 -0.0284572 -0.00856841 -0.000788123 -0.0154691 0.00814009 -0.000444162 0.0118579 -0.0213044 -0.0137431 -0.00575495 0.00422238 0.00362512 -0.00864203 -0.0125 -0.0202945 -0.0226272 0.0018968 -0.00428922 -0.000352023 -0.00451245 0.0109619 -0.0295762 -0.0346517 0.00206117 -0.0116404 -0.0192666 0.00648728 0.00696584 -0.0188136 -0.0166328 -0.0122951 -0.0238564 -0.0237745 -0.0269345 0.00641481 0.00244709 -0.00348513 -0.0136637 -0.0108882 0.00344751 0.00469108 -0.0263398 -0.0105551 -0.0200707 -0.011673 -0.0217918 -0.0254464 -0.0206758 -0.0178777 -0.0109597 -0.0170191 -0.0215452 -0.0188901 -0.000290698 -0.0258065 -0.00335535 0.00927544 -0.0260633 -0.0277605 0.0073666 -0.00978814 -0.0118243 -0.00714981 -0.00784261 0.00107772 -0.0022351 -0.0215061 -0.0163235 -0.00659341 -0.0115437 -0.0153195 -0.00183155 -0.0199176 -0.00810367 0.0025463 0.0110383 -0.024471 -0.0348715 -0.0280714 0.000785024 -0.0153107 -0.0204457 -0.0184942 -0.0196121 0.00292857 0.00794216 0.00185622 -0.0173595 -0.0123014 -0.0144343 0.00789729 0.00659805 0.00447466 -0.00485075 0.00175184 0.00157363 -0.00215257 -0.0285501 -0.0254098 -0.00702381 -0.0163961 -0.0225877 -0.00541304 -0.00602022 -0.00938841 -0.00150996 -0.00959026 -0.0110925
internal_weight=118328 31570 86758 19597 11973 14638 72120 9137 8195 7930 6226 4273 11667 8412 6621 942 10659 58989 6425 2836 2728 3949 13131 1182 58557 1309 2715 1616 5684 5155 3091 2282 433 4246 3183 1224 1953 1446 19114 5168 9690 1504 2094 1234 5347 4933 982 738 1220 1257 3264 1008 1972 567 269 1332 729 2248 1748 793 1941 1202 1179 1652 560 1058 609 211 603 398 223 129 1612 719 7784 1058 806 4685 1770 999 771 467 1589 302 991 170 364 183 532 935 1092 762 432 18985 449 9416 175 414 676 129 171 464 1400 4037 1165 427 1133 685 3096 2101 947 268 949 421 331 838 244 105 616 342 1150 1088 233 803 421 373
internal_count=118328 31570 86758 19597 11973 14638 72120 9137 8195 7930 6226 4273 11667 8412 6621 942 10659 58989 6425 2836 2728 3949 13131 1182 58557 1309 2715 1616 5684 5155 3091 2282 433 4246 3183 1224 1953 1446 19114 5168 9690 1504 2094 1234 5347 4933 982 738 1220 1257 3264 1008 1972 567 269 1332 729 2248 1748 793 1941 1202 1179 1652 560 1058 609 211 603 398 223 129 1612 719 7784 1058 806 4685 1770 999 771 467 1589 302 991 170 364 183 532 935 1092 762 432 18985 449 9416 175 414 676 129 171 464 1400 4037 1165 427 1133 685 3096 2101 947 268 949 421 331 838 244 105 616 342 1150 1088 233 803 421 373
is_linear=0
shrinkage=0.05


Tree=4
num_leaves=127
num_cat=0
split_feature=0 0 1 1 20 0 1 0 17 17 20 19 16 6 20 5 20 17 16 20 17 19 17 2 1 13 0 9 15 5 16 13 18 16 18 15 15 20 19 21 1 16 19 1 21 12 13 10 10 19 15 16 20 19 17 1 0 18 15 21 16 16 5 16 6 3 20 13 22 22 10 21 17 13 21 20 17 9 4 18 19 18 15 17 19 21 20 21 20 19 16 20 1 19 22 22 10 9 17 19 15 22 18 18 19 21 6 15 0 21 16 12 18 13 11 15 19 0 16 21 18 21 21 22 18 16
split_gain=10381.3 711.137 613.36 96.3782 77.5657 65.2924 56.3247 52.2951 24.7642 24.7459 24.1822 21.3931 20.9419 20.8986 16.6454 15.6031 15.0868 16.0244 14.9116 14.6047 13.2513 12.4863 12.4809 11.5764 11.0414 10.9608 10.5184 10.0612 9.07913 9.02802 8.53245 8.44826 7.66331 7.59582 7.57495 6.95204 8.57656 6.98741 6.40574 6.36139 6.25579 6.1498 6.03832 6.03501 5.90616 7.2825 5.72182 5.71683 5.50305 5.37458 5.28203 5.19842 11.1399 7.87699 5.36258 5.1669 4.95243 4.9284 4.86898 4.67108 4.57858 4.56243 4.50567 4.36047 4.22315 4.18912 4.11625 4.14443 4.10737 4.10602 5.23655 4.20366 4.08312 4.0662 5.86363 4.31579 4.04221 4.004 3.98109 3.8572 4.2885 3.84691 3.83614 3.7986 3.79014 3.76957 3.76161 3.68278 3.66883 3.6442 3.61111 3.58488 3.57209 3.55753 3.55256 6.11136 3.69787 3.87734 3.50621 3.49179 3.43895 3.43285 3.89818 3.42662 4.10884 3.3564 3.35524 3.34068 3.33825 3.30463 3.2282 3.50567 3.21117 3.20737 6.34736 3.19595 3.14988 4.03806 3.81148 3.13157 3.09805 3.05417 3.53722 3.04452 3.02848 2.99153
threshold=0.041360239391711108 0.0099021651971133925 5.4346923828125009 2.453278779983521 -0.6913484944011038 0.080389795390024124 6.9052591323852548 0.027538980896066722 0.13354247808456424 0.15528788417577746 -0.72219205899833583 -0.42261826174069955 -0.29519426822662348 0.036439784205428587 -0.59116893267988335 24.158054351806644 -0.30070579950427329 0.1088666580617428 0.89000266790390026 -0.65918890865109969 0.16320211440324786 -0.53729960834682411 0.16320211440324786 0.20562016675281827 3.5416008234024052 -2.5207605361938472 0.63645331907823011 5.5783147811889657 0.72825893759727489 25.458582878112797 -0.18381221592426297 1.1321706771850588 1.1434140801429751 -0.6562247872352599 1.1959797739982607 0.83515143394470226 -0.54252922534942616 -0.40265084705289439 -0.77969889170510642 -0.091260668982868151 5.9068949222564706 -0.67553737759590138 -0.44218343748786676 3.2156913280487065 1.0000000180025095e-35 0.071495771408081069 -3.5626266002655025 0.96620052861599914 0.08436045920744166 -0.32136297141497117 0.016928995959460739 0.56493782997131359 0.25881904510252057 0.32136297141497111 0.042657133191823966 1.6802503466606142 0.033180751262127051 1.141335189342499 0.91074597835540783 -0.03977009085991149 0.61623510718345653 0.84604242444038402 2.1462994813919072 -0.59992063045501698 0.11387829272222237 1.3606328964233401 0.9150936597739685 -2.0611368417739864 -0.73865259438682551 0.04621408538533487 0.0051264037457096389 0.74443451080969758 0.087839871644973769 0.38069057464599615 0.41398981800788198 -0.15208718494349091 0.1075849048793316 5.907052993774415 0.09511838319160236 1.1865534186363222 0.72219205899833594 1.1384623646736147 0.78995475172996532 0.12454013526439668 -0.8312717450509387 0.73283908552571653 -0.021809693682668031 -0.95754239937548935 -0.30070579950427329 0.95982138851864773 0.75328493118286144 -0.65918890865109969 3.2579625844955449 -0.57357643635104605 0.63755505330306683 0.94353349168649059 0.078688230356801822 2.6888530254364018 0.053624913096427924 -0.40265084705289439 -0.48554673790931696 0.8852232634113919 1.1432619690895083 1.1418060660362246 -0.9598213885186474 -0.17647087149565668 0.0098796351778766226 0.59274151921272289 0.0080685247794883719 0.94138322595482449 0.7295798957347871 0.23799109458923343 1.2008518576622011 -0.96502327919006337 1.4221929311752322 0.1898833513259888 -0.13052619222005171 0.022709184553279586 -0.9257889688014983 -0.05695216311707673 1.1295567750930788 -0.42957681104363482 -0.90893996196865023 -0.54219087765047058 1.1442605853080752 -0.29519426822662348
decision_type=2 2 2 2 2 2 2 2 2 2 2 2 2 2 2 2 2 2 2 2 2 2 2 2 2 2 2 2 2 2 2 2 2 2 2 2 2 2 2 2 2 2 2 2 2 2 2 2 2 2 2 2 2 2 2 2 2 2 2 2 2 2 2 2 2 2 2 2 2 2 2 2 2 2 2 2 2 2 2 2 2 2 2 2 2 2 2 2 2 2 2 2 2 2 2 2 2 2 2 2 2 2 2 2 2 2 2 2 2 2 2 2 2 2 2 2 2 2 2 2 2 2 2 2 2 2
left_child=1 3 5 10 21 11 28 9 35 31 46 12 87 27 29 26 32 51 94 -7 42 48 23 59 101 -20 82 55 40 34 -10 38 -13 89 62 36 66 81 41 88 -4 -6 47 -40 68 49 115 63 56 60 -19 52 -18 -53 105 -12 100 -26 -44 -16 -46 125 108 -21 -15 -57 67 -9 72 71 -71 76 -39 74 121 -75 -61 -24 98 -72 -81 -38 93 112 119 -86 -78 -2 -33 -11 -32 -42 -41 -8 96 -96 97 -14 -51 -64 -3 102 -23 104 -65 -54 -70 123 -5 120 111 -105 113 116 -115 -1 -45 -118 -119 -30 -48 122 -27 -90 -34 -59
right_child=2 4 6 14 7 19 15 8 30 33 13 16 18 64 22 -17 17 50 25 20 -22 24 77 -25 57 73 -28 -29 84 -31 90 39 124 -35 -36 -37 37 44 43 92 91 -43 58 83 45 -47 109 -49 -50 78 -52 53 54 -55 -56 65 -58 61 -60 69 -62 -63 99 103 -66 -67 -68 -69 106 70 79 -73 -74 75 -76 -77 86 -79 -80 80 -82 -83 -84 -85 85 -87 -88 -89 107 -91 -92 -93 -94 -95 95 -97 -98 -99 -100 -101 -102 -103 -104 110 -106 -107 -108 -109 -110 -111 -112 -113 -114 114 -116 -117 117 118 -120 -121 -122 -123 -124 -125 -126 -127
leaf_value=-0.00098079980418628904 -0.0011935049834501847 -0.0012069661337590276 0.0019517476913385326 -0.0010242165300375107 -0.0010484969977396454 0.0015984713830580228 0.007016719961748458 -0.00096696215730413329 1.2782793560106762e-06 -0.00036413205190494494 -0.0014223114672303201 0.00064372364445865963 -0.0009164648401436739 -0.0014223114672303201 -0.0014223114672303201 0.03930300103276968 -0.0012043359182860971 0.00048576769858046649 -0.0012893044559215377 0.00060223996542288635 0.0019302379544218252 -0.00056709056308056939 -0.0012799215190180068 -0.0014227644412757217 -9.190061356093971e-06 -0.0010285294937908201 0.036147351870816205 -0.0014223114672303201 0.00025050249118845384 -0.0014223114672303201 -0.0011881328222275351 -0.001099780875455963 -0.00064639516712792122 -0.0012055716995457168 -0.00090716239613406521 -0.0012002203214150132 -0.00075489201642572196 -0.0011163641022140338 -0.001285361734563521 -0.0011391941077211964 0.0063028294846601777 -0.0013250681935278183 0.00036346439952511213 -0.0012714257652835363 -0.0006086239773836641 -0.00049642837263571139 -0.0013093952757756418 -0.0012188043856692274 1.8262981785881119e-06 -0.0010268879716116739 -0.00029120156215540208 -0.00088566241188996165 -0.0010684390182653988 -1.0727118015611219e-05 -0.00036756851890222612 -0.0014223114672303201 -0.00050950183530571423 -0.00020668738155094643 -0.0010453957363934024 -0.0014079365884435947 -0.0011626983919950863 -0.00020292429519780839 -0.0014170121797846876 -0.0011616692545336992 -0.0014223114672303201 -0.0014223114672303201 -0.00067893506095350296 -0.001186338399884562 -0.0011518082630291658 -0.0010641204706141071 -0.0014226248767906147 -0.0014226248767906147 -0.00083958353095785719 0.00030020356201198412 5.3279069609925296e-06 -0.0010953799683464964 -0.0013411540532348957 -0.001002364471678783 0.00025651867468465749 -0.0014226248767906147 -0.0014145806587319658 -0.00026935050839794041 0.0035076589964097363 -0.0010837504381022163 0.0018838615161440612 -0.00010712206037775795 -0.0012698504449772088 -2.9022055616387615e-05 -0.0013617558232477452 -0.0011449176338934389 -0.00033203109151326782 0.0035039601405992288 -0.00098011223533181371 0.010840152911515908 0.00019007431549579925 -0.0012670894460982685 -0.0011801938832444285 -0.00081330938565205328 -0.00080705448891334967 -0.0010806705312910708 -0.0010020368785100976 0.00020243980821607716 -0.0009059020453385891 -0.00092510772862242443 -0.0002857796013949975 -0.00044972417141282695 -0.00095176843219505782 -0.0012101604566139813 -0.0005513372590421387 -0.0012720402892321362 6.8526767556759309e-05 0.00094839238905433394 -0.00079602677444768212 -0.0012365628194604484 -0.0011279047137560173 -0.0013821639529041636 -0.0012509546430279281 -0.0012519774247730152 -0.00098332548980820263 -0.0010711697840599186 -0.0013754077729120401 -0.0011439402619746225 -0.00023274614291367534 -0.0011473351335287158 -2.746660193143737e-05 -0.00067276932511216726
leaf_weight=47 41 120 4380 195 86 1921 4231 62 446 265 5529 875 42 568 2504 435 247 576 84 433 788 416 398 72 518 40 43454 653 41 145 97 64 57 188 93 286 47 197 834 172 2343 947 2652 207 42 456 41 55 40 130 287 275 57 620 819 248 94 136 48 482 197 477 203 73 166 4668 74 337 181 81 109 789 85 201 203 44 78 78 55 189 82 240 218 179 471 231 111 827 107 50 49 5891 258 9780 71 40 291 390 233 855 74 49 750 151 230 83 636 91 68 118 559 59 85 95 1050 40 314 63 122 43 857 91 112 187 1352 477
leaf_count=47 41 120 4380 195 86 1921 4231 62 446 265 5529 875 42 568 2504 435 247 576 84 433 788 416 398 72 518 40 43454 653 41 145 97 64 57 188 93 286 47 197 834 172 2343 947 2652 207 42 456 41 55 40 130 287 275 57 620 819 248 94 136 48 482 197 477 203 73 166 4668 74 337 181 81 109 789 85 201 203 44 78 78 55 189 82 240 218 179 471 231 111 827 107 50 49 5891 258 9780 71 40 291 390 233 855 74 49 750 151 230 83 636 91 68 118 559 59 85 95 1050 40 314 63 122 43 857 91 112 187 1352 477
internal_value=0.000108858 -0.0242932 0.0091188 -0.0302493 -0.0149161 -0.00018545 0.0110304 -0.0172319 -0.0127857 -0.0204232 -0.0327493 -0.00335113 -0.00718107 -0.0334094 -0.0252985 0.0117042 -0.00154345 -0.00389676 -0.0105578 0.00332365 0.00191165 -0.00814424 -0.0267117 -0.0275267 -0.00707138 -0.00556452 0.0117753 -0.0339498 0.00810821 -0.0207906 -0.00337838 -0.0215156 0.00151051 -0.00986581 -0.0195721 -0.0144951 -0.0137786 -0.01261 -0.022495 -0.0170791 0.00843309 -0.0258833 0.000809859 -0.0213081 -0.0135624 -0.0109951 -0.0256686 -0.00166667 -0.017378 -0.0143645 0.00183951 -0.00625297 -0.00839552 -0.00336592 -0.00595673 -0.0343262 -0.0197917 -0.00435323 0.00224074 -0.0278503 -0.0203452 -0.00626147 -0.0205431 -0.00108804 -0.0252384 -0.0331469 -0.0199524 -0.0219612 -0.0161624 -0.0259956 -0.0218818 -0.0272945 -0.0213652 -0.00349132 -0.00633408 0.00168367 -0.0243852 -0.0190126 -0.010945 -0.0243421 -0.0275369 -0.00527003 0.0105954 -0.0198877 0.0028944 0.00409544 -0.0181878 -0.000921659 -0.0212416 -0.00511905 -0.0138699 0.0092452 -0.0127326 0.0106978 -0.0151978 -0.00686937 -0.0164765 -0.0135417 -0.0128444 -0.0219991 -0.0243557 -0.0106687 -0.0112136 -0.00279851 -0.00730198 -0.015 -0.0143666 -0.0230844 -0.0146863 -0.0267224 -0.00102406 -0.00630952 -0.020532 -0.0209684 -0.0193341 -0.0133621 -0.023619 -0.0214679 -0.0156081 -0.00714286 -0.0277561 -0.0115741 -0.00723684 -0.0204932 -0.000771824 -0.00911501
internal_weight=118044 31832 86212 19467 12365 14694 71518 9214 3850 5364 12935 7725 2477 11832 6532 58118 5248 2964 1609 6969 5048 3151 4973 4497 2823 775 57683 11098 13400 1559 592 4861 2284 503 1414 3258 2972 2499 3982 879 12614 1033 4260 2949 2212 1113 1103 1560 328 657 863 2101 1206 895 959 10445 288 1608 2700 4425 239 1090 1321 1505 734 4916 473 399 1099 1921 461 1460 282 691 446 245 671 476 418 380 271 287 14229 2115 786 702 189 868 449 315 146 8234 430 14011 834 111 723 432 363 1058 194 1215 1166 1072 303 140 817 385 263 1016 769 210 1936 1851 1145 87 706 499 185 84 898 243 152 294 1409 613
internal_count=118044 31832 86212 19467 12365 14694 71518 9214 3850 5364 12935 7725 2477 11832 6532 58118 5248 2964 1609 6969 5048 3151 4973 4497 2823 775 57683 11098 13400 1559 592 4861 2284 503 1414 3258 2972 2499 3982 879 12614 1033 4260 2949 2212 1113 1103 1560 328 657 863 2101 1206 895 959 10445 288 1608 2700 4425 239 1090 1321 1505 734 4916 473 399 1099 1921 461 1460 282 691 446 245 671 476 418 380 271 287 14229 2115 786 702 189 868 449 315 146 8234 430 14011 834 111 723 432 363 1058 194 1215 1166 1072 303 140 817 385 263 1016 769 210 1936 1851 1145 87 706 499 185 84 898 243 152 294 1409 613
is_linear=0
shrinkage=0.05


Tree=5
num_leaves=127
num_cat=0
split_feature=0 0 0 0 0 0 0 14 17 19 13 19 16 9 5 15 17 15 17 15 19 16 5 19 16 14 0 16 14 16 13 15 16 0 19 0 19 0 12 16 7 17 16 16 2 19 16 18 16 16 10 19 17 16 19 17 21 22 8 15 10 7 0 19 21 17 4 12 22 17 19 16 21 22 16 0 19 17 18 5 0 10 21 19 15 19 4 22 3 16 19 18 16 16 19 0 12 16 9 17 0 15 15 19 2 4 19 19 16 22 10 22 16 4 19 7 15 10 0 7 18 15 4 10 16 19
split_gain=10077 735.392 583.818 90.2892 74.0967 65.3062 48.6537 36.1766 28.6773 23.7421 20.8042 17.9354 17.649 16.4437 16.2314 15.4843 15.4839 13.4299 11.494 11.1517 10.8774 10.5303 10.1025 9.83671 9.98875 9.80888 9.31023 9.10656 8.70772 8.67115 8.44061 8.2217 8.1861 8.0335 7.17468 6.85223 6.66856 6.65149 6.22039 6.04188 6.03292 5.85583 5.6696 5.38946 5.02703 4.97354 5.54011 4.8898 4.86966 4.86813 4.79453 4.74801 6.23643 7.45788 4.61811 4.54493 4.5213 4.42204 7.25188 4.40045 4.3991 4.31387 4.28827 4.20074 4.15433 4.12978 4.08345 4.03315 3.99107 3.971 3.9201 4.44461 5.05281 3.91837 3.88616 3.87094 3.79846 3.78985 3.77601 3.75408 4.48943 3.71551 3.71204 3.69365 3.8338 5.28911 4.01399 3.89149 4.0997 3.67625 4.8328 3.66479 3.6555 3.59231 3.46843 3.71562 3.43599 3.4298 3.41556 3.39796 3.39118 3.37942 3.36732 3.26975 3.23511 3.21242 3.14138 3.13307 3.10756 3.09608 3.05184 4.47251 3.03727 3.01973 3.01967 2.9931 2.98883 2.95281 2.91592 2.88778 2.88296 7.36889 4.03433 2.84025 2.79727 2.79476
threshold=0.041360239391711108 0.008672882386914155 0.14950859611894035 0.027538980896066722 0.080389795390024124 0.0026237086804771085 0.39839546578165075 -0.036319025628430174 0.10637325420975687 -0.57357643635104605 0.27098202705383306 -0.55543802234893536 -0.42374713718891138 5.1646263599395761 24.158054351806644 0.20888192206621173 0.16320211440324786 0.83515143394470226 0.087839871644973769 0.83515143394470226 -0.5 0.87086209654808056 4.9874043464660653 -0.72219205899833561 -0.18381221592426297 0.012653607515264875 0.79825377361962813 -0.6562247872352599 0.0052122161313428719 0.90647801756858837 -0.77316707372665394 0.12045988440513612 0.6813759207725526 0.014012175462060841 0.30070579950427329 0.056617734252718328 -0.5 0.018308045987834309 -1.2207398414611814 -0.98850533366203297 24.15943813323975 0.087074130773544325 0.68772369623184215 0.93687814474105846 0.0098854003962213031 -0.36235178784537903 -0.45082980394363398 1.1258945465087893 0.79351803660392772 -0.74210396409034718 1.0000000180025095e-35 0.971110916704501 0.10271303355693819 0.56493782997131359 -0.57357643635104605 0.077452983707189574 -0.92923668111203805 -0.8142754349318998 0.11771538341080261 0.78995475172996532 0.078688230356801822 3.5774770975112919 1.0000000180025095e-35 -0.57357643635104605 0.91596454896554913 0.13930547237396243 0.10112037739202437 -1.1575481891632078 -0.5129677127369543 0.20614881813526156 -0.1088409674838548 0.26007583737373358 -0.05695216311707673 0.79253265336324141 -0.89132976531982411 0.093359173875213933 -0.85470842479866205 0.073753852397203459 1.14244019985199 4.4421133995056161 0.03563233753064339 0.045133073426040379 0.38243310158943505 0.95982138851864773 -0.25332391262054438 0.40265084705289472 0.09511838319160236 -0.7614016681079937 3.8087333440780644 1.0000000180025095e-35 -0.91509365977396828 1.1749088168144228 0.79549610614776622 0.86095699667930614 0.83127174505093893 0.0064204535131258929 -0.38227820396423334 0.60100984573364269 1.8612250685691836 0.14149645715951922 0.03073696996240358 0.3161695003509522 -0.84381380677223194 0.89665931010743594 0.0083609650450111438 0.33223807577727488 -0.8765181184813301 0.98812630719300931 -0.7261553406715392 0.82293497932636284 0.83454210643267002 0.7254836971458194 0.65895158052444469 0.054809952296993751 0.971110916704501 3.8814787864685063 -0.69161340594291676 0.020358215388244647 0.061597069787181352 24.15943813323975 1.1591721177101137 -0.38092564046382899 0.28862784473468317 0.019520497845434338 -0.96303668618202198 0.80625269229011354
decision_type=2 2 2 2 2 2 2 2 2 2 2 2 2 2 2 2 2 2 2 2 2 2 2 2 2 2 2 2 2 2 2 2 2 2 2 2 2 2 2 2 2 2 2 2 2 2 2 2 2 2 2 2 2 2 2 2 2 2 2 2 2 2 2 2 2 2 2 2 2 2 2 2 2 2 2 2 2 2 2 2 2 2 2 2 2 2 2 2 2 2 2 2 2 2 2 2 2 2 2 2 2 2 2 2 2 2 2 2 2 2 2 2 2 2 2 2 2 2 2 2 2 2 2 2 2 2
left_child=1 5 4 8 11 7 31 22 10 27 20 12 124 47 26 36 28 18 29 35 49 81 -1 24 106 42 59 55 41 83 82 66 57 -22 67 65 74 107 54 -38 -24 91 50 89 93 46 -43 -9 61 -3 -12 68 53 -53 78 -5 -20 -33 109 63 -45 -36 -49 -8 116 125 -4 -17 -37 -39 -27 72 -72 -61 -6 -69 -60 -30 -34 80 -31 -14 118 84 85 -11 87 -86 -89 90 -29 103 -91 -15 95 102 -44 114 -41 100 -58 -85 -47 -7 -79 -28 108 -25 -10 -59 111 -99 -102 -70 -35 -94 -18 -55 -23 -16 -68 122 -122 -26 -2 -13
right_child=2 3 6 9 15 16 14 13 23 17 25 19 21 44 119 34 64 -19 56 -21 33 30 40 37 123 70 105 43 77 79 -32 32 38 97 48 51 39 69 -40 98 -42 45 96 60 -46 94 -48 62 -50 -51 -52 52 -54 117 -56 -57 99 58 76 73 -62 -63 -64 -65 -66 -67 120 75 113 -71 71 -73 -74 -75 -76 -77 -78 104 -80 -81 -82 -83 -84 101 86 -87 -88 88 -90 92 -92 -93 115 -95 -96 -97 -98 110 -100 -101 112 -103 -104 -105 -106 -107 -108 -109 -110 -111 -112 -113 -114 -115 -116 -117 -118 -119 -120 -121 121 -123 -124 -125 -126 -127
leaf_value=-0.001351195893868804 0.0012401830909909942 -0.00083068663590148042 0.0020354278436542665 -0.00087291382594210985 0.0015416316630829565 -0.001351195893868804 0.010147536454248301 -0.001351195893868804 -0.0010667079923512037 -0.0002963925074619179 -0.0012394724977491207 -0.00024892791668680028 -0.00083468904464331162 -0.001351195893868804 0.037337850981131203 -0.00052432775278771248 -0.0012631245709218528 -0.0010606755244277576 -0.00075772366111773756 -0.0011127036913393628 -0.0012198200663482903 -0.0012397565932385315 -0.001351195893868804 -0.0010207896476827573 -0.0013097086578615687 -0.0011187751644652429 0.01103264666536171 -0.0010681560143346986 -0.0012188750534841675 -0.00057987060349814123 -0.00021965154874825209 0.002366911864572903 -0.0017764454868494069 -0.0011144241078260056 -0.00093103585585920109 0.00030108409689493556 0.00013794556095329051 -0.00075612622735189293 0.0047405798725472523 0.00043867566201379597 -0.0013516262192119358 -0.0013339651538144981 -0.0011287389158398825 -0.00069570091376531878 -0.001351195893868804 -0.0011840549774466429 -0.0013519660376286504 -0.001351195893868804 0.0017809668758303227 -0.0012739957917194226 -0.0011052552039256568 -0.0012184669580510283 0.00047065071901895817 0.00046797561770079918 0.0034980228330637325 -6.3133453601419738e-05 -0.00070125533719733377 -0.00053529353554097674 -0.00073240126023726049 0.0077573555992729963 -0.00099197860098193102 0.00039795166856502269 -0.001351195893868804 0.014496795734538812 -0.0010822742786282373 8.2655155960639084e-05 0.0048448294042288181 -0.00042011473012212104 9.8726427838354699e-05 -2.1426942708372039e-05 -0.0011460834384505198 -0.00049496596561752657 -0.00071359483454626511 -0.0028754884445003695 9.4311239809329565e-05 0.00038150860417840785 0.0022767184798761588 -0.0010561989838774445 0.00068039773812369824 -0.0009595380396533196 0.00030280633486565287 -0.0010956469952505194 -0.00042809433146394983 -0.0010403100517748004 -0.0010605458971033319 -0.00086895904473822158 6.2366030560343649e-05 -0.00056362978126868772 -0.0010241537318652443 -0.0012129835231967665 -0.00057880607424771612 -0.001351195893868804 -0.00072057161662342792 -0.001351195893868804 -0.0013213524560951929 -0.0011439981797952273 -0.00093200219990725278 -0.00096491474629651535 0.0015769315720094636 2.5406826710875493e-06 -0.0003664726231337222 -0.00072716164893630762 -0.0012768848568298111 -0.0013519660376286504 -0.0013519982033466805 0.037466920683172533 -0.00037786837147060147 -0.001284749722409688 -0.0011666091217015003 0.0037653681981700835 -0.0013327644643969733 -0.00027341349508886923 0.00017096449114097827 -0.00021682053898387359 -0.0011818735529212764 -0.0011138183467230896 -0.0012194538811038465 -0.00085847913366879358 -0.00075171899952714743 -0.0033874615188688043 0.00071632801284989543 0.0040569179091487027 -0.0023954098639225267 -0.0012949566130744457 -0.00029129263972295193 -0.00060029842437575988
leaf_weight=622 176 108 1014 80 412 1369 4714 63 47 464 294 1309 290 947 177 523 206 253 152 203 805 79 111 1043 100 171 141 93 351 278 482 653 57 602 76 1441 515 698 4984 276 68 155 175 223 41 127 641 8180 691 1176 722 91 113 86 719 141 211 314 71 147 113 692 1971 10082 113 366 6759 301 636 115 97 341 83 49 1140 948 838 365 347 83 196 388 108 147 169 214 54 284 314 312 110 508 84 282 403 302 508 525 3141 493 443 106 488 421 92 37667 53 57 93 45 47 78 192 876 175 128 407 69 49 246 123 657 52 210 474 448
leaf_count=622 176 108 1014 80 412 1369 4714 63 47 464 294 1309 290 947 177 523 206 253 152 203 805 79 111 1043 100 171 141 93 351 278 482 653 57 602 76 1441 515 698 4984 276 68 155 175 223 41 127 641 8180 691 1176 722 91 113 86 719 141 211 314 71 147 113 692 1971 10082 113 366 6759 301 636 115 97 341 83 49 1140 948 838 365 347 83 196 388 108 147 169 214 54 284 314 312 110 508 84 282 403 302 508 525 3141 493 443 106 488 421 92 37667 53 57 93 45 47 78 192 876 175 128 407 69 49 246 123 657 52 210 474 448
internal_value=0.000125267 -0.0238889 0.00900455 -0.0151171 0.000514513 -0.0304606 0.0109976 -0.0325427 -0.0183723 -0.0100408 -0.0202493 -0.00306481 -0.00707478 -0.0332593 0.0117353 0.0036704 -0.0261601 -0.00816371 -0.00742105 -0.00160961 -0.0226962 -0.0102436 -0.022269 -0.0137831 -0.020005 -0.016651 0.0118134 -0.0159657 -0.0271113 -0.00963079 -0.00602368 0.0086372 0.0074863 -0.0205869 0.000924636 -0.00117985 0.00528811 -0.0121472 0.00838178 0.00638352 -0.0118017 -0.0279848 -0.0186948 -0.0178857 -0.0278937 -0.026087 -0.0292085 -0.0339265 0.00352125 -0.0263629 -0.021063 0.000241546 -0.00518802 -0.00965447 0.00502004 -0.00673077 -0.00399899 0.00463951 0.00291798 0.0107591 -0.0126488 0.00078125 -0.0340127 0.0108577 -0.0193182 -0.00339732 0.00971092 -0.00121332 0.000901625 -0.00871771 -0.0116329 -0.00947697 -0.0158333 0.00331633 0.00251289 0.000330264 0.00529428 -0.0223391 0.000742574 -0.00419659 -0.0024789 -0.0147124 -0.0137712 -0.0113584 -0.0104153 -0.00763274 -0.0127132 -0.0136408 -0.0117475 -0.0203061 -0.0145936 -0.0297324 -0.0225191 -0.0284683 -0.0242045 -0.0225055 -0.015172 -0.0183339 0.00714442 -0.00307132 -0.00499409 -0.0169466 -0.0247358 -0.0307961 -0.0193381 0.0122315 -0.0110751 -0.0146818 -0.015 -0.00309889 -0.0156538 -0.0146973 -0.00316929 -0.000892857 -0.0205759 -0.0174528 -0.0209421 -0.00298387 -0.0195312 0.00197991 0.010109 0.00733173 -0.00178571 -0.0255645 -0.000269231 -0.00440381
internal_weight=118148 31893 86255 13660 16399 18233 69856 12285 8323 5337 5907 7684 2046 11484 53223 8715 5948 4053 3800 5638 3516 1396 801 2416 503 2391 52800 1284 5222 2309 718 16633 8028 2232 3231 5435 5484 1913 6107 3932 179 4414 1699 1063 1270 2116 796 10214 1459 1284 1016 3312 359 246 1123 221 1491 1921 1268 14992 336 768 10151 14796 726 2123 8605 1772 2953 813 692 521 180 196 1552 1249 909 808 404 557 474 678 236 1752 1499 678 821 767 598 727 203 2298 524 1229 1320 917 683 1427 3417 1339 846 253 615 1790 457 37808 193 1100 140 359 650 603 635 1512 777 212 613 155 128 423 7591 832 175 310 650 1757
internal_count=118148 31893 86255 13660 16399 18233 69856 12285 8323 5337 5907 7684 2046 11484 53223 8715 5948 4053 3800 5638 3516 1396 801 2416 503 2391 52800 1284 5222 2309 718 16633 8028 2232 3231 5435 5484 1913 6107 3932 179 4414 1699 1063 1270 2116 796 10214 1459 1284 1016 3312 359 246 1123 221 1491 1921 1268 14992 336 768 10151 14796 726 2123 8605 1772 2953 813 692 521 180 196 1552 1249 909 808 404 557 474 678 236 1752 1499 678 821 767 598 727 203 2298 524 1229 1320 917 683 1427 3417 1339 846 253 615 1790 457 37808 193 1100 140 359 650 603 635 1512 777 212 613 155 128 423 7591 832 175 310 650 1757
is_linear=0
shrinkage=0.05


Tree=6
num_leaves=127
num_cat=0
split_feature=0 0 0 1 0 1 0 20 20 20 17 16 20 19 19 20 17 6 5 17 19 20 0 15 18 16 2 17 1 19 9 0 5 19 20 17 17 9 15 16 15 6 11 2 16 10 11 15 6 1 18 21 17 20 5 21 19 0 18 16 9 7 19 0 19 16 15 22 22 19 22 1 16 3 22 16 5 16 10 21 16 18 20 15 16 2 10 16 18 19 18 1 9 21 21 20 16 16 11 19 19 22 15 0 22 15 11 11 4 22 15 16 19 6 16 21 19 15 3 0 20 20 15 21 6 16
split_gain=9718.23 685.645 655.308 81.8915 77.9272 72.3264 57.3913 36.9316 33.9723 23.8276 20.8022 20.7825 19.7406 19.1326 18.0382 16.727 21.4858 16.0338 14.7462 13.9583 13.8506 13.7164 12.7192 12.2952 11.9596 11.6561 11.6016 10.137 10.0575 9.39626 9.16544 9.13642 8.90221 8.77285 8.00287 8.31047 7.34752 6.90762 6.71737 9.01679 6.20868 6.17884 5.99047 5.71628 5.47691 5.44725 5.40677 5.35571 5.34571 5.22248 5.17181 5.1249 4.96048 4.93512 4.92035 4.80979 4.65363 4.57611 4.56426 4.5517 4.81714 4.36184 4.73482 4.17384 4.12617 6.69221 4.1122 4.77223 4.02212 4.01581 3.96623 4.39109 3.83676 3.70482 3.64864 3.61961 3.61244 3.58478 3.56914 3.56038 3.52871 4.02157 3.64533 3.51729 3.51695 3.59405 3.49531 3.4654 3.44772 3.34274 4.02928 3.56432 3.33194 3.31207 3.30095 3.27285 4.84075 3.71121 3.89987 3.5842 3.27097 3.24672 3.17695 3.14618 3.13751 3.13557 3.04364 3.03975 3.01109 2.98547 2.97355 2.9712 2.96794 2.87735 2.85301 2.83956 3.38467 2.82165 2.80464 2.79931 3.24614 2.77752 3.67906 3.12515 2.77645 2.90626
threshold=0.038164422134709074 0.0080685247794883719 0.12355773624255166 7.3913416862487802 0.021796377032144394 2.3019165992736821 0.061597069787181352 -0.65918890865109969 -0.46174861323503363 -0.6913484944011038 0.12973685562610629 -0.67553737759590138 -0.59116893267988335 -0.57357643635104605 -0.53729960834682411 -0.72219205899833583 0.12135735526680948 0.036439784205428587 24.158054351806644 0.10386985167860986 0.44218343748786676 -0.62577451934762984 0.84948899706623882 0.83515143394470226 1.1503854393959048 -0.6562247872352599 0.039751905455711105 0.11832199618220331 5.9539411067962655 -0.23762932952031182 5.532029628753663 0.093359173875213933 25.458582878112797 0.95982138851864773 -0.30070579950427329 0.11418478935956956 0.1088666580617428 2.2448158264160161 -0.18391595780849454 1.0000000180025095e-35 -0.73384433984756459 0.26848141312890456 8.7120256423950213 0.033179385017839007 -0.42374713718891138 0.11717802574372486 5.7132198810577401 0.87199884653091442 0.16624746785809069 1.6802503466606142 1.1773753166198733 1.0000000180025095e-35 0.041855523362755782 0.85470842479866216 3.9206032752990727 -0.19337636264337835 -0.98812630719300898 0.01062668624889483 1.1983723044395449 0.87086209654808056 5.0327794551849374 5.0732433795928964 -0.1950438958025166 0.029887782500799109 -0.17364817766693016 0.95680692791938793 0.070526577532291426 0.38043945030393422 0.3484035575467645 -0.70710678118654735 0.97648852793709995 3.0526663064956669 -0.98615476489067067 2.7867486476898198 -0.18493013702746822 -0.18381221592426297 1.4909762144088747 0.71517071127891552 0.02775362379775537 0.98667101781630195 0.70711541175842296 1.1629562973976137 0.40265084705289478 -0.4137024581432342 -0.39331433176994318 0.42863785914603431 0.00079087589216257474 -0.96021336317062367 1.1440924406051638 0.36235178784537941 1.191728472709656 2.5525813102722172 3.3841408491134648 -0.42957681104363482 -0.73866753694953124 -0.043619387365336 -0.75727185606956471 0.7295798957347871 4.6036484241485605 0.065387565056497093 -0.77969889170510642 -0.83375966452616657 0.68645077943801891 0.014012175462060841 -0.9575230291762723 -0.9653787612915038 8.5621285438537615 4.1684553623199472 0.0095625471412444096 0.5969655492110445 -0.025258749723434445 0.81097868084907543 -0.5 0.063125589339836113 0.78266298770904552 0.099822040462190967 -0.065387565056496802 -0.33515599370002741 2.7867486476898198 0.0095910239982998757 0.77969889170510653 -0.72219205899833583 0.49904154241085058 -0.94705910369513524 0.029080098802928805 0.47023524343967443
decision_type=2 2 2 2 2 2 2 2 2 2 2 2 2 2 2 2 2 2 2 2 2 2 2 2 2 2 2 2 2 2 2 2 2 2 2 2 2 2 2 2 2 2 2 2 2 2 2 2 2 2 2 2 2 2 2 2 2 2 2 2 2 2 2 2 2 2 2 2 2 2 2 2 2 2 2 2 2 2 2 2 2 2 2 2 2 2 2 2 2 2 2 2 2 2 2 2 2 2 2 2 2 2 2 2 2 2 2 2 2 2 2 2 2 2 2 2 2 2 2 2 2 2 2 2 2 2
left_child=1 5 6 21 7 9 13 29 14 45 37 19 32 25 38 64 31 30 22 33 52 -4 69 34 104 107 27 50 36 54 49 -17 58 51 -15 68 79 55 39 -6 -12 -33 56 -26 -38 76 72 61 -19 108 -14 -10 -13 -29 -3 74 113 73 121 75 -61 80 84 -54 65 86 67 83 95 -5 71 -31 -21 -39 -9 -58 -1 -46 -76 124 81 -30 -83 -18 -63 -86 112 -81 -73 90 -52 -91 118 -65 -37 96 -36 99 -99 -97 110 -35 -95 -57 -22 -16 -51 -2 -11 -77 -59 -45 -8 -27 -41 -55 -117 -101 -90 120 -42 122 123 -7 125 -23
right_child=2 4 3 18 8 12 15 10 11 17 40 20 26 23 105 16 66 48 -20 46 24 28 -24 -25 43 42 -28 53 47 70 -32 41 -34 101 35 94 44 57 -40 114 119 -43 -44 111 77 -47 -48 -49 -50 106 89 -53 63 115 -56 103 59 100 -60 60 -62 62 -64 93 -66 -67 -68 -69 -70 -71 -72 88 -74 -75 78 109 -78 -79 -80 87 -82 82 -84 -85 85 -87 -88 -89 92 91 -92 -93 -94 102 -96 97 -98 98 -100 117 -102 -103 -104 -105 -106 -107 -108 -109 -110 -111 -112 -113 -114 -115 -116 116 -118 -119 -120 -121 -122 -123 -124 -125 -126 -127
leaf_value=-0.0012897485435566878 -0.0011163178746452288 -0.0010925675215607792 0.0047844481604210152 0.0095850153807805708 -0.00036271789702654265 -0.0011146631969392317 -0.00064187399237061651 -0.0011593122899979237 -0.00097640391010413814 -0.0012836360991753638 -0.0012031571186127011 -0.0011767438157237377 -0.0012836360991753638 -2.0442088323751814e-05 -0.00064097441490051357 -0.00027529582189792949 -0.00013385179832483171 -0.0012836360991753638 0.035470958432074644 -0.00098591655463487957 -0.00061159727809126103 -0.00081144833984627481 0.036461165702261357 -0.0010877091937040722 -0.00041893702695694067 -0.00096049992607995835 -0.001284044908251339 -0.0012835975919873715 0.001392251703114562 -0.00091707519727411702 -0.0012836360991753638 0.00021348500884097317 -0.0012836360991753638 -0.0011341541272201128 -0.0013795774186841376 -0.00044259042383231926 0.0022881415674063117 -0.001108973895585107 -0.00045924157657776436 -0.0010771670165678111 -0.0011963792114752592 -0.0007144129089601851 -0.0012579495829266991 -0.0010546652146014594 -0.0010454391205936536 -0.0011420276745419068 0.00017784916933181558 -0.00075027294403131391 -0.001202734266633654 -0.0012836360991753638 -0.0012836145829082074 -0.00051021560376714604 -0.0011252437780606822 -0.0012834899162581029 -0.0010753202457053858 -0.0010439394865970279 -0.0003432326617836046 -0.0012421084054042844 -0.0013130906540038314 -0.000159693467076206 -0.000987160669528342 0.0037023545329386469 0.0046157463147290584 -0.00088245080020854906 0.0013224187840126462 0.0015396864080164233 0.00012272813916864981 -0.00035271790582705703 -0.0002338233056762697 0.013363383658259932 0.00046527633411391257 -0.00037739445677416539 -0.00050139936195667332 -0.0012719530029391426 -0.0010851006276296176 -0.0010624634470997004 -0.0012207325839082561 0.0023300377660804982 -0.0012843982931793464 0.0011637189232122287 0.0042106895807230088 -0.0021838292997305056 0.00056069562892385641 0.0016997409570213451 0.0020132175362131141 -0.00058986552175560873 0.00039257900685938074 -0.00050362744015034942 -0.0001074385981132393 -0.0012836360991753638 -0.0012836360991753638 -0.0012836360991753638 -0.00055393090661379977 -0.0010556188607481879 0.00027052677132427734 -2.6355904710995397e-05 -0.00082180558635948017 -0.00058286381631090579 -0.00097119289776522507 -0.00071989328940620819 -0.0011275563080714349 -0.0010502941448811618 -0.0013112589534616786 -0.00095747009704608252 -0.0010496464497349531 -0.00034416869862316166 -0.0012836360991753638 0.00010925387093033528 -0.0012836360991753638 -0.00028888560655643871 -0.0011608597770337431 -0.00042584557550780276 -9.9798616650833771e-05 -0.001256194997520701 -0.0010426229577625516 -0.0012852111398903878 -0.00063002141709236111 -0.00043491027884035412 -0.00082025614837778868 -0.00098829140773247547 -0.00087782668483804061 -0.0011529623429750459 -0.0013482803970771163 -0.00096503325356875422 0.0010776752357034823 0.0010250963160545212
leaf_weight=311 72 247 5214 4636 71 127 71 266 514 5475 166 236 2643 1612 139 3366 142 501 421 50 69 92 35782 159 404 74 98 840 531 339 574 1757 140 63 41 133 1280 274 165 147 130 228 48 154 57 108 211 80 84 3816 177 479 645 133 84 306 138 277 70 227 134 1468 4160 227 1564 316 506 56 294 13393 40 356 370 872 113 301 609 77 61 49 332 54 57 1113 1718 121 374 183 40 98 297 205 178 311 374 211 51 109 137 139 1587 161 91 193 233 1803 86 213 87 42 319 94 159 65 88 44 60 434 276 499 42 242 70 686 2664 97
leaf_count=311 72 247 5214 4636 71 127 71 266 514 5475 166 236 2643 1612 139 3366 142 501 421 50 69 92 35782 159 404 74 98 840 531 339 574 1757 140 63 41 133 1280 274 165 147 130 228 48 154 57 108 211 80 84 3816 177 479 645 133 84 306 138 277 70 227 134 1468 4160 227 1564 316 506 56 294 13393 40 356 370 872 113 301 609 77 61 49 332 54 57 1113 1718 121 374 183 40 98 297 205 178 311 374 211 51 109 137 139 1587 161 91 193 233 1803 86 213 87 42 319 94 159 65 88 44 60 434 276 499 42 242 70 686 2664 97
internal_value=0.000130931 -0.023926 0.00868254 0.0106329 -0.0154014 -0.0304185 -0.00095839 -0.0192329 -0.0116041 -0.0327064 -0.0212904 -0.0142625 -0.0259233 -0.00530152 -0.0068535 0.00129507 6.97545e-05 -0.0334098 0.0116075 -0.0102543 -0.0172687 0.00773418 0.0116805 -0.00345831 -0.0125524 -0.0104833 -0.0274782 -0.0278491 0.00686636 -0.0125 -0.0338788 -0.00152542 -0.0205712 -0.0133833 -0.00284653 -0.0050247 0.00495388 -0.0227038 -0.0156316 -0.0200163 -0.014083 0.00116499 -0.0129616 -0.00874233 0.00793847 -0.0254377 -0.00421949 0.00787613 -0.0253632 -0.0342508 -0.0291813 -0.0113671 -0.0202483 -0.0236188 -0.0199773 -0.0189164 -0.0121177 -0.0237722 -0.0191736 -0.0107185 -0.00647507 0.00799816 0.00840866 -0.0190149 0.00483092 0.00217391 0.00476747 0.00624523 -0.00699153 0.0105975 -0.0104862 -0.0110071 -0.0075 -0.0263307 -0.0227273 -0.0139033 -0.0266848 -0.0016791 -0.0170977 0.0035859 0.00485113 0.00268692 -0.00596847 0.00688247 0.00699652 0.0055397 -0.000910596 -0.00237069 -0.00908824 -0.0255952 -0.0282173 -0.0214934 -0.0117915 -0.0161169 0.000468442 -0.00835561 -0.0173913 -0.00754854 -0.0129065 -0.00586735 -0.022429 -0.0223214 -0.0188433 -0.0155561 -0.0207781 -0.00472451 -0.0328485 -0.00153509 -0.0352346 -0.0166545 -0.0255872 -0.0147177 -0.00576087 -0.0205935 -0.024734 -0.0172468 -0.0110577 -0.00791885 -0.0148734 -0.0119411 -0.0174419 -0.0199444 -0.0186438 -0.0176968 0.00407028 -0.00178571
internal_weight=118097 30971 87126 72466 13390 17581 14660 6665 6725 11651 5105 4312 5930 5008 2413 9652 7168 10623 54232 1848 2464 18234 53811 3694 954 1314 4595 4497 13020 1560 10038 5351 1335 1217 3535 1923 4499 4268 471 306 837 1985 1029 652 1414 1028 631 8521 585 9464 3420 993 1510 1077 331 939 981 3329 1195 842 361 8441 7467 1274 2484 920 1817 1311 1416 18029 1229 1189 420 1146 440 481 920 134 174 3085 974 642 111 1255 3307 1839 604 232 850 777 474 303 494 629 507 1122 92 1030 246 784 2183 224 402 499 302 1942 3902 285 5562 343 596 248 230 139 235 237 104 573 316 671 172 1125 883 813 2853 189
internal_count=118097 30971 87126 72466 13390 17581 14660 6665 6725 11651 5105 4312 5930 5008 2413 9652 7168 10623 54232 1848 2464 18234 53811 3694 954 1314 4595 4497 13020 1560 10038 5351 1335 1217 3535 1923 4499 4268 471 306 837 1985 1029 652 1414 1028 631 8521 585 9464 3420 993 1510 1077 331 939 981 3329 1195 842 361 8441 7467 1274 2484 920 1817 1311 1416 18029 1229 1189 420 1146 440 481 920 134 174 3085 974 642 111 1255 3307 1839 604 232 850 777 474 303 494 629 507 1122 92 1030 246 784 2183 224 402 499 302 1942 3902 285 5562 343 596 248 230 139 235 237 104 573 316 671 172 1125 883 813 2853 189
is_linear=0
shrinkage=0.05


Tree=7
num_leaves=127
num_cat=0
split_feature=0 0 1 1 1 20 0 0 20 17 14 20 16 17 20 15 5 15 8 5 17 0 2 1 13 16 13 15 20 17 1 17 20 11 16 0 16 16 8 18 7 0 18 16 15 15 20 3 18 20 18 15 0 20 10 18 18 10 21 20 12 13 16 8 15 16 13 22 20 16 20 18 18 22 16 18 15 18 11 18 15 7 14 21 21 22 21 22 21 20 11 18 12 3 20 17 18 12 18 21 4 0 8 16 8 21 16 18 15 17 7 8 8 15 17 10 1 20 12 17 17 16 12 16 7 13
split_gain=9374.18 714.633 650.398 84.3278 82.7967 68.5928 60.3955 46.174 35.2475 21.677 20.7353 18.8406 20.0657 18.5611 15.0583 14.4151 13.7292 12.7948 11.8925 11.8838 11.2884 10.7865 10.6706 10.4068 9.78936 9.4477 9.44562 9.14874 8.86054 14.0626 8.77106 8.75215 8.43841 7.91462 7.20757 7.03779 6.7439 6.62308 6.60917 6.86422 6.58293 6.51261 5.96466 5.88186 5.72501 7.74461 6.26799 5.84592 6.46957 5.73205 5.71769 5.69286 5.66751 5.56057 5.23199 5.83427 5.14517 5.07679 5.54953 5.06992 5.33466 4.62039 4.49944 4.43597 4.46458 4.38395 5.33923 4.30453 4.26951 4.26458 6.38258 5.08986 4.2538 4.87248 4.21437 4.14864 4.04879 3.98979 3.94354 3.91436 9.57765 6.63843 3.9126 3.89847 4.12855 3.88696 5.24436 3.75944 3.71599 3.62086 6.65388 3.61538 3.73535 3.59622 3.57397 3.54719 3.45918 3.43592 3.4127 5.29449 5.12713 4.57659 3.894 3.4861 3.38169 3.37958 3.37599 4.22283 3.35506 3.35238 3.29762 3.26312 3.24172 3.45509 3.21979 3.2193 3.25424 3.21769 3.18553 3.17853 3.17428 3.1733 3.14325 3.13389 3.11298 3.46439
threshold=0.038164422134709074 0.008672882386914155 5.6676821708679208 2.453278779983521 4.7244262695312509 -0.72219205899833583 0.57873658149107221 0.025170283082020437 -0.72219205899833583 0.127976268529892 -0.036319025628430174 -0.6913484944011038 -0.69357204437255848 0.10386985167860986 -0.55543802234893469 0.69031190872192394 24.158054351806644 0.76761677861213695 0.13062257466127394 25.458582878112797 0.10165589675307275 0.021796377032144394 0.068196376691812485 6.2540271282196054 0.10229063034057619 -0.70962512493133534 -0.48260056972503657 -0.97380885481834401 -0.72219205899833583 0.127976268529892 1.9236824512481692 0.10165589675307275 0.17364817766693066 6.4576170444488534 -0.91432365775108326 0.91868384947483162 0.92775729298591625 -0.67553737759590138 0.055374052451522868 1.1591721177101137 5.668041706085206 0.04654651509413555 1.1889074444770815 0.66703996062278759 0.77777746319770824 -0.58121889829635609 -0.5 3.8087333440780644 1.1510084867477419 0.80625269229011354 1.1442605853080752 0.13056362420320514 0.097073001026772104 -0.4421834374878667 0.0080914096576847807 1.1852253675460818 1.176540791988373 0.03419788656803676 -0.21861968191509915 -0.77969889170510653 1.6890977621078493 -1.9877928495407102 0.47023524343967443 0.0040709977848342764 0.48116727173328405 -0.59992063045501698 -0.39771246910095209 -0.7614016681079937 -0.40265084705289439 -0.04623467102646827 -0.93178607664859736 1.1422776579856875 1.1400279402732851 0.8852232634113919 -0.67553737759590138 1.191728472709656 0.87199884653091442 1.2158957123756411 4.2471089363098153 1.1323294639587405 0.23499780148267749 8.7164845466613787 0.018137510479377231 0.23537774960157334 0.39827038710620805 0.96633974041180493 0.031174179426909168 0.8511460603353429 0.68432406471780916 -0.9598213885186474 4.767785072326661 1.1408459544181826 -0.48623728752136225 1.2911311984062197 0.51864980417341211 0.030423847958445552 1.1312069296836855 0.8736548423767091 1.1531730294227602 0.63257020223555627 0.051377054583476266 0.061597069787181352 0.33277012732192629 -0.42374713718891138 0.030162407684766142 -0.03977009085991149 0.70711541175842296 1.1706792116165163 0.035509856417775161 0.1075849048793316 2.6871831417083745 0.050353672440152493 0.088464665897530506 -0.81800347566604603 0.05319813825190068 0.0067598430850821963 3.1348217725753789 -0.8765181184813301 -2.7861218452453609 0.066496126353740706 0.16320211440324786 0.89527124166488659 0.15505838394165042 -0.7261553406715392 6.5678942203521737 3.416711807250977
decision_type=2 2 2 2 2 2 2 2 2 2 2 2 2 2 2 2 2 2 2 2 2 2 2 2 2 2 2 2 2 2 2 2 2 2 2 2 2 2 2 2 2 2 2 2 2 2 2 2 2 2 2 2 2 2 2 2 2 2 2 2 2 2 2 2 2 2 2 2 2 2 2 2 2 2 2 2 2 2 2 2 2 2 2 2 2 2 2 2 2 2 2 2 2 2 2 2 2 2 2 2 2 2 2 2 2 2 2 2 2 2 2 2 2 2 2 2 2 2 2 2 2 2 2 2 2 2
left_child=1 3 4 8 11 21 17 9 38 26 40 36 20 44 19 28 35 23 30 33 32 72 31 -4 42 -15 37 -11 -6 52 -12 56 34 87 -13 -8 69 115 -1 -40 -10 43 76 -26 45 49 108 48 121 61 53 -22 -30 -28 55 -52 -16 58 -34 -25 79 -9 -19 -50 -65 78 -67 -56 -27 112 71 -71 96 89 120 -72 98 97 -33 80 -61 -82 -38 118 -85 88 -87 -5 -44 109 -91 92 -23 -32 -43 -49 -3 -58 101 100 -100 103 -101 -14 -76 -79 107 -62 -47 -74 -68 -81 113 -2 -102 -7 -117 -92 -39 -86 -29 -48 -53 -31 125 -54
right_child=2 5 6 14 15 7 16 13 10 27 18 12 24 25 22 -17 -18 62 -20 -21 51 91 -24 59 41 68 50 74 29 123 93 65 57 -35 -36 -37 82 83 39 -41 -42 94 85 -45 -46 46 47 95 63 -51 54 122 124 -55 67 -57 77 -59 -60 60 106 -63 -64 64 -66 66 110 -69 -70 70 75 -73 73 -75 104 -77 -78 105 -80 111 81 -83 -84 84 119 86 -88 -89 -90 90 117 -93 -94 -95 -96 -97 -98 -99 99 102 114 -103 -104 -105 -106 -107 -108 -109 -110 -111 -112 -113 -114 -115 -116 116 -118 -119 -120 -121 -122 -123 -124 -125 -126 -127
leaf_value=-0.0011812259676948786 0.00019378877646464602 -0.00090245472098012675 0.0021754869309293062 -0.00099385804741706336 0.0014214251951732066 -0.0011414706424389051 0.016713963240904833 -0.0009846139653599071 -0.0012194542942165956 -0.0012505294390991835 -0.0012194542942165956 -0.001119702418241013 -0.00058929962602838402 -0.00018760907352293767 -0.0012202180965064798 -0.00024165892919254044 0.033697410510470906 -0.00066579397835665223 -0.0012194542942165956 -0.0012194542942165956 0.00032845661920182168 -0.00056454634687576474 -0.001219842662838772 0.0090923271633598143 -0.0010414640030627607 -0.00045580315898629701 -0.00084891254691130342 -0.00097780425206555016 -8.133278111408498e-05 0.0017002705038637669 -0.0012194542942165956 -0.0011822016281269826 -0.00078565475913139077 -0.00082512035730766993 -0.00016111928587142518 0.034979723243039787 5.046399221612409e-05 -0.0010740063430948069 -0.0011517053116164679 -0.00037953565475611723 -0.0011291865344100389 -6.4634749822312061e-05 0.00082317279834253634 -0.00051242325609184968 -0.0010469818459669909 -0.0008727529182515196 -0.00089069846420948063 -0.0009247693747106594 1.9768075218548839e-05 -0.00060523852031465488 -0.0010624186796709182 -0.00048528508741192797 0.00077543864388509242 -0.0010724841887656653 -0.00040858140154634677 -0.00087604948081409855 -0.0012194542942165956 1.2999057998924064e-05 -0.00015779280765381936 0.0061965395952556113 0.0022115667468077757 -0.0010508948639788827 0.0021469910273717902 -0.00089790927440650903 -0.00011495367508654424 -0.0012211191747442825 -0.0011878899202392695 -0.00099663458111446009 -0.0010550989462184918 0.00036363508384144286 -0.00052934799668709245 -0.00033008400484268226 -0.00075515496083580671 0.00020214649816632132 -0.00095811905881333691 0.00079214378557325481 -0.0010952834172737889 -0.0012194542942165956 -0.00095614465812799429 0.0025848106329627754 0.00080948161825988992 -0.0048574674334335363 0.00094775572265271392 -0.00089633347706792967 -0.0011558412667414112 -0.00125000136079565 -0.00060748647142538621 -0.0007062337415523162 -0.00054847679131106723 -0.00095295963897917011 -0.0010568345503626179 -0.00043211562185539363 4.2781764034339169e-05 -0.0012194542942165956 -0.00067143756953167886 -0.00091178351602562305 -0.00030027074574140385 -0.0012194327779494391 0.00012023784703090102 -0.00065239523431655753 -0.00081905838774626251 -0.00056790297220578659 -0.0012727694039373185 -0.00099697399944729636 -0.0010908753864249481 -0.0012379123404814207 0.0064404254777510848 -0.0014978125735559209 0.00011106016058608547 -9.0388835788243413e-05 -0.0010714692847384568 0.0059303130084416428 0.0011742836160121774 -0.0007657922120335982 -0.00018278051886813537 -0.0010737660511095084 -0.00089114842192412099 0.00014880954619602837 -0.0011688689067513309 -0.0010785561923229059 -0.00058437537338462285 -0.0011043892277185611 0.00049516230541787041 -0.00029813354929763663 -0.00014077853621334056 -0.00067737335632330343
leaf_weight=928 285 49 5417 1001 2400 122 12646 47 588 46 7020 172 88 604 1901 897 436 173 730 135 1073 99 72 4060 123 138 126 202 1634 1606 62 273 196 89 91 32771 472 41 99 78 103 724 113 170 383 65 392 70 162 93 602 180 2524 741 141 95 409 515 298 491 676 257 566 248 137 531 151 794 296 279 393 288 193 41 184 46 98 121 198 664 102 48 352 70 346 44 67 55 204 494 51 1214 396 3381 279 870 243 96 114 346 90 243 59 406 255 52 566 54 127 109 101 10583 148 109 121 140 324 59 888 365 286 83 72 117 438 132
leaf_count=928 285 49 5417 1001 2400 122 12646 47 588 46 7020 172 88 604 1901 897 436 173 730 135 1073 99 72 4060 123 138 126 202 1634 1606 62 273 196 89 91 32771 472 41 99 78 103 724 113 170 383 65 392 70 162 93 602 180 2524 741 141 95 409 515 298 491 676 257 566 248 137 531 151 794 296 279 393 288 193 41 184 46 98 121 198 664 102 48 352 70 346 44 67 55 204 494 51 1214 396 3381 279 870 243 96 114 346 90 243 59 406 255 52 566 54 127 109 101 10583 148 109 121 140 324 59 888 365 286 83 72 117 438 132
internal_value=0.00017916 -0.0235054 0.00855599 -0.0298627 9.02477e-05 -0.0143994 0.0107571 -0.016422 -0.0320146 -0.0192788 -0.0328088 -0.00359349 -0.00510958 -0.0122734 -0.024472 0.00321092 0.0118119 0.00869017 -0.0333277 -0.0197656 -0.00182422 -0.0077171 -0.0260147 0.00890131 -0.00770371 -0.00652697 -0.0206595 -0.0124743 0.00382301 0.00285808 -0.0337582 -0.0263729 -0.00518868 -0.0181114 -0.0131654 0.0118967 0.000168634 -0.0229747 -0.0234729 -0.0146186 -0.024403 -0.00432099 -0.00990341 -0.0108788 -0.0143064 -0.0134506 -0.0122679 -0.0131116 -0.0104941 -0.0198678 -0.0185324 0.00140566 0.00144882 -0.0218137 -0.0167892 -0.0200681 -0.028039 -0.00310951 -0.00673077 0.00950186 0.00902609 -0.0231908 0.00221583 -0.00678702 -0.00970779 -0.0229466 -0.0252395 -0.0143449 -0.0121544 -0.00177649 -0.00370278 -0.000198413 -0.0112692 -0.012896 -0.0113943 -0.00822893 -0.0113339 -0.0242994 -0.0191348 0.00935818 0.00555772 -0.0055 0.00382282 -0.0245468 -0.021943 -0.0046729 -0.0127252 -0.0193182 -0.00185331 -0.0136589 -0.015894 -0.0051419 -0.0015404 -0.0316911 -0.00240528 -0.0159574 -0.00599315 -0.0220545 -0.0106766 -0.00825342 -0.0035 -0.0130767 -0.0120679 -0.0158401 -0.0149487 -0.0308526 0.00597994 0.00373288 -0.00364583 -0.00918874 -0.019246 0.00957478 0.00179889 -0.000571066 -0.00811611 -0.0183874 -0.0164871 -0.00477273 -0.0267357 -0.0230837 -0.00819672 -0.0147632 -0.00535714 0.00672519 0.00270685 0.0033509
internal_weight=118121 30862 87259 18174 18006 12688 69253 9740 12989 5768 11884 8258 5886 3972 5185 9748 45853 23400 11193 1280 2597 2948 3905 22661 3289 1038 4795 973 8851 6451 10463 3833 1272 1145 263 45417 2372 2296 1105 177 691 1296 1993 293 2934 2551 2154 1962 1022 397 2499 1325 4728 867 1632 697 2579 1009 494 17244 13184 304 739 547 385 1254 783 935 434 1548 1006 567 1239 947 927 439 1565 678 471 11888 641 150 824 1710 781 428 111 1056 317 906 604 1709 495 3443 1003 940 292 505 1467 730 325 737 405 494 439 173 1296 730 192 302 252 11247 542 394 211 586 464 110 929 711 488 475 252 1723 3094 2656
internal_count=118121 30862 87259 18174 18006 12688 69253 9740 12989 5768 11884 8258 5886 3972 5185 9748 45853 23400 11193 1280 2597 2948 3905 22661 3289 1038 4795 973 8851 6451 10463 3833 1272 1145 263 45417 2372 2296 1105 177 691 1296 1993 293 2934 2551 2154 1962 1022 397 2499 1325 4728 867 1632 697 2579 1009 494 17244 13184 304 739 547 385 1254 783 935 434 1548 1006 567 1239 947 927 439 1565 678 471 11888 641 150 824 1710 781 428 111 1056 317 906 604 1709 495 3443 1003 940 292 505 1467 730 325 737 405 494 439 173 1296 730 192 302 252 11247 542 394 211 586 464 110 929 711 488 475 252 1723 3094 2656
is_linear=0
shrinkage=0.05


Tree=8
num_leaves=127
num_cat=0
split_feature=0 0 0 0 0 0 20 17 8 20 20 0 19 0 5 19 16 19 0 15 7 17 4 16 20 17 16 16 20 17 20 13 16 18 19 16 15 11 11 0 20 13 21 19 13 16 18 16 16 21 21 22 0 14 19 18 19 20 0 10 20 16 10 19 22 19 21 22 18 6 19 17 8 17 19 11 17 10 10 3 21 0 21 16 18 20 10 6 0 14 19 16 0 18 18 18 19 0 20 19 15 16 16 15 18 17 11 19 7 15 19 15 8 4 15 19 18 22 11 22 19 22 0 16 18 20
split_gain=9097.75 734.443 612.325 91.9307 78.3557 73.4084 60.8751 35.2368 33.8029 30.8644 24.8406 23.9193 19.4325 16.3375 14.9655 14.6853 14.6082 13.5624 13.3439 13.0144 12.9566 12.1909 12.0856 12.0599 9.96026 12.4979 9.50871 10.5696 9.06993 9.21203 8.45306 8.41563 7.93797 7.92444 7.59741 12.4194 6.88262 6.47949 6.47056 6.13289 5.89138 5.85189 5.81562 5.80931 5.8054 5.7496 7.54505 6.69317 5.60311 5.58911 5.5577 5.31402 5.21415 5.05495 5.00328 4.93058 4.91352 4.87451 4.86117 4.74564 4.69806 4.64281 6.15482 4.63737 4.53727 4.37923 4.36578 4.34649 4.98671 4.36244 4.2963 4.24091 4.5259 4.23956 4.15443 4.05839 4.04613 3.97589 5.48675 4.40643 4.21 3.96955 3.84085 4.56783 3.87707 3.73821 3.73529 3.7297 3.62635 3.62081 3.56634 4.51221 3.56428 3.6664 3.53881 3.52888 4.37175 3.46248 3.46402 3.44885 3.44836 3.42155 4.44885 3.40121 3.52187 4.05431 3.39013 3.34416 3.94311 3.32604 3.30796 3.25998 4.74908 3.25127 5.31165 3.28972 3.24515 3.22172 3.20338 3.53237 5.38384 4.11441 3.55342 3.20011 3.1998 3.17863
threshold=0.03479845779268332 0.12650427974265316 0.008672882386914155 0.39839546578165075 0.0026237086804771085 0.061597069787181352 -0.77969889170510653 0.12624971568584445 0.14387756435981774 -0.72219205899833583 -0.62577451934762984 0.022709184553279586 -0.57357643635104605 0.91868384947483162 24.158054351806644 -0.51864980417341189 -0.67553737759590138 -0.5 0.18313343977984006 0.85325822234153759 3.9605753421783452 0.11978692933917047 0.042824014413378401 -0.6562247872352599 -0.40265084705289439 0.12624971568584445 -0.42374713718891138 0.93909588456153881 -0.27976242230339671 0.16320211440324786 -0.6913484944011038 -0.12490272521972655 -0.61922600865364064 1.1408459544181826 -0.27976242230339726 -0.81327795982360829 0.40244820713996893 5.6173086166381845 7.9487681388854989 0.018308045987834309 -0.40265084705289439 -0.10380482673645018 -0.35041564478062465 0.48087430661751701 1.8112523555755617 0.76109817624092113 1.1531730294227602 -0.04623467102646827 -0.94710832834243763 -0.93545489084327571 0.92922379131507438 0.8852232634113919 0.015747208763428947 0.0022655982952068817 0.99762145983680173 1.136649012565613 -0.36235178784537903 -0.93178607664859736 0.00041649590748306771 0.043411068229015658 0.60876142900872032 0.81844434142112743 0.066851794721394547 -0.65918890865109958 0.063390085881955341 0.59116893267988357 -0.21861968191509915 -0.26867065956352881 1.1687290668487551 0.15630668741250847 0.065387565056497093 0.094599515199661269 0.017627960343129138 0.055469993501901634 -0.4808743066175169 8.5621285438537615 0.070236321538686766 0.0067598430850821963 0.19027379777046183 3.8467524051666264 0.63257020223555627 0.012327086701274938 0.56369777965491019 0.6813759207725526 1.1410072445869448 -0.4421834374878667 0.0044320136692400083 0.14337587497790313 0.084201797438754528 -0.005065292207341158 -0.75166088996455094 0.77122801542282116 0.10124165927307162 1.1429370045661928 1.1745005249977114 1.173615097999573 -0.97111091670450078 0.012327086701274938 -0.40265084705289439 -0.23762932952031182 0.035509856417775161 0.94145104289054882 0.26007583737373358 -0.48554673790931696 1.1442605853080752 0.0484229363501072 1.9200199842453005 -0.17364817766693016 1.7386267185211184 0.089161362498998656 0.32136297141497111 0.78995475172996532 0.54181554879351002 0.0037034222389779364 0.49904154241085058 0.91509365977396862 1.1434140801429751 -0.57077231802681661 9.2537226676940936 0.36447543099728863 -0.9598213885186474 0.97648852793709995 0.082218504162619874 -0.88274049758911122 1.1801927089691164 0.46174861323503363
decision_type=2 2 2 2 2 2 2 2 2 2 2 2 2 2 2 2 2 2 2 2 2 2 2 2 2 2 2 2 2 2 2 2 2 2 2 2 2 2 2 2 2 2 2 2 2 2 2 2 2 2 2 2 2 2 2 2 2 2 2 2 2 2 2 2 2 2 2 2 2 2 2 2 2 2 2 2 2 2 2 2 2 2 2 2 2 2 2 2 2 2 2 2 2 2 2 2 2 2 2 2 2 2 2 2 2 2 2 2 2 2 2 2 2 2 2 2 2 2 2 2 2 2 2 2 2 2
